
network aGrUM_BN {
   property version 1.0;
   property author aGrUM;
}

variable 4 {
   type discrete[2] {0, 1};
}

variable 9 {
   type discrete[2] {0, 1};
}

variable 1 {
   type discrete[2] {0, 1};
}

variable 6 {
   type discrete[2] {0, 1};
}

variable 3 {
   type discrete[2] {0, 1};
}

variable 8 {
   type discrete[2] {0, 1};
}

variable 0 {
   type discrete[2] {0, 1};
}

variable 5 {
   type discrete[2] {0, 1};
}

variable 2 {
   type discrete[2] {0, 1};
}

variable 7 {
   type discrete[2] {0, 1};
}

probability (4 | 1, 3) {
   (0, 0) 0.0626359 0.937364;
   (1, 0) 0.555399 0.444601;
   (0, 1) 0.441214 0.558786;
   (1, 1) 0.432205 0.567795;
}
probability (9 | 1, 4, 5, 6, 7) {
   (0, 0, 0, 0, 0) 0.0626359 0.937364;
   (1, 0, 0, 0, 0) 0.555399 0.444601;
   (0, 1, 0, 0, 0) 0.441214 0.558786;
   (1, 1, 0, 0, 0) 0.432205 0.567795;
   (0, 0, 1, 0, 0) 0.951202 0.0487979;
   (1, 0, 1, 0, 0) 0.891582 0.108418;
   (0, 1, 1, 0, 0) 0.580668 0.419332;
   (1, 1, 1, 0, 0) 0.889509 0.110491;
   (0, 0, 0, 1, 0) 0.254646 0.745354;
   (1, 0, 0, 1, 0) 0.756693 0.243307;
   (0, 1, 0, 1, 0) 0.641035 0.358965;
   (1, 1, 0, 1, 0) 0.506196 0.493804;
   (0, 0, 1, 1, 0) 0.362258 0.637742;
   (1, 0, 1, 1, 0) 0.386298 0.613702;
   (0, 1, 1, 1, 0) 0.284745 0.715255;
   (1, 1, 1, 1, 0) 0.498279 0.501721;
   (0, 0, 0, 0, 1) 0.77413 0.22587;
   (1, 0, 0, 0, 1) 0.173581 0.826419;
   (0, 1, 0, 0, 1) 0.51307 0.48693;
   (1, 1, 0, 0, 1) 0.304538 0.695462;
   (0, 0, 1, 0, 1) 0.728813 0.271187;
   (1, 0, 1, 0, 1) 0.781155 0.218845;
   (0, 1, 1, 0, 1) 0.63676 0.36324;
   (1, 1, 1, 0, 1) 0.265465 0.734535;
   (0, 0, 0, 1, 1) 0.0611064 0.938894;
   (1, 0, 0, 1, 1) 0.0281315 0.971868;
   (0, 1, 0, 1, 1) 0.349737 0.650263;
   (1, 1, 0, 1, 1) 0.412176 0.587824;
   (0, 0, 1, 1, 1) 0.351687 0.648313;
   (1, 0, 1, 1, 1) 0.215535 0.784465;
   (0, 1, 1, 1, 1) 0.527708 0.472292;
   (1, 1, 1, 1, 1) 0.106522 0.893478;
}
probability (1 | 0) {
   (0) 0.0626359 0.937364;
   (1) 0.555399 0.444601;
}
probability (6 | 1, 3, 4, 5) {
   (0, 0, 0, 0) 0.0626359 0.937364;
   (1, 0, 0, 0) 0.555399 0.444601;
   (0, 1, 0, 0) 0.441214 0.558786;
   (1, 1, 0, 0) 0.432205 0.567795;
   (0, 0, 1, 0) 0.951202 0.0487979;
   (1, 0, 1, 0) 0.891582 0.108418;
   (0, 1, 1, 0) 0.580668 0.419332;
   (1, 1, 1, 0) 0.889509 0.110491;
   (0, 0, 0, 1) 0.254646 0.745354;
   (1, 0, 0, 1) 0.756693 0.243307;
   (0, 1, 0, 1) 0.641035 0.358965;
   (1, 1, 0, 1) 0.506196 0.493804;
   (0, 0, 1, 1) 0.362258 0.637742;
   (1, 0, 1, 1) 0.386298 0.613702;
   (0, 1, 1, 1) 0.284745 0.715255;
   (1, 1, 1, 1) 0.498279 0.501721;
}
probability (3) {
   default 0.0626359 0.937364;
}
probability (8 | 1, 3, 4) {
   (0, 0, 0) 0.0626359 0.937364;
   (1, 0, 0) 0.555399 0.444601;
   (0, 1, 0) 0.441214 0.558786;
   (1, 1, 0) 0.432205 0.567795;
   (0, 0, 1) 0.951202 0.0487979;
   (1, 0, 1) 0.891582 0.108418;
   (0, 1, 1) 0.580668 0.419332;
   (1, 1, 1) 0.889509 0.110491;
}
probability (0) {
   default 0.0626359 0.937364;
}
probability (5 | 0, 1, 2, 4) {
   (0, 0, 0, 0) 0.0626359 0.937364;
   (1, 0, 0, 0) 0.555399 0.444601;
   (0, 1, 0, 0) 0.441214 0.558786;
   (1, 1, 0, 0) 0.432205 0.567795;
   (0, 0, 1, 0) 0.951202 0.0487979;
   (1, 0, 1, 0) 0.891582 0.108418;
   (0, 1, 1, 0) 0.580668 0.419332;
   (1, 1, 1, 0) 0.889509 0.110491;
   (0, 0, 0, 1) 0.254646 0.745354;
   (1, 0, 0, 1) 0.756693 0.243307;
   (0, 1, 0, 1) 0.641035 0.358965;
   (1, 1, 0, 1) 0.506196 0.493804;
   (0, 0, 1, 1) 0.362258 0.637742;
   (1, 0, 1, 1) 0.386298 0.613702;
   (0, 1, 1, 1) 0.284745 0.715255;
   (1, 1, 1, 1) 0.498279 0.501721;
}
probability (2 | 0, 1) {
   (0, 0) 0.0626359 0.937364;
   (1, 0) 0.555399 0.444601;
   (0, 1) 0.441214 0.558786;
   (1, 1) 0.432205 0.567795;
}
probability (7 | 1, 2, 3) {
   (0, 0, 0) 0.0626359 0.937364;
   (1, 0, 0) 0.555399 0.444601;
   (0, 1, 0) 0.441214 0.558786;
   (1, 1, 0) 0.432205 0.567795;
   (0, 0, 1) 0.951202 0.0487979;
   (1, 0, 1) 0.891582 0.108418;
   (0, 1, 1) 0.580668 0.419332;
   (1, 1, 1) 0.889509 0.110491;
}

