
network aGrUM_BN {
   property version 1.0;
   property author aGrUM;
}

variable 4 {
   type discrete[2] {0, 1};
}

variable 9 {
   type discrete[2] {0, 1};
}

variable 1 {
   type discrete[2] {0, 1};
}

variable 6 {
   type discrete[2] {0, 1};
}

variable 3 {
   type discrete[2] {0, 1};
}

variable 8 {
   type discrete[2] {0, 1};
}

variable 0 {
   type discrete[2] {0, 1};
}

variable 5 {
   type discrete[2] {0, 1};
}

variable 2 {
   type discrete[2] {0, 1};
}

variable 7 {
   type discrete[2] {0, 1};
}

probability (4 | 2, 3) {
   (0, 0) 0.563731 0.436269;
   (1, 0) 0.648026 0.351974;
   (0, 1) 0.280002 0.719998;
   (1, 1) 0.652588 0.347412;
}
probability (9 | 0, 2, 3, 6, 7, 8) {
   (0, 0, 0, 0, 0, 0) 0.563731 0.436269;
   (1, 0, 0, 0, 0, 0) 0.648026 0.351974;
   (0, 1, 0, 0, 0, 0) 0.280002 0.719998;
   (1, 1, 0, 0, 0, 0) 0.652588 0.347412;
   (0, 0, 1, 0, 0, 0) 0.554113 0.445887;
   (1, 0, 1, 0, 0, 0) 0.482849 0.517151;
   (0, 1, 1, 0, 0, 0) 0.799783 0.200217;
   (1, 1, 1, 0, 0, 0) 0.625697 0.374303;
   (0, 0, 0, 1, 0, 0) 0.875926 0.124075;
   (1, 0, 0, 1, 0, 0) 0.621028 0.378972;
   (0, 1, 0, 1, 0, 0) 0.544418 0.455582;
   (1, 1, 0, 1, 0, 0) 0.0764693 0.923531;
   (0, 0, 1, 1, 0, 0) 0.725726 0.274273;
   (1, 0, 1, 1, 0, 0) 0.596749 0.403251;
   (0, 1, 1, 1, 0, 0) 0.320916 0.679084;
   (1, 1, 1, 1, 0, 0) 0.710946 0.289054;
   (0, 0, 0, 0, 1, 0) 0.394298 0.605702;
   (1, 0, 0, 0, 1, 0) 0.629102 0.370898;
   (0, 1, 0, 0, 1, 0) 0.975413 0.0245874;
   (1, 1, 0, 0, 1, 0) 0.377733 0.622267;
   (0, 0, 1, 0, 1, 0) 0.495319 0.504681;
   (1, 0, 1, 0, 1, 0) 0.964092 0.035908;
   (0, 1, 1, 0, 1, 0) 0.306943 0.693057;
   (1, 1, 1, 0, 1, 0) 0.343696 0.656304;
   (0, 0, 0, 1, 1, 0) 0.0516179 0.948382;
   (1, 0, 0, 1, 1, 0) 0.986582 0.0134183;
   (0, 1, 0, 1, 1, 0) 0.366746 0.633254;
   (1, 1, 0, 1, 1, 0) 0.321746 0.678254;
   (0, 0, 1, 1, 1, 0) 0.83157 0.16843;
   (1, 0, 1, 1, 1, 0) 0.182323 0.817677;
   (0, 1, 1, 1, 1, 0) 0.287734 0.712266;
   (1, 1, 1, 1, 1, 0) 0.0731314 0.926869;
   (0, 0, 0, 0, 0, 1) 0.309599 0.690401;
   (1, 0, 0, 0, 0, 1) 0.476468 0.523532;
   (0, 1, 0, 0, 0, 1) 0.538531 0.461469;
   (1, 1, 0, 0, 0, 1) 0.0732951 0.926705;
   (0, 0, 1, 0, 0, 1) 0.56122 0.43878;
   (1, 0, 1, 0, 0, 1) 0.0247436 0.975256;
   (0, 1, 1, 0, 0, 1) 0.74076 0.25924;
   (1, 1, 1, 0, 0, 1) 0.514328 0.485672;
   (0, 0, 0, 1, 0, 1) 0.776642 0.223358;
   (1, 0, 0, 1, 0, 1) 0.897158 0.102842;
   (0, 1, 0, 1, 0, 1) 0.473999 0.526001;
   (1, 1, 0, 1, 0, 1) 0.574419 0.425581;
   (0, 0, 1, 1, 0, 1) 0.0357172 0.964283;
   (1, 0, 1, 1, 0, 1) 0.42788 0.57212;
   (0, 1, 1, 1, 0, 1) 0.672877 0.327123;
   (1, 1, 1, 1, 0, 1) 0.589276 0.410724;
   (0, 0, 0, 0, 1, 1) 0.437143 0.562857;
   (1, 0, 0, 0, 1, 1) 0.136159 0.863841;
   (0, 1, 0, 0, 1, 1) 0.789792 0.210208;
   (1, 1, 0, 0, 1, 1) 0.560117 0.439883;
   (0, 0, 1, 0, 1, 1) 0.498655 0.501345;
   (1, 0, 1, 0, 1, 1) 0.671503 0.328497;
   (0, 1, 1, 0, 1, 1) 0.152374 0.847626;
   (1, 1, 1, 0, 1, 1) 0.0860737 0.913926;
   (0, 0, 0, 1, 1, 1) 0.544299 0.455701;
   (1, 0, 0, 1, 1, 1) 0.59172 0.40828;
   (0, 1, 0, 1, 1, 1) 0.503697 0.496303;
   (1, 1, 0, 1, 1, 1) 0.161535 0.838465;
   (0, 0, 1, 1, 1, 1) 0.510328 0.489672;
   (1, 0, 1, 1, 1, 1) 0.91728 0.0827198;
   (0, 1, 1, 1, 1, 1) 0.969784 0.0302156;
   (1, 1, 1, 1, 1, 1) 0.123577 0.876423;
}
probability (1 | 0) {
   (0) 0.563731 0.436269;
   (1) 0.648026 0.351974;
}
probability (6 | 0, 1, 4) {
   (0, 0, 0) 0.563731 0.436269;
   (1, 0, 0) 0.648026 0.351974;
   (0, 1, 0) 0.280002 0.719998;
   (1, 1, 0) 0.652588 0.347412;
   (0, 0, 1) 0.554113 0.445887;
   (1, 0, 1) 0.482849 0.517151;
   (0, 1, 1) 0.799783 0.200217;
   (1, 1, 1) 0.625697 0.374303;
}
probability (3 | 2) {
   (0) 0.563731 0.436269;
   (1) 0.648026 0.351974;
}
probability (8 | 0, 1, 2, 3, 5, 6) {
   (0, 0, 0, 0, 0, 0) 0.563731 0.436269;
   (1, 0, 0, 0, 0, 0) 0.648026 0.351974;
   (0, 1, 0, 0, 0, 0) 0.280002 0.719998;
   (1, 1, 0, 0, 0, 0) 0.652588 0.347412;
   (0, 0, 1, 0, 0, 0) 0.554113 0.445887;
   (1, 0, 1, 0, 0, 0) 0.482849 0.517151;
   (0, 1, 1, 0, 0, 0) 0.799783 0.200217;
   (1, 1, 1, 0, 0, 0) 0.625697 0.374303;
   (0, 0, 0, 1, 0, 0) 0.875926 0.124075;
   (1, 0, 0, 1, 0, 0) 0.621028 0.378972;
   (0, 1, 0, 1, 0, 0) 0.544418 0.455582;
   (1, 1, 0, 1, 0, 0) 0.0764693 0.923531;
   (0, 0, 1, 1, 0, 0) 0.725726 0.274273;
   (1, 0, 1, 1, 0, 0) 0.596749 0.403251;
   (0, 1, 1, 1, 0, 0) 0.320916 0.679084;
   (1, 1, 1, 1, 0, 0) 0.710946 0.289054;
   (0, 0, 0, 0, 1, 0) 0.394298 0.605702;
   (1, 0, 0, 0, 1, 0) 0.629102 0.370898;
   (0, 1, 0, 0, 1, 0) 0.975413 0.0245874;
   (1, 1, 0, 0, 1, 0) 0.377733 0.622267;
   (0, 0, 1, 0, 1, 0) 0.495319 0.504681;
   (1, 0, 1, 0, 1, 0) 0.964092 0.035908;
   (0, 1, 1, 0, 1, 0) 0.306943 0.693057;
   (1, 1, 1, 0, 1, 0) 0.343696 0.656304;
   (0, 0, 0, 1, 1, 0) 0.0516179 0.948382;
   (1, 0, 0, 1, 1, 0) 0.986582 0.0134183;
   (0, 1, 0, 1, 1, 0) 0.366746 0.633254;
   (1, 1, 0, 1, 1, 0) 0.321746 0.678254;
   (0, 0, 1, 1, 1, 0) 0.83157 0.16843;
   (1, 0, 1, 1, 1, 0) 0.182323 0.817677;
   (0, 1, 1, 1, 1, 0) 0.287734 0.712266;
   (1, 1, 1, 1, 1, 0) 0.0731314 0.926869;
   (0, 0, 0, 0, 0, 1) 0.309599 0.690401;
   (1, 0, 0, 0, 0, 1) 0.476468 0.523532;
   (0, 1, 0, 0, 0, 1) 0.538531 0.461469;
   (1, 1, 0, 0, 0, 1) 0.0732951 0.926705;
   (0, 0, 1, 0, 0, 1) 0.56122 0.43878;
   (1, 0, 1, 0, 0, 1) 0.0247436 0.975256;
   (0, 1, 1, 0, 0, 1) 0.74076 0.25924;
   (1, 1, 1, 0, 0, 1) 0.514328 0.485672;
   (0, 0, 0, 1, 0, 1) 0.776642 0.223358;
   (1, 0, 0, 1, 0, 1) 0.897158 0.102842;
   (0, 1, 0, 1, 0, 1) 0.473999 0.526001;
   (1, 1, 0, 1, 0, 1) 0.574419 0.425581;
   (0, 0, 1, 1, 0, 1) 0.0357172 0.964283;
   (1, 0, 1, 1, 0, 1) 0.42788 0.57212;
   (0, 1, 1, 1, 0, 1) 0.672877 0.327123;
   (1, 1, 1, 1, 0, 1) 0.589276 0.410724;
   (0, 0, 0, 0, 1, 1) 0.437143 0.562857;
   (1, 0, 0, 0, 1, 1) 0.136159 0.863841;
   (0, 1, 0, 0, 1, 1) 0.789792 0.210208;
   (1, 1, 0, 0, 1, 1) 0.560117 0.439883;
   (0, 0, 1, 0, 1, 1) 0.498655 0.501345;
   (1, 0, 1, 0, 1, 1) 0.671503 0.328497;
   (0, 1, 1, 0, 1, 1) 0.152374 0.847626;
   (1, 1, 1, 0, 1, 1) 0.0860737 0.913926;
   (0, 0, 0, 1, 1, 1) 0.544299 0.455701;
   (1, 0, 0, 1, 1, 1) 0.59172 0.40828;
   (0, 1, 0, 1, 1, 1) 0.503697 0.496303;
   (1, 1, 0, 1, 1, 1) 0.161535 0.838465;
   (0, 0, 1, 1, 1, 1) 0.510328 0.489672;
   (1, 0, 1, 1, 1, 1) 0.91728 0.0827198;
   (0, 1, 1, 1, 1, 1) 0.969784 0.0302156;
   (1, 1, 1, 1, 1, 1) 0.123577 0.876423;
}
probability (0) {
   default 0.563731 0.436269;
}
probability (5 | 0, 2, 3) {
   (0, 0, 0) 0.563731 0.436269;
   (1, 0, 0) 0.648026 0.351974;
   (0, 1, 0) 0.280002 0.719998;
   (1, 1, 0) 0.652588 0.347412;
   (0, 0, 1) 0.554113 0.445887;
   (1, 0, 1) 0.482849 0.517151;
   (0, 1, 1) 0.799783 0.200217;
   (1, 1, 1) 0.625697 0.374303;
}
probability (2 | 0, 1) {
   (0, 0) 0.563731 0.436269;
   (1, 0) 0.648026 0.351974;
   (0, 1) 0.280002 0.719998;
   (1, 1) 0.652588 0.347412;
}
probability (7 | 0, 1, 4) {
   (0, 0, 0) 0.563731 0.436269;
   (1, 0, 0) 0.648026 0.351974;
   (0, 1, 0) 0.280002 0.719998;
   (1, 1, 0) 0.652588 0.347412;
   (0, 0, 1) 0.554113 0.445887;
   (1, 0, 1) 0.482849 0.517151;
   (0, 1, 1) 0.799783 0.200217;
   (1, 1, 1) 0.625697 0.374303;
}

