
network aGrUM_BN {
   property version 1.0;
   property author aGrUM;
}

variable 4 {
   type discrete[2] {0, 1};
}

variable 9 {
   type discrete[2] {0, 1};
}

variable 1 {
   type discrete[2] {0, 1};
}

variable 6 {
   type discrete[2] {0, 1};
}

variable 3 {
   type discrete[2] {0, 1};
}

variable 8 {
   type discrete[2] {0, 1};
}

variable 0 {
   type discrete[2] {0, 1};
}

variable 5 {
   type discrete[2] {0, 1};
}

variable 2 {
   type discrete[2] {0, 1};
}

variable 7 {
   type discrete[2] {0, 1};
}

probability (4 | 1, 3) {
   (0, 0) 0.503786 0.496214;
   (1, 0) 0.405668 0.594332;
   (0, 1) 0.609497 0.390503;
   (1, 1) 0.895306 0.104694;
}
probability (9 | 0, 2, 4, 5, 8) {
   (0, 0, 0, 0, 0) 0.503786 0.496214;
   (1, 0, 0, 0, 0) 0.405668 0.594332;
   (0, 1, 0, 0, 0) 0.609497 0.390503;
   (1, 1, 0, 0, 0) 0.895306 0.104694;
   (0, 0, 1, 0, 0) 0.38923 0.61077;
   (1, 0, 1, 0, 0) 0.766566 0.233434;
   (0, 1, 1, 0, 0) 0.236421 0.763579;
   (1, 1, 1, 0, 0) 0.589772 0.410228;
   (0, 0, 0, 1, 0) 0.432404 0.567596;
   (1, 0, 0, 1, 0) 0.584332 0.415668;
   (0, 1, 0, 1, 0) 0.22499 0.77501;
   (1, 1, 0, 1, 0) 0.0785222 0.921478;
   (0, 0, 1, 1, 0) 0.236644 0.763356;
   (1, 0, 1, 1, 0) 0.143958 0.856042;
   (0, 1, 1, 1, 0) 0.39322 0.60678;
   (1, 1, 1, 1, 0) 0.670953 0.329047;
   (0, 0, 0, 0, 1) 0.58775 0.41225;
   (1, 0, 0, 0, 1) 0.407464 0.592536;
   (0, 1, 0, 0, 1) 0.504638 0.495362;
   (1, 1, 0, 0, 1) 0.516631 0.483369;
   (0, 0, 1, 0, 1) 0.43585 0.56415;
   (1, 0, 1, 0, 1) 0.393144 0.606857;
   (0, 1, 1, 0, 1) 0.500826 0.499174;
   (1, 1, 1, 0, 1) 0.674041 0.325959;
   (0, 0, 0, 1, 1) 0.458898 0.541102;
   (1, 0, 0, 1, 1) 0.0081693 0.991831;
   (0, 1, 0, 1, 1) 0.801058 0.198942;
   (1, 1, 0, 1, 1) 0.315601 0.684399;
   (0, 0, 1, 1, 1) 0.717113 0.282887;
   (1, 0, 1, 1, 1) 0.404085 0.595915;
   (0, 1, 1, 1, 1) 0.405484 0.594516;
   (1, 1, 1, 1, 1) 0.492115 0.507885;
}
probability (1) {
   default 0.503786 0.496214;
}
probability (6 | 0, 2, 3, 4, 5) {
   (0, 0, 0, 0, 0) 0.503786 0.496214;
   (1, 0, 0, 0, 0) 0.405668 0.594332;
   (0, 1, 0, 0, 0) 0.609497 0.390503;
   (1, 1, 0, 0, 0) 0.895306 0.104694;
   (0, 0, 1, 0, 0) 0.38923 0.61077;
   (1, 0, 1, 0, 0) 0.766566 0.233434;
   (0, 1, 1, 0, 0) 0.236421 0.763579;
   (1, 1, 1, 0, 0) 0.589772 0.410228;
   (0, 0, 0, 1, 0) 0.432404 0.567596;
   (1, 0, 0, 1, 0) 0.584332 0.415668;
   (0, 1, 0, 1, 0) 0.22499 0.77501;
   (1, 1, 0, 1, 0) 0.0785222 0.921478;
   (0, 0, 1, 1, 0) 0.236644 0.763356;
   (1, 0, 1, 1, 0) 0.143958 0.856042;
   (0, 1, 1, 1, 0) 0.39322 0.60678;
   (1, 1, 1, 1, 0) 0.670953 0.329047;
   (0, 0, 0, 0, 1) 0.58775 0.41225;
   (1, 0, 0, 0, 1) 0.407464 0.592536;
   (0, 1, 0, 0, 1) 0.504638 0.495362;
   (1, 1, 0, 0, 1) 0.516631 0.483369;
   (0, 0, 1, 0, 1) 0.43585 0.56415;
   (1, 0, 1, 0, 1) 0.393144 0.606857;
   (0, 1, 1, 0, 1) 0.500826 0.499174;
   (1, 1, 1, 0, 1) 0.674041 0.325959;
   (0, 0, 0, 1, 1) 0.458898 0.541102;
   (1, 0, 0, 1, 1) 0.0081693 0.991831;
   (0, 1, 0, 1, 1) 0.801058 0.198942;
   (1, 1, 0, 1, 1) 0.315601 0.684399;
   (0, 0, 1, 1, 1) 0.717113 0.282887;
   (1, 0, 1, 1, 1) 0.404085 0.595915;
   (0, 1, 1, 1, 1) 0.405484 0.594516;
   (1, 1, 1, 1, 1) 0.492115 0.507885;
}
probability (3 | 0, 1) {
   (0, 0) 0.503786 0.496214;
   (1, 0) 0.405668 0.594332;
   (0, 1) 0.609497 0.390503;
   (1, 1) 0.895306 0.104694;
}
probability (8 | 0, 2, 3, 4) {
   (0, 0, 0, 0) 0.503786 0.496214;
   (1, 0, 0, 0) 0.405668 0.594332;
   (0, 1, 0, 0) 0.609497 0.390503;
   (1, 1, 0, 0) 0.895306 0.104694;
   (0, 0, 1, 0) 0.38923 0.61077;
   (1, 0, 1, 0) 0.766566 0.233434;
   (0, 1, 1, 0) 0.236421 0.763579;
   (1, 1, 1, 0) 0.589772 0.410228;
   (0, 0, 0, 1) 0.432404 0.567596;
   (1, 0, 0, 1) 0.584332 0.415668;
   (0, 1, 0, 1) 0.22499 0.77501;
   (1, 1, 0, 1) 0.0785222 0.921478;
   (0, 0, 1, 1) 0.236644 0.763356;
   (1, 0, 1, 1) 0.143958 0.856042;
   (0, 1, 1, 1) 0.39322 0.60678;
   (1, 1, 1, 1) 0.670953 0.329047;
}
probability (0) {
   default 0.503786 0.496214;
}
probability (5 | 1) {
   (0) 0.503786 0.496214;
   (1) 0.405668 0.594332;
}
probability (2) {
   default 0.503786 0.496214;
}
probability (7 | 2, 6) {
   (0, 0) 0.503786 0.496214;
   (1, 0) 0.405668 0.594332;
   (0, 1) 0.609497 0.390503;
   (1, 1) 0.895306 0.104694;
}

