
network aGrUM_BN {
   property version 1.0;
   property author aGrUM;
}

variable 4 {
   type discrete[2] {0, 1};
}

variable 9 {
   type discrete[2] {0, 1};
}

variable 1 {
   type discrete[2] {0, 1};
}

variable 6 {
   type discrete[2] {0, 1};
}

variable 3 {
   type discrete[2] {0, 1};
}

variable 8 {
   type discrete[2] {0, 1};
}

variable 0 {
   type discrete[2] {0, 1};
}

variable 5 {
   type discrete[2] {0, 1};
}

variable 2 {
   type discrete[2] {0, 1};
}

variable 7 {
   type discrete[2] {0, 1};
}

probability (4 | 1, 2, 3) {
   (0, 0, 0) 0.914449 0.0855507;
   (1, 0, 0) 0.455236 0.544764;
   (0, 1, 0) 0.032055 0.967945;
   (1, 1, 0) 0.137854 0.862146;
   (0, 0, 1) 0.0327769 0.967223;
   (1, 0, 1) 0.264953 0.735047;
   (0, 1, 1) 0.245396 0.754604;
   (1, 1, 1) 0.306605 0.693395;
}
probability (9 | 0, 1, 3, 4, 5, 6) {
   (0, 0, 0, 0, 0, 0) 0.914449 0.0855507;
   (1, 0, 0, 0, 0, 0) 0.455236 0.544764;
   (0, 1, 0, 0, 0, 0) 0.032055 0.967945;
   (1, 1, 0, 0, 0, 0) 0.137854 0.862146;
   (0, 0, 1, 0, 0, 0) 0.0327769 0.967223;
   (1, 0, 1, 0, 0, 0) 0.264953 0.735047;
   (0, 1, 1, 0, 0, 0) 0.245396 0.754604;
   (1, 1, 1, 0, 0, 0) 0.306605 0.693395;
   (0, 0, 0, 1, 0, 0) 0.282872 0.717128;
   (1, 0, 0, 1, 0, 0) 0.0800455 0.919954;
   (0, 1, 0, 1, 0, 0) 0.0822296 0.91777;
   (1, 1, 0, 1, 0, 0) 0.528794 0.471206;
   (0, 0, 1, 1, 0, 0) 0.457992 0.542008;
   (1, 0, 1, 1, 0, 0) 0.666279 0.333721;
   (0, 1, 1, 1, 0, 0) 0.9718 0.0282004;
   (1, 1, 1, 1, 0, 0) 0.558919 0.441081;
   (0, 0, 0, 0, 1, 0) 0.0689566 0.931043;
   (1, 0, 0, 0, 1, 0) 0.142927 0.857073;
   (0, 1, 0, 0, 1, 0) 0.845178 0.154822;
   (1, 1, 0, 0, 1, 0) 0.0532214 0.946779;
   (0, 0, 1, 0, 1, 0) 0.719814 0.280186;
   (1, 0, 1, 0, 1, 0) 0.262664 0.737336;
   (0, 1, 1, 0, 1, 0) 0.641222 0.358778;
   (1, 1, 1, 0, 1, 0) 0.77396 0.22604;
   (0, 0, 0, 1, 1, 0) 0.733473 0.266527;
   (1, 0, 0, 1, 1, 0) 0.317566 0.682434;
   (0, 1, 0, 1, 1, 0) 0.837021 0.162979;
   (1, 1, 0, 1, 1, 0) 0.579538 0.420462;
   (0, 0, 1, 1, 1, 0) 0.787114 0.212886;
   (1, 0, 1, 1, 1, 0) 0.616259 0.383741;
   (0, 1, 1, 1, 1, 0) 0.845909 0.154091;
   (1, 1, 1, 1, 1, 0) 0.700078 0.299922;
   (0, 0, 0, 0, 0, 1) 0.581171 0.418829;
   (1, 0, 0, 0, 0, 1) 0.305144 0.694856;
   (0, 1, 0, 0, 0, 1) 0.660724 0.339276;
   (1, 1, 0, 0, 0, 1) 0.736492 0.263508;
   (0, 0, 1, 0, 0, 1) 0.881736 0.118264;
   (1, 0, 1, 0, 0, 1) 0.640189 0.359811;
   (0, 1, 1, 0, 0, 1) 0.686902 0.313098;
   (1, 1, 1, 0, 0, 1) 0.54535 0.45465;
   (0, 0, 0, 1, 0, 1) 0.869698 0.130302;
   (1, 0, 0, 1, 0, 1) 0.468576 0.531424;
   (0, 1, 0, 1, 0, 1) 0.656824 0.343176;
   (1, 1, 0, 1, 0, 1) 0.447805 0.552195;
   (0, 0, 1, 1, 0, 1) 0.310249 0.689751;
   (1, 0, 1, 1, 0, 1) 0.469445 0.530555;
   (0, 1, 1, 1, 0, 1) 0.795414 0.204587;
   (1, 1, 1, 1, 0, 1) 0.517648 0.482352;
   (0, 0, 0, 0, 1, 1) 0.76608 0.23392;
   (1, 0, 0, 0, 1, 1) 0.47549 0.52451;
   (0, 1, 0, 0, 1, 1) 0.559313 0.440687;
   (1, 1, 0, 0, 1, 1) 0.243785 0.756215;
   (0, 0, 1, 0, 1, 1) 0.887656 0.112344;
   (1, 0, 1, 0, 1, 1) 0.771862 0.228138;
   (0, 1, 1, 0, 1, 1) 0.40209 0.59791;
   (1, 1, 1, 0, 1, 1) 0.450319 0.549681;
   (0, 0, 0, 1, 1, 1) 0.67114 0.32886;
   (1, 0, 0, 1, 1, 1) 0.378019 0.621981;
   (0, 1, 0, 1, 1, 1) 0.433712 0.566288;
   (1, 1, 0, 1, 1, 1) 0.541998 0.458002;
   (0, 0, 1, 1, 1, 1) 0.446026 0.553975;
   (1, 0, 1, 1, 1, 1) 0.650564 0.349436;
   (0, 1, 1, 1, 1, 1) 0.715399 0.284601;
   (1, 1, 1, 1, 1, 1) 0.0490035 0.950997;
}
probability (1 | 0) {
   (0) 0.914449 0.0855507;
   (1) 0.455236 0.544764;
}
probability (6 | 2, 3, 4, 5) {
   (0, 0, 0, 0) 0.914449 0.0855507;
   (1, 0, 0, 0) 0.455236 0.544764;
   (0, 1, 0, 0) 0.032055 0.967945;
   (1, 1, 0, 0) 0.137854 0.862146;
   (0, 0, 1, 0) 0.0327769 0.967223;
   (1, 0, 1, 0) 0.264953 0.735047;
   (0, 1, 1, 0) 0.245396 0.754604;
   (1, 1, 1, 0) 0.306605 0.693395;
   (0, 0, 0, 1) 0.282872 0.717128;
   (1, 0, 0, 1) 0.0800455 0.919954;
   (0, 1, 0, 1) 0.0822296 0.91777;
   (1, 1, 0, 1) 0.528794 0.471206;
   (0, 0, 1, 1) 0.457992 0.542008;
   (1, 0, 1, 1) 0.666279 0.333721;
   (0, 1, 1, 1) 0.9718 0.0282004;
   (1, 1, 1, 1) 0.558919 0.441081;
}
probability (3 | 1, 2) {
   (0, 0) 0.914449 0.0855507;
   (1, 0) 0.455236 0.544764;
   (0, 1) 0.032055 0.967945;
   (1, 1) 0.137854 0.862146;
}
probability (8 | 5, 6, 7) {
   (0, 0, 0) 0.914449 0.0855507;
   (1, 0, 0) 0.455236 0.544764;
   (0, 1, 0) 0.032055 0.967945;
   (1, 1, 0) 0.137854 0.862146;
   (0, 0, 1) 0.0327769 0.967223;
   (1, 0, 1) 0.264953 0.735047;
   (0, 1, 1) 0.245396 0.754604;
   (1, 1, 1) 0.306605 0.693395;
}
probability (0) {
   default 0.914449 0.0855507;
}
probability (5 | 0, 1, 2, 3, 4) {
   (0, 0, 0, 0, 0) 0.914449 0.0855507;
   (1, 0, 0, 0, 0) 0.455236 0.544764;
   (0, 1, 0, 0, 0) 0.032055 0.967945;
   (1, 1, 0, 0, 0) 0.137854 0.862146;
   (0, 0, 1, 0, 0) 0.0327769 0.967223;
   (1, 0, 1, 0, 0) 0.264953 0.735047;
   (0, 1, 1, 0, 0) 0.245396 0.754604;
   (1, 1, 1, 0, 0) 0.306605 0.693395;
   (0, 0, 0, 1, 0) 0.282872 0.717128;
   (1, 0, 0, 1, 0) 0.0800455 0.919954;
   (0, 1, 0, 1, 0) 0.0822296 0.91777;
   (1, 1, 0, 1, 0) 0.528794 0.471206;
   (0, 0, 1, 1, 0) 0.457992 0.542008;
   (1, 0, 1, 1, 0) 0.666279 0.333721;
   (0, 1, 1, 1, 0) 0.9718 0.0282004;
   (1, 1, 1, 1, 0) 0.558919 0.441081;
   (0, 0, 0, 0, 1) 0.0689566 0.931043;
   (1, 0, 0, 0, 1) 0.142927 0.857073;
   (0, 1, 0, 0, 1) 0.845178 0.154822;
   (1, 1, 0, 0, 1) 0.0532214 0.946779;
   (0, 0, 1, 0, 1) 0.719814 0.280186;
   (1, 0, 1, 0, 1) 0.262664 0.737336;
   (0, 1, 1, 0, 1) 0.641222 0.358778;
   (1, 1, 1, 0, 1) 0.77396 0.22604;
   (0, 0, 0, 1, 1) 0.733473 0.266527;
   (1, 0, 0, 1, 1) 0.317566 0.682434;
   (0, 1, 0, 1, 1) 0.837021 0.162979;
   (1, 1, 0, 1, 1) 0.579538 0.420462;
   (0, 0, 1, 1, 1) 0.787114 0.212886;
   (1, 0, 1, 1, 1) 0.616259 0.383741;
   (0, 1, 1, 1, 1) 0.845909 0.154091;
   (1, 1, 1, 1, 1) 0.700078 0.299922;
}
probability (2 | 0, 1) {
   (0, 0) 0.914449 0.0855507;
   (1, 0) 0.455236 0.544764;
   (0, 1) 0.032055 0.967945;
   (1, 1) 0.137854 0.862146;
}
probability (7 | 0, 1, 3, 4) {
   (0, 0, 0, 0) 0.914449 0.0855507;
   (1, 0, 0, 0) 0.455236 0.544764;
   (0, 1, 0, 0) 0.032055 0.967945;
   (1, 1, 0, 0) 0.137854 0.862146;
   (0, 0, 1, 0) 0.0327769 0.967223;
   (1, 0, 1, 0) 0.264953 0.735047;
   (0, 1, 1, 0) 0.245396 0.754604;
   (1, 1, 1, 0) 0.306605 0.693395;
   (0, 0, 0, 1) 0.282872 0.717128;
   (1, 0, 0, 1) 0.0800455 0.919954;
   (0, 1, 0, 1) 0.0822296 0.91777;
   (1, 1, 0, 1) 0.528794 0.471206;
   (0, 0, 1, 1) 0.457992 0.542008;
   (1, 0, 1, 1) 0.666279 0.333721;
   (0, 1, 1, 1) 0.9718 0.0282004;
   (1, 1, 1, 1) 0.558919 0.441081;
}

