net 
{
    node_size = (76 36);
}

node Contexte_1
{
    label = "Contexte_1";
    position = (0 0);
    states = ("A"  "C"  "D"  "E"  "F"  "G");
}

node Systeme_9
{
    label = "Systeme_9";
    position = (0 0);
    states = ("A"  "B"  "C"  "D"  "E"  "F"  "G"  "I");
}

node Systeme_8
{
    label = "Systeme_8";
    position = (0 0);
    states = ("A"  "B"  "C"  "D"  "E"  "F"  "G"  "I");
}

node Systeme_14
{
    label = "Systeme_14";
    position = (0 0);
    states = ("A"  "B"  "E");
}

node Cause_3
{
    label = "Cause_3";
    position = (0 0);
    states = ("A"  "B"  "C"  "D"  "E"  "F"  "G"  "H"  "I"  "J");
}

node Environnement_3
{
    label = "Environnement_3";
    position = (0 0);
    states = ("A"  "B"  "C"  "D"  "E"  "F"  "G"  "I");
}

node Systeme_17
{
    label = "Systeme_17";
    position = (0 0);
    states = ("A"  "B"  "C"  "E");
}

node Systeme_1
{
    label = "Systeme_1";
    position = (0 0);
    states = ("A"  "B"  "C"  "D"  "F"  "N"  "O"  "X");
}

node Contexte_15
{
    label = "Contexte_15";
    position = (0 0);
    states = ("A"  "B"  "C"  "D"  "E"  "F"  "G"  "H"  "I"  "K");
}

node Contexte_3
{
    label = "Contexte_3";
    position = (0 0);
    states = ("A"  "B");
}

node Contexte_4
{
    label = "Contexte_4";
    position = (0 0);
    states = ("A"  "B");
}

node Date_1
{
    label = "Date_1";
    position = (0 0);
    states = ("A"  "B"  "C");
}

node Contexte_6
{
    label = "Contexte_6";
    position = (0 0);
    states = ("A"  "C");
}

node Systeme_7
{
    label = "Systeme_7";
    position = (0 0);
    states = ("A"  "B"  "C"  "D"  "E"  "F"  "G"  "H"  "I"  "J"  "K" 
     "L"  "M"  "N"  "O");
}

node Systeme_16
{
    label = "Systeme_16";
    position = (0 0);
    states = ("A"  "B"  "C");
}

node Systeme_11
{
    label = "Systeme_11";
    position = (0 0);
    states = ("A"  "B");
}

node Systeme_13
{
    label = "Systeme_13";
    position = (0 0);
    states = ("A"  "B");
}

node Date_2
{
    label = "Date_2";
    position = (0 0);
    states = ("State_1"  "State_2"  "State_3"  "State_4"  "State_5" 
     "State_6"  "State_7"  "State_8"  "State_9"  "State_10"  "State_11"
      "State_12");
}

node Variable_a_expliquer
{
    label = "Variable_a_expliquer";
    position = (0 0);
    states = ("A"  "B");
}

potential (Contexte_1 |)
{
    data = (0.60378698 0.02406312 0.22698225 0.14216963 0.00205128 
        0.00094675);
}

potential (Systeme_9 | Contexte_1)
{
    data = ((0.64503916 0.05313316 0.00953003 0.00326371 0.11579634 
        0.16710183 0.00469974 0.00143603)
        (0.55128205 0.07371795 0.00961538 0.00641026 0.13782051 
        0.21474359 0.00320513 0.00320513)
        (0.78259362 0.02773925 0.00520111 0.00277393 0.08391123 
        0.09361997 0.00277393 0.00138696)
        (0.35544500 0.04090658 0.00995025 0.00608071 0.08955224 
        0.48369265 0.01105583 0.00331675)
        (0.36363636 0.03030303 0.03030303 0.03030303 0.12121212 
        0.33333333 0.06060606 0.03030303)
        (0.31578947 0.21052632 0.05263158 0.05263158 0.15789474 
        0.10526316 0.05263158 0.05263158));
}

potential (Systeme_8 | Systeme_9)
{
    data = ((0.99315324 0.00323665 0.00012449 0.00099589 0.00124486 
        0.00049795 0.00062243 0.00012449)
        (0.00507614 0.97123519 0.00169205 0.00507614 0.00676819 
        0.00507614 0.00338409 0.00169205)
        (0.04424779 0.10619469 0.00884956 0.01769912 0.78761062 
        0.00884956 0.01769912 0.00884956)
        (0.02000000 0.02000000 0.82000000 0.02000000 0.02000000 
        0.06000000 0.02000000 0.02000000)
        (0.01191363 0.01116902 0.00074460 0.96351452 0.00148920 
        0.00819062 0.00223380 0.00074460)
        (0.01316314 0.00319107 0.00079777 0.00199442 0.00079777 
        0.97526925 0.00438771 0.00039888)
        (0.01428571 0.01428571 0.01428571 0.01428571 0.02857143 
        0.08571429 0.81428571 0.01428571)
        (0.03846154 0.03846154 0.03846154 0.03846154 0.03846154 
        0.03846154 0.03846154 0.73076923));
}

potential (Systeme_14 | Systeme_8)
{
    data = ((0.93676086 0.06299017 0.00024897)
        (0.84834123 0.12322275 0.02843602)
        (0.02272727 0.95454545 0.02272727)
        (0.74503817 0.25419847 0.00076336)
        (0.54716981 0.44339623 0.00943396)
        (0.00081004 0.99878493 0.00040502)
        (0.01298701 0.97402597 0.01298701)
        (0.04761905 0.90476190 0.04761905));
}

potential (Cause_3 | Systeme_14)
{
    data = ((0.00768977 0.86389102 0.12083928 0.00197737 0.00197737 
        0.00120839 0.00065912 0.00076898 0.00076898 0.00021971)
        (0.01233184 0.60958520 0.36126682 0.00252242 0.00308296 
        0.00364350 0.00560538 0.00056054 0.00112108 0.00028027)
        (0.07142857 0.50000000 0.10714286 0.07142857 0.03571429 
        0.03571429 0.03571429 0.03571429 0.07142857 0.03571429));
}

potential (Environnement_3 | Systeme_14 Cause_3)
{
    data = (((0.74025974 0.05194805 0.01298701 0.14285714 0.01298701 
        0.01298701 0.01298701 0.01298701)
        (0.94206581 0.00965570 0.00063524 0.04688096 0.00025410 
        0.00012705 0.00012705 0.00025410)
        (0.72177055 0.07136405 0.01897019 0.17073171 0.00271003 
        0.00993677 0.00090334 0.00361337)
        (0.48000000 0.04000000 0.08000000 0.24000000 0.04000000 
        0.04000000 0.04000000 0.04000000)
        (0.56000000 0.04000000 0.04000000 0.20000000 0.04000000 
        0.04000000 0.04000000 0.04000000)
        (0.22222222 0.16666667 0.05555556 0.33333333 0.05555556 
        0.05555556 0.05555556 0.05555556)
        (0.46153846 0.07692308 0.07692308 0.07692308 0.07692308 
        0.07692308 0.07692308 0.07692308)
        (0.42857143 0.07142857 0.07142857 0.14285714 0.07142857 
        0.07142857 0.07142857 0.07142857)
        (0.42857143 0.07142857 0.07142857 0.14285714 0.07142857 
        0.07142857 0.07142857 0.07142857)
        (0.22222222 0.11111111 0.11111111 0.11111111 0.11111111 
        0.11111111 0.11111111 0.11111111))
        ((0.66666667 0.01960784 0.03921569 0.13725490 0.03921569 
        0.03921569 0.01960784 0.03921569)
        (0.91567369 0.00779102 0.00229148 0.06645280 0.00229148 
        0.00229148 0.00045830 0.00274977)
        (0.51851852 0.02623457 0.09182099 0.26697531 0.02237654 
        0.03317901 0.00154321 0.03935185)
        (0.25000000 0.06250000 0.12500000 0.06250000 0.12500000 
        0.12500000 0.06250000 0.18750000)
        (0.22222222 0.11111111 0.05555556 0.33333333 0.05555556 
        0.05555556 0.05555556 0.11111111)
        (0.15000000 0.05000000 0.15000000 0.30000000 0.15000000 
        0.05000000 0.05000000 0.10000000)
        (0.55555556 0.03703704 0.03703704 0.22222222 0.03703704 
        0.03703704 0.03703704 0.03703704)
        (0.11111111 0.11111111 0.11111111 0.11111111 0.11111111 
        0.11111111 0.11111111 0.22222222)
        (0.36363636 0.09090909 0.09090909 0.09090909 0.09090909 
        0.09090909 0.09090909 0.09090909)
        (0.12500000 0.12500000 0.12500000 0.12500000 0.12500000 
        0.12500000 0.12500000 0.12500000))
        ((0.22222222 0.11111111 0.11111111 0.11111111 0.11111111 
        0.11111111 0.11111111 0.11111111)
        (0.61904762 0.04761905 0.04761905 0.09523810 0.04761905 
        0.04761905 0.04761905 0.04761905)
        (0.30000000 0.10000000 0.10000000 0.10000000 0.10000000 
        0.10000000 0.10000000 0.10000000)
        (0.22222222 0.11111111 0.11111111 0.11111111 0.11111111 
        0.11111111 0.11111111 0.11111111)
        (0.12500000 0.12500000 0.12500000 0.12500000 0.12500000 
        0.12500000 0.12500000 0.12500000)
        (0.12500000 0.12500000 0.12500000 0.12500000 0.12500000 
        0.12500000 0.12500000 0.12500000)
        (0.12500000 0.12500000 0.12500000 0.12500000 0.12500000 
        0.12500000 0.12500000 0.12500000)
        (0.12500000 0.12500000 0.12500000 0.12500000 0.12500000 
        0.12500000 0.12500000 0.12500000)
        (0.22222222 0.11111111 0.11111111 0.11111111 0.11111111 
        0.11111111 0.11111111 0.11111111)
        (0.12500000 0.12500000 0.12500000 0.12500000 0.12500000 
        0.12500000 0.12500000 0.12500000)));
}

potential (Systeme_17 | Environnement_3 Systeme_14 Systeme_9)
{
    data = ((((0.29864904 0.64271342 0.05849382 0.00014372)
        (0.52873563 0.40919540 0.05977011 0.00229885)
        (0.26086957 0.60869565 0.10869565 0.02173913)
        (0.25000000 0.25000000 0.25000000 0.25000000)
        (0.30616997 0.61699651 0.07450524 0.00232829)
        (0.03125000 0.81250000 0.09375000 0.06250000)
        (0.20000000 0.40000000 0.20000000 0.20000000)
        (0.25000000 0.25000000 0.25000000 0.25000000))
        ((0.08993576 0.76445396 0.13490364 0.01070664)
        (0.41176471 0.48529412 0.08823529 0.01470588)
        (0.35483871 0.41935484 0.19354839 0.03225806)
        (0.61111111 0.22222222 0.08333333 0.08333333)
        (0.03317536 0.63033175 0.23696682 0.09952607)
        (0.01876676 0.80857909 0.14798928 0.02466488)
        (0.76666667 0.18333333 0.03333333 0.01666667)
        (0.75000000 0.10000000 0.10000000 0.05000000))
        ((0.40000000 0.20000000 0.20000000 0.20000000)
        (0.85000000 0.05000000 0.05000000 0.05000000)
        (0.25000000 0.25000000 0.25000000 0.25000000)
        (0.25000000 0.25000000 0.25000000 0.25000000)
        (0.25000000 0.25000000 0.25000000 0.25000000)
        (0.25000000 0.25000000 0.25000000 0.25000000)
        (0.25000000 0.25000000 0.25000000 0.25000000)
        (0.25000000 0.25000000 0.25000000 0.25000000)))
        (((0.00813008 0.90243902 0.08130081 0.00813008)
        (0.05263158 0.78947368 0.10526316 0.05263158)
        (0.16666667 0.50000000 0.16666667 0.16666667)
        (0.25000000 0.25000000 0.25000000 0.25000000)
        (0.04000000 0.68000000 0.24000000 0.04000000)
        (0.20000000 0.40000000 0.20000000 0.20000000)
        (0.25000000 0.25000000 0.25000000 0.25000000)
        (0.25000000 0.25000000 0.25000000 0.25000000))
        ((0.07142857 0.64285714 0.21428571 0.07142857)
        (0.20000000 0.40000000 0.20000000 0.20000000)
        (0.20000000 0.20000000 0.20000000 0.40000000)
        (0.20000000 0.40000000 0.20000000 0.20000000)
        (0.06666667 0.53333333 0.26666667 0.13333333)
        (0.03333333 0.80000000 0.06666667 0.10000000)
        (0.25000000 0.25000000 0.25000000 0.25000000)
        (0.25000000 0.25000000 0.25000000 0.25000000))
        ((0.25000000 0.25000000 0.25000000 0.25000000)
        (0.25000000 0.25000000 0.25000000 0.25000000)
        (0.25000000 0.25000000 0.25000000 0.25000000)
        (0.25000000 0.25000000 0.25000000 0.25000000)
        (0.25000000 0.25000000 0.25000000 0.25000000)
        (0.25000000 0.25000000 0.25000000 0.25000000)
        (0.25000000 0.25000000 0.25000000 0.25000000)
        (0.25000000 0.25000000 0.25000000 0.25000000)))
        (((0.10000000 0.70000000 0.10000000 0.10000000)
        (0.16666667 0.50000000 0.16666667 0.16666667)
        (0.20000000 0.40000000 0.20000000 0.20000000)
        (0.25000000 0.25000000 0.25000000 0.25000000)
        (0.06250000 0.81250000 0.06250000 0.06250000)
        (0.12500000 0.62500000 0.12500000 0.12500000)
        (0.25000000 0.25000000 0.25000000 0.25000000)
        (0.25000000 0.25000000 0.25000000 0.25000000))
        ((0.16666667 0.50000000 0.16666667 0.16666667)
        (0.20000000 0.40000000 0.20000000 0.20000000)
        (0.16666667 0.50000000 0.16666667 0.16666667)
        (0.20000000 0.40000000 0.20000000 0.20000000)
        (0.05000000 0.85000000 0.05000000 0.05000000)
        (0.00925926 0.97222222 0.00925926 0.00925926)
        (0.25000000 0.25000000 0.25000000 0.25000000)
        (0.25000000 0.25000000 0.25000000 0.25000000))
        ((0.25000000 0.25000000 0.25000000 0.25000000)
        (0.25000000 0.25000000 0.25000000 0.25000000)
        (0.25000000 0.25000000 0.25000000 0.25000000)
        (0.25000000 0.25000000 0.25000000 0.25000000)
        (0.25000000 0.25000000 0.25000000 0.25000000)
        (0.25000000 0.25000000 0.25000000 0.25000000)
        (0.25000000 0.25000000 0.25000000 0.25000000)
        (0.25000000 0.25000000 0.25000000 0.25000000)))
        (((0.35253456 0.56682028 0.07834101 0.00230415)
        (0.34042553 0.53191489 0.10638298 0.02127660)
        (0.23076923 0.53846154 0.15384615 0.07692308)
        (0.25000000 0.25000000 0.25000000 0.25000000)
        (0.11224490 0.72448980 0.12244898 0.04081633)
        (0.10000000 0.70000000 0.10000000 0.10000000)
        (0.25000000 0.25000000 0.25000000 0.25000000)
        (0.25000000 0.25000000 0.25000000 0.25000000))
        ((0.07500000 0.75000000 0.10000000 0.07500000)
        (0.33333333 0.33333333 0.11111111 0.22222222)
        (0.20000000 0.60000000 0.06666667 0.13333333)
        (0.33333333 0.25000000 0.16666667 0.25000000)
        (0.03448276 0.51724138 0.21839080 0.22988506)
        (0.01098901 0.70604396 0.17307692 0.10989011)
        (0.44444444 0.33333333 0.11111111 0.11111111)
        (0.50000000 0.16666667 0.16666667 0.16666667))
        ((0.25000000 0.25000000 0.25000000 0.25000000)
        (0.40000000 0.20000000 0.20000000 0.20000000)
        (0.25000000 0.25000000 0.25000000 0.25000000)
        (0.25000000 0.25000000 0.25000000 0.25000000)
        (0.25000000 0.25000000 0.25000000 0.25000000)
        (0.25000000 0.25000000 0.25000000 0.25000000)
        (0.25000000 0.25000000 0.25000000 0.25000000)
        (0.25000000 0.25000000 0.25000000 0.25000000)))
        (((0.25000000 0.25000000 0.25000000 0.25000000)
        (0.25000000 0.25000000 0.25000000 0.25000000)
        (0.25000000 0.25000000 0.25000000 0.25000000)
        (0.25000000 0.25000000 0.25000000 0.25000000)
        (0.14285714 0.14285714 0.14285714 0.57142857)
        (0.25000000 0.25000000 0.25000000 0.25000000)
        (0.25000000 0.25000000 0.25000000 0.25000000)
        (0.25000000 0.25000000 0.25000000 0.25000000))
        ((0.14285714 0.14285714 0.14285714 0.57142857)
        (0.16666667 0.16666667 0.16666667 0.50000000)
        (0.12500000 0.12500000 0.12500000 0.62500000)
        (0.25000000 0.25000000 0.25000000 0.25000000)
        (0.09090909 0.09090909 0.09090909 0.72727273)
        (0.04166667 0.04166667 0.04166667 0.87500000)
        (0.25000000 0.25000000 0.25000000 0.25000000)
        (0.25000000 0.25000000 0.25000000 0.25000000))
        ((0.25000000 0.25000000 0.25000000 0.25000000)
        (0.25000000 0.25000000 0.25000000 0.25000000)
        (0.25000000 0.25000000 0.25000000 0.25000000)
        (0.25000000 0.25000000 0.25000000 0.25000000)
        (0.25000000 0.25000000 0.25000000 0.25000000)
        (0.25000000 0.25000000 0.25000000 0.25000000)
        (0.25000000 0.25000000 0.25000000 0.25000000)
        (0.25000000 0.25000000 0.25000000 0.25000000)))
        (((0.25000000 0.25000000 0.25000000 0.25000000)
        (0.16666667 0.16666667 0.16666667 0.50000000)
        (0.16666667 0.16666667 0.16666667 0.50000000)
        (0.25000000 0.25000000 0.25000000 0.25000000)
        (0.10000000 0.10000000 0.10000000 0.70000000)
        (0.25000000 0.25000000 0.25000000 0.25000000)
        (0.25000000 0.25000000 0.25000000 0.25000000)
        (0.25000000 0.25000000 0.25000000 0.25000000))
        ((0.20000000 0.20000000 0.20000000 0.40000000)
        (0.25000000 0.25000000 0.25000000 0.25000000)
        (0.12500000 0.12500000 0.12500000 0.62500000)
        (0.25000000 0.25000000 0.25000000 0.25000000)
        (0.09090909 0.09090909 0.09090909 0.72727273)
        (0.02500000 0.02500000 0.02500000 0.92500000)
        (0.25000000 0.25000000 0.25000000 0.25000000)
        (0.25000000 0.25000000 0.25000000 0.25000000))
        ((0.25000000 0.25000000 0.25000000 0.25000000)
        (0.25000000 0.25000000 0.25000000 0.25000000)
        (0.25000000 0.25000000 0.25000000 0.25000000)
        (0.25000000 0.25000000 0.25000000 0.25000000)
        (0.25000000 0.25000000 0.25000000 0.25000000)
        (0.25000000 0.25000000 0.25000000 0.25000000)
        (0.25000000 0.25000000 0.25000000 0.25000000)
        (0.25000000 0.25000000 0.25000000 0.25000000)))
        (((0.25000000 0.25000000 0.25000000 0.25000000)
        (0.25000000 0.25000000 0.25000000 0.25000000)
        (0.25000000 0.25000000 0.25000000 0.25000000)
        (0.25000000 0.25000000 0.25000000 0.25000000)
        (0.25000000 0.25000000 0.25000000 0.25000000)
        (0.25000000 0.25000000 0.25000000 0.25000000)
        (0.25000000 0.25000000 0.25000000 0.25000000)
        (0.25000000 0.25000000 0.25000000 0.25000000))
        ((0.25000000 0.25000000 0.25000000 0.25000000)
        (0.25000000 0.25000000 0.25000000 0.25000000)
        (0.25000000 0.25000000 0.25000000 0.25000000)
        (0.25000000 0.25000000 0.25000000 0.25000000)
        (0.25000000 0.25000000 0.25000000 0.25000000)
        (0.20000000 0.20000000 0.20000000 0.40000000)
        (0.25000000 0.25000000 0.25000000 0.25000000)
        (0.25000000 0.25000000 0.25000000 0.25000000))
        ((0.25000000 0.25000000 0.25000000 0.25000000)
        (0.25000000 0.25000000 0.25000000 0.25000000)
        (0.25000000 0.25000000 0.25000000 0.25000000)
        (0.25000000 0.25000000 0.25000000 0.25000000)
        (0.25000000 0.25000000 0.25000000 0.25000000)
        (0.25000000 0.25000000 0.25000000 0.25000000)
        (0.25000000 0.25000000 0.25000000 0.25000000)
        (0.25000000 0.25000000 0.25000000 0.25000000)))
        (((0.25000000 0.25000000 0.25000000 0.25000000)
        (0.25000000 0.25000000 0.25000000 0.25000000)
        (0.25000000 0.25000000 0.25000000 0.25000000)
        (0.25000000 0.25000000 0.25000000 0.25000000)
        (0.12500000 0.12500000 0.12500000 0.62500000)
        (0.25000000 0.25000000 0.25000000 0.25000000)
        (0.25000000 0.25000000 0.25000000 0.25000000)
        (0.25000000 0.25000000 0.25000000 0.25000000))
        ((0.25000000 0.25000000 0.25000000 0.25000000)
        (0.25000000 0.25000000 0.25000000 0.25000000)
        (0.25000000 0.25000000 0.25000000 0.25000000)
        (0.25000000 0.25000000 0.25000000 0.25000000)
        (0.07692308 0.07692308 0.07692308 0.76923077)
        (0.01785714 0.01785714 0.01785714 0.94642857)
        (0.25000000 0.25000000 0.25000000 0.25000000)
        (0.25000000 0.25000000 0.25000000 0.25000000))
        ((0.25000000 0.25000000 0.25000000 0.25000000)
        (0.25000000 0.25000000 0.25000000 0.25000000)
        (0.25000000 0.25000000 0.25000000 0.25000000)
        (0.25000000 0.25000000 0.25000000 0.25000000)
        (0.25000000 0.25000000 0.25000000 0.25000000)
        (0.25000000 0.25000000 0.25000000 0.25000000)
        (0.25000000 0.25000000 0.25000000 0.25000000)
        (0.25000000 0.25000000 0.25000000 0.25000000))));
}

potential (Systeme_1 | Systeme_17)
{
    data = ((0.92235921 0.02932356 0.04631789 0.00033322 0.00033322 
        0.00033322 0.00066644 0.00033322)
        (0.94136730 0.00012015 0.01225520 0.04397453 0.00048060 
        0.00096119 0.00072089 0.00012015)
        (0.94915254 0.00094162 0.01506591 0.02919021 0.00094162 
        0.00188324 0.00094162 0.00188324)
        (0.96507937 0.00317460 0.01587302 0.00317460 0.00317460 
        0.00317460 0.00317460 0.00317460));
}

potential (Contexte_15 | Systeme_9 Environnement_3)
{
    data = (((0.32606354 0.01023156 0.23222940 0.17864836 0.00498115 
        0.06892838 0.08239095 0.07323640 0.01198169 0.01130856)
        (0.15827338 0.01438849 0.58273381 0.01438849 0.07913669 
        0.07194245 0.05035971 0.01438849 0.00719424 0.00719424)
        (0.11111111 0.05555556 0.27777778 0.16666667 0.11111111 
        0.05555556 0.05555556 0.05555556 0.05555556 0.05555556)
        (0.28991597 0.01050420 0.35924370 0.08403361 0.02100840 
        0.09873950 0.06512605 0.04831933 0.00840336 0.01470588)
        (0.07692308 0.07692308 0.23076923 0.07692308 0.15384615 
        0.07692308 0.07692308 0.07692308 0.07692308 0.07692308)
        (0.09090909 0.09090909 0.09090909 0.09090909 0.09090909 
        0.09090909 0.18181818 0.09090909 0.09090909 0.09090909)
        (0.10000000 0.10000000 0.10000000 0.10000000 0.10000000 
        0.10000000 0.10000000 0.10000000 0.10000000 0.10000000)
        (0.10000000 0.10000000 0.10000000 0.10000000 0.10000000 
        0.10000000 0.10000000 0.10000000 0.10000000 0.10000000))
        ((0.28023033 0.01535509 0.23416507 0.17082534 0.00767754 
        0.06525912 0.12284069 0.06525912 0.01919386 0.01919386)
        (0.26923077 0.03846154 0.26923077 0.03846154 0.03846154 
        0.07692308 0.15384615 0.03846154 0.03846154 0.03846154)
        (0.07692308 0.07692308 0.07692308 0.07692308 0.07692308 
        0.15384615 0.23076923 0.07692308 0.07692308 0.07692308)
        (0.18644068 0.03389831 0.49152542 0.03389831 0.03389831 
        0.03389831 0.10169492 0.01694915 0.05084746 0.01694915)
        (0.08333333 0.08333333 0.08333333 0.08333333 0.08333333 
        0.08333333 0.25000000 0.08333333 0.08333333 0.08333333)
        (0.08333333 0.08333333 0.08333333 0.08333333 0.08333333 
        0.25000000 0.08333333 0.08333333 0.08333333 0.08333333)
        (0.10000000 0.10000000 0.10000000 0.10000000 0.10000000 
        0.10000000 0.10000000 0.10000000 0.10000000 0.10000000)
        (0.10000000 0.10000000 0.10000000 0.10000000 0.10000000 
        0.10000000 0.10000000 0.10000000 0.10000000 0.10000000))
        ((0.20253165 0.01265823 0.27848101 0.11392405 0.02531646 
        0.03797468 0.22784810 0.03797468 0.03797468 0.02531646)
        (0.15384615 0.07692308 0.15384615 0.07692308 0.07692308 
        0.15384615 0.07692308 0.07692308 0.07692308 0.07692308)
        (0.07692308 0.07692308 0.23076923 0.07692308 0.07692308 
        0.07692308 0.07692308 0.07692308 0.15384615 0.07692308)
        (0.06666667 0.03333333 0.36666667 0.03333333 0.10000000 
        0.13333333 0.13333333 0.06666667 0.03333333 0.03333333)
        (0.07142857 0.07142857 0.21428571 0.21428571 0.07142857 
        0.07142857 0.07142857 0.07142857 0.07142857 0.07142857)
        (0.06250000 0.06250000 0.25000000 0.18750000 0.06250000 
        0.12500000 0.06250000 0.06250000 0.06250000 0.06250000)
        (0.10000000 0.10000000 0.10000000 0.10000000 0.10000000 
        0.10000000 0.10000000 0.10000000 0.10000000 0.10000000)
        (0.10000000 0.10000000 0.10000000 0.10000000 0.10000000 
        0.10000000 0.10000000 0.10000000 0.10000000 0.10000000))
        ((0.16666667 0.04761905 0.28571429 0.11904762 0.02380952 
        0.02380952 0.16666667 0.07142857 0.02380952 0.07142857)
        (0.09090909 0.09090909 0.18181818 0.09090909 0.09090909 
        0.09090909 0.09090909 0.09090909 0.09090909 0.09090909)
        (0.09090909 0.09090909 0.09090909 0.09090909 0.18181818 
        0.09090909 0.09090909 0.09090909 0.09090909 0.09090909)
        (0.05555556 0.05555556 0.33333333 0.16666667 0.05555556 
        0.05555556 0.11111111 0.05555556 0.05555556 0.05555556)
        (0.10000000 0.10000000 0.10000000 0.10000000 0.10000000 
        0.10000000 0.10000000 0.10000000 0.10000000 0.10000000)
        (0.10000000 0.10000000 0.10000000 0.10000000 0.10000000 
        0.10000000 0.10000000 0.10000000 0.10000000 0.10000000)
        (0.10000000 0.10000000 0.10000000 0.10000000 0.10000000 
        0.10000000 0.10000000 0.10000000 0.10000000 0.10000000)
        (0.10000000 0.10000000 0.10000000 0.10000000 0.10000000 
        0.10000000 0.10000000 0.10000000 0.10000000 0.10000000))
        ((0.18470149 0.00466418 0.20615672 0.18283582 0.00839552 
        0.03824627 0.30130597 0.05597015 0.00746269 0.01026119)
        (0.19047619 0.02380952 0.45238095 0.04761905 0.02380952 
        0.07142857 0.09523810 0.04761905 0.02380952 0.02380952)
        (0.02631579 0.02631579 0.55263158 0.10526316 0.05263158 
        0.02631579 0.13157895 0.02631579 0.02631579 0.02631579)
        (0.16042781 0.00534759 0.46524064 0.08021390 0.04278075 
        0.04278075 0.14438503 0.03743316 0.01604278 0.00534759)
        (0.10000000 0.05000000 0.45000000 0.05000000 0.05000000 
        0.05000000 0.10000000 0.05000000 0.05000000 0.05000000)
        (0.08695652 0.04347826 0.30434783 0.08695652 0.13043478 
        0.08695652 0.08695652 0.04347826 0.04347826 0.08695652)
        (0.10000000 0.10000000 0.10000000 0.10000000 0.10000000 
        0.10000000 0.10000000 0.10000000 0.10000000 0.10000000)
        (0.04347826 0.04347826 0.39130435 0.13043478 0.13043478 
        0.04347826 0.08695652 0.04347826 0.04347826 0.04347826))
        ((0.18325434 0.00842549 0.25803054 0.24117957 0.02159031 
        0.02738283 0.17640864 0.06213797 0.01000527 0.01158504)
        (0.08108108 0.02702703 0.64864865 0.05405405 0.02702703 
        0.02702703 0.05405405 0.02702703 0.02702703 0.02702703)
        (0.05084746 0.00847458 0.58474576 0.11016949 0.10169492 
        0.01694915 0.07627119 0.01694915 0.02542373 0.00847458)
        (0.08510638 0.00797872 0.55851064 0.09042553 0.06117021 
        0.04255319 0.10372340 0.03723404 0.00531915 0.00797872)
        (0.03333333 0.06666667 0.60000000 0.06666667 0.03333333 
        0.03333333 0.06666667 0.03333333 0.03333333 0.03333333)
        (0.04347826 0.02173913 0.58695652 0.04347826 0.06521739 
        0.04347826 0.06521739 0.04347826 0.02173913 0.06521739)
        (0.09090909 0.09090909 0.18181818 0.09090909 0.09090909 
        0.09090909 0.09090909 0.09090909 0.09090909 0.09090909)
        (0.01612903 0.01612903 0.64516129 0.03225806 0.04838710 
        0.03225806 0.06451613 0.09677419 0.03225806 0.01612903))
        ((0.23880597 0.02985075 0.13432836 0.25373134 0.01492537 
        0.08955224 0.14925373 0.04477612 0.02985075 0.01492537)
        (0.10000000 0.10000000 0.10000000 0.10000000 0.10000000 
        0.10000000 0.10000000 0.10000000 0.10000000 0.10000000)
        (0.10000000 0.10000000 0.10000000 0.10000000 0.10000000 
        0.10000000 0.10000000 0.10000000 0.10000000 0.10000000)
        (0.06666667 0.06666667 0.20000000 0.06666667 0.06666667 
        0.06666667 0.26666667 0.06666667 0.06666667 0.06666667)
        (0.10000000 0.10000000 0.10000000 0.10000000 0.10000000 
        0.10000000 0.10000000 0.10000000 0.10000000 0.10000000)
        (0.10000000 0.10000000 0.10000000 0.10000000 0.10000000 
        0.10000000 0.10000000 0.10000000 0.10000000 0.10000000)
        (0.10000000 0.10000000 0.10000000 0.10000000 0.10000000 
        0.10000000 0.10000000 0.10000000 0.10000000 0.10000000)
        (0.10000000 0.10000000 0.10000000 0.10000000 0.10000000 
        0.10000000 0.10000000 0.10000000 0.10000000 0.10000000))
        ((0.11538462 0.07692308 0.15384615 0.19230769 0.03846154 
        0.07692308 0.19230769 0.07692308 0.03846154 0.03846154)
        (0.10000000 0.10000000 0.10000000 0.10000000 0.10000000 
        0.10000000 0.10000000 0.10000000 0.10000000 0.10000000)
        (0.10000000 0.10000000 0.10000000 0.10000000 0.10000000 
        0.10000000 0.10000000 0.10000000 0.10000000 0.10000000)
        (0.08333333 0.08333333 0.08333333 0.08333333 0.08333333 
        0.08333333 0.25000000 0.08333333 0.08333333 0.08333333)
        (0.10000000 0.10000000 0.10000000 0.10000000 0.10000000 
        0.10000000 0.10000000 0.10000000 0.10000000 0.10000000)
        (0.10000000 0.10000000 0.10000000 0.10000000 0.10000000 
        0.10000000 0.10000000 0.10000000 0.10000000 0.10000000)
        (0.10000000 0.10000000 0.10000000 0.10000000 0.10000000 
        0.10000000 0.10000000 0.10000000 0.10000000 0.10000000)
        (0.10000000 0.10000000 0.10000000 0.10000000 0.10000000 
        0.10000000 0.10000000 0.10000000 0.10000000 0.10000000)));
}

potential (Contexte_3 | Contexte_15 Cause_3)
{
    data = (((0.77142857 0.22857143)
        (0.10125722 0.89874278)
        (0.10918114 0.89081886)
        (0.50000000 0.50000000)
        (0.23076923 0.76923077)
        (0.42857143 0.57142857)
        (0.25000000 0.75000000)
        (0.33333333 0.66666667)
        (0.40000000 0.60000000)
        (0.66666667 0.33333333))
        ((0.50000000 0.50000000)
        (0.09183673 0.90816327)
        (0.05882353 0.94117647)
        (0.33333333 0.66666667)
        (0.50000000 0.50000000)
        (0.33333333 0.66666667)
        (0.50000000 0.50000000)
        (0.50000000 0.50000000)
        (0.50000000 0.50000000)
        (0.50000000 0.50000000))
        ((0.71428571 0.28571429)
        (0.06624473 0.93375527)
        (0.06042885 0.93957115)
        (0.41666667 0.58333333)
        (0.16666667 0.83333333)
        (0.71428571 0.28571429)
        (0.66666667 0.33333333)
        (0.50000000 0.50000000)
        (0.66666667 0.33333333)
        (0.50000000 0.50000000))
        ((0.73684211 0.26315789)
        (0.08115323 0.91884677)
        (0.14649682 0.85350318)
        (0.40000000 0.60000000)
        (0.25000000 0.75000000)
        (0.25000000 0.75000000)
        (0.10000000 0.90000000)
        (0.25000000 0.75000000)
        (0.50000000 0.50000000)
        (0.50000000 0.50000000))
        ((0.62500000 0.37500000)
        (0.44444444 0.55555556)
        (0.38961039 0.61038961)
        (0.50000000 0.50000000)
        (0.50000000 0.50000000)
        (0.30000000 0.70000000)
        (0.33333333 0.66666667)
        (0.50000000 0.50000000)
        (0.50000000 0.50000000)
        (0.50000000 0.50000000))
        ((0.57142857 0.42857143)
        (0.08090615 0.91909385)
        (0.07476636 0.92523364)
        (0.20000000 0.80000000)
        (0.14285714 0.85714286)
        (0.50000000 0.50000000)
        (0.33333333 0.66666667)
        (0.50000000 0.50000000)
        (0.33333333 0.66666667)
        (0.50000000 0.50000000))
        ((0.68421053 0.31578947)
        (0.07002562 0.92997438)
        (0.08099688 0.91900312)
        (0.33333333 0.66666667)
        (0.33333333 0.66666667)
        (0.66666667 0.33333333)
        (0.60000000 0.40000000)
        (0.33333333 0.66666667)
        (0.33333333 0.66666667)
        (0.50000000 0.50000000))
        ((0.85714286 0.14285714)
        (0.09742120 0.90257880)
        (0.10185185 0.89814815)
        (0.50000000 0.50000000)
        (0.50000000 0.50000000)
        (0.50000000 0.50000000)
        (0.66666667 0.33333333)
        (0.33333333 0.66666667)
        (0.33333333 0.66666667)
        (0.50000000 0.50000000))
        ((0.80000000 0.20000000)
        (0.12605042 0.87394958)
        (0.06666667 0.93333333)
        (0.50000000 0.50000000)
        (0.50000000 0.50000000)
        (0.50000000 0.50000000)
        (0.50000000 0.50000000)
        (0.66666667 0.33333333)
        (0.60000000 0.40000000)
        (0.50000000 0.50000000))
        ((0.66666667 0.33333333)
        (0.15384615 0.84615385)
        (0.14285714 0.85714286)
        (0.50000000 0.50000000)
        (0.50000000 0.50000000)
        (0.50000000 0.50000000)
        (0.33333333 0.66666667)
        (0.33333333 0.66666667)
        (0.50000000 0.50000000)
        (0.50000000 0.50000000)));
}

potential (Contexte_4 | Environnement_3)
{
    data = ((0.99529667 0.00470333)
        (0.97619048 0.02380952)
        (0.97385621 0.02614379)
        (0.96894977 0.03105023)
        (0.97560976 0.02439024)
        (0.93333333 0.06666667)
        (0.66666667 0.33333333)
        (0.98507463 0.01492537));
}

potential (Date_1 | Contexte_15 Contexte_3)
{
    data = (((0.00265252 0.00265252 0.99469496)
        (0.36027714 0.35796767 0.28175520))
        ((0.09090909 0.09090909 0.81818182)
        (0.46296296 0.32407407 0.21296296))
        ((0.00398406 0.00398406 0.99203187)
        (0.41632781 0.37754145 0.20613075))
        ((0.00469484 0.00938967 0.98591549)
        (0.35124378 0.36019900 0.28855721))
        ((0.01428571 0.01428571 0.97142857)
        (0.01020408 0.01020408 0.97959184))
        ((0.01612903 0.01612903 0.96774194)
        (0.27058824 0.34852941 0.38088235))
        ((0.00806452 0.01612903 0.97580645)
        (0.39784946 0.37634409 0.22580645))
        ((0.01162791 0.01162791 0.97674419)
        (0.33424658 0.38219178 0.28356164))
        ((0.04347826 0.04347826 0.91304348)
        (0.36666667 0.42500000 0.20833333))
        ((0.04347826 0.04347826 0.91304348)
        (0.31666667 0.39166667 0.29166667)));
}

potential (Contexte_6 | Cause_3 Environnement_3 Date_1 Contexte_15)
{
    data = (((((0.50000000 0.50000000)
        (0.50000000 0.50000000)
        (0.50000000 0.50000000)
        (0.50000000 0.50000000)
        (0.50000000 0.50000000)
        (0.50000000 0.50000000)
        (0.50000000 0.50000000)
        (0.50000000 0.50000000)
        (0.50000000 0.50000000)
        (0.50000000 0.50000000))
        ((0.50000000 0.50000000)
        (0.50000000 0.50000000)
        (0.50000000 0.50000000)
        (0.50000000 0.50000000)
        (0.50000000 0.50000000)
        (0.50000000 0.50000000)
        (0.50000000 0.50000000)
        (0.50000000 0.50000000)
        (0.50000000 0.50000000)
        (0.50000000 0.50000000))
        ((0.82758621 0.17241379)
        (0.50000000 0.50000000)
        (0.64705882 0.35294118)
        (0.68421053 0.31578947)
        (0.20000000 0.80000000)
        (0.57142857 0.42857143)
        (0.93750000 0.06250000)
        (0.71428571 0.28571429)
        (0.80000000 0.20000000)
        (0.66666667 0.33333333)))
        (((0.50000000 0.50000000)
        (0.50000000 0.50000000)
        (0.50000000 0.50000000)
        (0.50000000 0.50000000)
        (0.50000000 0.50000000)
        (0.50000000 0.50000000)
        (0.50000000 0.50000000)
        (0.50000000 0.50000000)
        (0.50000000 0.50000000)
        (0.50000000 0.50000000))
        ((0.50000000 0.50000000)
        (0.50000000 0.50000000)
        (0.50000000 0.50000000)
        (0.50000000 0.50000000)
        (0.50000000 0.50000000)
        (0.50000000 0.50000000)
        (0.50000000 0.50000000)
        (0.50000000 0.50000000)
        (0.50000000 0.50000000)
        (0.50000000 0.50000000))
        ((0.25000000 0.75000000)
        (0.50000000 0.50000000)
        (0.33333333 0.66666667)
        (0.50000000 0.50000000)
        (0.50000000 0.50000000)
        (0.50000000 0.50000000)
        (0.50000000 0.50000000)
        (0.50000000 0.50000000)
        (0.50000000 0.50000000)
        (0.50000000 0.50000000)))
        (((0.50000000 0.50000000)
        (0.50000000 0.50000000)
        (0.50000000 0.50000000)
        (0.50000000 0.50000000)
        (0.50000000 0.50000000)
        (0.50000000 0.50000000)
        (0.50000000 0.50000000)
        (0.50000000 0.50000000)
        (0.50000000 0.50000000)
        (0.50000000 0.50000000))
        ((0.50000000 0.50000000)
        (0.50000000 0.50000000)
        (0.50000000 0.50000000)
        (0.50000000 0.50000000)
        (0.50000000 0.50000000)
        (0.50000000 0.50000000)
        (0.50000000 0.50000000)
        (0.50000000 0.50000000)
        (0.50000000 0.50000000)
        (0.50000000 0.50000000))
        ((0.50000000 0.50000000)
        (0.50000000 0.50000000)
        (0.33333333 0.66666667)
        (0.50000000 0.50000000)
        (0.50000000 0.50000000)
        (0.50000000 0.50000000)
        (0.50000000 0.50000000)
        (0.50000000 0.50000000)
        (0.50000000 0.50000000)
        (0.50000000 0.50000000)))
        (((0.50000000 0.50000000)
        (0.50000000 0.50000000)
        (0.50000000 0.50000000)
        (0.50000000 0.50000000)
        (0.50000000 0.50000000)
        (0.50000000 0.50000000)
        (0.50000000 0.50000000)
        (0.50000000 0.50000000)
        (0.50000000 0.50000000)
        (0.50000000 0.50000000))
        ((0.50000000 0.50000000)
        (0.50000000 0.50000000)
        (0.50000000 0.50000000)
        (0.50000000 0.50000000)
        (0.50000000 0.50000000)
        (0.50000000 0.50000000)
        (0.50000000 0.50000000)
        (0.50000000 0.50000000)
        (0.50000000 0.50000000)
        (0.50000000 0.50000000))
        ((0.83333333 0.16666667)
        (0.50000000 0.50000000)
        (0.37500000 0.62500000)
        (0.50000000 0.50000000)
        (0.40000000 0.60000000)
        (0.50000000 0.50000000)
        (0.60000000 0.40000000)
        (0.50000000 0.50000000)
        (0.50000000 0.50000000)
        (0.50000000 0.50000000)))
        (((0.50000000 0.50000000)
        (0.50000000 0.50000000)
        (0.50000000 0.50000000)
        (0.50000000 0.50000000)
        (0.50000000 0.50000000)
        (0.50000000 0.50000000)
        (0.50000000 0.50000000)
        (0.50000000 0.50000000)
        (0.50000000 0.50000000)
        (0.50000000 0.50000000))
        ((0.50000000 0.50000000)
        (0.50000000 0.50000000)
        (0.50000000 0.50000000)
        (0.50000000 0.50000000)
        (0.50000000 0.50000000)
        (0.50000000 0.50000000)
        (0.50000000 0.50000000)
        (0.50000000 0.50000000)
        (0.50000000 0.50000000)
        (0.50000000 0.50000000))
        ((0.50000000 0.50000000)
        (0.50000000 0.50000000)
        (0.33333333 0.66666667)
        (0.50000000 0.50000000)
        (0.50000000 0.50000000)
        (0.50000000 0.50000000)
        (0.50000000 0.50000000)
        (0.50000000 0.50000000)
        (0.50000000 0.50000000)
        (0.50000000 0.50000000)))
        (((0.50000000 0.50000000)
        (0.50000000 0.50000000)
        (0.50000000 0.50000000)
        (0.50000000 0.50000000)
        (0.50000000 0.50000000)
        (0.50000000 0.50000000)
        (0.50000000 0.50000000)
        (0.50000000 0.50000000)
        (0.50000000 0.50000000)
        (0.50000000 0.50000000))
        ((0.50000000 0.50000000)
        (0.50000000 0.50000000)
        (0.50000000 0.50000000)
        (0.50000000 0.50000000)
        (0.50000000 0.50000000)
        (0.50000000 0.50000000)
        (0.50000000 0.50000000)
        (0.50000000 0.50000000)
        (0.50000000 0.50000000)
        (0.50000000 0.50000000))
        ((0.50000000 0.50000000)
        (0.50000000 0.50000000)
        (0.33333333 0.66666667)
        (0.50000000 0.50000000)
        (0.50000000 0.50000000)
        (0.50000000 0.50000000)
        (0.50000000 0.50000000)
        (0.50000000 0.50000000)
        (0.50000000 0.50000000)
        (0.50000000 0.50000000)))
        (((0.50000000 0.50000000)
        (0.50000000 0.50000000)
        (0.50000000 0.50000000)
        (0.50000000 0.50000000)
        (0.50000000 0.50000000)
        (0.50000000 0.50000000)
        (0.50000000 0.50000000)
        (0.50000000 0.50000000)
        (0.50000000 0.50000000)
        (0.50000000 0.50000000))
        ((0.50000000 0.50000000)
        (0.50000000 0.50000000)
        (0.50000000 0.50000000)
        (0.50000000 0.50000000)
        (0.50000000 0.50000000)
        (0.50000000 0.50000000)
        (0.50000000 0.50000000)
        (0.50000000 0.50000000)
        (0.50000000 0.50000000)
        (0.50000000 0.50000000))
        ((0.50000000 0.50000000)
        (0.50000000 0.50000000)
        (0.50000000 0.50000000)
        (0.50000000 0.50000000)
        (0.50000000 0.50000000)
        (0.50000000 0.50000000)
        (0.50000000 0.50000000)
        (0.50000000 0.50000000)
        (0.50000000 0.50000000)
        (0.50000000 0.50000000)))
        (((0.50000000 0.50000000)
        (0.50000000 0.50000000)
        (0.50000000 0.50000000)
        (0.50000000 0.50000000)
        (0.50000000 0.50000000)
        (0.50000000 0.50000000)
        (0.50000000 0.50000000)
        (0.50000000 0.50000000)
        (0.50000000 0.50000000)
        (0.50000000 0.50000000))
        ((0.50000000 0.50000000)
        (0.50000000 0.50000000)
        (0.50000000 0.50000000)
        (0.50000000 0.50000000)
        (0.50000000 0.50000000)
        (0.50000000 0.50000000)
        (0.50000000 0.50000000)
        (0.50000000 0.50000000)
        (0.50000000 0.50000000)
        (0.50000000 0.50000000))
        ((0.50000000 0.50000000)
        (0.50000000 0.50000000)
        (0.66666667 0.33333333)
        (0.50000000 0.50000000)
        (0.50000000 0.50000000)
        (0.50000000 0.50000000)
        (0.50000000 0.50000000)
        (0.50000000 0.50000000)
        (0.50000000 0.50000000)
        (0.50000000 0.50000000))))
        ((((0.66666667 0.33333333)
        (0.80000000 0.20000000)
        (0.54719101 0.45280899)
        (0.67051071 0.32948929)
        (0.50000000 0.50000000)
        (0.74452555 0.25547445)
        (0.76728111 0.23271889)
        (0.71641791 0.28358209)
        (0.64102564 0.35897436)
        (0.70588235 0.29411765))
        ((0.75417130 0.24582870)
        (0.65384615 0.34615385)
        (0.52594670 0.47405330)
        (0.71973466 0.28026534)
        (0.50000000 0.50000000)
        (0.81481481 0.18518519)
        (0.82291667 0.17708333)
        (0.79668050 0.20331950)
        (0.76190476 0.23809524)
        (0.60000000 0.40000000))
        ((0.82142857 0.17857143)
        (0.92592593 0.07407407)
        (0.64176245 0.35823755)
        (0.79700499 0.20299501)
        (0.24528302 0.75471698)
        (0.80082988 0.19917012)
        (0.94174757 0.05825243)
        (0.88559322 0.11440678)
        (0.86486486 0.13513514)
        (0.73333333 0.26666667)))
        (((0.50000000 0.50000000)
        (0.50000000 0.50000000)
        (0.28571429 0.71428571)
        (0.66666667 0.33333333)
        (0.50000000 0.50000000)
        (0.33333333 0.66666667)
        (0.33333333 0.66666667)
        (0.50000000 0.50000000)
        (0.50000000 0.50000000)
        (0.50000000 0.50000000))
        ((0.62500000 0.37500000)
        (0.33333333 0.66666667)
        (0.33333333 0.66666667)
        (0.66666667 0.33333333)
        (0.50000000 0.50000000)
        (0.40000000 0.60000000)
        (0.60000000 0.40000000)
        (0.50000000 0.50000000)
        (0.50000000 0.50000000)
        (0.50000000 0.50000000))
        ((0.68750000 0.31250000)
        (0.50000000 0.50000000)
        (0.18750000 0.81250000)
        (0.50000000 0.50000000)
        (0.33333333 0.66666667)
        (0.25000000 0.75000000)
        (0.50000000 0.50000000)
        (0.50000000 0.50000000)
        (0.50000000 0.50000000)
        (0.50000000 0.50000000)))
        (((0.33333333 0.66666667)
        (0.50000000 0.50000000)
        (0.66666667 0.33333333)
        (0.66666667 0.33333333)
        (0.50000000 0.50000000)
        (0.50000000 0.50000000)
        (0.50000000 0.50000000)
        (0.50000000 0.50000000)
        (0.50000000 0.50000000)
        (0.50000000 0.50000000))
        ((0.50000000 0.50000000)
        (0.50000000 0.50000000)
        (0.40000000 0.60000000)
        (0.50000000 0.50000000)
        (0.50000000 0.50000000)
        (0.66666667 0.33333333)
        (0.50000000 0.50000000)
        (0.50000000 0.50000000)
        (0.50000000 0.50000000)
        (0.50000000 0.50000000))
        ((0.50000000 0.50000000)
        (0.50000000 0.50000000)
        (0.50000000 0.50000000)
        (0.33333333 0.66666667)
        (0.50000000 0.50000000)
        (0.50000000 0.50000000)
        (0.50000000 0.50000000)
        (0.50000000 0.50000000)
        (0.50000000 0.50000000)
        (0.50000000 0.50000000)))
        (((0.53488372 0.46511628)
        (0.33333333 0.66666667)
        (0.36363636 0.63636364)
        (0.78947368 0.21052632)
        (0.50000000 0.50000000)
        (0.53846154 0.46153846)
        (0.57894737 0.42105263)
        (0.70000000 0.30000000)
        (0.66666667 0.33333333)
        (0.33333333 0.66666667))
        ((0.61111111 0.38888889)
        (0.50000000 0.50000000)
        (0.43209877 0.56790123)
        (0.29629630 0.70370370)
        (0.50000000 0.50000000)
        (0.47368421 0.52631579)
        (0.81250000 0.18750000)
        (0.81818182 0.18181818)
        (0.83333333 0.16666667)
        (0.50000000 0.50000000))
        ((0.85365854 0.14634146)
        (0.50000000 0.50000000)
        (0.51515152 0.48484848)
        (0.77272727 0.22727273)
        (0.25000000 0.75000000)
        (0.63636364 0.36363636)
        (0.84615385 0.15384615)
        (0.66666667 0.33333333)
        (0.50000000 0.50000000)
        (0.66666667 0.33333333)))
        (((0.50000000 0.50000000)
        (0.50000000 0.50000000)
        (0.33333333 0.66666667)
        (0.50000000 0.50000000)
        (0.50000000 0.50000000)
        (0.50000000 0.50000000)
        (0.33333333 0.66666667)
        (0.50000000 0.50000000)
        (0.50000000 0.50000000)
        (0.50000000 0.50000000))
        ((0.50000000 0.50000000)
        (0.50000000 0.50000000)
        (0.40000000 0.60000000)
        (0.50000000 0.50000000)
        (0.50000000 0.50000000)
        (0.50000000 0.50000000)
        (0.50000000 0.50000000)
        (0.50000000 0.50000000)
        (0.50000000 0.50000000)
        (0.50000000 0.50000000))
        ((0.50000000 0.50000000)
        (0.50000000 0.50000000)
        (0.50000000 0.50000000)
        (0.50000000 0.50000000)
        (0.50000000 0.50000000)
        (0.50000000 0.50000000)
        (0.50000000 0.50000000)
        (0.50000000 0.50000000)
        (0.50000000 0.50000000)
        (0.50000000 0.50000000)))
        (((0.50000000 0.50000000)
        (0.50000000 0.50000000)
        (0.50000000 0.50000000)
        (0.50000000 0.50000000)
        (0.50000000 0.50000000)
        (0.50000000 0.50000000)
        (0.50000000 0.50000000)
        (0.50000000 0.50000000)
        (0.50000000 0.50000000)
        (0.33333333 0.66666667))
        ((0.50000000 0.50000000)
        (0.50000000 0.50000000)
        (0.50000000 0.50000000)
        (0.50000000 0.50000000)
        (0.50000000 0.50000000)
        (0.50000000 0.50000000)
        (0.66666667 0.33333333)
        (0.50000000 0.50000000)
        (0.50000000 0.50000000)
        (0.50000000 0.50000000))
        ((0.50000000 0.50000000)
        (0.50000000 0.50000000)
        (0.25000000 0.75000000)
        (0.50000000 0.50000000)
        (0.50000000 0.50000000)
        (0.50000000 0.50000000)
        (0.50000000 0.50000000)
        (0.50000000 0.50000000)
        (0.50000000 0.50000000)
        (0.50000000 0.50000000)))
        (((0.50000000 0.50000000)
        (0.50000000 0.50000000)
        (0.50000000 0.50000000)
        (0.50000000 0.50000000)
        (0.50000000 0.50000000)
        (0.50000000 0.50000000)
        (0.50000000 0.50000000)
        (0.50000000 0.50000000)
        (0.50000000 0.50000000)
        (0.50000000 0.50000000))
        ((0.50000000 0.50000000)
        (0.50000000 0.50000000)
        (0.50000000 0.50000000)
        (0.50000000 0.50000000)
        (0.50000000 0.50000000)
        (0.50000000 0.50000000)
        (0.50000000 0.50000000)
        (0.50000000 0.50000000)
        (0.50000000 0.50000000)
        (0.50000000 0.50000000))
        ((0.50000000 0.50000000)
        (0.50000000 0.50000000)
        (0.50000000 0.50000000)
        (0.50000000 0.50000000)
        (0.50000000 0.50000000)
        (0.50000000 0.50000000)
        (0.50000000 0.50000000)
        (0.50000000 0.50000000)
        (0.50000000 0.50000000)
        (0.50000000 0.50000000)))
        (((0.50000000 0.50000000)
        (0.50000000 0.50000000)
        (0.40000000 0.60000000)
        (0.50000000 0.50000000)
        (0.50000000 0.50000000)
        (0.50000000 0.50000000)
        (0.50000000 0.50000000)
        (0.50000000 0.50000000)
        (0.50000000 0.50000000)
        (0.50000000 0.50000000))
        ((0.50000000 0.50000000)
        (0.50000000 0.50000000)
        (0.20000000 0.80000000)
        (0.50000000 0.50000000)
        (0.50000000 0.50000000)
        (0.50000000 0.50000000)
        (0.50000000 0.50000000)
        (0.50000000 0.50000000)
        (0.50000000 0.50000000)
        (0.50000000 0.50000000))
        ((0.50000000 0.50000000)
        (0.50000000 0.50000000)
        (0.50000000 0.50000000)
        (0.50000000 0.50000000)
        (0.50000000 0.50000000)
        (0.50000000 0.50000000)
        (0.50000000 0.50000000)
        (0.50000000 0.50000000)
        (0.50000000 0.50000000)
        (0.50000000 0.50000000))))
        ((((0.66666667 0.33333333)
        (0.20000000 0.80000000)
        (0.29239766 0.70760234)
        (0.61643836 0.38356164)
        (0.50000000 0.50000000)
        (0.66666667 0.33333333)
        (0.63414634 0.36585366)
        (0.66666667 0.33333333)
        (0.25000000 0.75000000)
        (0.50000000 0.50000000))
        ((0.64485981 0.35514019)
        (0.57142857 0.42857143)
        (0.21710526 0.78289474)
        (0.63529412 0.36470588)
        (0.50000000 0.50000000)
        (0.47826087 0.52173913)
        (0.81395349 0.18604651)
        (0.66666667 0.33333333)
        (0.75000000 0.25000000)
        (0.60000000 0.40000000))
        ((0.77358491 0.22641509)
        (0.80000000 0.20000000)
        (0.34306569 0.65693431)
        (0.71559633 0.28440367)
        (0.18750000 0.81250000)
        (0.68965517 0.31034483)
        (0.85937500 0.14062500)
        (0.67741935 0.32258065)
        (0.50000000 0.50000000)
        (0.87500000 0.12500000)))
        (((0.33333333 0.66666667)
        (0.50000000 0.50000000)
        (0.10714286 0.89285714)
        (0.33333333 0.66666667)
        (0.50000000 0.50000000)
        (0.50000000 0.50000000)
        (0.33333333 0.66666667)
        (0.50000000 0.50000000)
        (0.50000000 0.50000000)
        (0.50000000 0.50000000))
        ((0.40000000 0.60000000)
        (0.50000000 0.50000000)
        (0.14705882 0.85294118)
        (0.50000000 0.50000000)
        (0.50000000 0.50000000)
        (0.33333333 0.66666667)
        (0.33333333 0.66666667)
        (0.33333333 0.66666667)
        (0.50000000 0.50000000)
        (0.50000000 0.50000000))
        ((0.42857143 0.57142857)
        (0.50000000 0.50000000)
        (0.13043478 0.86956522)
        (0.50000000 0.50000000)
        (0.14285714 0.85714286)
        (0.33333333 0.66666667)
        (0.50000000 0.50000000)
        (0.66666667 0.33333333)
        (0.50000000 0.50000000)
        (0.50000000 0.50000000)))
        (((0.33333333 0.66666667)
        (0.50000000 0.50000000)
        (0.03703704 0.96296296)
        (0.33333333 0.66666667)
        (0.50000000 0.50000000)
        (0.50000000 0.50000000)
        (0.33333333 0.66666667)
        (0.50000000 0.50000000)
        (0.25000000 0.75000000)
        (0.50000000 0.50000000))
        ((0.60000000 0.40000000)
        (0.50000000 0.50000000)
        (0.02173913 0.97826087)
        (0.25000000 0.75000000)
        (0.50000000 0.50000000)
        (0.50000000 0.50000000)
        (0.30000000 0.70000000)
        (0.50000000 0.50000000)
        (0.33333333 0.66666667)
        (0.50000000 0.50000000))
        ((0.66666667 0.33333333)
        (0.50000000 0.50000000)
        (0.09523810 0.90476190)
        (0.69230769 0.30769231)
        (0.21428571 0.78571429)
        (0.33333333 0.66666667)
        (0.25000000 0.75000000)
        (0.33333333 0.66666667)
        (0.50000000 0.50000000)
        (0.50000000 0.50000000)))
        (((0.34615385 0.65384615)
        (0.25000000 0.75000000)
        (0.08333333 0.91666667)
        (0.55555556 0.44444444)
        (0.50000000 0.50000000)
        (0.33333333 0.66666667)
        (0.53333333 0.46666667)
        (0.71428571 0.28571429)
        (0.50000000 0.50000000)
        (0.50000000 0.50000000))
        ((0.38888889 0.61111111)
        (0.66666667 0.33333333)
        (0.04065041 0.95934959)
        (0.50000000 0.50000000)
        (0.50000000 0.50000000)
        (0.71428571 0.28571429)
        (0.59259259 0.40740741)
        (0.33333333 0.66666667)
        (0.20000000 0.80000000)
        (0.50000000 0.50000000))
        ((0.57142857 0.42857143)
        (0.50000000 0.50000000)
        (0.12790698 0.87209302)
        (0.57142857 0.42857143)
        (0.13043478 0.86956522)
        (0.37500000 0.62500000)
        (0.84615385 0.15384615)
        (0.75000000 0.25000000)
        (0.50000000 0.50000000)
        (0.33333333 0.66666667)))
        (((0.50000000 0.50000000)
        (0.50000000 0.50000000)
        (0.09090909 0.90909091)
        (0.33333333 0.66666667)
        (0.50000000 0.50000000)
        (0.50000000 0.50000000)
        (0.50000000 0.50000000)
        (0.50000000 0.50000000)
        (0.50000000 0.50000000)
        (0.50000000 0.50000000))
        ((0.33333333 0.66666667)
        (0.33333333 0.66666667)
        (0.20000000 0.80000000)
        (0.33333333 0.66666667)
        (0.50000000 0.50000000)
        (0.50000000 0.50000000)
        (0.50000000 0.50000000)
        (0.50000000 0.50000000)
        (0.50000000 0.50000000)
        (0.50000000 0.50000000))
        ((0.50000000 0.50000000)
        (0.50000000 0.50000000)
        (0.12500000 0.87500000)
        (0.50000000 0.50000000)
        (0.50000000 0.50000000)
        (0.50000000 0.50000000)
        (0.33333333 0.66666667)
        (0.50000000 0.50000000)
        (0.50000000 0.50000000)
        (0.50000000 0.50000000)))
        (((0.33333333 0.66666667)
        (0.50000000 0.50000000)
        (0.11111111 0.88888889)
        (0.50000000 0.50000000)
        (0.50000000 0.50000000)
        (0.33333333 0.66666667)
        (0.33333333 0.66666667)
        (0.33333333 0.66666667)
        (0.50000000 0.50000000)
        (0.33333333 0.66666667))
        ((0.33333333 0.66666667)
        (0.50000000 0.50000000)
        (0.13333333 0.86666667)
        (0.50000000 0.50000000)
        (0.50000000 0.50000000)
        (0.33333333 0.66666667)
        (0.50000000 0.50000000)
        (0.50000000 0.50000000)
        (0.50000000 0.50000000)
        (0.33333333 0.66666667))
        ((0.50000000 0.50000000)
        (0.50000000 0.50000000)
        (0.07692308 0.92307692)
        (0.25000000 0.75000000)
        (0.16666667 0.83333333)
        (0.20000000 0.80000000)
        (0.50000000 0.50000000)
        (0.50000000 0.50000000)
        (0.50000000 0.50000000)
        (0.50000000 0.50000000)))
        (((0.50000000 0.50000000)
        (0.50000000 0.50000000)
        (0.50000000 0.50000000)
        (0.50000000 0.50000000)
        (0.50000000 0.50000000)
        (0.50000000 0.50000000)
        (0.50000000 0.50000000)
        (0.50000000 0.50000000)
        (0.50000000 0.50000000)
        (0.50000000 0.50000000))
        ((0.50000000 0.50000000)
        (0.50000000 0.50000000)
        (0.33333333 0.66666667)
        (0.50000000 0.50000000)
        (0.50000000 0.50000000)
        (0.50000000 0.50000000)
        (0.50000000 0.50000000)
        (0.50000000 0.50000000)
        (0.50000000 0.50000000)
        (0.50000000 0.50000000))
        ((0.50000000 0.50000000)
        (0.50000000 0.50000000)
        (0.50000000 0.50000000)
        (0.50000000 0.50000000)
        (0.50000000 0.50000000)
        (0.50000000 0.50000000)
        (0.50000000 0.50000000)
        (0.50000000 0.50000000)
        (0.50000000 0.50000000)
        (0.50000000 0.50000000)))
        (((0.50000000 0.50000000)
        (0.50000000 0.50000000)
        (0.10000000 0.90000000)
        (0.50000000 0.50000000)
        (0.50000000 0.50000000)
        (0.33333333 0.66666667)
        (0.33333333 0.66666667)
        (0.25000000 0.75000000)
        (0.33333333 0.66666667)
        (0.50000000 0.50000000))
        ((0.50000000 0.50000000)
        (0.50000000 0.50000000)
        (0.11111111 0.88888889)
        (0.33333333 0.66666667)
        (0.50000000 0.50000000)
        (0.50000000 0.50000000)
        (0.50000000 0.50000000)
        (0.50000000 0.50000000)
        (0.50000000 0.50000000)
        (0.50000000 0.50000000))
        ((0.50000000 0.50000000)
        (0.50000000 0.50000000)
        (0.06666667 0.93333333)
        (0.50000000 0.50000000)
        (0.20000000 0.80000000)
        (0.50000000 0.50000000)
        (0.25000000 0.75000000)
        (0.40000000 0.60000000)
        (0.50000000 0.50000000)
        (0.50000000 0.50000000))))
        ((((0.50000000 0.50000000)
        (0.50000000 0.50000000)
        (0.50000000 0.50000000)
        (0.50000000 0.50000000)
        (0.50000000 0.50000000)
        (0.50000000 0.50000000)
        (0.50000000 0.50000000)
        (0.50000000 0.50000000)
        (0.50000000 0.50000000)
        (0.50000000 0.50000000))
        ((0.50000000 0.50000000)
        (0.50000000 0.50000000)
        (0.50000000 0.50000000)
        (0.50000000 0.50000000)
        (0.50000000 0.50000000)
        (0.50000000 0.50000000)
        (0.50000000 0.50000000)
        (0.50000000 0.50000000)
        (0.50000000 0.50000000)
        (0.50000000 0.50000000))
        ((0.50000000 0.50000000)
        (0.66666667 0.33333333)
        (0.33333333 0.66666667)
        (0.75000000 0.25000000)
        (0.33333333 0.66666667)
        (0.40000000 0.60000000)
        (0.50000000 0.50000000)
        (0.50000000 0.50000000)
        (0.50000000 0.50000000)
        (0.50000000 0.50000000)))
        (((0.50000000 0.50000000)
        (0.50000000 0.50000000)
        (0.50000000 0.50000000)
        (0.50000000 0.50000000)
        (0.50000000 0.50000000)
        (0.50000000 0.50000000)
        (0.50000000 0.50000000)
        (0.50000000 0.50000000)
        (0.50000000 0.50000000)
        (0.50000000 0.50000000))
        ((0.50000000 0.50000000)
        (0.50000000 0.50000000)
        (0.50000000 0.50000000)
        (0.50000000 0.50000000)
        (0.50000000 0.50000000)
        (0.50000000 0.50000000)
        (0.50000000 0.50000000)
        (0.50000000 0.50000000)
        (0.50000000 0.50000000)
        (0.50000000 0.50000000))
        ((0.50000000 0.50000000)
        (0.50000000 0.50000000)
        (0.50000000 0.50000000)
        (0.50000000 0.50000000)
        (0.50000000 0.50000000)
        (0.50000000 0.50000000)
        (0.50000000 0.50000000)
        (0.50000000 0.50000000)
        (0.50000000 0.50000000)
        (0.50000000 0.50000000)))
        (((0.50000000 0.50000000)
        (0.50000000 0.50000000)
        (0.50000000 0.50000000)
        (0.50000000 0.50000000)
        (0.50000000 0.50000000)
        (0.50000000 0.50000000)
        (0.50000000 0.50000000)
        (0.50000000 0.50000000)
        (0.50000000 0.50000000)
        (0.50000000 0.50000000))
        ((0.50000000 0.50000000)
        (0.50000000 0.50000000)
        (0.50000000 0.50000000)
        (0.50000000 0.50000000)
        (0.50000000 0.50000000)
        (0.50000000 0.50000000)
        (0.50000000 0.50000000)
        (0.50000000 0.50000000)
        (0.50000000 0.50000000)
        (0.50000000 0.50000000))
        ((0.50000000 0.50000000)
        (0.50000000 0.50000000)
        (0.66666667 0.33333333)
        (0.33333333 0.66666667)
        (0.50000000 0.50000000)
        (0.50000000 0.50000000)
        (0.50000000 0.50000000)
        (0.50000000 0.50000000)
        (0.50000000 0.50000000)
        (0.50000000 0.50000000)))
        (((0.50000000 0.50000000)
        (0.50000000 0.50000000)
        (0.50000000 0.50000000)
        (0.50000000 0.50000000)
        (0.50000000 0.50000000)
        (0.50000000 0.50000000)
        (0.50000000 0.50000000)
        (0.50000000 0.50000000)
        (0.50000000 0.50000000)
        (0.50000000 0.50000000))
        ((0.50000000 0.50000000)
        (0.50000000 0.50000000)
        (0.50000000 0.50000000)
        (0.50000000 0.50000000)
        (0.50000000 0.50000000)
        (0.50000000 0.50000000)
        (0.50000000 0.50000000)
        (0.50000000 0.50000000)
        (0.50000000 0.50000000)
        (0.50000000 0.50000000))
        ((0.50000000 0.50000000)
        (0.50000000 0.50000000)
        (0.60000000 0.40000000)
        (0.50000000 0.50000000)
        (0.33333333 0.66666667)
        (0.50000000 0.50000000)
        (0.66666667 0.33333333)
        (0.50000000 0.50000000)
        (0.50000000 0.50000000)
        (0.50000000 0.50000000)))
        (((0.50000000 0.50000000)
        (0.50000000 0.50000000)
        (0.50000000 0.50000000)
        (0.50000000 0.50000000)
        (0.50000000 0.50000000)
        (0.50000000 0.50000000)
        (0.50000000 0.50000000)
        (0.50000000 0.50000000)
        (0.50000000 0.50000000)
        (0.50000000 0.50000000))
        ((0.50000000 0.50000000)
        (0.50000000 0.50000000)
        (0.50000000 0.50000000)
        (0.50000000 0.50000000)
        (0.50000000 0.50000000)
        (0.50000000 0.50000000)
        (0.50000000 0.50000000)
        (0.50000000 0.50000000)
        (0.50000000 0.50000000)
        (0.50000000 0.50000000))
        ((0.50000000 0.50000000)
        (0.50000000 0.50000000)
        (0.50000000 0.50000000)
        (0.50000000 0.50000000)
        (0.33333333 0.66666667)
        (0.50000000 0.50000000)
        (0.50000000 0.50000000)
        (0.50000000 0.50000000)
        (0.50000000 0.50000000)
        (0.50000000 0.50000000)))
        (((0.50000000 0.50000000)
        (0.50000000 0.50000000)
        (0.50000000 0.50000000)
        (0.50000000 0.50000000)
        (0.50000000 0.50000000)
        (0.50000000 0.50000000)
        (0.50000000 0.50000000)
        (0.50000000 0.50000000)
        (0.50000000 0.50000000)
        (0.50000000 0.50000000))
        ((0.50000000 0.50000000)
        (0.50000000 0.50000000)
        (0.50000000 0.50000000)
        (0.50000000 0.50000000)
        (0.50000000 0.50000000)
        (0.50000000 0.50000000)
        (0.50000000 0.50000000)
        (0.50000000 0.50000000)
        (0.50000000 0.50000000)
        (0.50000000 0.50000000))
        ((0.50000000 0.50000000)
        (0.50000000 0.50000000)
        (0.33333333 0.66666667)
        (0.50000000 0.50000000)
        (0.50000000 0.50000000)
        (0.50000000 0.50000000)
        (0.50000000 0.50000000)
        (0.50000000 0.50000000)
        (0.50000000 0.50000000)
        (0.50000000 0.50000000)))
        (((0.50000000 0.50000000)
        (0.50000000 0.50000000)
        (0.50000000 0.50000000)
        (0.50000000 0.50000000)
        (0.50000000 0.50000000)
        (0.50000000 0.50000000)
        (0.50000000 0.50000000)
        (0.50000000 0.50000000)
        (0.50000000 0.50000000)
        (0.50000000 0.50000000))
        ((0.50000000 0.50000000)
        (0.50000000 0.50000000)
        (0.50000000 0.50000000)
        (0.50000000 0.50000000)
        (0.50000000 0.50000000)
        (0.50000000 0.50000000)
        (0.50000000 0.50000000)
        (0.50000000 0.50000000)
        (0.50000000 0.50000000)
        (0.50000000 0.50000000))
        ((0.50000000 0.50000000)
        (0.50000000 0.50000000)
        (0.50000000 0.50000000)
        (0.50000000 0.50000000)
        (0.50000000 0.50000000)
        (0.50000000 0.50000000)
        (0.50000000 0.50000000)
        (0.50000000 0.50000000)
        (0.50000000 0.50000000)
        (0.50000000 0.50000000)))
        (((0.50000000 0.50000000)
        (0.50000000 0.50000000)
        (0.50000000 0.50000000)
        (0.50000000 0.50000000)
        (0.50000000 0.50000000)
        (0.50000000 0.50000000)
        (0.50000000 0.50000000)
        (0.50000000 0.50000000)
        (0.50000000 0.50000000)
        (0.50000000 0.50000000))
        ((0.50000000 0.50000000)
        (0.50000000 0.50000000)
        (0.50000000 0.50000000)
        (0.50000000 0.50000000)
        (0.50000000 0.50000000)
        (0.50000000 0.50000000)
        (0.50000000 0.50000000)
        (0.50000000 0.50000000)
        (0.50000000 0.50000000)
        (0.50000000 0.50000000))
        ((0.50000000 0.50000000)
        (0.50000000 0.50000000)
        (0.33333333 0.66666667)
        (0.50000000 0.50000000)
        (0.33333333 0.66666667)
        (0.50000000 0.50000000)
        (0.50000000 0.50000000)
        (0.50000000 0.50000000)
        (0.50000000 0.50000000)
        (0.50000000 0.50000000))))
        ((((0.50000000 0.50000000)
        (0.50000000 0.50000000)
        (0.50000000 0.50000000)
        (0.50000000 0.50000000)
        (0.50000000 0.50000000)
        (0.50000000 0.50000000)
        (0.50000000 0.50000000)
        (0.50000000 0.50000000)
        (0.50000000 0.50000000)
        (0.50000000 0.50000000))
        ((0.50000000 0.50000000)
        (0.50000000 0.50000000)
        (0.50000000 0.50000000)
        (0.50000000 0.50000000)
        (0.50000000 0.50000000)
        (0.50000000 0.50000000)
        (0.50000000 0.50000000)
        (0.50000000 0.50000000)
        (0.50000000 0.50000000)
        (0.50000000 0.50000000))
        ((0.81818182 0.18181818)
        (0.50000000 0.50000000)
        (0.75000000 0.25000000)
        (0.75000000 0.25000000)
        (0.50000000 0.50000000)
        (0.60000000 0.40000000)
        (0.50000000 0.50000000)
        (0.50000000 0.50000000)
        (0.50000000 0.50000000)
        (0.50000000 0.50000000)))
        (((0.50000000 0.50000000)
        (0.50000000 0.50000000)
        (0.50000000 0.50000000)
        (0.50000000 0.50000000)
        (0.50000000 0.50000000)
        (0.50000000 0.50000000)
        (0.50000000 0.50000000)
        (0.50000000 0.50000000)
        (0.50000000 0.50000000)
        (0.50000000 0.50000000))
        ((0.50000000 0.50000000)
        (0.50000000 0.50000000)
        (0.50000000 0.50000000)
        (0.50000000 0.50000000)
        (0.50000000 0.50000000)
        (0.50000000 0.50000000)
        (0.50000000 0.50000000)
        (0.50000000 0.50000000)
        (0.50000000 0.50000000)
        (0.50000000 0.50000000))
        ((0.50000000 0.50000000)
        (0.50000000 0.50000000)
        (0.50000000 0.50000000)
        (0.50000000 0.50000000)
        (0.50000000 0.50000000)
        (0.50000000 0.50000000)
        (0.33333333 0.66666667)
        (0.50000000 0.50000000)
        (0.50000000 0.50000000)
        (0.50000000 0.50000000)))
        (((0.50000000 0.50000000)
        (0.50000000 0.50000000)
        (0.50000000 0.50000000)
        (0.50000000 0.50000000)
        (0.50000000 0.50000000)
        (0.50000000 0.50000000)
        (0.50000000 0.50000000)
        (0.50000000 0.50000000)
        (0.50000000 0.50000000)
        (0.50000000 0.50000000))
        ((0.50000000 0.50000000)
        (0.50000000 0.50000000)
        (0.50000000 0.50000000)
        (0.50000000 0.50000000)
        (0.50000000 0.50000000)
        (0.50000000 0.50000000)
        (0.50000000 0.50000000)
        (0.50000000 0.50000000)
        (0.50000000 0.50000000)
        (0.50000000 0.50000000))
        ((0.50000000 0.50000000)
        (0.50000000 0.50000000)
        (0.50000000 0.50000000)
        (0.50000000 0.50000000)
        (0.50000000 0.50000000)
        (0.50000000 0.50000000)
        (0.50000000 0.50000000)
        (0.50000000 0.50000000)
        (0.50000000 0.50000000)
        (0.50000000 0.50000000)))
        (((0.50000000 0.50000000)
        (0.50000000 0.50000000)
        (0.50000000 0.50000000)
        (0.50000000 0.50000000)
        (0.50000000 0.50000000)
        (0.50000000 0.50000000)
        (0.50000000 0.50000000)
        (0.50000000 0.50000000)
        (0.50000000 0.50000000)
        (0.50000000 0.50000000))
        ((0.50000000 0.50000000)
        (0.50000000 0.50000000)
        (0.50000000 0.50000000)
        (0.50000000 0.50000000)
        (0.50000000 0.50000000)
        (0.50000000 0.50000000)
        (0.50000000 0.50000000)
        (0.50000000 0.50000000)
        (0.50000000 0.50000000)
        (0.50000000 0.50000000))
        ((0.75000000 0.25000000)
        (0.50000000 0.50000000)
        (0.33333333 0.66666667)
        (0.50000000 0.50000000)
        (0.16666667 0.83333333)
        (0.50000000 0.50000000)
        (0.50000000 0.50000000)
        (0.50000000 0.50000000)
        (0.50000000 0.50000000)
        (0.50000000 0.50000000)))
        (((0.50000000 0.50000000)
        (0.50000000 0.50000000)
        (0.50000000 0.50000000)
        (0.50000000 0.50000000)
        (0.50000000 0.50000000)
        (0.50000000 0.50000000)
        (0.50000000 0.50000000)
        (0.50000000 0.50000000)
        (0.50000000 0.50000000)
        (0.50000000 0.50000000))
        ((0.50000000 0.50000000)
        (0.50000000 0.50000000)
        (0.50000000 0.50000000)
        (0.50000000 0.50000000)
        (0.50000000 0.50000000)
        (0.50000000 0.50000000)
        (0.50000000 0.50000000)
        (0.50000000 0.50000000)
        (0.50000000 0.50000000)
        (0.50000000 0.50000000))
        ((0.50000000 0.50000000)
        (0.50000000 0.50000000)
        (0.50000000 0.50000000)
        (0.50000000 0.50000000)
        (0.50000000 0.50000000)
        (0.50000000 0.50000000)
        (0.50000000 0.50000000)
        (0.50000000 0.50000000)
        (0.50000000 0.50000000)
        (0.50000000 0.50000000)))
        (((0.50000000 0.50000000)
        (0.50000000 0.50000000)
        (0.50000000 0.50000000)
        (0.50000000 0.50000000)
        (0.50000000 0.50000000)
        (0.50000000 0.50000000)
        (0.50000000 0.50000000)
        (0.50000000 0.50000000)
        (0.50000000 0.50000000)
        (0.50000000 0.50000000))
        ((0.50000000 0.50000000)
        (0.50000000 0.50000000)
        (0.50000000 0.50000000)
        (0.50000000 0.50000000)
        (0.50000000 0.50000000)
        (0.50000000 0.50000000)
        (0.50000000 0.50000000)
        (0.50000000 0.50000000)
        (0.50000000 0.50000000)
        (0.50000000 0.50000000))
        ((0.50000000 0.50000000)
        (0.50000000 0.50000000)
        (0.50000000 0.50000000)
        (0.50000000 0.50000000)
        (0.50000000 0.50000000)
        (0.50000000 0.50000000)
        (0.50000000 0.50000000)
        (0.50000000 0.50000000)
        (0.50000000 0.50000000)
        (0.50000000 0.50000000)))
        (((0.50000000 0.50000000)
        (0.50000000 0.50000000)
        (0.50000000 0.50000000)
        (0.50000000 0.50000000)
        (0.50000000 0.50000000)
        (0.50000000 0.50000000)
        (0.50000000 0.50000000)
        (0.50000000 0.50000000)
        (0.50000000 0.50000000)
        (0.50000000 0.50000000))
        ((0.50000000 0.50000000)
        (0.50000000 0.50000000)
        (0.50000000 0.50000000)
        (0.50000000 0.50000000)
        (0.50000000 0.50000000)
        (0.50000000 0.50000000)
        (0.50000000 0.50000000)
        (0.50000000 0.50000000)
        (0.50000000 0.50000000)
        (0.50000000 0.50000000))
        ((0.50000000 0.50000000)
        (0.50000000 0.50000000)
        (0.50000000 0.50000000)
        (0.50000000 0.50000000)
        (0.50000000 0.50000000)
        (0.50000000 0.50000000)
        (0.50000000 0.50000000)
        (0.50000000 0.50000000)
        (0.50000000 0.50000000)
        (0.50000000 0.50000000)))
        (((0.50000000 0.50000000)
        (0.50000000 0.50000000)
        (0.50000000 0.50000000)
        (0.50000000 0.50000000)
        (0.50000000 0.50000000)
        (0.50000000 0.50000000)
        (0.50000000 0.50000000)
        (0.50000000 0.50000000)
        (0.50000000 0.50000000)
        (0.50000000 0.50000000))
        ((0.50000000 0.50000000)
        (0.50000000 0.50000000)
        (0.50000000 0.50000000)
        (0.50000000 0.50000000)
        (0.50000000 0.50000000)
        (0.50000000 0.50000000)
        (0.50000000 0.50000000)
        (0.50000000 0.50000000)
        (0.50000000 0.50000000)
        (0.50000000 0.50000000))
        ((0.50000000 0.50000000)
        (0.50000000 0.50000000)
        (0.33333333 0.66666667)
        (0.50000000 0.50000000)
        (0.50000000 0.50000000)
        (0.50000000 0.50000000)
        (0.50000000 0.50000000)
        (0.50000000 0.50000000)
        (0.50000000 0.50000000)
        (0.50000000 0.50000000))))
        ((((0.50000000 0.50000000)
        (0.50000000 0.50000000)
        (0.50000000 0.50000000)
        (0.50000000 0.50000000)
        (0.50000000 0.50000000)
        (0.50000000 0.50000000)
        (0.50000000 0.50000000)
        (0.50000000 0.50000000)
        (0.50000000 0.50000000)
        (0.50000000 0.50000000))
        ((0.50000000 0.50000000)
        (0.50000000 0.50000000)
        (0.50000000 0.50000000)
        (0.50000000 0.50000000)
        (0.50000000 0.50000000)
        (0.50000000 0.50000000)
        (0.50000000 0.50000000)
        (0.50000000 0.50000000)
        (0.50000000 0.50000000)
        (0.50000000 0.50000000))
        ((0.75000000 0.25000000)
        (0.50000000 0.50000000)
        (0.66666667 0.33333333)
        (0.33333333 0.66666667)
        (0.50000000 0.50000000)
        (0.50000000 0.50000000)
        (0.66666667 0.33333333)
        (0.50000000 0.50000000)
        (0.50000000 0.50000000)
        (0.50000000 0.50000000)))
        (((0.50000000 0.50000000)
        (0.50000000 0.50000000)
        (0.50000000 0.50000000)
        (0.50000000 0.50000000)
        (0.50000000 0.50000000)
        (0.50000000 0.50000000)
        (0.50000000 0.50000000)
        (0.50000000 0.50000000)
        (0.50000000 0.50000000)
        (0.50000000 0.50000000))
        ((0.50000000 0.50000000)
        (0.50000000 0.50000000)
        (0.50000000 0.50000000)
        (0.50000000 0.50000000)
        (0.50000000 0.50000000)
        (0.50000000 0.50000000)
        (0.50000000 0.50000000)
        (0.50000000 0.50000000)
        (0.50000000 0.50000000)
        (0.50000000 0.50000000))
        ((0.50000000 0.50000000)
        (0.50000000 0.50000000)
        (0.33333333 0.66666667)
        (0.50000000 0.50000000)
        (0.33333333 0.66666667)
        (0.50000000 0.50000000)
        (0.50000000 0.50000000)
        (0.50000000 0.50000000)
        (0.50000000 0.50000000)
        (0.50000000 0.50000000)))
        (((0.50000000 0.50000000)
        (0.50000000 0.50000000)
        (0.50000000 0.50000000)
        (0.50000000 0.50000000)
        (0.50000000 0.50000000)
        (0.50000000 0.50000000)
        (0.50000000 0.50000000)
        (0.50000000 0.50000000)
        (0.50000000 0.50000000)
        (0.50000000 0.50000000))
        ((0.50000000 0.50000000)
        (0.50000000 0.50000000)
        (0.50000000 0.50000000)
        (0.50000000 0.50000000)
        (0.50000000 0.50000000)
        (0.50000000 0.50000000)
        (0.50000000 0.50000000)
        (0.50000000 0.50000000)
        (0.50000000 0.50000000)
        (0.50000000 0.50000000))
        ((0.50000000 0.50000000)
        (0.50000000 0.50000000)
        (0.50000000 0.50000000)
        (0.50000000 0.50000000)
        (0.25000000 0.75000000)
        (0.50000000 0.50000000)
        (0.50000000 0.50000000)
        (0.50000000 0.50000000)
        (0.50000000 0.50000000)
        (0.50000000 0.50000000)))
        (((0.50000000 0.50000000)
        (0.50000000 0.50000000)
        (0.50000000 0.50000000)
        (0.50000000 0.50000000)
        (0.50000000 0.50000000)
        (0.50000000 0.50000000)
        (0.50000000 0.50000000)
        (0.50000000 0.50000000)
        (0.50000000 0.50000000)
        (0.50000000 0.50000000))
        ((0.50000000 0.50000000)
        (0.50000000 0.50000000)
        (0.50000000 0.50000000)
        (0.50000000 0.50000000)
        (0.50000000 0.50000000)
        (0.50000000 0.50000000)
        (0.50000000 0.50000000)
        (0.50000000 0.50000000)
        (0.50000000 0.50000000)
        (0.50000000 0.50000000))
        ((0.60000000 0.40000000)
        (0.66666667 0.33333333)
        (0.33333333 0.66666667)
        (0.50000000 0.50000000)
        (0.14285714 0.85714286)
        (0.50000000 0.50000000)
        (0.50000000 0.50000000)
        (0.50000000 0.50000000)
        (0.50000000 0.50000000)
        (0.50000000 0.50000000)))
        (((0.50000000 0.50000000)
        (0.50000000 0.50000000)
        (0.50000000 0.50000000)
        (0.50000000 0.50000000)
        (0.50000000 0.50000000)
        (0.50000000 0.50000000)
        (0.50000000 0.50000000)
        (0.50000000 0.50000000)
        (0.50000000 0.50000000)
        (0.50000000 0.50000000))
        ((0.50000000 0.50000000)
        (0.50000000 0.50000000)
        (0.50000000 0.50000000)
        (0.50000000 0.50000000)
        (0.50000000 0.50000000)
        (0.50000000 0.50000000)
        (0.50000000 0.50000000)
        (0.50000000 0.50000000)
        (0.50000000 0.50000000)
        (0.50000000 0.50000000))
        ((0.50000000 0.50000000)
        (0.50000000 0.50000000)
        (0.33333333 0.66666667)
        (0.66666667 0.33333333)
        (0.50000000 0.50000000)
        (0.50000000 0.50000000)
        (0.50000000 0.50000000)
        (0.50000000 0.50000000)
        (0.50000000 0.50000000)
        (0.50000000 0.50000000)))
        (((0.50000000 0.50000000)
        (0.50000000 0.50000000)
        (0.50000000 0.50000000)
        (0.50000000 0.50000000)
        (0.50000000 0.50000000)
        (0.50000000 0.50000000)
        (0.50000000 0.50000000)
        (0.50000000 0.50000000)
        (0.50000000 0.50000000)
        (0.50000000 0.50000000))
        ((0.50000000 0.50000000)
        (0.50000000 0.50000000)
        (0.50000000 0.50000000)
        (0.50000000 0.50000000)
        (0.50000000 0.50000000)
        (0.50000000 0.50000000)
        (0.50000000 0.50000000)
        (0.50000000 0.50000000)
        (0.50000000 0.50000000)
        (0.50000000 0.50000000))
        ((0.50000000 0.50000000)
        (0.50000000 0.50000000)
        (0.50000000 0.50000000)
        (0.50000000 0.50000000)
        (0.50000000 0.50000000)
        (0.50000000 0.50000000)
        (0.50000000 0.50000000)
        (0.50000000 0.50000000)
        (0.50000000 0.50000000)
        (0.50000000 0.50000000)))
        (((0.50000000 0.50000000)
        (0.50000000 0.50000000)
        (0.50000000 0.50000000)
        (0.50000000 0.50000000)
        (0.50000000 0.50000000)
        (0.50000000 0.50000000)
        (0.50000000 0.50000000)
        (0.50000000 0.50000000)
        (0.50000000 0.50000000)
        (0.50000000 0.50000000))
        ((0.50000000 0.50000000)
        (0.50000000 0.50000000)
        (0.50000000 0.50000000)
        (0.50000000 0.50000000)
        (0.50000000 0.50000000)
        (0.50000000 0.50000000)
        (0.50000000 0.50000000)
        (0.50000000 0.50000000)
        (0.50000000 0.50000000)
        (0.50000000 0.50000000))
        ((0.50000000 0.50000000)
        (0.50000000 0.50000000)
        (0.50000000 0.50000000)
        (0.50000000 0.50000000)
        (0.50000000 0.50000000)
        (0.50000000 0.50000000)
        (0.50000000 0.50000000)
        (0.50000000 0.50000000)
        (0.50000000 0.50000000)
        (0.50000000 0.50000000)))
        (((0.50000000 0.50000000)
        (0.50000000 0.50000000)
        (0.50000000 0.50000000)
        (0.50000000 0.50000000)
        (0.50000000 0.50000000)
        (0.50000000 0.50000000)
        (0.50000000 0.50000000)
        (0.50000000 0.50000000)
        (0.50000000 0.50000000)
        (0.50000000 0.50000000))
        ((0.50000000 0.50000000)
        (0.50000000 0.50000000)
        (0.50000000 0.50000000)
        (0.50000000 0.50000000)
        (0.50000000 0.50000000)
        (0.50000000 0.50000000)
        (0.50000000 0.50000000)
        (0.50000000 0.50000000)
        (0.50000000 0.50000000)
        (0.50000000 0.50000000))
        ((0.50000000 0.50000000)
        (0.50000000 0.50000000)
        (0.33333333 0.66666667)
        (0.50000000 0.50000000)
        (0.50000000 0.50000000)
        (0.50000000 0.50000000)
        (0.50000000 0.50000000)
        (0.50000000 0.50000000)
        (0.50000000 0.50000000)
        (0.50000000 0.50000000))))
        ((((0.50000000 0.50000000)
        (0.50000000 0.50000000)
        (0.50000000 0.50000000)
        (0.50000000 0.50000000)
        (0.50000000 0.50000000)
        (0.50000000 0.50000000)
        (0.50000000 0.50000000)
        (0.50000000 0.50000000)
        (0.50000000 0.50000000)
        (0.50000000 0.50000000))
        ((0.50000000 0.50000000)
        (0.50000000 0.50000000)
        (0.50000000 0.50000000)
        (0.50000000 0.50000000)
        (0.50000000 0.50000000)
        (0.50000000 0.50000000)
        (0.50000000 0.50000000)
        (0.50000000 0.50000000)
        (0.50000000 0.50000000)
        (0.50000000 0.50000000))
        ((0.66666667 0.33333333)
        (0.50000000 0.50000000)
        (0.33333333 0.66666667)
        (0.90000000 0.10000000)
        (0.20000000 0.80000000)
        (0.66666667 0.33333333)
        (0.80000000 0.20000000)
        (0.66666667 0.33333333)
        (0.50000000 0.50000000)
        (0.66666667 0.33333333)))
        (((0.50000000 0.50000000)
        (0.50000000 0.50000000)
        (0.50000000 0.50000000)
        (0.50000000 0.50000000)
        (0.50000000 0.50000000)
        (0.50000000 0.50000000)
        (0.50000000 0.50000000)
        (0.50000000 0.50000000)
        (0.50000000 0.50000000)
        (0.50000000 0.50000000))
        ((0.50000000 0.50000000)
        (0.50000000 0.50000000)
        (0.50000000 0.50000000)
        (0.50000000 0.50000000)
        (0.50000000 0.50000000)
        (0.50000000 0.50000000)
        (0.50000000 0.50000000)
        (0.50000000 0.50000000)
        (0.50000000 0.50000000)
        (0.50000000 0.50000000))
        ((0.50000000 0.50000000)
        (0.50000000 0.50000000)
        (0.50000000 0.50000000)
        (0.50000000 0.50000000)
        (0.50000000 0.50000000)
        (0.50000000 0.50000000)
        (0.50000000 0.50000000)
        (0.50000000 0.50000000)
        (0.50000000 0.50000000)
        (0.50000000 0.50000000)))
        (((0.50000000 0.50000000)
        (0.50000000 0.50000000)
        (0.50000000 0.50000000)
        (0.50000000 0.50000000)
        (0.50000000 0.50000000)
        (0.50000000 0.50000000)
        (0.50000000 0.50000000)
        (0.50000000 0.50000000)
        (0.50000000 0.50000000)
        (0.50000000 0.50000000))
        ((0.50000000 0.50000000)
        (0.50000000 0.50000000)
        (0.50000000 0.50000000)
        (0.50000000 0.50000000)
        (0.50000000 0.50000000)
        (0.50000000 0.50000000)
        (0.50000000 0.50000000)
        (0.50000000 0.50000000)
        (0.50000000 0.50000000)
        (0.50000000 0.50000000))
        ((0.50000000 0.50000000)
        (0.50000000 0.50000000)
        (0.50000000 0.50000000)
        (0.50000000 0.50000000)
        (0.50000000 0.50000000)
        (0.50000000 0.50000000)
        (0.50000000 0.50000000)
        (0.50000000 0.50000000)
        (0.50000000 0.50000000)
        (0.50000000 0.50000000)))
        (((0.50000000 0.50000000)
        (0.50000000 0.50000000)
        (0.50000000 0.50000000)
        (0.50000000 0.50000000)
        (0.50000000 0.50000000)
        (0.50000000 0.50000000)
        (0.50000000 0.50000000)
        (0.50000000 0.50000000)
        (0.50000000 0.50000000)
        (0.50000000 0.50000000))
        ((0.50000000 0.50000000)
        (0.50000000 0.50000000)
        (0.50000000 0.50000000)
        (0.50000000 0.50000000)
        (0.50000000 0.50000000)
        (0.50000000 0.50000000)
        (0.50000000 0.50000000)
        (0.50000000 0.50000000)
        (0.50000000 0.50000000)
        (0.50000000 0.50000000))
        ((0.33333333 0.66666667)
        (0.50000000 0.50000000)
        (0.20000000 0.80000000)
        (0.50000000 0.50000000)
        (0.33333333 0.66666667)
        (0.50000000 0.50000000)
        (0.50000000 0.50000000)
        (0.50000000 0.50000000)
        (0.50000000 0.50000000)
        (0.50000000 0.50000000)))
        (((0.50000000 0.50000000)
        (0.50000000 0.50000000)
        (0.50000000 0.50000000)
        (0.50000000 0.50000000)
        (0.50000000 0.50000000)
        (0.50000000 0.50000000)
        (0.50000000 0.50000000)
        (0.50000000 0.50000000)
        (0.50000000 0.50000000)
        (0.50000000 0.50000000))
        ((0.50000000 0.50000000)
        (0.50000000 0.50000000)
        (0.50000000 0.50000000)
        (0.50000000 0.50000000)
        (0.50000000 0.50000000)
        (0.50000000 0.50000000)
        (0.50000000 0.50000000)
        (0.50000000 0.50000000)
        (0.50000000 0.50000000)
        (0.50000000 0.50000000))
        ((0.50000000 0.50000000)
        (0.50000000 0.50000000)
        (0.50000000 0.50000000)
        (0.50000000 0.50000000)
        (0.50000000 0.50000000)
        (0.50000000 0.50000000)
        (0.50000000 0.50000000)
        (0.50000000 0.50000000)
        (0.50000000 0.50000000)
        (0.50000000 0.50000000)))
        (((0.50000000 0.50000000)
        (0.50000000 0.50000000)
        (0.50000000 0.50000000)
        (0.50000000 0.50000000)
        (0.50000000 0.50000000)
        (0.50000000 0.50000000)
        (0.50000000 0.50000000)
        (0.50000000 0.50000000)
        (0.50000000 0.50000000)
        (0.50000000 0.50000000))
        ((0.50000000 0.50000000)
        (0.50000000 0.50000000)
        (0.50000000 0.50000000)
        (0.50000000 0.50000000)
        (0.50000000 0.50000000)
        (0.50000000 0.50000000)
        (0.50000000 0.50000000)
        (0.50000000 0.50000000)
        (0.50000000 0.50000000)
        (0.50000000 0.50000000))
        ((0.50000000 0.50000000)
        (0.50000000 0.50000000)
        (0.50000000 0.50000000)
        (0.50000000 0.50000000)
        (0.50000000 0.50000000)
        (0.50000000 0.50000000)
        (0.50000000 0.50000000)
        (0.50000000 0.50000000)
        (0.50000000 0.50000000)
        (0.50000000 0.50000000)))
        (((0.50000000 0.50000000)
        (0.50000000 0.50000000)
        (0.50000000 0.50000000)
        (0.50000000 0.50000000)
        (0.50000000 0.50000000)
        (0.50000000 0.50000000)
        (0.50000000 0.50000000)
        (0.50000000 0.50000000)
        (0.50000000 0.50000000)
        (0.50000000 0.50000000))
        ((0.50000000 0.50000000)
        (0.50000000 0.50000000)
        (0.50000000 0.50000000)
        (0.50000000 0.50000000)
        (0.50000000 0.50000000)
        (0.50000000 0.50000000)
        (0.50000000 0.50000000)
        (0.50000000 0.50000000)
        (0.50000000 0.50000000)
        (0.50000000 0.50000000))
        ((0.50000000 0.50000000)
        (0.50000000 0.50000000)
        (0.50000000 0.50000000)
        (0.50000000 0.50000000)
        (0.50000000 0.50000000)
        (0.50000000 0.50000000)
        (0.50000000 0.50000000)
        (0.50000000 0.50000000)
        (0.50000000 0.50000000)
        (0.50000000 0.50000000)))
        (((0.50000000 0.50000000)
        (0.50000000 0.50000000)
        (0.50000000 0.50000000)
        (0.50000000 0.50000000)
        (0.50000000 0.50000000)
        (0.50000000 0.50000000)
        (0.50000000 0.50000000)
        (0.50000000 0.50000000)
        (0.50000000 0.50000000)
        (0.50000000 0.50000000))
        ((0.50000000 0.50000000)
        (0.50000000 0.50000000)
        (0.50000000 0.50000000)
        (0.50000000 0.50000000)
        (0.50000000 0.50000000)
        (0.50000000 0.50000000)
        (0.50000000 0.50000000)
        (0.50000000 0.50000000)
        (0.50000000 0.50000000)
        (0.50000000 0.50000000))
        ((0.50000000 0.50000000)
        (0.50000000 0.50000000)
        (0.50000000 0.50000000)
        (0.50000000 0.50000000)
        (0.50000000 0.50000000)
        (0.50000000 0.50000000)
        (0.50000000 0.50000000)
        (0.50000000 0.50000000)
        (0.50000000 0.50000000)
        (0.50000000 0.50000000))))
        ((((0.50000000 0.50000000)
        (0.50000000 0.50000000)
        (0.50000000 0.50000000)
        (0.50000000 0.50000000)
        (0.50000000 0.50000000)
        (0.50000000 0.50000000)
        (0.50000000 0.50000000)
        (0.50000000 0.50000000)
        (0.50000000 0.50000000)
        (0.50000000 0.50000000))
        ((0.50000000 0.50000000)
        (0.50000000 0.50000000)
        (0.50000000 0.50000000)
        (0.50000000 0.50000000)
        (0.50000000 0.50000000)
        (0.50000000 0.50000000)
        (0.50000000 0.50000000)
        (0.50000000 0.50000000)
        (0.50000000 0.50000000)
        (0.50000000 0.50000000))
        ((0.66666667 0.33333333)
        (0.50000000 0.50000000)
        (0.50000000 0.50000000)
        (0.75000000 0.25000000)
        (0.50000000 0.50000000)
        (0.50000000 0.50000000)
        (0.50000000 0.50000000)
        (0.66666667 0.33333333)
        (0.66666667 0.33333333)
        (0.50000000 0.50000000)))
        (((0.50000000 0.50000000)
        (0.50000000 0.50000000)
        (0.50000000 0.50000000)
        (0.50000000 0.50000000)
        (0.50000000 0.50000000)
        (0.50000000 0.50000000)
        (0.50000000 0.50000000)
        (0.50000000 0.50000000)
        (0.50000000 0.50000000)
        (0.50000000 0.50000000))
        ((0.50000000 0.50000000)
        (0.50000000 0.50000000)
        (0.50000000 0.50000000)
        (0.50000000 0.50000000)
        (0.50000000 0.50000000)
        (0.50000000 0.50000000)
        (0.50000000 0.50000000)
        (0.50000000 0.50000000)
        (0.50000000 0.50000000)
        (0.50000000 0.50000000))
        ((0.50000000 0.50000000)
        (0.50000000 0.50000000)
        (0.50000000 0.50000000)
        (0.50000000 0.50000000)
        (0.50000000 0.50000000)
        (0.50000000 0.50000000)
        (0.50000000 0.50000000)
        (0.50000000 0.50000000)
        (0.50000000 0.50000000)
        (0.50000000 0.50000000)))
        (((0.50000000 0.50000000)
        (0.50000000 0.50000000)
        (0.50000000 0.50000000)
        (0.50000000 0.50000000)
        (0.50000000 0.50000000)
        (0.50000000 0.50000000)
        (0.50000000 0.50000000)
        (0.50000000 0.50000000)
        (0.50000000 0.50000000)
        (0.50000000 0.50000000))
        ((0.50000000 0.50000000)
        (0.50000000 0.50000000)
        (0.50000000 0.50000000)
        (0.50000000 0.50000000)
        (0.50000000 0.50000000)
        (0.50000000 0.50000000)
        (0.50000000 0.50000000)
        (0.50000000 0.50000000)
        (0.50000000 0.50000000)
        (0.50000000 0.50000000))
        ((0.50000000 0.50000000)
        (0.50000000 0.50000000)
        (0.50000000 0.50000000)
        (0.50000000 0.50000000)
        (0.50000000 0.50000000)
        (0.50000000 0.50000000)
        (0.50000000 0.50000000)
        (0.50000000 0.50000000)
        (0.50000000 0.50000000)
        (0.50000000 0.50000000)))
        (((0.50000000 0.50000000)
        (0.50000000 0.50000000)
        (0.50000000 0.50000000)
        (0.50000000 0.50000000)
        (0.50000000 0.50000000)
        (0.50000000 0.50000000)
        (0.50000000 0.50000000)
        (0.50000000 0.50000000)
        (0.50000000 0.50000000)
        (0.50000000 0.50000000))
        ((0.50000000 0.50000000)
        (0.50000000 0.50000000)
        (0.50000000 0.50000000)
        (0.50000000 0.50000000)
        (0.50000000 0.50000000)
        (0.50000000 0.50000000)
        (0.50000000 0.50000000)
        (0.50000000 0.50000000)
        (0.50000000 0.50000000)
        (0.50000000 0.50000000))
        ((0.50000000 0.50000000)
        (0.50000000 0.50000000)
        (0.50000000 0.50000000)
        (0.50000000 0.50000000)
        (0.50000000 0.50000000)
        (0.50000000 0.50000000)
        (0.50000000 0.50000000)
        (0.50000000 0.50000000)
        (0.50000000 0.50000000)
        (0.66666667 0.33333333)))
        (((0.50000000 0.50000000)
        (0.50000000 0.50000000)
        (0.50000000 0.50000000)
        (0.50000000 0.50000000)
        (0.50000000 0.50000000)
        (0.50000000 0.50000000)
        (0.50000000 0.50000000)
        (0.50000000 0.50000000)
        (0.50000000 0.50000000)
        (0.50000000 0.50000000))
        ((0.50000000 0.50000000)
        (0.50000000 0.50000000)
        (0.50000000 0.50000000)
        (0.50000000 0.50000000)
        (0.50000000 0.50000000)
        (0.50000000 0.50000000)
        (0.50000000 0.50000000)
        (0.50000000 0.50000000)
        (0.50000000 0.50000000)
        (0.50000000 0.50000000))
        ((0.50000000 0.50000000)
        (0.50000000 0.50000000)
        (0.50000000 0.50000000)
        (0.50000000 0.50000000)
        (0.50000000 0.50000000)
        (0.50000000 0.50000000)
        (0.50000000 0.50000000)
        (0.50000000 0.50000000)
        (0.50000000 0.50000000)
        (0.50000000 0.50000000)))
        (((0.50000000 0.50000000)
        (0.50000000 0.50000000)
        (0.50000000 0.50000000)
        (0.50000000 0.50000000)
        (0.50000000 0.50000000)
        (0.50000000 0.50000000)
        (0.50000000 0.50000000)
        (0.50000000 0.50000000)
        (0.50000000 0.50000000)
        (0.50000000 0.50000000))
        ((0.50000000 0.50000000)
        (0.50000000 0.50000000)
        (0.50000000 0.50000000)
        (0.50000000 0.50000000)
        (0.50000000 0.50000000)
        (0.50000000 0.50000000)
        (0.50000000 0.50000000)
        (0.50000000 0.50000000)
        (0.50000000 0.50000000)
        (0.50000000 0.50000000))
        ((0.50000000 0.50000000)
        (0.50000000 0.50000000)
        (0.50000000 0.50000000)
        (0.50000000 0.50000000)
        (0.50000000 0.50000000)
        (0.50000000 0.50000000)
        (0.50000000 0.50000000)
        (0.50000000 0.50000000)
        (0.50000000 0.50000000)
        (0.50000000 0.50000000)))
        (((0.50000000 0.50000000)
        (0.50000000 0.50000000)
        (0.50000000 0.50000000)
        (0.50000000 0.50000000)
        (0.50000000 0.50000000)
        (0.50000000 0.50000000)
        (0.50000000 0.50000000)
        (0.50000000 0.50000000)
        (0.50000000 0.50000000)
        (0.50000000 0.50000000))
        ((0.50000000 0.50000000)
        (0.50000000 0.50000000)
        (0.50000000 0.50000000)
        (0.50000000 0.50000000)
        (0.50000000 0.50000000)
        (0.50000000 0.50000000)
        (0.50000000 0.50000000)
        (0.50000000 0.50000000)
        (0.50000000 0.50000000)
        (0.50000000 0.50000000))
        ((0.50000000 0.50000000)
        (0.50000000 0.50000000)
        (0.50000000 0.50000000)
        (0.50000000 0.50000000)
        (0.50000000 0.50000000)
        (0.50000000 0.50000000)
        (0.50000000 0.50000000)
        (0.50000000 0.50000000)
        (0.50000000 0.50000000)
        (0.50000000 0.50000000)))
        (((0.50000000 0.50000000)
        (0.50000000 0.50000000)
        (0.50000000 0.50000000)
        (0.50000000 0.50000000)
        (0.50000000 0.50000000)
        (0.50000000 0.50000000)
        (0.50000000 0.50000000)
        (0.50000000 0.50000000)
        (0.50000000 0.50000000)
        (0.50000000 0.50000000))
        ((0.50000000 0.50000000)
        (0.50000000 0.50000000)
        (0.50000000 0.50000000)
        (0.50000000 0.50000000)
        (0.50000000 0.50000000)
        (0.50000000 0.50000000)
        (0.50000000 0.50000000)
        (0.50000000 0.50000000)
        (0.50000000 0.50000000)
        (0.50000000 0.50000000))
        ((0.50000000 0.50000000)
        (0.50000000 0.50000000)
        (0.50000000 0.50000000)
        (0.50000000 0.50000000)
        (0.50000000 0.50000000)
        (0.50000000 0.50000000)
        (0.33333333 0.66666667)
        (0.50000000 0.50000000)
        (0.50000000 0.50000000)
        (0.50000000 0.50000000))))
        ((((0.50000000 0.50000000)
        (0.50000000 0.50000000)
        (0.50000000 0.50000000)
        (0.50000000 0.50000000)
        (0.50000000 0.50000000)
        (0.50000000 0.50000000)
        (0.50000000 0.50000000)
        (0.50000000 0.50000000)
        (0.50000000 0.50000000)
        (0.50000000 0.50000000))
        ((0.50000000 0.50000000)
        (0.50000000 0.50000000)
        (0.50000000 0.50000000)
        (0.50000000 0.50000000)
        (0.50000000 0.50000000)
        (0.50000000 0.50000000)
        (0.50000000 0.50000000)
        (0.50000000 0.50000000)
        (0.50000000 0.50000000)
        (0.50000000 0.50000000))
        ((0.80000000 0.20000000)
        (0.50000000 0.50000000)
        (0.66666667 0.33333333)
        (0.50000000 0.50000000)
        (0.50000000 0.50000000)
        (0.50000000 0.50000000)
        (0.66666667 0.33333333)
        (0.66666667 0.33333333)
        (0.80000000 0.20000000)
        (0.50000000 0.50000000)))
        (((0.50000000 0.50000000)
        (0.50000000 0.50000000)
        (0.50000000 0.50000000)
        (0.50000000 0.50000000)
        (0.50000000 0.50000000)
        (0.50000000 0.50000000)
        (0.50000000 0.50000000)
        (0.50000000 0.50000000)
        (0.50000000 0.50000000)
        (0.50000000 0.50000000))
        ((0.50000000 0.50000000)
        (0.50000000 0.50000000)
        (0.50000000 0.50000000)
        (0.50000000 0.50000000)
        (0.50000000 0.50000000)
        (0.50000000 0.50000000)
        (0.50000000 0.50000000)
        (0.50000000 0.50000000)
        (0.50000000 0.50000000)
        (0.50000000 0.50000000))
        ((0.50000000 0.50000000)
        (0.50000000 0.50000000)
        (0.50000000 0.50000000)
        (0.50000000 0.50000000)
        (0.50000000 0.50000000)
        (0.50000000 0.50000000)
        (0.50000000 0.50000000)
        (0.50000000 0.50000000)
        (0.50000000 0.50000000)
        (0.50000000 0.50000000)))
        (((0.50000000 0.50000000)
        (0.50000000 0.50000000)
        (0.50000000 0.50000000)
        (0.50000000 0.50000000)
        (0.50000000 0.50000000)
        (0.50000000 0.50000000)
        (0.50000000 0.50000000)
        (0.50000000 0.50000000)
        (0.50000000 0.50000000)
        (0.50000000 0.50000000))
        ((0.50000000 0.50000000)
        (0.50000000 0.50000000)
        (0.50000000 0.50000000)
        (0.50000000 0.50000000)
        (0.50000000 0.50000000)
        (0.50000000 0.50000000)
        (0.50000000 0.50000000)
        (0.50000000 0.50000000)
        (0.50000000 0.50000000)
        (0.50000000 0.50000000))
        ((0.50000000 0.50000000)
        (0.50000000 0.50000000)
        (0.50000000 0.50000000)
        (0.50000000 0.50000000)
        (0.50000000 0.50000000)
        (0.50000000 0.50000000)
        (0.50000000 0.50000000)
        (0.50000000 0.50000000)
        (0.50000000 0.50000000)
        (0.50000000 0.50000000)))
        (((0.50000000 0.50000000)
        (0.50000000 0.50000000)
        (0.50000000 0.50000000)
        (0.50000000 0.50000000)
        (0.50000000 0.50000000)
        (0.50000000 0.50000000)
        (0.50000000 0.50000000)
        (0.50000000 0.50000000)
        (0.50000000 0.50000000)
        (0.50000000 0.50000000))
        ((0.50000000 0.50000000)
        (0.50000000 0.50000000)
        (0.50000000 0.50000000)
        (0.50000000 0.50000000)
        (0.50000000 0.50000000)
        (0.50000000 0.50000000)
        (0.50000000 0.50000000)
        (0.50000000 0.50000000)
        (0.50000000 0.50000000)
        (0.50000000 0.50000000))
        ((0.50000000 0.50000000)
        (0.50000000 0.50000000)
        (0.50000000 0.50000000)
        (0.50000000 0.50000000)
        (0.50000000 0.50000000)
        (0.33333333 0.66666667)
        (0.50000000 0.50000000)
        (0.50000000 0.50000000)
        (0.50000000 0.50000000)
        (0.50000000 0.50000000)))
        (((0.50000000 0.50000000)
        (0.50000000 0.50000000)
        (0.50000000 0.50000000)
        (0.50000000 0.50000000)
        (0.50000000 0.50000000)
        (0.50000000 0.50000000)
        (0.50000000 0.50000000)
        (0.50000000 0.50000000)
        (0.50000000 0.50000000)
        (0.50000000 0.50000000))
        ((0.50000000 0.50000000)
        (0.50000000 0.50000000)
        (0.50000000 0.50000000)
        (0.50000000 0.50000000)
        (0.50000000 0.50000000)
        (0.50000000 0.50000000)
        (0.50000000 0.50000000)
        (0.50000000 0.50000000)
        (0.50000000 0.50000000)
        (0.50000000 0.50000000))
        ((0.50000000 0.50000000)
        (0.50000000 0.50000000)
        (0.50000000 0.50000000)
        (0.50000000 0.50000000)
        (0.50000000 0.50000000)
        (0.50000000 0.50000000)
        (0.50000000 0.50000000)
        (0.50000000 0.50000000)
        (0.50000000 0.50000000)
        (0.50000000 0.50000000)))
        (((0.50000000 0.50000000)
        (0.50000000 0.50000000)
        (0.50000000 0.50000000)
        (0.50000000 0.50000000)
        (0.50000000 0.50000000)
        (0.50000000 0.50000000)
        (0.50000000 0.50000000)
        (0.50000000 0.50000000)
        (0.50000000 0.50000000)
        (0.50000000 0.50000000))
        ((0.50000000 0.50000000)
        (0.50000000 0.50000000)
        (0.50000000 0.50000000)
        (0.50000000 0.50000000)
        (0.50000000 0.50000000)
        (0.50000000 0.50000000)
        (0.50000000 0.50000000)
        (0.50000000 0.50000000)
        (0.50000000 0.50000000)
        (0.50000000 0.50000000))
        ((0.50000000 0.50000000)
        (0.50000000 0.50000000)
        (0.50000000 0.50000000)
        (0.50000000 0.50000000)
        (0.50000000 0.50000000)
        (0.50000000 0.50000000)
        (0.50000000 0.50000000)
        (0.50000000 0.50000000)
        (0.50000000 0.50000000)
        (0.50000000 0.50000000)))
        (((0.50000000 0.50000000)
        (0.50000000 0.50000000)
        (0.50000000 0.50000000)
        (0.50000000 0.50000000)
        (0.50000000 0.50000000)
        (0.50000000 0.50000000)
        (0.50000000 0.50000000)
