
network aGrUM_BN {
   property version 1.0;
   property author aGrUM;
}

variable 4 {
   type discrete[2] {0, 1};
}

variable 9 {
   type discrete[2] {0, 1};
}

variable 1 {
   type discrete[2] {0, 1};
}

variable 6 {
   type discrete[2] {0, 1};
}

variable 3 {
   type discrete[2] {0, 1};
}

variable 8 {
   type discrete[2] {0, 1};
}

variable 0 {
   type discrete[2] {0, 1};
}

variable 5 {
   type discrete[2] {0, 1};
}

variable 2 {
   type discrete[2] {0, 1};
}

variable 7 {
   type discrete[2] {0, 1};
}

probability (4 | 0, 2) {
   (0, 0) 0.152528 0.847472;
   (1, 0) 0.8164 0.1836;
   (0, 1) 0.964382 0.0356179;
   (1, 1) 0.321244 0.678756;
}
probability (9 | 1, 6, 7) {
   (0, 0, 0) 0.152528 0.847472;
   (1, 0, 0) 0.8164 0.1836;
   (0, 1, 0) 0.964382 0.0356179;
   (1, 1, 0) 0.321244 0.678756;
   (0, 0, 1) 0.612494 0.387506;
   (1, 0, 1) 0.395081 0.604919;
   (0, 1, 1) 0.426271 0.573729;
   (1, 1, 1) 0.0760802 0.92392;
}
probability (1 | 0) {
   (0) 0.152528 0.847472;
   (1) 0.8164 0.1836;
}
probability (6 | 0) {
   (0) 0.152528 0.847472;
   (1) 0.8164 0.1836;
}
probability (3 | 0) {
   (0) 0.152528 0.847472;
   (1) 0.8164 0.1836;
}
probability (8 | 4, 5, 7) {
   (0, 0, 0) 0.152528 0.847472;
   (1, 0, 0) 0.8164 0.1836;
   (0, 1, 0) 0.964382 0.0356179;
   (1, 1, 0) 0.321244 0.678756;
   (0, 0, 1) 0.612494 0.387506;
   (1, 0, 1) 0.395081 0.604919;
   (0, 1, 1) 0.426271 0.573729;
   (1, 1, 1) 0.0760802 0.92392;
}
probability (0) {
   default 0.152528 0.847472;
}
probability (5 | 2, 3, 4) {
   (0, 0, 0) 0.152528 0.847472;
   (1, 0, 0) 0.8164 0.1836;
   (0, 1, 0) 0.964382 0.0356179;
   (1, 1, 0) 0.321244 0.678756;
   (0, 0, 1) 0.612494 0.387506;
   (1, 0, 1) 0.395081 0.604919;
   (0, 1, 1) 0.426271 0.573729;
   (1, 1, 1) 0.0760802 0.92392;
}
probability (2) {
   default 0.152528 0.847472;
}
probability (7 | 0, 1, 3, 4, 5, 6) {
   (0, 0, 0, 0, 0, 0) 0.152528 0.847472;
   (1, 0, 0, 0, 0, 0) 0.8164 0.1836;
   (0, 1, 0, 0, 0, 0) 0.964382 0.0356179;
   (1, 1, 0, 0, 0, 0) 0.321244 0.678756;
   (0, 0, 1, 0, 0, 0) 0.612494 0.387506;
   (1, 0, 1, 0, 0, 0) 0.395081 0.604919;
   (0, 1, 1, 0, 0, 0) 0.426271 0.573729;
   (1, 1, 1, 0, 0, 0) 0.0760802 0.92392;
   (0, 0, 0, 1, 0, 0) 0.209872 0.790128;
   (1, 0, 0, 1, 0, 0) 0.537127 0.462873;
   (0, 1, 0, 1, 0, 0) 0.534824 0.465176;
   (1, 1, 0, 1, 0, 0) 0.418336 0.581664;
   (0, 0, 1, 1, 0, 0) 0.688928 0.311072;
   (1, 0, 1, 1, 0, 0) 0.80646 0.19354;
   (0, 1, 1, 1, 0, 0) 0.519328 0.480672;
   (1, 1, 1, 1, 0, 0) 0.014569 0.985431;
   (0, 0, 0, 0, 1, 0) 0.484196 0.515804;
   (1, 0, 0, 0, 1, 0) 0.468051 0.531948;
   (0, 1, 0, 0, 1, 0) 0.744712 0.255288;
   (1, 1, 0, 0, 1, 0) 0.69724 0.30276;
   (0, 0, 1, 0, 1, 0) 0.821655 0.178345;
   (1, 0, 1, 0, 1, 0) 0.250366 0.749634;
   (0, 1, 1, 0, 1, 0) 0.850339 0.149661;
   (1, 1, 1, 0, 1, 0) 0.501573 0.498427;
   (0, 0, 0, 1, 1, 0) 0.599908 0.400092;
   (1, 0, 0, 1, 1, 0) 0.420475 0.579525;
   (0, 1, 0, 1, 1, 0) 0.628591 0.371409;
   (1, 1, 0, 1, 1, 0) 0.736942 0.263058;
   (0, 0, 1, 1, 1, 0) 0.514665 0.485335;
   (1, 0, 1, 1, 1, 0) 0.671033 0.328967;
   (0, 1, 1, 1, 1, 0) 0.235768 0.764232;
   (1, 1, 1, 1, 1, 0) 0.64995 0.35005;
   (0, 0, 0, 0, 0, 1) 0.51582 0.48418;
   (1, 0, 0, 0, 0, 1) 0.611795 0.388205;
   (0, 1, 0, 0, 0, 1) 0.917049 0.0829511;
   (1, 1, 0, 0, 0, 1) 0.468585 0.531415;
   (0, 0, 1, 0, 0, 1) 0.259467 0.740533;
   (1, 0, 1, 0, 0, 1) 0.814045 0.185955;
   (0, 1, 1, 0, 0, 1) 0.856547 0.143453;
   (1, 1, 1, 0, 0, 1) 0.330664 0.669336;
   (0, 0, 0, 1, 0, 1) 0.982117 0.0178834;
   (1, 0, 0, 1, 0, 1) 0.775092 0.224908;
   (0, 1, 0, 1, 0, 1) 0.398495 0.601505;
   (1, 1, 0, 1, 0, 1) 0.339822 0.660178;
   (0, 0, 1, 1, 0, 1) 0.512087 0.487913;
   (1, 0, 1, 1, 0, 1) 0.477839 0.522161;
   (0, 1, 1, 1, 0, 1) 0.843535 0.156465;
   (1, 1, 1, 1, 0, 1) 0.706575 0.293425;
   (0, 0, 0, 0, 1, 1) 0.886887 0.113113;
   (1, 0, 0, 0, 1, 1) 0.395449 0.604551;
   (0, 1, 0, 0, 1, 1) 0.590352 0.409648;
   (1, 1, 0, 0, 1, 1) 0.542807 0.457193;
   (0, 0, 1, 0, 1, 1) 0.638348 0.361652;
   (1, 0, 1, 0, 1, 1) 0.500657 0.499343;
   (0, 1, 1, 0, 1, 1) 0.900951 0.0990494;
   (1, 1, 1, 0, 1, 1) 0.546461 0.453539;
   (0, 0, 0, 1, 1, 1) 0.342077 0.657923;
   (1, 0, 0, 1, 1, 1) 0.649088 0.350912;
   (0, 1, 0, 1, 1, 1) 0.924857 0.0751434;
   (1, 1, 0, 1, 1, 1) 0.281872 0.718128;
   (0, 0, 1, 1, 1, 1) 0.776078 0.223922;
   (1, 0, 1, 1, 1, 1) 0.635321 0.364679;
   (0, 1, 1, 1, 1, 1) 0.639421 0.360579;
   (1, 1, 1, 1, 1, 1) 0.708619 0.291381;
}

