
network aGrUM_BN {
   property version 1.0;
   property author aGrUM;
}

variable 4 {
   type discrete[2] {0, 1};
}

variable 9 {
   type discrete[2] {0, 1};
}

variable 1 {
   type discrete[2] {0, 1};
}

variable 6 {
   type discrete[2] {0, 1};
}

variable 3 {
   type discrete[2] {0, 1};
}

variable 8 {
   type discrete[2] {0, 1};
}

variable 0 {
   type discrete[2] {0, 1};
}

variable 5 {
   type discrete[2] {0, 1};
}

variable 2 {
   type discrete[2] {0, 1};
}

variable 7 {
   type discrete[2] {0, 1};
}

probability (4) {
   default 0.270811 0.72919;
}
probability (9 | 1, 2, 3, 5, 6, 8) {
   (0, 0, 0, 0, 0, 0) 0.270811 0.72919;
   (1, 0, 0, 0, 0, 0) 0.40031 0.59969;
   (0, 1, 0, 0, 0, 0) 0.44658 0.55342;
   (1, 1, 0, 0, 0, 0) 0.302647 0.697353;
   (0, 0, 1, 0, 0, 0) 0.874281 0.125719;
   (1, 0, 1, 0, 0, 0) 0.535003 0.464997;
   (0, 1, 1, 0, 0, 0) 0.426287 0.573713;
   (1, 1, 1, 0, 0, 0) 0.65313 0.34687;
   (0, 0, 0, 1, 0, 0) 0.275299 0.724701;
   (1, 0, 0, 1, 0, 0) 0.615175 0.384825;
   (0, 1, 0, 1, 0, 0) 0.347742 0.652258;
   (1, 1, 0, 1, 0, 0) 0.696298 0.303702;
   (0, 0, 1, 1, 0, 0) 0.674622 0.325378;
   (1, 0, 1, 1, 0, 0) 0.431614 0.568386;
   (0, 1, 1, 1, 0, 0) 0.808511 0.191489;
   (1, 1, 1, 1, 0, 0) 0.769162 0.230838;
   (0, 0, 0, 0, 1, 0) 0.535281 0.464719;
   (1, 0, 0, 0, 1, 0) 0.557186 0.442814;
   (0, 1, 0, 0, 1, 0) 0.798497 0.201503;
   (1, 1, 0, 0, 1, 0) 0.501281 0.498719;
   (0, 0, 1, 0, 1, 0) 0.369454 0.630546;
   (1, 0, 1, 0, 1, 0) 0.357267 0.642733;
   (0, 1, 1, 0, 1, 0) 0.0441634 0.955837;
   (1, 1, 1, 0, 1, 0) 0.715337 0.284663;
   (0, 0, 0, 1, 1, 0) 0.581471 0.418529;
   (1, 0, 0, 1, 1, 0) 0.714264 0.285736;
   (0, 1, 0, 1, 1, 0) 0.579248 0.420752;
   (1, 1, 0, 1, 1, 0) 0.627014 0.372986;
   (0, 0, 1, 1, 1, 0) 0.725716 0.274284;
   (1, 0, 1, 1, 1, 0) 0.311392 0.688608;
   (0, 1, 1, 1, 1, 0) 0.482442 0.517558;
   (1, 1, 1, 1, 1, 0) 0.70504 0.29496;
   (0, 0, 0, 0, 0, 1) 0.334711 0.665289;
   (1, 0, 0, 0, 0, 1) 0.495806 0.504194;
   (0, 1, 0, 0, 0, 1) 0.573892 0.426108;
   (1, 1, 0, 0, 0, 1) 0.339609 0.660391;
   (0, 0, 1, 0, 0, 1) 0.530961 0.469039;
   (1, 0, 1, 0, 0, 1) 0.979254 0.0207459;
   (0, 1, 1, 0, 0, 1) 0.565075 0.434925;
   (1, 1, 1, 0, 0, 1) 0.429206 0.570794;
   (0, 0, 0, 1, 0, 1) 0.46685 0.53315;
   (1, 0, 0, 1, 0, 1) 0.550269 0.449731;
   (0, 1, 0, 1, 0, 1) 0.572542 0.427458;
   (1, 1, 0, 1, 0, 1) 0.0633227 0.936677;
   (0, 0, 1, 1, 0, 1) 0.695148 0.304852;
   (1, 0, 1, 1, 0, 1) 0.827086 0.172914;
   (0, 1, 1, 1, 0, 1) 0.556864 0.443136;
   (1, 1, 1, 1, 0, 1) 0.878082 0.121918;
   (0, 0, 0, 0, 1, 1) 0.239844 0.760156;
   (1, 0, 0, 0, 1, 1) 0.566618 0.433382;
   (0, 1, 0, 0, 1, 1) 0.6555 0.3445;
   (1, 1, 0, 0, 1, 1) 0.447876 0.552124;
   (0, 0, 1, 0, 1, 1) 0.522424 0.477576;
   (1, 0, 1, 0, 1, 1) 0.946908 0.0530922;
   (0, 1, 1, 0, 1, 1) 0.790525 0.209475;
   (1, 1, 1, 0, 1, 1) 0.367298 0.632702;
   (0, 0, 0, 1, 1, 1) 0.486697 0.513303;
   (1, 0, 0, 1, 1, 1) 0.416337 0.583663;
   (0, 1, 0, 1, 1, 1) 0.541993 0.458007;
   (1, 1, 0, 1, 1, 1) 0.332295 0.667705;
   (0, 0, 1, 1, 1, 1) 0.82028 0.179719;
   (1, 0, 1, 1, 1, 1) 0.461085 0.538915;
   (0, 1, 1, 1, 1, 1) 0.808246 0.191754;
   (1, 1, 1, 1, 1, 1) 0.9906 0.00940038;
}
probability (1 | 0) {
   (0) 0.270811 0.72919;
   (1) 0.40031 0.59969;
}
probability (6 | 1, 2, 4, 5) {
   (0, 0, 0, 0) 0.270811 0.72919;
   (1, 0, 0, 0) 0.40031 0.59969;
   (0, 1, 0, 0) 0.44658 0.55342;
   (1, 1, 0, 0) 0.302647 0.697353;
   (0, 0, 1, 0) 0.874281 0.125719;
   (1, 0, 1, 0) 0.535003 0.464997;
   (0, 1, 1, 0) 0.426287 0.573713;
   (1, 1, 1, 0) 0.65313 0.34687;
   (0, 0, 0, 1) 0.275299 0.724701;
   (1, 0, 0, 1) 0.615175 0.384825;
   (0, 1, 0, 1) 0.347742 0.652258;
   (1, 1, 0, 1) 0.696298 0.303702;
   (0, 0, 1, 1) 0.674622 0.325378;
   (1, 0, 1, 1) 0.431614 0.568386;
   (0, 1, 1, 1) 0.808511 0.191489;
   (1, 1, 1, 1) 0.769162 0.230838;
}
probability (3 | 0) {
   (0) 0.270811 0.72919;
   (1) 0.40031 0.59969;
}
probability (8 | 1, 5, 6, 7) {
   (0, 0, 0, 0) 0.270811 0.72919;
   (1, 0, 0, 0) 0.40031 0.59969;
   (0, 1, 0, 0) 0.44658 0.55342;
   (1, 1, 0, 0) 0.302647 0.697353;
   (0, 0, 1, 0) 0.874281 0.125719;
   (1, 0, 1, 0) 0.535003 0.464997;
   (0, 1, 1, 0) 0.426287 0.573713;
   (1, 1, 1, 0) 0.65313 0.34687;
   (0, 0, 0, 1) 0.275299 0.724701;
   (1, 0, 0, 1) 0.615175 0.384825;
   (0, 1, 0, 1) 0.347742 0.652258;
   (1, 1, 0, 1) 0.696298 0.303702;
   (0, 0, 1, 1) 0.674622 0.325378;
   (1, 0, 1, 1) 0.431614 0.568386;
   (0, 1, 1, 1) 0.808511 0.191489;
   (1, 1, 1, 1) 0.769162 0.230838;
}
probability (0) {
   default 0.270811 0.72919;
}
probability (5 | 1, 2, 3, 4) {
   (0, 0, 0, 0) 0.270811 0.72919;
   (1, 0, 0, 0) 0.40031 0.59969;
   (0, 1, 0, 0) 0.44658 0.55342;
   (1, 1, 0, 0) 0.302647 0.697353;
   (0, 0, 1, 0) 0.874281 0.125719;
   (1, 0, 1, 0) 0.535003 0.464997;
   (0, 1, 1, 0) 0.426287 0.573713;
   (1, 1, 1, 0) 0.65313 0.34687;
   (0, 0, 0, 1) 0.275299 0.724701;
   (1, 0, 0, 1) 0.615175 0.384825;
   (0, 1, 0, 1) 0.347742 0.652258;
   (1, 1, 0, 1) 0.696298 0.303702;
   (0, 0, 1, 1) 0.674622 0.325378;
   (1, 0, 1, 1) 0.431614 0.568386;
   (0, 1, 1, 1) 0.808511 0.191489;
   (1, 1, 1, 1) 0.769162 0.230838;
}
probability (2 | 0, 1) {
   (0, 0) 0.270811 0.72919;
   (1, 0) 0.40031 0.59969;
   (0, 1) 0.44658 0.55342;
   (1, 1) 0.302647 0.697353;
}
probability (7 | 0, 1, 6) {
   (0, 0, 0) 0.270811 0.72919;
   (1, 0, 0) 0.40031 0.59969;
   (0, 1, 0) 0.44658 0.55342;
   (1, 1, 0) 0.302647 0.697353;
   (0, 0, 1) 0.874281 0.125719;
   (1, 0, 1) 0.535003 0.464997;
   (0, 1, 1) 0.426287 0.573713;
   (1, 1, 1) 0.65313 0.34687;
}

