
network aGrUM_BN {
   property version 1.0;
   property author aGrUM;
}

variable 4 {
   type discrete[2] {0, 1};
}

variable 9 {
   type discrete[2] {0, 1};
}

variable 1 {
   type discrete[2] {0, 1};
}

variable 6 {
   type discrete[2] {0, 1};
}

variable 3 {
   type discrete[2] {0, 1};
}

variable 8 {
   type discrete[2] {0, 1};
}

variable 0 {
   type discrete[2] {0, 1};
}

variable 5 {
   type discrete[2] {0, 1};
}

variable 2 {
   type discrete[2] {0, 1};
}

variable 7 {
   type discrete[2] {0, 1};
}

probability (4 | 2, 3) {
   (0, 0) 0.754776 0.245224;
   (1, 0) 0.23198 0.76802;
   (0, 1) 0.426959 0.573041;
   (1, 1) 0.110248 0.889752;
}
probability (9 | 0, 2, 3, 5, 8) {
   (0, 0, 0, 0, 0) 0.754776 0.245224;
   (1, 0, 0, 0, 0) 0.23198 0.76802;
   (0, 1, 0, 0, 0) 0.426959 0.573041;
   (1, 1, 0, 0, 0) 0.110248 0.889752;
   (0, 0, 1, 0, 0) 0.544239 0.455761;
   (1, 0, 1, 0, 0) 0.415271 0.584729;
   (0, 1, 1, 0, 0) 0.471409 0.52859;
   (1, 1, 1, 0, 0) 0.756696 0.243304;
   (0, 0, 0, 1, 0) 0.500642 0.499358;
   (1, 0, 0, 1, 0) 0.540243 0.459757;
   (0, 1, 0, 1, 0) 0.791045 0.208955;
   (1, 1, 0, 1, 0) 0.744996 0.255004;
   (0, 0, 1, 1, 0) 0.672499 0.327501;
   (1, 0, 1, 1, 0) 0.390043 0.609957;
   (0, 1, 1, 1, 0) 0.914236 0.085764;
   (1, 1, 1, 1, 0) 0.337191 0.662809;
   (0, 0, 0, 0, 1) 0.363059 0.636941;
   (1, 0, 0, 0, 1) 0.530266 0.469734;
   (0, 1, 0, 0, 1) 0.0152959 0.984704;
   (1, 1, 0, 0, 1) 0.246713 0.753287;
   (0, 0, 1, 0, 1) 0.263642 0.736358;
   (1, 0, 1, 0, 1) 0.341871 0.658129;
   (0, 1, 1, 0, 1) 0.623457 0.376543;
   (1, 1, 1, 0, 1) 0.843975 0.156025;
   (0, 0, 0, 1, 1) 0.612302 0.387699;
   (1, 0, 0, 1, 1) 0.365141 0.634859;
   (0, 1, 0, 1, 1) 0.590485 0.409515;
   (1, 1, 0, 1, 1) 0.911908 0.088092;
   (0, 0, 1, 1, 1) 0.776164 0.223836;
   (1, 0, 1, 1, 1) 0.562411 0.437589;
   (0, 1, 1, 1, 1) 0.553471 0.446529;
   (1, 1, 1, 1, 1) 0.418675 0.581325;
}
probability (1) {
   default 0.754776 0.245224;
}
probability (6 | 0, 3) {
   (0, 0) 0.754776 0.245224;
   (1, 0) 0.23198 0.76802;
   (0, 1) 0.426959 0.573041;
   (1, 1) 0.110248 0.889752;
}
probability (3 | 0, 1) {
   (0, 0) 0.754776 0.245224;
   (1, 0) 0.23198 0.76802;
   (0, 1) 0.426959 0.573041;
   (1, 1) 0.110248 0.889752;
}
probability (8 | 0, 1, 2, 6, 7) {
   (0, 0, 0, 0, 0) 0.754776 0.245224;
   (1, 0, 0, 0, 0) 0.23198 0.76802;
   (0, 1, 0, 0, 0) 0.426959 0.573041;
   (1, 1, 0, 0, 0) 0.110248 0.889752;
   (0, 0, 1, 0, 0) 0.544239 0.455761;
   (1, 0, 1, 0, 0) 0.415271 0.584729;
   (0, 1, 1, 0, 0) 0.471409 0.52859;
   (1, 1, 1, 0, 0) 0.756696 0.243304;
   (0, 0, 0, 1, 0) 0.500642 0.499358;
   (1, 0, 0, 1, 0) 0.540243 0.459757;
   (0, 1, 0, 1, 0) 0.791045 0.208955;
   (1, 1, 0, 1, 0) 0.744996 0.255004;
   (0, 0, 1, 1, 0) 0.672499 0.327501;
   (1, 0, 1, 1, 0) 0.390043 0.609957;
   (0, 1, 1, 1, 0) 0.914236 0.085764;
   (1, 1, 1, 1, 0) 0.337191 0.662809;
   (0, 0, 0, 0, 1) 0.363059 0.636941;
   (1, 0, 0, 0, 1) 0.530266 0.469734;
   (0, 1, 0, 0, 1) 0.0152959 0.984704;
   (1, 1, 0, 0, 1) 0.246713 0.753287;
   (0, 0, 1, 0, 1) 0.263642 0.736358;
   (1, 0, 1, 0, 1) 0.341871 0.658129;
   (0, 1, 1, 0, 1) 0.623457 0.376543;
   (1, 1, 1, 0, 1) 0.843975 0.156025;
   (0, 0, 0, 1, 1) 0.612302 0.387699;
   (1, 0, 0, 1, 1) 0.365141 0.634859;
   (0, 1, 0, 1, 1) 0.590485 0.409515;
   (1, 1, 0, 1, 1) 0.911908 0.088092;
   (0, 0, 1, 1, 1) 0.776164 0.223836;
   (1, 0, 1, 1, 1) 0.562411 0.437589;
   (0, 1, 1, 1, 1) 0.553471 0.446529;
   (1, 1, 1, 1, 1) 0.418675 0.581325;
}
probability (0) {
   default 0.754776 0.245224;
}
probability (5 | 0, 1, 2, 3, 4) {
   (0, 0, 0, 0, 0) 0.754776 0.245224;
   (1, 0, 0, 0, 0) 0.23198 0.76802;
   (0, 1, 0, 0, 0) 0.426959 0.573041;
   (1, 1, 0, 0, 0) 0.110248 0.889752;
   (0, 0, 1, 0, 0) 0.544239 0.455761;
   (1, 0, 1, 0, 0) 0.415271 0.584729;
   (0, 1, 1, 0, 0) 0.471409 0.52859;
   (1, 1, 1, 0, 0) 0.756696 0.243304;
   (0, 0, 0, 1, 0) 0.500642 0.499358;
   (1, 0, 0, 1, 0) 0.540243 0.459757;
   (0, 1, 0, 1, 0) 0.791045 0.208955;
   (1, 1, 0, 1, 0) 0.744996 0.255004;
   (0, 0, 1, 1, 0) 0.672499 0.327501;
   (1, 0, 1, 1, 0) 0.390043 0.609957;
   (0, 1, 1, 1, 0) 0.914236 0.085764;
   (1, 1, 1, 1, 0) 0.337191 0.662809;
   (0, 0, 0, 0, 1) 0.363059 0.636941;
   (1, 0, 0, 0, 1) 0.530266 0.469734;
   (0, 1, 0, 0, 1) 0.0152959 0.984704;
   (1, 1, 0, 0, 1) 0.246713 0.753287;
   (0, 0, 1, 0, 1) 0.263642 0.736358;
   (1, 0, 1, 0, 1) 0.341871 0.658129;
   (0, 1, 1, 0, 1) 0.623457 0.376543;
   (1, 1, 1, 0, 1) 0.843975 0.156025;
   (0, 0, 0, 1, 1) 0.612302 0.387699;
   (1, 0, 0, 1, 1) 0.365141 0.634859;
   (0, 1, 0, 1, 1) 0.590485 0.409515;
   (1, 1, 0, 1, 1) 0.911908 0.088092;
   (0, 0, 1, 1, 1) 0.776164 0.223836;
   (1, 0, 1, 1, 1) 0.562411 0.437589;
   (0, 1, 1, 1, 1) 0.553471 0.446529;
   (1, 1, 1, 1, 1) 0.418675 0.581325;
}
probability (2 | 0, 1) {
   (0, 0) 0.754776 0.245224;
   (1, 0) 0.23198 0.76802;
   (0, 1) 0.426959 0.573041;
   (1, 1) 0.110248 0.889752;
}
probability (7 | 0, 2, 4, 5) {
   (0, 0, 0, 0) 0.754776 0.245224;
   (1, 0, 0, 0) 0.23198 0.76802;
   (0, 1, 0, 0) 0.426959 0.573041;
   (1, 1, 0, 0) 0.110248 0.889752;
   (0, 0, 1, 0) 0.544239 0.455761;
   (1, 0, 1, 0) 0.415271 0.584729;
   (0, 1, 1, 0) 0.471409 0.52859;
   (1, 1, 1, 0) 0.756696 0.243304;
   (0, 0, 0, 1) 0.500642 0.499358;
   (1, 0, 0, 1) 0.540243 0.459757;
   (0, 1, 0, 1) 0.791045 0.208955;
   (1, 1, 0, 1) 0.744996 0.255004;
   (0, 0, 1, 1) 0.672499 0.327501;
   (1, 0, 1, 1) 0.390043 0.609957;
   (0, 1, 1, 1) 0.914236 0.085764;
   (1, 1, 1, 1) 0.337191 0.662809;
}

