
network aGrUM_BN {
   property version 1.0;
   property author aGrUM;
}

variable 4 {
   type discrete[2] {0, 1};
}

variable 9 {
   type discrete[2] {0, 1};
}

variable 1 {
   type discrete[2] {0, 1};
}

variable 6 {
   type discrete[2] {0, 1};
}

variable 3 {
   type discrete[2] {0, 1};
}

variable 8 {
   type discrete[2] {0, 1};
}

variable 0 {
   type discrete[2] {0, 1};
}

variable 5 {
   type discrete[2] {0, 1};
}

variable 2 {
   type discrete[2] {0, 1};
}

variable 7 {
   type discrete[2] {0, 1};
}

probability (4 | 0, 1, 2, 3) {
   (0, 0, 0, 0) 0.724266 0.275734;
   (1, 0, 0, 0) 0.259124 0.740876;
   (0, 1, 0, 0) 0.591471 0.408529;
   (1, 1, 0, 0) 0.840453 0.159547;
   (0, 0, 1, 0) 0.109826 0.890174;
   (1, 0, 1, 0) 0.507642 0.492358;
   (0, 1, 1, 0) 0.0064977 0.993502;
   (1, 1, 1, 0) 0.897651 0.102349;
   (0, 0, 0, 1) 0.374592 0.625408;
   (1, 0, 0, 1) 0.923344 0.0766557;
   (0, 1, 0, 1) 0.604184 0.395816;
   (1, 1, 0, 1) 0.373141 0.626859;
   (0, 0, 1, 1) 0.220926 0.779074;
   (1, 0, 1, 1) 0.43146 0.56854;
   (0, 1, 1, 1) 0.614554 0.385446;
   (1, 1, 1, 1) 0.647108 0.352892;
}
probability (9 | 0, 1, 3, 5, 8) {
   (0, 0, 0, 0, 0) 0.724266 0.275734;
   (1, 0, 0, 0, 0) 0.259124 0.740876;
   (0, 1, 0, 0, 0) 0.591471 0.408529;
   (1, 1, 0, 0, 0) 0.840453 0.159547;
   (0, 0, 1, 0, 0) 0.109826 0.890174;
   (1, 0, 1, 0, 0) 0.507642 0.492358;
   (0, 1, 1, 0, 0) 0.0064977 0.993502;
   (1, 1, 1, 0, 0) 0.897651 0.102349;
   (0, 0, 0, 1, 0) 0.374592 0.625408;
   (1, 0, 0, 1, 0) 0.923344 0.0766557;
   (0, 1, 0, 1, 0) 0.604184 0.395816;
   (1, 1, 0, 1, 0) 0.373141 0.626859;
   (0, 0, 1, 1, 0) 0.220926 0.779074;
   (1, 0, 1, 1, 0) 0.43146 0.56854;
   (0, 1, 1, 1, 0) 0.614554 0.385446;
   (1, 1, 1, 1, 0) 0.647108 0.352892;
   (0, 0, 0, 0, 1) 0.446822 0.553178;
   (1, 0, 0, 0, 1) 0.777906 0.222094;
   (0, 1, 0, 0, 1) 0.255203 0.744797;
   (1, 1, 0, 0, 1) 0.52607 0.47393;
   (0, 0, 1, 0, 1) 0.439988 0.560012;
   (1, 0, 1, 0, 1) 0.542483 0.457517;
   (0, 1, 1, 0, 1) 0.439853 0.560147;
   (1, 1, 1, 0, 1) 0.802997 0.197003;
   (0, 0, 0, 1, 1) 0.794329 0.205671;
   (1, 0, 0, 1, 1) 0.772826 0.227174;
   (0, 1, 0, 1, 1) 0.369024 0.630976;
   (1, 1, 0, 1, 1) 0.568218 0.431782;
   (0, 0, 1, 1, 1) 0.562798 0.437202;
   (1, 0, 1, 1, 1) 0.607031 0.392969;
   (0, 1, 1, 1, 1) 0.904448 0.0955516;
   (1, 1, 1, 1, 1) 0.528617 0.471383;
}
probability (1 | 0) {
   (0) 0.724266 0.275734;
   (1) 0.259124 0.740876;
}
probability (6 | 0, 2, 3, 4, 5) {
   (0, 0, 0, 0, 0) 0.724266 0.275734;
   (1, 0, 0, 0, 0) 0.259124 0.740876;
   (0, 1, 0, 0, 0) 0.591471 0.408529;
   (1, 1, 0, 0, 0) 0.840453 0.159547;
   (0, 0, 1, 0, 0) 0.109826 0.890174;
   (1, 0, 1, 0, 0) 0.507642 0.492358;
   (0, 1, 1, 0, 0) 0.0064977 0.993502;
   (1, 1, 1, 0, 0) 0.897651 0.102349;
   (0, 0, 0, 1, 0) 0.374592 0.625408;
   (1, 0, 0, 1, 0) 0.923344 0.0766557;
   (0, 1, 0, 1, 0) 0.604184 0.395816;
   (1, 1, 0, 1, 0) 0.373141 0.626859;
   (0, 0, 1, 1, 0) 0.220926 0.779074;
   (1, 0, 1, 1, 0) 0.43146 0.56854;
   (0, 1, 1, 1, 0) 0.614554 0.385446;
   (1, 1, 1, 1, 0) 0.647108 0.352892;
   (0, 0, 0, 0, 1) 0.446822 0.553178;
   (1, 0, 0, 0, 1) 0.777906 0.222094;
   (0, 1, 0, 0, 1) 0.255203 0.744797;
   (1, 1, 0, 0, 1) 0.52607 0.47393;
   (0, 0, 1, 0, 1) 0.439988 0.560012;
   (1, 0, 1, 0, 1) 0.542483 0.457517;
   (0, 1, 1, 0, 1) 0.439853 0.560147;
   (1, 1, 1, 0, 1) 0.802997 0.197003;
   (0, 0, 0, 1, 1) 0.794329 0.205671;
   (1, 0, 0, 1, 1) 0.772826 0.227174;
   (0, 1, 0, 1, 1) 0.369024 0.630976;
   (1, 1, 0, 1, 1) 0.568218 0.431782;
   (0, 0, 1, 1, 1) 0.562798 0.437202;
   (1, 0, 1, 1, 1) 0.607031 0.392969;
   (0, 1, 1, 1, 1) 0.904448 0.0955516;
   (1, 1, 1, 1, 1) 0.528617 0.471383;
}
probability (3 | 0, 1) {
   (0, 0) 0.724266 0.275734;
   (1, 0) 0.259124 0.740876;
   (0, 1) 0.591471 0.408529;
   (1, 1) 0.840453 0.159547;
}
probability (8 | 0, 1, 2, 6) {
   (0, 0, 0, 0) 0.724266 0.275734;
   (1, 0, 0, 0) 0.259124 0.740876;
   (0, 1, 0, 0) 0.591471 0.408529;
   (1, 1, 0, 0) 0.840453 0.159547;
   (0, 0, 1, 0) 0.109826 0.890174;
   (1, 0, 1, 0) 0.507642 0.492358;
   (0, 1, 1, 0) 0.0064977 0.993502;
   (1, 1, 1, 0) 0.897651 0.102349;
   (0, 0, 0, 1) 0.374592 0.625408;
   (1, 0, 0, 1) 0.923344 0.0766557;
   (0, 1, 0, 1) 0.604184 0.395816;
   (1, 1, 0, 1) 0.373141 0.626859;
   (0, 0, 1, 1) 0.220926 0.779074;
   (1, 0, 1, 1) 0.43146 0.56854;
   (0, 1, 1, 1) 0.614554 0.385446;
   (1, 1, 1, 1) 0.647108 0.352892;
}
probability (0) {
   default 0.724266 0.275734;
}
probability (5 | 0, 1, 2) {
   (0, 0, 0) 0.724266 0.275734;
   (1, 0, 0) 0.259124 0.740876;
   (0, 1, 0) 0.591471 0.408529;
   (1, 1, 0) 0.840453 0.159547;
   (0, 0, 1) 0.109826 0.890174;
   (1, 0, 1) 0.507642 0.492358;
   (0, 1, 1) 0.0064977 0.993502;
   (1, 1, 1) 0.897651 0.102349;
}
probability (2 | 0) {
   (0) 0.724266 0.275734;
   (1) 0.259124 0.740876;
}
probability (7 | 2, 5, 6) {
   (0, 0, 0) 0.724266 0.275734;
   (1, 0, 0) 0.259124 0.740876;
   (0, 1, 0) 0.591471 0.408529;
   (1, 1, 0) 0.840453 0.159547;
   (0, 0, 1) 0.109826 0.890174;
   (1, 0, 1) 0.507642 0.492358;
   (0, 1, 1) 0.0064977 0.993502;
   (1, 1, 1) 0.897651 0.102349;
}

