
network aGrUM_BN {
   property version 1.0;
   property author aGrUM;
}

variable 4 {
   type discrete[2] {0, 1};
}

variable 9 {
   type discrete[2] {0, 1};
}

variable 1 {
   type discrete[2] {0, 1};
}

variable 6 {
   type discrete[2] {0, 1};
}

variable 3 {
   type discrete[2] {0, 1};
}

variable 8 {
   type discrete[2] {0, 1};
}

variable 0 {
   type discrete[2] {0, 1};
}

variable 5 {
   type discrete[2] {0, 1};
}

variable 2 {
   type discrete[2] {0, 1};
}

variable 7 {
   type discrete[2] {0, 1};
}

probability (4 | 0, 1) {
   (0, 0) 0.527352 0.472648;
   (1, 0) 0.71562 0.28438;
   (0, 1) 0.56997 0.43003;
   (1, 1) 0.832541 0.167459;
}
probability (9 | 0, 1, 6, 8) {
   (0, 0, 0, 0) 0.527352 0.472648;
   (1, 0, 0, 0) 0.71562 0.28438;
   (0, 1, 0, 0) 0.56997 0.43003;
   (1, 1, 0, 0) 0.832541 0.167459;
   (0, 0, 1, 0) 0.336346 0.663654;
   (1, 0, 1, 0) 0.942728 0.0572715;
   (0, 1, 1, 0) 0.216131 0.783869;
   (1, 1, 1, 0) 0.460194 0.539806;
   (0, 0, 0, 1) 0.179534 0.820466;
   (1, 0, 0, 1) 0.9087 0.0912999;
   (0, 1, 0, 1) 0.695608 0.304392;
   (1, 1, 0, 1) 0.243257 0.756743;
   (0, 0, 1, 1) 0.705384 0.294616;
   (1, 0, 1, 1) 0.535897 0.464103;
   (0, 1, 1, 1) 0.0470869 0.952913;
   (1, 1, 1, 1) 0.416647 0.583353;
}
probability (1) {
   default 0.527352 0.472648;
}
probability (6) {
   default 0.527352 0.472648;
}
probability (3 | 0) {
   (0) 0.527352 0.472648;
   (1) 0.71562 0.28438;
}
probability (8 | 0, 2, 3, 5) {
   (0, 0, 0, 0) 0.527352 0.472648;
   (1, 0, 0, 0) 0.71562 0.28438;
   (0, 1, 0, 0) 0.56997 0.43003;
   (1, 1, 0, 0) 0.832541 0.167459;
   (0, 0, 1, 0) 0.336346 0.663654;
   (1, 0, 1, 0) 0.942728 0.0572715;
   (0, 1, 1, 0) 0.216131 0.783869;
   (1, 1, 1, 0) 0.460194 0.539806;
   (0, 0, 0, 1) 0.179534 0.820466;
   (1, 0, 0, 1) 0.9087 0.0912999;
   (0, 1, 0, 1) 0.695608 0.304392;
   (1, 1, 0, 1) 0.243257 0.756743;
   (0, 0, 1, 1) 0.705384 0.294616;
   (1, 0, 1, 1) 0.535897 0.464103;
   (0, 1, 1, 1) 0.0470869 0.952913;
   (1, 1, 1, 1) 0.416647 0.583353;
}
probability (0) {
   default 0.527352 0.472648;
}
probability (5 | 1, 2) {
   (0, 0) 0.527352 0.472648;
   (1, 0) 0.71562 0.28438;
   (0, 1) 0.56997 0.43003;
   (1, 1) 0.832541 0.167459;
}
probability (2) {
   default 0.527352 0.472648;
}
probability (7 | 0, 5) {
   (0, 0) 0.527352 0.472648;
   (1, 0) 0.71562 0.28438;
   (0, 1) 0.56997 0.43003;
   (1, 1) 0.832541 0.167459;
}

