
network aGrUM_BN {
   property version 1.0;
   property author aGrUM;
}

variable temp_0 {
   type discrete[3] {0, 1, 2};
}

variable temp_1 {
   type discrete[3] {0, 1, 2};
}

variable temp_2 {
   type discrete[3] {0, 1, 2};
}

variable temp_3 {
   type discrete[3] {0, 1, 2};
}

variable temp_4 {
   type discrete[3] {0, 1, 2};
}

variable temp_5 {
   type discrete[3] {0, 1, 2};
}

variable temp_6 {
   type discrete[3] {0, 1, 2};
}

variable temp_7 {
   type discrete[3] {0, 1, 2};
}

variable temp_8 {
   type discrete[3] {0, 1, 2};
}

variable temp_9 {
   type discrete[3] {0, 1, 2};
}

variable temp_10 {
   type discrete[3] {0, 1, 2};
}

variable temp_11 {
   type discrete[3] {0, 1, 2};
}

variable temp_12 {
   type discrete[3] {0, 1, 2};
}


variable km_0 {
   type discrete[5] {0, 1, 2, 3, 4};
}

variable lo_0 {
   type discrete[8] {0, 1, 2, 3, 4, 5, 6, 7};
}

variable km_1 {
   type discrete[5] {0, 1, 2, 3, 4};
}

variable km_2 {
   type discrete[5] {0, 1, 2, 3, 4};
}

variable km_3 {
   type discrete[5] {0, 1, 2, 3, 4};
}

variable km_4 {
   type discrete[5] {0, 1, 2, 3, 4};
}

variable km_5 {
   type discrete[5] {0, 1, 2, 3, 4};
}

variable km_6 {
   type discrete[5] {0, 1, 2, 3, 4};
}

variable km_7 {
   type discrete[5] {0, 1, 2, 3, 4};
}

variable km_8 {
   type discrete[5] {0, 1, 2, 3, 4};
}

variable km_9 {
   type discrete[5] {0, 1, 2, 3, 4};
}

variable km_10 {
   type discrete[5] {0, 1, 2, 3, 4};
}

variable km_11 {
   type discrete[5] {0, 1, 2, 3, 4};
}

variable km_12 {
   type discrete[5] {0, 1, 2, 3, 4};
}

variable km_13 {
   type discrete[5] {0, 1, 2, 3, 4};
}

variable lo_1 {
   type discrete[8] {0, 1, 2, 3, 4, 5, 6, 7};
}

variable lo_2 {
   type discrete[8] {0, 1, 2, 3, 4, 5, 6, 7};
}

variable lo_3 {
   type discrete[8] {0, 1, 2, 3, 4, 5, 6, 7};
}

variable lo_4 {
   type discrete[8] {0, 1, 2, 3, 4, 5, 6, 7};
}

variable lo_5 {
   type discrete[8] {0, 1, 2, 3, 4, 5, 6, 7};
}

variable lo_6 {
   type discrete[8] {0, 1, 2, 3, 4, 5, 6, 7};
}

variable lo_7 {
   type discrete[8] {0, 1, 2, 3, 4, 5, 6, 7};
}

variable lo_8 {
   type discrete[8] {0, 1, 2, 3, 4, 5, 6, 7};
}

variable lo_9 {
   type discrete[8] {0, 1, 2, 3, 4, 5, 6, 7};
}

variable lo_10 {
   type discrete[8] {0, 1, 2, 3, 4, 5, 6, 7};
}

variable lo_11 {
   type discrete[8] {0, 1, 2, 3, 4, 5, 6, 7};
}

variable lo_12 {
   type discrete[8] {0, 1, 2, 3, 4, 5, 6, 7};
}

variable lo_13 {
   type discrete[8] {0, 1, 2, 3, 4, 5, 6, 7};
}

probability (temp_0) {
   default 0.33333333333 0.33333333334 0.33333333333;
}
probability (temp_1) {
   default 0.33333333333 0.33333333334 0.33333333333;
}
probability (temp_2) {
   default 0.33333333333 0.33333333334 0.33333333333;
}

probability (temp_3) {
   default 0.33333333333 0.33333333334 0.33333333333;
}
probability (temp_4) {
   default 0.33333333333 0.33333333334 0.33333333333;
}
probability (temp_5) {
   default 0.33333333333 0.33333333334 0.33333333333;
}
probability (temp_6) {
   default 0.33333333333 0.33333333334 0.33333333333;
}
probability (temp_7) {
   default 0.33333333333 0.33333333334 0.33333333333;
}
probability (temp_8) {
   default 0.33333333333 0.33333333334 0.33333333333;
}
probability (temp_9) {
   default 0.33333333333 0.33333333334 0.33333333333;
}
probability (temp_10) {
   default 0.33333333333 0.33333333334 0.33333333333;
}
probability (temp_11) {
   default 0.33333333333 0.33333333334 0.33333333333;
}
probability (temp_12) {
   default 0.33333333333 0.33333333334 0.33333333333;
}
probability (km_0) {
   default 0.2 0.2 0.2 0.2 0.2;
}
probability (lo_0) {
   default 0.125 0.125 0.125 0.125 0.125 0.125 0.125 0.125;
}
probability (km_1 | temp_0, lo_0, km_0) {
   (0, 0, 0) 0.966102 0.0338983 0 0 0;
   (1, 0, 0) 0.978903 0.021097 0 0 0;
   (2, 0, 0) 0.972028 0.027972 0 0 0;
   (0, 1, 0) 0.647059 0.352941 0 0 0;
   (1, 1, 0) 0.611111 0.388889 0 0 0;
   (2, 1, 0) 0.59375 0.40625 0 0 0;
   (0, 2, 0) 0.418605 0.581395 0 0 0;
   (1, 2, 0) 0.352941 0.647059 0 0 0;
   (2, 2, 0) 0.233333 0.766667 0 0 0;
   (0, 3, 0) 0.384615 0.615385 0 0 0;
   (1, 3, 0) 0.218182 0.781818 0 0 0;
   (2, 3, 0) 0.0714286 0.928571 0 0 0;
   (0, 4, 0) 0.047619 0.952381 0 0 0;
   (1, 4, 0) 0.0487805 0.95122 0 0 0;
   (2, 4, 0) 0 1 0 0 0;
   (0, 5, 0) 0 1 0 0 0;
   (1, 5, 0) 0 1 0 0 0;
   (2, 5, 0) 0 1 0 0 0;
   (0, 6, 0) 0 1 0 0 0;
   (1, 6, 0) 0 1 0 0 0;
   (2, 6, 0) 0 0.95 0.05 0 0;
   (0, 7, 0) 0 1 0 0 0;
   (1, 7, 0) 0 1 0 0 0;
   (2, 7, 0) 0 0.909091 0.0909091 0 0;
   (0, 0, 1) 0 0.983193 0.0168067 0 0;
   (1, 0, 1) 0 0.98543 0.0145695 0 0;
   (2, 0, 1) 0 0.994937 0.00506329 0 0;
   (0, 1, 1) 0 0.857971 0.142029 0 0;
   (1, 1, 1) 0 0.825967 0.174033 0 0;
   (2, 1, 1) 0 0.846821 0.153179 0 0;
   (0, 2, 1) 0 0.683871 0.316129 0 0;
   (1, 2, 1) 0 0.658537 0.341463 0 0;
   (2, 2, 1) 0 0.602094 0.397906 0 0;
   (0, 3, 1) 0 0.543689 0.456311 0 0;
   (1, 3, 1) 0 0.474576 0.525424 0 0;
   (2, 3, 1) 0 0.373626 0.626374 0 0;
   (0, 4, 1) 0 0.491071 0.508929 0 0;
   (1, 4, 1) 0 0.375661 0.624339 0 0;
   (2, 4, 1) 0 0.243243 0.756757 0 0;
   (0, 5, 1) 0 0.30137 0.69863 0 0;
   (1, 5, 1) 0 0.281081 0.718919 0 0;
   (2, 5, 1) 0 0.242857 0.757143 0 0;
   (0, 6, 1) 0 0.188235 0.811765 0 0;
   (1, 6, 1) 0 0.209581 0.790419 0 0;
   (2, 6, 1) 0 0.105263 0.859649 0.0350877 0;
   (0, 7, 1) 0 0.297297 0.702703 0 0;
   (1, 7, 1) 0 0.190476 0.809524 0 0;
   (2, 7, 1) 0 0.0909091 0.863636 0.0454545 0;
   (0, 0, 2) 0 0 0.983553 0.0164474 0;
   (1, 0, 2) 0 0 0.982935 0.0170648 0;
   (2, 0, 2) 0 0 0.990826 0.00917431 0;
   (0, 1, 2) 0 0 0.901119 0.0988806 0;
   (1, 1, 2) 0 0 0.901794 0.0982059 0;
   (2, 1, 2) 0 0 0.919854 0.0801457 0;
   (0, 2, 2) 0 0 0.776371 0.223629 0;
   (1, 2, 2) 0 0 0.726872 0.273128 0;
   (2, 2, 2) 0 0 0.649402 0.350598 0;
   (0, 3, 2) 0 0 0.712418 0.287582 0;
   (1, 3, 2) 0 0 0.616564 0.383436 0;
   (2, 3, 2) 0 0 0.612903 0.387097 0;
   (0, 4, 2) 0 0 0.547445 0.452555 0;
   (1, 4, 2) 0 0 0.526502 0.473498 0;
   (2, 4, 2) 0 0 0.339744 0.660256 0;
   (0, 5, 2) 0 0 0.449541 0.550459 0;
   (1, 5, 2) 0 0 0.4 0.6 0;
   (2, 5, 2) 0 0 0.329897 0.670103 0;
   (0, 6, 2) 0 0 0.46988 0.53012 0;
   (1, 6, 2) 0 0 0.329949 0.670051 0;
   (2, 6, 2) 0 0 0.1875 0.8125 0;
   (0, 7, 2) 0 0 0.818182 0.181818 0;
   (1, 7, 2) 0 0 0.652174 0.347826 0;
   (2, 7, 2) 0 0 0.142857 0.857143 0;
   (0, 0, 3) 0 0 0 0.994444 0.00555556;
   (1, 0, 3) 0 0 0 0.996248 0.00375235;
   (2, 0, 3) 0 0 0 0.999169 0.000830565;
   (0, 1, 3) 0 0 0 0.906746 0.093254;
   (1, 1, 3) 0 0 0 0.916944 0.0830565;
   (2, 1, 3) 0 0 0 0.923567 0.0764331;
   (0, 2, 3) 0 0 0 0.833333 0.166667;
   (1, 2, 3) 0 0 0 0.760649 0.239351;
   (2, 2, 3) 0 0 0 0.809091 0.190909;
   (0, 3, 3) 0 0 0 0.660819 0.339181;
   (1, 3, 3) 0 0 0 0.716763 0.283237;
   (2, 3, 3) 0 0 0 0.661972 0.338028;
   (0, 4, 3) 0 0 0 0.685185 0.314815;
   (1, 4, 3) 0 0 0 0.566372 0.433628;
   (2, 4, 3) 0 0 0 0.47619 0.52381;
   (0, 5, 3) 0 0 0 0.846154 0.153846;
   (1, 5, 3) 0 0 0 0.733333 0.266667;
   (2, 5, 3) 0 0 0 0.650794 0.349206;
   (0, 6, 3) 0 0 0 1 0;
   (1, 6, 3) 0 0 0 0.882353 0.117647;
   (2, 6, 3) 0 0 0 0.769231 0.230769;
   (0, 7, 3) 0 0 0 0.5 0.5;
   (1, 7, 3) 0 0 0 0.5 0.5;
   (2, 7, 3) 0 0 0 0.5 0.5;
   (0, 0, 4) 0 0 0 0 1;
   (1, 0, 4) 0 0 0 0 1;
   (2, 0, 4) 0 0 0 0 1;
   (0, 1, 4) 0 0 0 0 1;
   (1, 1, 4) 0 0 0 0 1;
   (2, 1, 4) 0 0 0 0 1;
   (0, 2, 4) 0 0 0 0 1;
   (1, 2, 4) 0 0 0 0 1;
   (2, 2, 4) 0 0 0 0 1;
   (0, 3, 4) 0 0 0 0 1;
   (1, 3, 4) 0 0 0 0 1;
   (2, 3, 4) 0 0 0 0 1;
   (0, 4, 4) 0 0 0 0 1;
   (1, 4, 4) 0 0 0 0 1;
   (2, 4, 4) 0 0 0 0 1;
   (0, 5, 4) 0 0 0 0 1;
   (1, 5, 4) 0 0 0 0 1;
   (2, 5, 4) 0 0 0 0 1;
   (0, 6, 4) 0 0 0 0 1;
   (1, 6, 4) 0 0 0 0 1;
   (2, 6, 4) 0 0 0 0 1;
   (0, 7, 4) 0 0 0 0 1;
   (1, 7, 4) 0 0 0 0 1;
   (2, 7, 4) 0 0 0 0 1;
}
probability (km_13 | temp_12, lo_12, km_12) {
   (0, 0, 0) 0.966102 0.0338983 0 0 0;
   (1, 0, 0) 0.978903 0.021097 0 0 0;
   (2, 0, 0) 0.972028 0.027972 0 0 0;
   (0, 1, 0) 0.647059 0.352941 0 0 0;
   (1, 1, 0) 0.611111 0.388889 0 0 0;
   (2, 1, 0) 0.59375 0.40625 0 0 0;
   (0, 2, 0) 0.418605 0.581395 0 0 0;
   (1, 2, 0) 0.352941 0.647059 0 0 0;
   (2, 2, 0) 0.233333 0.766667 0 0 0;
   (0, 3, 0) 0.384615 0.615385 0 0 0;
   (1, 3, 0) 0.218182 0.781818 0 0 0;
   (2, 3, 0) 0.0714286 0.928571 0 0 0;
   (0, 4, 0) 0.047619 0.952381 0 0 0;
   (1, 4, 0) 0.0487805 0.95122 0 0 0;
   (2, 4, 0) 0 1 0 0 0;
   (0, 5, 0) 0 1 0 0 0;
   (1, 5, 0) 0 1 0 0 0;
   (2, 5, 0) 0 1 0 0 0;
   (0, 6, 0) 0 1 0 0 0;
   (1, 6, 0) 0 1 0 0 0;
   (2, 6, 0) 0 0.95 0.05 0 0;
   (0, 7, 0) 0 1 0 0 0;
   (1, 7, 0) 0 1 0 0 0;
   (2, 7, 0) 0 0.909091 0.0909091 0 0;
   (0, 0, 1) 0 0.983193 0.0168067 0 0;
   (1, 0, 1) 0 0.98543 0.0145695 0 0;
   (2, 0, 1) 0 0.994937 0.00506329 0 0;
   (0, 1, 1) 0 0.857971 0.142029 0 0;
   (1, 1, 1) 0 0.825967 0.174033 0 0;
   (2, 1, 1) 0 0.846821 0.153179 0 0;
   (0, 2, 1) 0 0.683871 0.316129 0 0;
   (1, 2, 1) 0 0.658537 0.341463 0 0;
   (2, 2, 1) 0 0.602094 0.397906 0 0;
   (0, 3, 1) 0 0.543689 0.456311 0 0;
   (1, 3, 1) 0 0.474576 0.525424 0 0;
   (2, 3, 1) 0 0.373626 0.626374 0 0;
   (0, 4, 1) 0 0.491071 0.508929 0 0;
   (1, 4, 1) 0 0.375661 0.624339 0 0;
   (2, 4, 1) 0 0.243243 0.756757 0 0;
   (0, 5, 1) 0 0.30137 0.69863 0 0;
   (1, 5, 1) 0 0.281081 0.718919 0 0;
   (2, 5, 1) 0 0.242857 0.757143 0 0;
   (0, 6, 1) 0 0.188235 0.811765 0 0;
   (1, 6, 1) 0 0.209581 0.790419 0 0;
   (2, 6, 1) 0 0.105263 0.859649 0.0350877 0;
   (0, 7, 1) 0 0.297297 0.702703 0 0;
   (1, 7, 1) 0 0.190476 0.809524 0 0;
   (2, 7, 1) 0 0.0909091 0.863636 0.0454545 0;
   (0, 0, 2) 0 0 0.983553 0.0164474 0;
   (1, 0, 2) 0 0 0.982935 0.0170648 0;
   (2, 0, 2) 0 0 0.990826 0.00917431 0;
   (0, 1, 2) 0 0 0.901119 0.0988806 0;
   (1, 1, 2) 0 0 0.901794 0.0982059 0;
   (2, 1, 2) 0 0 0.919854 0.0801457 0;
   (0, 2, 2) 0 0 0.776371 0.223629 0;
   (1, 2, 2) 0 0 0.726872 0.273128 0;
   (2, 2, 2) 0 0 0.649402 0.350598 0;
   (0, 3, 2) 0 0 0.712418 0.287582 0;
   (1, 3, 2) 0 0 0.616564 0.383436 0;
   (2, 3, 2) 0 0 0.612903 0.387097 0;
   (0, 4, 2) 0 0 0.547445 0.452555 0;
   (1, 4, 2) 0 0 0.526502 0.473498 0;
   (2, 4, 2) 0 0 0.339744 0.660256 0;
   (0, 5, 2) 0 0 0.449541 0.550459 0;
   (1, 5, 2) 0 0 0.4 0.6 0;
   (2, 5, 2) 0 0 0.329897 0.670103 0;
   (0, 6, 2) 0 0 0.46988 0.53012 0;
   (1, 6, 2) 0 0 0.329949 0.670051 0;
   (2, 6, 2) 0 0 0.1875 0.8125 0;
   (0, 7, 2) 0 0 0.818182 0.181818 0;
   (1, 7, 2) 0 0 0.652174 0.347826 0;
   (2, 7, 2) 0 0 0.142857 0.857143 0;
   (0, 0, 3) 0 0 0 0.994444 0.00555556;
   (1, 0, 3) 0 0 0 0.996248 0.00375235;
   (2, 0, 3) 0 0 0 0.999169 0.000830565;
   (0, 1, 3) 0 0 0 0.906746 0.093254;
   (1, 1, 3) 0 0 0 0.916944 0.0830565;
   (2, 1, 3) 0 0 0 0.923567 0.0764331;
   (0, 2, 3) 0 0 0 0.833333 0.166667;
   (1, 2, 3) 0 0 0 0.760649 0.239351;
   (2, 2, 3) 0 0 0 0.809091 0.190909;
   (0, 3, 3) 0 0 0 0.660819 0.339181;
   (1, 3, 3) 0 0 0 0.716763 0.283237;
   (2, 3, 3) 0 0 0 0.661972 0.338028;
   (0, 4, 3) 0 0 0 0.685185 0.314815;
   (1, 4, 3) 0 0 0 0.566372 0.433628;
   (2, 4, 3) 0 0 0 0.47619 0.52381;
   (0, 5, 3) 0 0 0 0.846154 0.153846;
   (1, 5, 3) 0 0 0 0.733333 0.266667;
   (2, 5, 3) 0 0 0 0.650794 0.349206;
   (0, 6, 3) 0 0 0 1 0;
   (1, 6, 3) 0 0 0 0.882353 0.117647;
   (2, 6, 3) 0 0 0 0.769231 0.230769;
   (0, 7, 3) 0 0 0 0.5 0.5;
   (1, 7, 3) 0 0 0 0.5 0.5;
   (2, 7, 3) 0 0 0 0.5 0.5;
   (0, 0, 4) 0 0 0 0 1;
   (1, 0, 4) 0 0 0 0 1;
   (2, 0, 4) 0 0 0 0 1;
   (0, 1, 4) 0 0 0 0 1;
   (1, 1, 4) 0 0 0 0 1;
   (2, 1, 4) 0 0 0 0 1;
   (0, 2, 4) 0 0 0 0 1;
   (1, 2, 4) 0 0 0 0 1;
   (2, 2, 4) 0 0 0 0 1;
   (0, 3, 4) 0 0 0 0 1;
   (1, 3, 4) 0 0 0 0 1;
   (2, 3, 4) 0 0 0 0 1;
   (0, 4, 4) 0 0 0 0 1;
   (1, 4, 4) 0 0 0 0 1;
   (2, 4, 4) 0 0 0 0 1;
   (0, 5, 4) 0 0 0 0 1;
   (1, 5, 4) 0 0 0 0 1;
   (2, 5, 4) 0 0 0 0 1;
   (0, 6, 4) 0 0 0 0 1;
   (1, 6, 4) 0 0 0 0 1;
   (2, 6, 4) 0 0 0 0 1;
   (0, 7, 4) 0 0 0 0 1;
   (1, 7, 4) 0 0 0 0 1;
   (2, 7, 4) 0 0 0 0 1;
}
probability (km_12 | temp_11, lo_11, km_11) {
   (0, 0, 0) 0.966102 0.0338983 0 0 0;
   (1, 0, 0) 0.978903 0.021097 0 0 0;
   (2, 0, 0) 0.972028 0.027972 0 0 0;
   (0, 1, 0) 0.647059 0.352941 0 0 0;
   (1, 1, 0) 0.611111 0.388889 0 0 0;
   (2, 1, 0) 0.59375 0.40625 0 0 0;
   (0, 2, 0) 0.418605 0.581395 0 0 0;
   (1, 2, 0) 0.352941 0.647059 0 0 0;
   (2, 2, 0) 0.233333 0.766667 0 0 0;
   (0, 3, 0) 0.384615 0.615385 0 0 0;
   (1, 3, 0) 0.218182 0.781818 0 0 0;
   (2, 3, 0) 0.0714286 0.928571 0 0 0;
   (0, 4, 0) 0.047619 0.952381 0 0 0;
   (1, 4, 0) 0.0487805 0.95122 0 0 0;
   (2, 4, 0) 0 1 0 0 0;
   (0, 5, 0) 0 1 0 0 0;
   (1, 5, 0) 0 1 0 0 0;
   (2, 5, 0) 0 1 0 0 0;
   (0, 6, 0) 0 1 0 0 0;
   (1, 6, 0) 0 1 0 0 0;
   (2, 6, 0) 0 0.95 0.05 0 0;
   (0, 7, 0) 0 1 0 0 0;
   (1, 7, 0) 0 1 0 0 0;
   (2, 7, 0) 0 0.909091 0.0909091 0 0;
   (0, 0, 1) 0 0.983193 0.0168067 0 0;
   (1, 0, 1) 0 0.98543 0.0145695 0 0;
   (2, 0, 1) 0 0.994937 0.00506329 0 0;
   (0, 1, 1) 0 0.857971 0.142029 0 0;
   (1, 1, 1) 0 0.825967 0.174033 0 0;
   (2, 1, 1) 0 0.846821 0.153179 0 0;
   (0, 2, 1) 0 0.683871 0.316129 0 0;
   (1, 2, 1) 0 0.658537 0.341463 0 0;
   (2, 2, 1) 0 0.602094 0.397906 0 0;
   (0, 3, 1) 0 0.543689 0.456311 0 0;
   (1, 3, 1) 0 0.474576 0.525424 0 0;
   (2, 3, 1) 0 0.373626 0.626374 0 0;
   (0, 4, 1) 0 0.491071 0.508929 0 0;
   (1, 4, 1) 0 0.375661 0.624339 0 0;
   (2, 4, 1) 0 0.243243 0.756757 0 0;
   (0, 5, 1) 0 0.30137 0.69863 0 0;
   (1, 5, 1) 0 0.281081 0.718919 0 0;
   (2, 5, 1) 0 0.242857 0.757143 0 0;
   (0, 6, 1) 0 0.188235 0.811765 0 0;
   (1, 6, 1) 0 0.209581 0.790419 0 0;
   (2, 6, 1) 0 0.105263 0.859649 0.0350877 0;
   (0, 7, 1) 0 0.297297 0.702703 0 0;
   (1, 7, 1) 0 0.190476 0.809524 0 0;
   (2, 7, 1) 0 0.0909091 0.863636 0.0454545 0;
   (0, 0, 2) 0 0 0.983553 0.0164474 0;
   (1, 0, 2) 0 0 0.982935 0.0170648 0;
   (2, 0, 2) 0 0 0.990826 0.00917431 0;
   (0, 1, 2) 0 0 0.901119 0.0988806 0;
   (1, 1, 2) 0 0 0.901794 0.0982059 0;
   (2, 1, 2) 0 0 0.919854 0.0801457 0;
   (0, 2, 2) 0 0 0.776371 0.223629 0;
   (1, 2, 2) 0 0 0.726872 0.273128 0;
   (2, 2, 2) 0 0 0.649402 0.350598 0;
   (0, 3, 2) 0 0 0.712418 0.287582 0;
   (1, 3, 2) 0 0 0.616564 0.383436 0;
   (2, 3, 2) 0 0 0.612903 0.387097 0;
   (0, 4, 2) 0 0 0.547445 0.452555 0;
   (1, 4, 2) 0 0 0.526502 0.473498 0;
   (2, 4, 2) 0 0 0.339744 0.660256 0;
   (0, 5, 2) 0 0 0.449541 0.550459 0;
   (1, 5, 2) 0 0 0.4 0.6 0;
   (2, 5, 2) 0 0 0.329897 0.670103 0;
   (0, 6, 2) 0 0 0.46988 0.53012 0;
   (1, 6, 2) 0 0 0.329949 0.670051 0;
   (2, 6, 2) 0 0 0.1875 0.8125 0;
   (0, 7, 2) 0 0 0.818182 0.181818 0;
   (1, 7, 2) 0 0 0.652174 0.347826 0;
   (2, 7, 2) 0 0 0.142857 0.857143 0;
   (0, 0, 3) 0 0 0 0.994444 0.00555556;
   (1, 0, 3) 0 0 0 0.996248 0.00375235;
   (2, 0, 3) 0 0 0 0.999169 0.000830565;
   (0, 1, 3) 0 0 0 0.906746 0.093254;
   (1, 1, 3) 0 0 0 0.916944 0.0830565;
   (2, 1, 3) 0 0 0 0.923567 0.0764331;
   (0, 2, 3) 0 0 0 0.833333 0.166667;
   (1, 2, 3) 0 0 0 0.760649 0.239351;
   (2, 2, 3) 0 0 0 0.809091 0.190909;
   (0, 3, 3) 0 0 0 0.660819 0.339181;
   (1, 3, 3) 0 0 0 0.716763 0.283237;
   (2, 3, 3) 0 0 0 0.661972 0.338028;
   (0, 4, 3) 0 0 0 0.685185 0.314815;
   (1, 4, 3) 0 0 0 0.566372 0.433628;
   (2, 4, 3) 0 0 0 0.47619 0.52381;
   (0, 5, 3) 0 0 0 0.846154 0.153846;
   (1, 5, 3) 0 0 0 0.733333 0.266667;
   (2, 5, 3) 0 0 0 0.650794 0.349206;
   (0, 6, 3) 0 0 0 1 0;
   (1, 6, 3) 0 0 0 0.882353 0.117647;
   (2, 6, 3) 0 0 0 0.769231 0.230769;
   (0, 7, 3) 0 0 0 0.5 0.5;
   (1, 7, 3) 0 0 0 0.5 0.5;
   (2, 7, 3) 0 0 0 0.5 0.5;
   (0, 0, 4) 0 0 0 0 1;
   (1, 0, 4) 0 0 0 0 1;
   (2, 0, 4) 0 0 0 0 1;
   (0, 1, 4) 0 0 0 0 1;
   (1, 1, 4) 0 0 0 0 1;
   (2, 1, 4) 0 0 0 0 1;
   (0, 2, 4) 0 0 0 0 1;
   (1, 2, 4) 0 0 0 0 1;
   (2, 2, 4) 0 0 0 0 1;
   (0, 3, 4) 0 0 0 0 1;
   (1, 3, 4) 0 0 0 0 1;
   (2, 3, 4) 0 0 0 0 1;
   (0, 4, 4) 0 0 0 0 1;
   (1, 4, 4) 0 0 0 0 1;
   (2, 4, 4) 0 0 0 0 1;
   (0, 5, 4) 0 0 0 0 1;
   (1, 5, 4) 0 0 0 0 1;
   (2, 5, 4) 0 0 0 0 1;
   (0, 6, 4) 0 0 0 0 1;
   (1, 6, 4) 0 0 0 0 1;
   (2, 6, 4) 0 0 0 0 1;
   (0, 7, 4) 0 0 0 0 1;
   (1, 7, 4) 0 0 0 0 1;
   (2, 7, 4) 0 0 0 0 1;
}
probability (km_11 | temp_10, lo_10, km_10) {
   (0, 0, 0) 0.966102 0.0338983 0 0 0;
   (1, 0, 0) 0.978903 0.021097 0 0 0;
   (2, 0, 0) 0.972028 0.027972 0 0 0;
   (0, 1, 0) 0.647059 0.352941 0 0 0;
   (1, 1, 0) 0.611111 0.388889 0 0 0;
   (2, 1, 0) 0.59375 0.40625 0 0 0;
   (0, 2, 0) 0.418605 0.581395 0 0 0;
   (1, 2, 0) 0.352941 0.647059 0 0 0;
   (2, 2, 0) 0.233333 0.766667 0 0 0;
   (0, 3, 0) 0.384615 0.615385 0 0 0;
   (1, 3, 0) 0.218182 0.781818 0 0 0;
   (2, 3, 0) 0.0714286 0.928571 0 0 0;
   (0, 4, 0) 0.047619 0.952381 0 0 0;
   (1, 4, 0) 0.0487805 0.95122 0 0 0;
   (2, 4, 0) 0 1 0 0 0;
   (0, 5, 0) 0 1 0 0 0;
   (1, 5, 0) 0 1 0 0 0;
   (2, 5, 0) 0 1 0 0 0;
   (0, 6, 0) 0 1 0 0 0;
   (1, 6, 0) 0 1 0 0 0;
   (2, 6, 0) 0 0.95 0.05 0 0;
   (0, 7, 0) 0 1 0 0 0;
   (1, 7, 0) 0 1 0 0 0;
   (2, 7, 0) 0 0.909091 0.0909091 0 0;
   (0, 0, 1) 0 0.983193 0.0168067 0 0;
   (1, 0, 1) 0 0.98543 0.0145695 0 0;
   (2, 0, 1) 0 0.994937 0.00506329 0 0;
   (0, 1, 1) 0 0.857971 0.142029 0 0;
   (1, 1, 1) 0 0.825967 0.174033 0 0;
   (2, 1, 1) 0 0.846821 0.153179 0 0;
   (0, 2, 1) 0 0.683871 0.316129 0 0;
   (1, 2, 1) 0 0.658537 0.341463 0 0;
   (2, 2, 1) 0 0.602094 0.397906 0 0;
   (0, 3, 1) 0 0.543689 0.456311 0 0;
   (1, 3, 1) 0 0.474576 0.525424 0 0;
   (2, 3, 1) 0 0.373626 0.626374 0 0;
   (0, 4, 1) 0 0.491071 0.508929 0 0;
   (1, 4, 1) 0 0.375661 0.624339 0 0;
   (2, 4, 1) 0 0.243243 0.756757 0 0;
   (0, 5, 1) 0 0.30137 0.69863 0 0;
   (1, 5, 1) 0 0.281081 0.718919 0 0;
   (2, 5, 1) 0 0.242857 0.757143 0 0;
   (0, 6, 1) 0 0.188235 0.811765 0 0;
   (1, 6, 1) 0 0.209581 0.790419 0 0;
   (2, 6, 1) 0 0.105263 0.859649 0.0350877 0;
   (0, 7, 1) 0 0.297297 0.702703 0 0;
   (1, 7, 1) 0 0.190476 0.809524 0 0;
   (2, 7, 1) 0 0.0909091 0.863636 0.0454545 0;
   (0, 0, 2) 0 0 0.983553 0.0164474 0;
   (1, 0, 2) 0 0 0.982935 0.0170648 0;
   (2, 0, 2) 0 0 0.990826 0.00917431 0;
   (0, 1, 2) 0 0 0.901119 0.0988806 0;
   (1, 1, 2) 0 0 0.901794 0.0982059 0;
   (2, 1, 2) 0 0 0.919854 0.0801457 0;
   (0, 2, 2) 0 0 0.776371 0.223629 0;
   (1, 2, 2) 0 0 0.726872 0.273128 0;
   (2, 2, 2) 0 0 0.649402 0.350598 0;
   (0, 3, 2) 0 0 0.712418 0.287582 0;
   (1, 3, 2) 0 0 0.616564 0.383436 0;
   (2, 3, 2) 0 0 0.612903 0.387097 0;
   (0, 4, 2) 0 0 0.547445 0.452555 0;
   (1, 4, 2) 0 0 0.526502 0.473498 0;
   (2, 4, 2) 0 0 0.339744 0.660256 0;
   (0, 5, 2) 0 0 0.449541 0.550459 0;
   (1, 5, 2) 0 0 0.4 0.6 0;
   (2, 5, 2) 0 0 0.329897 0.670103 0;
   (0, 6, 2) 0 0 0.46988 0.53012 0;
   (1, 6, 2) 0 0 0.329949 0.670051 0;
   (2, 6, 2) 0 0 0.1875 0.8125 0;
   (0, 7, 2) 0 0 0.818182 0.181818 0;
   (1, 7, 2) 0 0 0.652174 0.347826 0;
   (2, 7, 2) 0 0 0.142857 0.857143 0;
   (0, 0, 3) 0 0 0 0.994444 0.00555556;
   (1, 0, 3) 0 0 0 0.996248 0.00375235;
   (2, 0, 3) 0 0 0 0.999169 0.000830565;
   (0, 1, 3) 0 0 0 0.906746 0.093254;
   (1, 1, 3) 0 0 0 0.916944 0.0830565;
   (2, 1, 3) 0 0 0 0.923567 0.0764331;
   (0, 2, 3) 0 0 0 0.833333 0.166667;
   (1, 2, 3) 0 0 0 0.760649 0.239351;
   (2, 2, 3) 0 0 0 0.809091 0.190909;
   (0, 3, 3) 0 0 0 0.660819 0.339181;
   (1, 3, 3) 0 0 0 0.716763 0.283237;
   (2, 3, 3) 0 0 0 0.661972 0.338028;
   (0, 4, 3) 0 0 0 0.685185 0.314815;
   (1, 4, 3) 0 0 0 0.566372 0.433628;
   (2, 4, 3) 0 0 0 0.47619 0.52381;
   (0, 5, 3) 0 0 0 0.846154 0.153846;
   (1, 5, 3) 0 0 0 0.733333 0.266667;
   (2, 5, 3) 0 0 0 0.650794 0.349206;
   (0, 6, 3) 0 0 0 1 0;
   (1, 6, 3) 0 0 0 0.882353 0.117647;
   (2, 6, 3) 0 0 0 0.769231 0.230769;
   (0, 7, 3) 0 0 0 0.5 0.5;
   (1, 7, 3) 0 0 0 0.5 0.5;
   (2, 7, 3) 0 0 0 0.5 0.5;
   (0, 0, 4) 0 0 0 0 1;
   (1, 0, 4) 0 0 0 0 1;
   (2, 0, 4) 0 0 0 0 1;
   (0, 1, 4) 0 0 0 0 1;
   (1, 1, 4) 0 0 0 0 1;
   (2, 1, 4) 0 0 0 0 1;
   (0, 2, 4) 0 0 0 0 1;
   (1, 2, 4) 0 0 0 0 1;
   (2, 2, 4) 0 0 0 0 1;
   (0, 3, 4) 0 0 0 0 1;
   (1, 3, 4) 0 0 0 0 1;
   (2, 3, 4) 0 0 0 0 1;
   (0, 4, 4) 0 0 0 0 1;
   (1, 4, 4) 0 0 0 0 1;
   (2, 4, 4) 0 0 0 0 1;
   (0, 5, 4) 0 0 0 0 1;
   (1, 5, 4) 0 0 0 0 1;
   (2, 5, 4) 0 0 0 0 1;
   (0, 6, 4) 0 0 0 0 1;
   (1, 6, 4) 0 0 0 0 1;
   (2, 6, 4) 0 0 0 0 1;
   (0, 7, 4) 0 0 0 0 1;
   (1, 7, 4) 0 0 0 0 1;
   (2, 7, 4) 0 0 0 0 1;
}
probability (km_10 | temp_9, lo_9, km_9) {
   (0, 0, 0) 0.966102 0.0338983 0 0 0;
   (1, 0, 0) 0.978903 0.021097 0 0 0;
   (2, 0, 0) 0.972028 0.027972 0 0 0;
   (0, 1, 0) 0.647059 0.352941 0 0 0;
   (1, 1, 0) 0.611111 0.388889 0 0 0;
   (2, 1, 0) 0.59375 0.40625 0 0 0;
   (0, 2, 0) 0.418605 0.581395 0 0 0;
   (1, 2, 0) 0.352941 0.647059 0 0 0;
   (2, 2, 0) 0.233333 0.766667 0 0 0;
   (0, 3, 0) 0.384615 0.615385 0 0 0;
   (1, 3, 0) 0.218182 0.781818 0 0 0;
   (2, 3, 0) 0.0714286 0.928571 0 0 0;
   (0, 4, 0) 0.047619 0.952381 0 0 0;
   (1, 4, 0) 0.0487805 0.95122 0 0 0;
   (2, 4, 0) 0 1 0 0 0;
   (0, 5, 0) 0 1 0 0 0;
   (1, 5, 0) 0 1 0 0 0;
   (2, 5, 0) 0 1 0 0 0;
   (0, 6, 0) 0 1 0 0 0;
   (1, 6, 0) 0 1 0 0 0;
   (2, 6, 0) 0 0.95 0.05 0 0;
   (0, 7, 0) 0 1 0 0 0;
   (1, 7, 0) 0 1 0 0 0;
   (2, 7, 0) 0 0.909091 0.0909091 0 0;
   (0, 0, 1) 0 0.983193 0.0168067 0 0;
   (1, 0, 1) 0 0.98543 0.0145695 0 0;
   (2, 0, 1) 0 0.994937 0.00506329 0 0;
   (0, 1, 1) 0 0.857971 0.142029 0 0;
   (1, 1, 1) 0 0.825967 0.174033 0 0;
   (2, 1, 1) 0 0.846821 0.153179 0 0;
   (0, 2, 1) 0 0.683871 0.316129 0 0;
   (1, 2, 1) 0 0.658537 0.341463 0 0;
   (2, 2, 1) 0 0.602094 0.397906 0 0;
   (0, 3, 1) 0 0.543689 0.456311 0 0;
   (1, 3, 1) 0 0.474576 0.525424 0 0;
   (2, 3, 1) 0 0.373626 0.626374 0 0;
   (0, 4, 1) 0 0.491071 0.508929 0 0;
   (1, 4, 1) 0 0.375661 0.624339 0 0;
   (2, 4, 1) 0 0.243243 0.756757 0 0;
   (0, 5, 1) 0 0.30137 0.69863 0 0;
   (1, 5, 1) 0 0.281081 0.718919 0 0;
   (2, 5, 1) 0 0.242857 0.757143 0 0;
   (0, 6, 1) 0 0.188235 0.811765 0 0;
   (1, 6, 1) 0 0.209581 0.790419 0 0;
   (2, 6, 1) 0 0.105263 0.859649 0.0350877 0;
   (0, 7, 1) 0 0.297297 0.702703 0 0;
   (1, 7, 1) 0 0.190476 0.809524 0 0;
   (2, 7, 1) 0 0.0909091 0.863636 0.0454545 0;
   (0, 0, 2) 0 0 0.983553 0.0164474 0;
   (1, 0, 2) 0 0 0.982935 0.0170648 0;
   (2, 0, 2) 0 0 0.990826 0.00917431 0;
   (0, 1, 2) 0 0 0.901119 0.0988806 0;
   (1, 1, 2) 0 0 0.901794 0.0982059 0;
   (2, 1, 2) 0 0 0.919854 0.0801457 0;
   (0, 2, 2) 0 0 0.776371 0.223629 0;
   (1, 2, 2) 0 0 0.726872 0.273128 0;
   (2, 2, 2) 0 0 0.649402 0.350598 0;
   (0, 3, 2) 0 0 0.712418 0.287582 0;
   (1, 3, 2) 0 0 0.616564 0.383436 0;
   (2, 3, 2) 0 0 0.612903 0.387097 0;
   (0, 4, 2) 0 0 0.547445 0.452555 0;
   (1, 4, 2) 0 0 0.526502 0.473498 0;
   (2, 4, 2) 0 0 0.339744 0.660256 0;
   (0, 5, 2) 0 0 0.449541 0.550459 0;
   (1, 5, 2) 0 0 0.4 0.6 0;
   (2, 5, 2) 0 0 0.329897 0.670103 0;
   (0, 6, 2) 0 0 0.46988 0.53012 0;
   (1, 6, 2) 0 0 0.329949 0.670051 0;
   (2, 6, 2) 0 0 0.1875 0.8125 0;
   (0, 7, 2) 0 0 0.818182 0.181818 0;
   (1, 7, 2) 0 0 0.652174 0.347826 0;
   (2, 7, 2) 0 0 0.142857 0.857143 0;
   (0, 0, 3) 0 0 0 0.994444 0.00555556;
   (1, 0, 3) 0 0 0 0.996248 0.00375235;
   (2, 0, 3) 0 0 0 0.999169 0.000830565;
   (0, 1, 3) 0 0 0 0.906746 0.093254;
   (1, 1, 3) 0 0 0 0.916944 0.0830565;
   (2, 1, 3) 0 0 0 0.923567 0.0764331;
   (0, 2, 3) 0 0 0 0.833333 0.166667;
   (1, 2, 3) 0 0 0 0.760649 0.239351;
   (2, 2, 3) 0 0 0 0.809091 0.190909;
   (0, 3, 3) 0 0 0 0.660819 0.339181;
   (1, 3, 3) 0 0 0 0.716763 0.283237;
   (2, 3, 3) 0 0 0 0.661972 0.338028;
   (0, 4, 3) 0 0 0 0.685185 0.314815;
   (1, 4, 3) 0 0 0 0.566372 0.433628;
   (2, 4, 3) 0 0 0 0.47619 0.52381;
   (0, 5, 3) 0 0 0 0.846154 0.153846;
   (1, 5, 3) 0 0 0 0.733333 0.266667;
   (2, 5, 3) 0 0 0 0.650794 0.349206;
   (0, 6, 3) 0 0 0 1 0;
   (1, 6, 3) 0 0 0 0.882353 0.117647;
   (2, 6, 3) 0 0 0 0.769231 0.230769;
   (0, 7, 3) 0 0 0 0.5 0.5;
   (1, 7, 3) 0 0 0 0.5 0.5;
   (2, 7, 3) 0 0 0 0.5 0.5;
   (0, 0, 4) 0 0 0 0 1;
   (1, 0, 4) 0 0 0 0 1;
   (2, 0, 4) 0 0 0 0 1;
   (0, 1, 4) 0 0 0 0 1;
   (1, 1, 4) 0 0 0 0 1;
   (2, 1, 4) 0 0 0 0 1;
   (0, 2, 4) 0 0 0 0 1;
   (1, 2, 4) 0 0 0 0 1;
   (2, 2, 4) 0 0 0 0 1;
   (0, 3, 4) 0 0 0 0 1;
   (1, 3, 4) 0 0 0 0 1;
   (2, 3, 4) 0 0 0 0 1;
   (0, 4, 4) 0 0 0 0 1;
   (1, 4, 4) 0 0 0 0 1;
   (2, 4, 4) 0 0 0 0 1;
   (0, 5, 4) 0 0 0 0 1;
   (1, 5, 4) 0 0 0 0 1;
   (2, 5, 4) 0 0 0 0 1;
   (0, 6, 4) 0 0 0 0 1;
   (1, 6, 4) 0 0 0 0 1;
   (2, 6, 4) 0 0 0 0 1;
   (0, 7, 4) 0 0 0 0 1;
   (1, 7, 4) 0 0 0 0 1;
   (2, 7, 4) 0 0 0 0 1;
}
probability (km_9 | temp_8, lo_8, km_8) {
   (0, 0, 0) 0.966102 0.0338983 0 0 0;
   (1, 0, 0) 0.978903 0.021097 0 0 0;
   (2, 0, 0) 0.972028 0.027972 0 0 0;
   (0, 1, 0) 0.647059 0.352941 0 0 0;
   (1, 1, 0) 0.611111 0.388889 0 0 0;
   (2, 1, 0) 0.59375 0.40625 0 0 0;
   (0, 2, 0) 0.418605 0.581395 0 0 0;
   (1, 2, 0) 0.352941 0.647059 0 0 0;
   (2, 2, 0) 0.233333 0.766667 0 0 0;
   (0, 3, 0) 0.384615 0.615385 0 0 0;
   (1, 3, 0) 0.218182 0.781818 0 0 0;
   (2, 3, 0) 0.0714286 0.928571 0 0 0;
   (0, 4, 0) 0.047619 0.952381 0 0 0;
   (1, 4, 0) 0.0487805 0.95122 0 0 0;
   (2, 4, 0) 0 1 0 0 0;
   (0, 5, 0) 0 1 0 0 0;
   (1, 5, 0) 0 1 0 0 0;
   (2, 5, 0) 0 1 0 0 0;
   (0, 6, 0) 0 1 0 0 0;
   (1, 6, 0) 0 1 0 0 0;
   (2, 6, 0) 0 0.95 0.05 0 0;
   (0, 7, 0) 0 1 0 0 0;
   (1, 7, 0) 0 1 0 0 0;
   (2, 7, 0) 0 0.909091 0.0909091 0 0;
   (0, 0, 1) 0 0.983193 0.0168067 0 0;
   (1, 0, 1) 0 0.98543 0.0145695 0 0;
   (2, 0, 1) 0 0.994937 0.00506329 0 0;
   (0, 1, 1) 0 0.857971 0.142029 0 0;
   (1, 1, 1) 0 0.825967 0.174033 0 0;
   (2, 1, 1) 0 0.846821 0.153179 0 0;
   (0, 2, 1) 0 0.683871 0.316129 0 0;
   (1, 2, 1) 0 0.658537 0.341463 0 0;
   (2, 2, 1) 0 0.602094 0.397906 0 0;
   (0, 3, 1) 0 0.543689 0.456311 0 0;
   (1, 3, 1) 0 0.474576 0.525424 0 0;
   (2, 3, 1) 0 0.373626 0.626374 0 0;
   (0, 4, 1) 0 0.491071 0.508929 0 0;
   (1, 4, 1) 0 0.375661 0.624339 0 0;
   (2, 4, 1) 0 0.243243 0.756757 0 0;
   (0, 5, 1) 0 0.30137 0.69863 0 0;
   (1, 5, 1) 0 0.281081 0.718919 0 0;
   (2, 5, 1) 0 0.242857 0.757143 0 0;
   (0, 6, 1) 0 0.188235 0.811765 0 0;
   (1, 6, 1) 0 0.209581 0.790419 0 0;
   (2, 6, 1) 0 0.105263 0.859649 0.0350877 0;
   (0, 7, 1) 0 0.297297 0.702703 0 0;
   (1, 7, 1) 0 0.190476 0.809524 0 0;
   (2, 7, 1) 0 0.0909091 0.863636 0.0454545 0;
   (0, 0, 2) 0 0 0.983553 0.0164474 0;
   (1, 0, 2) 0 0 0.982935 0.0170648 0;
   (2, 0, 2) 0 0 0.990826 0.00917431 0;
   (0, 1, 2) 0 0 0.901119 0.0988806 0;
   (1, 1, 2) 0 0 0.901794 0.0982059 0;
   (2, 1, 2) 0 0 0.919854 0.0801457 0;
   (0, 2, 2) 0 0 0.776371 0.223629 0;
   (1, 2, 2) 0 0 0.726872 0.273128 0;
   (2, 2, 2) 0 0 0.649402 0.350598 0;
   (0, 3, 2) 0 0 0.712418 0.287582 0;
   (1, 3, 2) 0 0 0.616564 0.383436 0;
   (2, 3, 2) 0 0 0.612903 0.387097 0;
   (0, 4, 2) 0 0 0.547445 0.452555 0;
   (1, 4, 2) 0 0 0.526502 0.473498 0;
   (2, 4, 2) 0 0 0.339744 0.660256 0;
   (0, 5, 2) 0 0 0.449541 0.550459 0;
   (1, 5, 2) 0 0 0.4 0.6 0;
   (2, 5, 2) 0 0 0.329897 0.670103 0;
   (0, 6, 2) 0 0 0.46988 0.53012 0;
   (1, 6, 2) 0 0 0.329949 0.670051 0;
   (2, 6, 2) 0 0 0.1875 0.8125 0;
   (0, 7, 2) 0 0 0.818182 0.181818 0;
   (1, 7, 2) 0 0 0.652174 0.347826 0;
   (2, 7, 2) 0 0 0.142857 0.857143 0;
   (0, 0, 3) 0 0 0 0.994444 0.00555556;
   (1, 0, 3) 0 0 0 0.996248 0.00375235;
   (2, 0, 3) 0 0 0 0.999169 0.000830565;
   (0, 1, 3) 0 0 0 0.906746 0.093254;
   (1, 1, 3) 0 0 0 0.916944 0.0830565;
   (2, 1, 3) 0 0 0 0.923567 0.0764331;
   (0, 2, 3) 0 0 0 0.833333 0.166667;
   (1, 2, 3) 0 0 0 0.760649 0.239351;
   (2, 2, 3) 0 0 0 0.809091 0.190909;
   (0, 3, 3) 0 0 0 0.660819 0.339181;
   (1, 3, 3) 0 0 0 0.716763 0.283237;
   (2, 3, 3) 0 0 0 0.661972 0.338028;
   (0, 4, 3) 0 0 0 0.685185 0.314815;
   (1, 4, 3) 0 0 0 0.566372 0.433628;
   (2, 4, 3) 0 0 0 0.47619 0.52381;
   (0, 5, 3) 0 0 0 0.846154 0.153846;
   (1, 5, 3) 0 0 0 0.733333 0.266667;
   (2, 5, 3) 0 0 0 0.650794 0.349206;
   (0, 6, 3) 0 0 0 1 0;
   (1, 6, 3) 0 0 0 0.882353 0.117647;
   (2, 6, 3) 0 0 0 0.769231 0.230769;
   (0, 7, 3) 0 0 0 0.5 0.5;
   (1, 7, 3) 0 0 0 0.5 0.5;
   (2, 7, 3) 0 0 0 0.5 0.5;
   (0, 0, 4) 0 0 0 0 1;
   (1, 0, 4) 0 0 0 0 1;
   (2, 0, 4) 0 0 0 0 1;
   (0, 1, 4) 0 0 0 0 1;
   (1, 1, 4) 0 0 0 0 1;
   (2, 1, 4) 0 0 0 0 1;
   (0, 2, 4) 0 0 0 0 1;
   (1, 2, 4) 0 0 0 0 1;
   (2, 2, 4) 0 0 0 0 1;
   (0, 3, 4) 0 0 0 0 1;
   (1, 3, 4) 0 0 0 0 1;
   (2, 3, 4) 0 0 0 0 1;
   (0, 4, 4) 0 0 0 0 1;
   (1, 4, 4) 0 0 0 0 1;
   (2, 4, 4) 0 0 0 0 1;
   (0, 5, 4) 0 0 0 0 1;
   (1, 5, 4) 0 0 0 0 1;
   (2, 5, 4) 0 0 0 0 1;
   (0, 6, 4) 0 0 0 0 1;
   (1, 6, 4) 0 0 0 0 1;
   (2, 6, 4) 0 0 0 0 1;
   (0, 7, 4) 0 0 0 0 1;
   (1, 7, 4) 0 0 0 0 1;
   (2, 7, 4) 0 0 0 0 1;
}
probability (km_8 | temp_7, lo_7, km_7) {
   (0, 0, 0) 0.966102 0.0338983 0 0 0;
   (1, 0, 0) 0.978903 0.021097 0 0 0;
   (2, 0, 0) 0.972028 0.027972 0 0 0;
   (0, 1, 0) 0.647059 0.352941 0 0 0;
   (1, 1, 0) 0.611111 0.388889 0 0 0;
   (2, 1, 0) 0.59375 0.40625 0 0 0;
   (0, 2, 0) 0.418605 0.581395 0 0 0;
   (1, 2, 0) 0.352941 0.647059 0 0 0;
   (2, 2, 0) 0.233333 0.766667 0 0 0;
   (0, 3, 0) 0.384615 0.615385 0 0 0;
   (1, 3, 0) 0.218182 0.781818 0 0 0;
   (2, 3, 0) 0.0714286 0.928571 0 0 0;
   (0, 4, 0) 0.047619 0.952381 0 0 0;
   (1, 4, 0) 0.0487805 0.95122 0 0 0;
   (2, 4, 0) 0 1 0 0 0;
   (0, 5, 0) 0 1 0 0 0;
   (1, 5, 0) 0 1 0 0 0;
   (2, 5, 0) 0 1 0 0 0;
   (0, 6, 0) 0 1 0 0 0;
   (1, 6, 0) 0 1 0 0 0;
   (2, 6, 0) 0 0.95 0.05 0 0;
   (0, 7, 0) 0 1 0 0 0;
   (1, 7, 0) 0 1 0 0 0;
   (2, 7, 0) 0 0.909091 0.0909091 0 0;
   (0, 0, 1) 0 0.983193 0.0168067 0 0;
   (1, 0, 1) 0 0.98543 0.0145695 0 0;
   (2, 0, 1) 0 0.994937 0.00506329 0 0;
   (0, 1, 1) 0 0.857971 0.142029 0 0;
   (1, 1, 1) 0 0.825967 0.174033 0 0;
   (2, 1, 1) 0 0.846821 0.153179 0 0;
   (0, 2, 1) 0 0.683871 0.316129 0 0;
   (1, 2, 1) 0 0.658537 0.341463 0 0;
   (2, 2, 1) 0 0.602094 0.397906 0 0;
   (0, 3, 1) 0 0.543689 0.456311 0 0;
   (1, 3, 1) 0 0.474576 0.525424 0 0;
   (2, 3, 1) 0 0.373626 0.626374 0 0;
   (0, 4, 1) 0 0.491071 0.508929 0 0;
   (1, 4, 1) 0 0.375661 0.624339 0 0;
   (2, 4, 1) 0 0.243243 0.756757 0 0;
   (0, 5, 1) 0 0.30137 0.69863 0 0;
   (1, 5, 1) 0 0.281081 0.718919 0 0;
   (2, 5, 1) 0 0.242857 0.757143 0 0;
   (0, 6, 1) 0 0.188235 0.811765 0 0;
   (1, 6, 1) 0 0.209581 0.790419 0 0;
   (2, 6, 1) 0 0.105263 0.859649 0.0350877 0;
   (0, 7, 1) 0 0.297297 0.702703 0 0;
   (1, 7, 1) 0 0.190476 0.809524 0 0;
   (2, 7, 1) 0 0.0909091 0.863636 0.0454545 0;
   (0, 0, 2) 0 0 0.983553 0.0164474 0;
   (1, 0, 2) 0 0 0.982935 0.0170648 0;
   (2, 0, 2) 0 0 0.990826 0.00917431 0;
   (0, 1, 2) 0 0 0.901119 0.0988806 0;
   (1, 1, 2) 0 0 0.901794 0.0982059 0;
   (2, 1, 2) 0 0 0.919854 0.0801457 0;
   (0, 2, 2) 0 0 0.776371 0.223629 0;
   (1, 2, 2) 0 0 0.726872 0.273128 0;
   (2, 2, 2) 0 0 0.649402 0.350598 0;
   (0, 3, 2) 0 0 0.712418 0.287582 0;
   (1, 3, 2) 0 0 0.616564 0.383436 0;
   (2, 3, 2) 0 0 0.612903 0.387097 0;
   (0, 4, 2) 0 0 0.547445 0.452555 0;
   (1, 4, 2) 0 0 0.526502 0.473498 0;
   (2, 4, 2) 0 0 0.339744 0.660256 0;
   (0, 5, 2) 0 0 0.449541 0.550459 0;
   (1, 5, 2) 0 0 0.4 0.6 0;
   (2, 5, 2) 0 0 0.329897 0.670103 0;
   (0, 6, 2) 0 0 0.46988 0.53012 0;
   (1, 6, 2) 0 0 0.329949 0.670051 0;
   (2, 6, 2) 0 0 0.1875 0.8125 0;
   (0, 7, 2) 0 0 0.818182 0.181818 0;
   (1, 7, 2) 0 0 0.652174 0.347826 0;
   (2, 7, 2) 0 0 0.142857 0.857143 0;
   (0, 0, 3) 0 0 0 0.994444 0.00555556;
   (1, 0, 3) 0 0 0 0.996248 0.00375235;
   (2, 0, 3) 0 0 0 0.999169 0.000830565;
   (0, 1, 3) 0 0 0 0.906746 0.093254;
   (1, 1, 3) 0 0 0 0.916944 0.0830565;
   (2, 1, 3) 0 0 0 0.923567 0.0764331;
   (0, 2, 3) 0 0 0 0.833333 0.166667;
   (1, 2, 3) 0 0 0 0.760649 0.239351;
   (2, 2, 3) 0 0 0 0.809091 0.190909;
   (0, 3, 3) 0 0 0 0.660819 0.339181;
   (1, 3, 3) 0 0 0 0.716763 0.283237;
   (2, 3, 3) 0 0 0 0.661972 0.338028;
   (0, 4, 3) 0 0 0 0.685185 0.314815;
   (1, 4, 3) 0 0 0 0.566372 0.433628;
   (2, 4, 3) 0 0 0 0.47619 0.52381;
   (0, 5, 3) 0 0 0 0.846154 0.153846;
   (1, 5, 3) 0 0 0 0.733333 0.266667;
   (2, 5, 3) 0 0 0 0.650794 0.349206;
   (0, 6, 3) 0 0 0 1 0;
   (1, 6, 3) 0 0 0 0.882353 0.117647;
   (2, 6, 3) 0 0 0 0.769231 0.230769;
   (0, 7, 3) 0 0 0 0.5 0.5;
   (1, 7, 3) 0 0 0 0.5 0.5;
   (2, 7, 3) 0 0 0 0.5 0.5;
   (0, 0, 4) 0 0 0 0 1;
   (1, 0, 4) 0 0 0 0 1;
   (2, 0, 4) 0 0 0 0 1;
   (0, 1, 4) 0 0 0 0 1;
   (1, 1, 4) 0 0 0 0 1;
   (2, 1, 4) 0 0 0 0 1;
   (0, 2, 4) 0 0 0 0 1;
   (1, 2, 4) 0 0 0 0 1;
   (2, 2, 4) 0 0 0 0 1;
   (0, 3, 4) 0 0 0 0 1;
   (1, 3, 4) 0 0 0 0 1;
   (2, 3, 4) 0 0 0 0 1;
   (0, 4, 4) 0 0 0 0 1;
   (1, 4, 4) 0 0 0 0 1;
   (2, 4, 4) 0 0 0 0 1;
   (0, 5, 4) 0 0 0 0 1;
   (1, 5, 4) 0 0 0 0 1;
   (2, 5, 4) 0 0 0 0 1;
   (0, 6, 4) 0 0 0 0 1;
   (1, 6, 4) 0 0 0 0 1;
   (2, 6, 4) 0 0 0 0 1;
   (0, 7, 4) 0 0 0 0 1;
   (1, 7, 4) 0 0 0 0 1;
   (2, 7, 4) 0 0 0 0 1;
}
probability (km_7 | temp_6, lo_6, km_6) {
   (0, 0, 0) 0.966102 0.0338983 0 0 0;
   (1, 0, 0) 0.978903 0.021097 0 0 0;
   (2, 0, 0) 0.972028 0.027972 0 0 0;
   (0, 1, 0) 0.647059 0.352941 0 0 0;
   (1, 1, 0) 0.611111 0.388889 0 0 0;
   (2, 1, 0) 0.59375 0.40625 0 0 0;
   (0, 2, 0) 0.418605 0.581395 0 0 0;
   (1, 2, 0) 0.352941 0.647059 0 0 0;
   (2, 2, 0) 0.233333 0.766667 0 0 0;
   (0, 3, 0) 0.384615 0.615385 0 0 0;
   (1, 3, 0) 0.218182 0.781818 0 0 0;
   (2, 3, 0) 0.0714286 0.928571 0 0 0;
   (0, 4, 0) 0.047619 0.952381 0 0 0;
   (1, 4, 0) 0.0487805 0.95122 0 0 0;
   (2, 4, 0) 0 1 0 0 0;
   (0, 5, 0) 0 1 0 0 0;
   (1, 5, 0) 0 1 0 0 0;
   (2, 5, 0) 0 1 0 0 0;
   (0, 6, 0) 0 1 0 0 0;
   (1, 6, 0) 0 1 0 0 0;
   (2, 6, 0) 0 0.95 0.05 0 0;
   (0, 7, 0) 0 1 0 0 0;
   (1, 7, 0) 0 1 0 0 0;
   (2, 7, 0) 0 0.909091 0.0909091 0 0;
   (0, 0, 1) 0 0.983193 0.0168067 0 0;
   (1, 0, 1) 0 0.98543 0.0145695 0 0;
   (2, 0, 1) 0 0.994937 0.00506329 0 0;
   (0, 1, 1) 0 0.857971 0.142029 0 0;
   (1, 1, 1) 0 0.825967 0.174033 0 0;
   (2, 1, 1) 0 0.846821 0.153179 0 0;
   (0, 2, 1) 0 0.683871 0.316129 0 0;
   (1, 2, 1) 0 0.658537 0.341463 0 0;
   (2, 2, 1) 0 0.602094 0.397906 0 0;
   (0, 3, 1) 0 0.543689 0.456311 0 0;
   (1, 3, 1) 0 0.474576 0.525424 0 0;
   (2, 3, 1) 0 0.373626 0.626374 0 0;
   (0, 4, 1) 0 0.491071 0.508929 0 0;
   (1, 4, 1) 0 0.375661 0.624339 0 0;
   (2, 4, 1) 0 0.243243 0.756757 0 0;
   (0, 5, 1) 0 0.30137 0.69863 0 0;
   (1, 5, 1) 0 0.281081 0.718919 0 0;
   (2, 5, 1) 0 0.242857 0.757143 0 0;
   (0, 6, 1) 0 0.188235 0.811765 0 0;
   (1, 6, 1) 0 0.209581 0.790419 0 0;
   (2, 6, 1) 0 0.105263 0.859649 0.0350877 0;
   (0, 7, 1) 0 0.297297 0.702703 0 0;
   (1, 7, 1) 0 0.190476 0.809524 0 0;
   (2, 7, 1) 0 0.0909091 0.863636 0.0454545 0;
   (0, 0, 2) 0 0 0.983553 0.0164474 0;
   (1, 0, 2) 0 0 0.982935 0.0170648 0;
   (2, 0, 2) 0 0 0.990826 0.00917431 0;
   (0, 1, 2) 0 0 0.901119 0.0988806 0;
   (1, 1, 2) 0 0 0.901794 0.0982059 0;
   (2, 1, 2) 0 0 0.919854 0.0801457 0;
   (0, 2, 2) 0 0 0.776371 0.223629 0;
   (1, 2, 2) 0 0 0.726872 0.273128 0;
   (2, 2, 2) 0 0 0.649402 0.350598 0;
   (0, 3, 2) 0 0 0.712418 0.287582 0;
   (1, 3, 2) 0 0 0.616564 0.383436 0;
   (2, 3, 2) 0 0 0.612903 0.387097 0;
   (0, 4, 2) 0 0 0.547445 0.452555 0;
   (1, 4, 2) 0 0 0.526502 0.473498 0;
   (2, 4, 2) 0 0 0.339744 0.660256 0;
   (0, 5, 2) 0 0 0.449541 0.550459 0;
   (1, 5, 2) 0 0 0.4 0.6 0;
   (2, 5, 2) 0 0 0.329897 0.670103 0;
   (0, 6, 2) 0 0 0.46988 0.53012 0;
   (1, 6, 2) 0 0 0.329949 0.670051 0;
   (2, 6, 2) 0 0 0.1875 0.8125 0;
   (0, 7, 2) 0 0 0.818182 0.181818 0;
   (1, 7, 2) 0 0 0.652174 0.347826 0;
   (2, 7, 2) 0 0 0.142857 0.857143 0;
   (0, 0, 3) 0 0 0 0.994444 0.00555556;
   (1, 0, 3) 0 0 0 0.996248 0.00375235;
   (2, 0, 3) 0 0 0 0.999169 0.000830565;
   (0, 1, 3) 0 0 0 0.906746 0.093254;
   (1, 1, 3) 0 0 0 0.916944 0.0830565;
   (2, 1, 3) 0 0 0 0.923567 0.0764331;
   (0, 2, 3) 0 0 0 0.833333 0.166667;
   (1, 2, 3) 0 0 0 0.760649 0.239351;
   (2, 2, 3) 0 0 0 0.809091 0.190909;
   (0, 3, 3) 0 0 0 0.660819 0.339181;
   (1, 3, 3) 0 0 0 0.716763 0.283237;
   (2, 3, 3) 0 0 0 0.661972 0.338028;
   (0, 4, 3) 0 0 0 0.685185 0.314815;
   (1, 4, 3) 0 0 0 0.566372 0.433628;
   (2, 4, 3) 0 0 0 0.47619 0.52381;
   (0, 5, 3) 0 0 0 0.846154 0.153846;
   (1, 5, 3) 0 0 0 0.733333 0.266667;
   (2, 5, 3) 0 0 0 0.650794 0.349206;
   (0, 6, 3) 0 0 0 1 0;
   (1, 6, 3) 0 0 0 0.882353 0.117647;
   (2, 6, 3) 0 0 0 0.769231 0.230769;
   (0, 7, 3) 0 0 0 0.5 0.5;
   (1, 7, 3) 0 0 0 0.5 0.5;
   (2, 7, 3) 0 0 0 0.5 0.5;
   (0, 0, 4) 0 0 0 0 1;
   (1, 0, 4) 0 0 0 0 1;
   (2, 0, 4) 0 0 0 0 1;
   (0, 1, 4) 0 0 0 0 1;
   (1, 1, 4) 0 0 0 0 1;
   (2, 1, 4) 0 0 0 0 1;
   (0, 2, 4) 0 0 0 0 1;
   (1, 2, 4) 0 0 0 0 1;
   (2, 2, 4) 0 0 0 0 1;
   (0, 3, 4) 0 0 0 0 1;
   (1, 3, 4) 0 0 0 0 1;
   (2, 3, 4) 0 0 0 0 1;
   (0, 4, 4) 0 0 0 0 1;
   (1, 4, 4) 0 0 0 0 1;
   (2, 4, 4) 0 0 0 0 1;
   (0, 5, 4) 0 0 0 0 1;
   (1, 5, 4) 0 0 0 0 1;
   (2, 5, 4) 0 0 0 0 1;
   (0, 6, 4) 0 0 0 0 1;
   (1, 6, 4) 0 0 0 0 1;
   (2, 6, 4) 0 0 0 0 1;
   (0, 7, 4) 0 0 0 0 1;
   (1, 7, 4) 0 0 0 0 1;
   (2, 7, 4) 0 0 0 0 1;
}
probability (km_6 | temp_5, lo_5, km_5) {
   (0, 0, 0) 0.966102 0.0338983 0 0 0;
   (1, 0, 0) 0.978903 0.021097 0 0 0;
   (2, 0, 0) 0.972028 0.027972 0 0 0;
   (0, 1, 0) 0.647059 0.352941 0 0 0;
   (1, 1, 0) 0.611111 0.388889 0 0 0;
   (2, 1, 0) 0.59375 0.40625 0 0 0;
   (0, 2, 0) 0.418605 0.581395 0 0 0;
   (1, 2, 0) 0.352941 0.647059 0 0 0;
   (2, 2, 0) 0.233333 0.766667 0 0 0;
   (0, 3, 0) 0.384615 0.615385 0 0 0;
   (1, 3, 0) 0.218182 0.781818 0 0 0;
   (2, 3, 0) 0.0714286 0.928571 0 0 0;
   (0, 4, 0) 0.047619 0.952381 0 0 0;
   (1, 4, 0) 0.0487805 0.95122 0 0 0;
   (2, 4, 0) 0 1 0 0 0;
   (0, 5, 0) 0 1 0 0 0;
   (1, 5, 0) 0 1 0 0 0;
   (2, 5, 0) 0 1 0 0 0;
   (0, 6, 0) 0 1 0 0 0;
   (1, 6, 0) 0 1 0 0 0;
   (2, 6, 0) 0 0.95 0.05 0 0;
   (0, 7, 0) 0 1 0 0 0;
   (1, 7, 0) 0 1 0 0 0;
   (2, 7, 0) 0 0.909091 0.0909091 0 0;
   (0, 0, 1) 0 0.983193 0.0168067 0 0;
   (1, 0, 1) 0 0.98543 0.0145695 0 0;
   (2, 0, 1) 0 0.994937 0.00506329 0 0;
   (0, 1, 1) 0 0.857971 0.142029 0 0;
   (1, 1, 1) 0 0.825967 0.174033 0 0;
   (2, 1, 1) 0 0.846821 0.153179 0 0;
   (0, 2, 1) 0 0.683871 0.316129 0 0;
   (1, 2, 1) 0 0.658537 0.341463 0 0;
   (2, 2, 1) 0 0.602094 0.397906 0 0;
   (0, 3, 1) 0 0.543689 0.456311 0 0;
   (1, 3, 1) 0 0.474576 0.525424 0 0;
   (2, 3, 1) 0 0.373626 0.626374 0 0;
   (0, 4, 1) 0 0.491071 0.508929 0 0;
   (1, 4, 1) 0 0.375661 0.624339 0 0;
   (2, 4, 1) 0 0.243243 0.756757 0 0;
   (0, 5, 1) 0 0.30137 0.69863 0 0;
   (1, 5, 1) 0 0.281081 0.718919 0 0;
   (2, 5, 1) 0 0.242857 0.757143 0 0;
   (0, 6, 1) 0 0.188235 0.811765 0 0;
   (1, 6, 1) 0 0.209581 0.790419 0 0;
   (2, 6, 1) 0 0.105263 0.859649 0.0350877 0;
   (0, 7, 1) 0 0.297297 0.702703 0 0;
   (1, 7, 1) 0 0.190476 0.809524 0 0;
   (2, 7, 1) 0 0.0909091 0.863636 0.0454545 0;
   (0, 0, 2) 0 0 0.983553 0.0164474 0;
   (1, 0, 2) 0 0 0.982935 0.0170648 0;
   (2, 0, 2) 0 0 0.990826 0.00917431 0;
   (0, 1, 2) 0 0 0.901119 0.0988806 0;
   (1, 1, 2) 0 0 0.901794 0.0982059 0;
   (2, 1, 2) 0 0 0.919854 0.0801457 0;
   (0, 2, 2) 0 0 0.776371 0.223629 0;
   (1, 2, 2) 0 0 0.726872 0.273128 0;
   (2, 2, 2) 0 0 0.649402 0.350598 0;
   (0, 3, 2) 0 0 0.712418 0.287582 0;
   (1, 3, 2) 0 0 0.616564 0.383436 0;
   (2, 3, 2) 0 0 0.612903 0.387097 0;
   (0, 4, 2) 0 0 0.547445 0.452555 0;
   (1, 4, 2) 0 0 0.526502 0.473498 0;
   (2, 4, 2) 0 0 0.339744 0.660256 0;
   (0, 5, 2) 0 0 0.449541 0.550459 0;
   (1, 5, 2) 0 0 0.4 0.6 0;
   (2, 5, 2) 0 0 0.329897 0.670103 0;
   (0, 6, 2) 0 0 0.46988 0.53012 0;
   (1, 6, 2) 0 0 0.329949 0.670051 0;
   (2, 6, 2) 0 0 0.1875 0.8125 0;
   (0, 7, 2) 0 0 0.818182 0.181818 0;
   (1, 7, 2) 0 0 0.652174 0.347826 0;
   (2, 7, 2) 0 0 0.142857 0.857143 0;
   (0, 0, 3) 0 0 0 0.994444 0.00555556;
   (1, 0, 3) 0 0 0 0.996248 0.00375235;
   (2, 0, 3) 0 0 0 0.999169 0.000830565;
   (0, 1, 3) 0 0 0 0.906746 0.093254;
   (1, 1, 3) 0 0 0 0.916944 0.0830565;
   (2, 1, 3) 0 0 0 0.923567 0.0764331;
   (0, 2, 3) 0 0 0 0.833333 0.166667;
   (1, 2, 3) 0 0 0 0.760649 0.239351;
   (2, 2, 3) 0 0 0 0.809091 0.190909;
   (0, 3, 3) 0 0 0 0.660819 0.339181;
   (1, 3, 3) 0 0 0 0.716763 0.283237;
   (2, 3, 3) 0 0 0 0.661972 0.338028;
   (0, 4, 3) 0 0 0 0.685185 0.314815;
   (1, 4, 3) 0 0 0 0.566372 0.433628;
   (2, 4, 3) 0 0 0 0.47619 0.52381;
   (0, 5, 3) 0 0 0 0.846154 0.153846;
   (1, 5, 3) 0 0 0 0.733333 0.266667;
   (2, 5, 3) 0 0 0 0.650794 0.349206;
   (0, 6, 3) 0 0 0 1 0;
   (1, 6, 3) 0 0 0 0.882353 0.117647;
   (2, 6, 3) 0 0 0 0.769231 0.230769;
   (0, 7, 3) 0 0 0 0.5 0.5;
   (1, 7, 3) 0 0 0 0.5 0.5;
   (2, 7, 3) 0 0 0 0.5 0.5;
   (0, 0, 4) 0 0 0 0 1;
   (1, 0, 4) 0 0 0 0 1;
   (2, 0, 4) 0 0 0 0 1;
   (0, 1, 4) 0 0 0 0 1;
   (1, 1, 4) 0 0 0 0 1;
   (2, 1, 4) 0 0 0 0 1;
   (0, 2, 4) 0 0 0 0 1;
   (1, 2, 4) 0 0 0 0 1;
   (2, 2, 4) 0 0 0 0 1;
   (0, 3, 4) 0 0 0 0 1;
   (1, 3, 4) 0 0 0 0 1;
   (2, 3, 4) 0 0 0 0 1;
   (0, 4, 4) 0 0 0 0 1;
   (1, 4, 4) 0 0 0 0 1;
   (2, 4, 4) 0 0 0 0 1;
   (0, 5, 4) 0 0 0 0 1;
   (1, 5, 4) 0 0 0 0 1;
   (2, 5, 4) 0 0 0 0 1;
   (0, 6, 4) 0 0 0 0 1;
   (1, 6, 4) 0 0 0 0 1;
   (2, 6, 4) 0 0 0 0 1;
   (0, 7, 4) 0 0 0 0 1;
   (1, 7, 4) 0 0 0 0 1;
   (2, 7, 4) 0 0 0 0 1;
}
probability (km_5 | temp_4, lo_4, km_4) {
   (0, 0, 0) 0.966102 0.0338983 0 0 0;
   (1, 0, 0) 0.978903 0.021097 0 0 0;
   (2, 0, 0) 0.972028 0.027972 0 0 0;
   (0, 1, 0) 0.647059 0.352941 0 0 0;
   (1, 1, 0) 0.611111 0.388889 0 0 0;
   (2, 1, 0) 0.59375 0.40625 0 0 0;
   (0, 2, 0) 0.418605 0.581395 0 0 0;
   (1, 2, 0) 0.352941 0.647059 0 0 0;
   (2, 2, 0) 0.233333 0.766667 0 0 0;
   (0, 3, 0) 0.384615 0.615385 0 0 0;
   (1, 3, 0) 0.218182 0.781818 0 0 0;
   (2, 3, 0) 0.0714286 0.928571 0 0 0;
   (0, 4, 0) 0.047619 0.952381 0 0 0;
   (1, 4, 0) 0.0487805 0.95122 0 0 0;
   (2, 4, 0) 0 1 0 0 0;
   (0, 5, 0) 0 1 0 0 0;
   (1, 5, 0) 0 1 0 0 0;
   (2, 5, 0) 0 1 0 0 0;
   (0, 6, 0) 0 1 0 0 0;
   (1, 6, 0) 0 1 0 0 0;
   (2, 6, 0) 0 0.95 0.05 0 0;
   (0, 7, 0) 0 1 0 0 0;
   (1, 7, 0) 0 1 0 0 0;
   (2, 7, 0) 0 0.909091 0.0909091 0 0;
   (0, 0, 1) 0 0.983193 0.0168067 0 0;
   (1, 0, 1) 0 0.98543 0.0145695 0 0;
   (2, 0, 1) 0 0.994937 0.00506329 0 0;
   (0, 1, 1) 0 0.857971 0.142029 0 0;
   (1, 1, 1) 0 0.825967 0.174033 0 0;
   (2, 1, 1) 0 0.846821 0.153179 0 0;
   (0, 2, 1) 0 0.683871 0.316129 0 0;
   (1, 2, 1) 0 0.658537 0.341463 0 0;
   (2, 2, 1) 0 0.602094 0.397906 0 0;
   (0, 3, 1) 0 0.543689 0.456311 0 0;
   (1, 3, 1) 0 0.474576 0.525424 0 0;
   (2, 3, 1) 0 0.373626 0.626374 0 0;
   (0, 4, 1) 0 0.491071 0.508929 0 0;
   (1, 4, 1) 0 0.375661 0.624339 0 0;
   (2, 4, 1) 0 0.243243 0.756757 0 0;
   (0, 5, 1) 0 0.30137 0.69863 0 0;
   (1, 5, 1) 0 0.281081 0.718919 0 0;
   (2, 5, 1) 0 0.242857 0.757143 0 0;
   (0, 6, 1) 0 0.188235 0.811765 0 0;
   (1, 6, 1) 0 0.209581 0.790419 0 0;
   (2, 6, 1) 0 0.105263 0.859649 0.0350877 0;
   (0, 7, 1) 0 0.297297 0.702703 0 0;
   (1, 7, 1) 0 0.190476 0.809524 0 0;
   (2, 7, 1) 0 0.0909091 0.863636 0.0454545 0;
   (0, 0, 2) 0 0 0.983553 0.0164474 0;
   (1, 0, 2) 0 0 0.982935 0.0170648 0;
   (2, 0, 2) 0 0 0.990826 0.00917431 0;
   (0, 1, 2) 0 0 0.901119 0.0988806 0;
   (1, 1, 2) 0 0 0.901794 0.0982059 0;
   (2, 1, 2) 0 0 0.919854 0.0801457 0;
   (0, 2, 2) 0 0 0.776371 0.223629 0;
   (1, 2, 2) 0 0 0.726872 0.273128 0;
   (2, 2, 2) 0 0 0.649402 0.350598 0;
   (0, 3, 2) 0 0 0.712418 0.287582 0;
   (1, 3, 2) 0 0 0.616564 0.383436 0;
   (2, 3, 2) 0 0 0.612903 0.387097 0;
   (0, 4, 2) 0 0 0.547445 0.452555 0;
   (1, 4, 2) 0 0 0.526502 0.473498 0;
   (2, 4, 2) 0 0 0.339744 0.660256 0;
   (0, 5, 2) 0 0 0.449541 0.550459 0;
   (1, 5, 2) 0 0 0.4 0.6 0;
   (2, 5, 2) 0 0 0.329897 0.670103 0;
   (0, 6, 2) 0 0 0.46988 0.53012 0;
   (1, 6, 2) 0 0 0.329949 0.670051 0;
   (2, 6, 2) 0 0 0.1875 0.8125 0;
   (0, 7, 2) 0 0 0.818182 0.181818 0;
   (1, 7, 2) 0 0 0.652174 0.347826 0;
   (2, 7, 2) 0 0 0.142857 0.857143 0;
   (0, 0, 3) 0 0 0 0.994444 0.00555556;
   (1, 0, 3) 0 0 0 0.996248 0.00375235;
   (2, 0, 3) 0 0 0 0.999169 0.000830565;
   (0, 1, 3) 0 0 0 0.906746 0.093254;
   (1, 1, 3) 0 0 0 0.916944 0.0830565;
   (2, 1, 3) 0 0 0 0.923567 0.0764331;
   (0, 2, 3) 0 0 0 0.833333 0.166667;
   (1, 2, 3) 0 0 0 0.760649 0.239351;
   (2, 2, 3) 0 0 0 0.809091 0.190909;
   (0, 3, 3) 0 0 0 0.660819 0.339181;
   (1, 3, 3) 0 0 0 0.716763 0.283237;
   (2, 3, 3) 0 0 0 0.661972 0.338028;
   (0, 4, 3) 0 0 0 0.685185 0.314815;
   (1, 4, 3) 0 0 0 0.566372 0.433628;
   (2, 4, 3) 0 0 0 0.47619 0.52381;
   (0, 5, 3) 0 0 0 0.846154 0.153846;
   (1, 5, 3) 0 0 0 0.733333 0.266667;
   (2, 5, 3) 0 0 0 0.650794 0.349206;
   (0, 6, 3) 0 0 0 1 0;
   (1, 6, 3) 0 0 0 0.882353 0.117647;
   (2, 6, 3) 0 0 0 0.769231 0.230769;
   (0, 7, 3) 0 0 0 0.5 0.5;
   (1, 7, 3) 0 0 0 0.5 0.5;
   (2, 7, 3) 0 0 0 0.5 0.5;
   (0, 0, 4) 0 0 0 0 1;
   (1, 0, 4) 0 0 0 0 1;
   (2, 0, 4) 0 0 0 0 1;
   (0, 1, 4) 0 0 0 0 1;
   (1, 1, 4) 0 0 0 0 1;
   (2, 1, 4) 0 0 0 0 1;
   (0, 2, 4) 0 0 0 0 1;
   (1, 2, 4) 0 0 0 0 1;
   (2, 2, 4) 0 0 0 0 1;
   (0, 3, 4) 0 0 0 0 1;
   (1, 3, 4) 0 0 0 0 1;
   (2, 3, 4) 0 0 0 0 1;
   (0, 4, 4) 0 0 0 0 1;
   (1, 4, 4) 0 0 0 0 1;
   (2, 4, 4) 0 0 0 0 1;
   (0, 5, 4) 0 0 0 0 1;
   (1, 5, 4) 0 0 0 0 1;
   (2, 5, 4) 0 0 0 0 1;
   (0, 6, 4) 0 0 0 0 1;
   (1, 6, 4) 0 0 0 0 1;
   (2, 6, 4) 0 0 0 0 1;
   (0, 7, 4) 0 0 0 0 1;
   (1, 7, 4) 0 0 0 0 1;
   (2, 7, 4) 0 0 0 0 1;
}
probability (km_4 | temp_3, lo_3, km_3) {
   (0, 0, 0) 0.966102 0.0338983 0 0 0;
   (1, 0, 0) 0.978903 0.021097 0 0 0;
   (2, 0, 0) 0.972028 0.027972 0 0 0;
   (0, 1, 0) 0.647059 0.352941 0 0 0;
   (1, 1, 0) 0.611111 0.388889 0 0 0;
   (2, 1, 0) 0.59375 0.40625 0 0 0;
   (0, 2, 0) 0.418605 0.581395 0 0 0;
   (1, 2, 0) 0.352941 0.647059 0 0 0;
   (2, 2, 0) 0.233333 0.766667 0 0 0;
   (0, 3, 0) 0.384615 0.615385 0 0 0;
   (1, 3, 0) 0.218182 0.781818 0 0 0;
   (2, 3, 0) 0.0714286 0.928571 0 0 0;
   (0, 4, 0) 0.047619 0.952381 0 0 0;
   (1, 4, 0) 0.0487805 0.95122 0 0 0;
   (2, 4, 0) 0 1 0 0 0;
   (0, 5, 0) 0 1 0 0 0;
   (1, 5, 0) 0 1 0 0 0;
   (2, 5, 0) 0 1 0 0 0;
   (0, 6, 0) 0 1 0 0 0;
   (1, 6, 0) 0 1 0 0 0;
   (2, 6, 0) 0 0.95 0.05 0 0;
   (0, 7, 0) 0 1 0 0 0;
   (1, 7, 0) 0 1 0 0 0;
   (2, 7, 0) 0 0.909091 0.0909091 0 0;
   (0, 0, 1) 0 0.983193 0.0168067 0 0;
   (1, 0, 1) 0 0.98543 0.0145695 0 0;
   (2, 0, 1) 0 0.994937 0.00506329 0 0;
   (0, 1, 1) 0 0.857971 0.142029 0 0;
   (1, 1, 1) 0 0.825967 0.174033 0 0;
   (2, 1, 1) 0 0.846821 0.153179 0 0;
   (0, 2, 1) 0 0.683871 0.316129 0 0;
   (1, 2, 1) 0 0.658537 0.341463 0 0;
   (2, 2, 1) 0 0.602094 0.397906 0 0;
   (0, 3, 1) 0 0.543689 0.456311 0 0;
   (1, 3, 1) 0 0.474576 0.525424 0 0;
   (2, 3, 1) 0 0.373626 0.626374 0 0;
   (0, 4, 1) 0 0.491071 0.508929 0 0;
   (1, 4, 1) 0 0.375661 0.624339 0 0;
   (2, 4, 1) 0 0.243243 0.756757 0 0;
   (0, 5, 1) 0 0.30137 0.69863 0 0;
   (1, 5, 1) 0 0.281081 0.718919 0 0;
   (2, 5, 1) 0 0.242857 0.757143 0 0;
   (0, 6, 1) 0 0.188235 0.811765 0 0;
   (1, 6, 1) 0 0.209581 0.790419 0 0;
   (2, 6, 1) 0 0.105263 0.859649 0.0350877 0;
   (0, 7, 1) 0 0.297297 0.702703 0 0;
   (1, 7, 1) 0 0.190476 0.809524 0 0;
   (2, 7, 1) 0 0.0909091 0.863636 0.0454545 0;
   (0, 0, 2) 0 0 0.983553 0.0164474 0;
   (1, 0, 2) 0 0 0.982935 0.0170648 0;
   (2, 0, 2) 0 0 0.990826 0.00917431 0;
   (0, 1, 2) 0 0 0.901119 0.0988806 0;
   (1, 1, 2) 0 0 0.901794 0.0982059 0;
   (2, 1, 2) 0 0 0.919854 0.0801457 0;
   (0, 2, 2) 0 0 0.776371 0.223629 0;
   (1, 2, 2) 0 0 0.726872 0.273128 0;
   (2, 2, 2) 0 0 0.649402 0.350598 0;
   (0, 3, 2) 0 0 0.712418 0.287582 0;
   (1, 3, 2) 0 0 0.616564 0.383436 0;
   (2, 3, 2) 0 0 0.612903 0.387097 0;
   (0, 4, 2) 0 0 0.547445 0.452555 0;
   (1, 4, 2) 0 0 0.526502 0.473498 0;
   (2, 4, 2) 0 0 0.339744 0.660256 0;
   (0, 5, 2) 0 0 0.449541 0.550459 0;
   (1, 5, 2) 0 0 0.4 0.6 0;
   (2, 5, 2) 0 0 0.329897 0.670103 0;
   (0, 6, 2) 0 0 0.46988 0.53012 0;
   (1, 6, 2) 0 0 0.329949 0.670051 0;
   (2, 6, 2) 0 0 0.1875 0.8125 0;
   (0, 7, 2) 0 0 0.818182 0.181818 0;
   (1, 7, 2) 0 0 0.652174 0.347826 0;
   (2, 7, 2) 0 0 0.142857 0.857143 0;
   (0, 0, 3) 0 0 0 0.994444 0.00555556;
   (1, 0, 3) 0 0 0 0.996248 0.00375235;
   (2, 0, 3) 0 0 0 0.999169 0.000830565;
   (0, 1, 3) 0 0 0 0.906746 0.093254;
   (1, 1, 3) 0 0 0 0.916944 0.0830565;
   (2, 1, 3) 0 0 0 0.923567 0.0764331;
   (0, 2, 3) 0 0 0 0.833333 0.166667;
   (1, 2, 3) 0 0 0 0.760649 0.239351;
   (2, 2, 3) 0 0 0 0.809091 0.190909;
   (0, 3, 3) 0 0 0 0.660819 0.339181;
   (1, 3, 3) 0 0 0 0.716763 0.283237;
   (2, 3, 3) 0 0 0 0.661972 0.338028;
   (0, 4, 3) 0 0 0 0.685185 0.314815;
   (1, 4, 3) 0 0 0 0.566372 0.433628;
   (2, 4, 3) 0 0 0 0.47619 0.52381;
   (0, 5, 3) 0 0 0 0.846154 0.153846;
   (1, 5, 3) 0 0 0 0.733333 0.266667;
   (2, 5, 3) 0 0 0 0.650794 0.349206;
   (0, 6, 3) 0 0 0 1 0;
   (1, 6, 3) 0 0 0 0.882353 0.117647;
   (2, 6, 3) 0 0 0 0.769231 0.230769;
   (0, 7, 3) 0 0 0 0.5 0.5;
   (1, 7, 3) 0 0 0 0.5 0.5;
   (2, 7, 3) 0 0 0 0.5 0.5;
   (0, 0, 4) 0 0 0 0 1;
   (1, 0, 4) 0 0 0 0 1;
   (2, 0, 4) 0 0 0 0 1;
   (0, 1, 4) 0 0 0 0 1;
   (1, 1, 4) 0 0 0 0 1;
   (2, 1, 4) 0 0 0 0 1;
   (0, 2, 4) 0 0 0 0 1;
   (1, 2, 4) 0 0 0 0 1;
   (2, 2, 4) 0 0 0 0 1;
   (0, 3, 4) 0 0 0 0 1;
   (1, 3, 4) 0 0 0 0 1;
   (2, 3, 4) 0 0 0 0 1;
   (0, 4, 4) 0 0 0 0 1;
   (1, 4, 4) 0 0 0 0 1;
   (2, 4, 4) 0 0 0 0 1;
   (0, 5, 4) 0 0 0 0 1;
   (1, 5, 4) 0 0 0 0 1;
   (2, 5, 4) 0 0 0 0 1;
   (0, 6, 4) 0 0 0 0 1;
   (1, 6, 4) 0 0 0 0 1;
   (2, 6, 4) 0 0 0 0 1;
   (0, 7, 4) 0 0 0 0 1;
   (1, 7, 4) 0 0 0 0 1;
   (2, 7, 4) 0 0 0 0 1;
}
probability (km_3 | temp_2, lo_2, km_2) {
   (0, 0, 0) 0.966102 0.0338983 0 0 0;
   (1, 0, 0) 0.978903 0.021097 0 0 0;
   (2, 0, 0) 0.972028 0.027972 0 0 0;
   (0, 1, 0) 0.647059 0.352941 0 0 0;
   (1, 1, 0) 0.611111 0.388889 0 0 0;
   (2, 1, 0) 0.59375 0.40625 0 0 0;
   (0, 2, 0) 0.418605 0.581395 0 0 0;
   (1, 2, 0) 0.352941 0.647059 0 0 0;
   (2, 2, 0) 0.233333 0.766667 0 0 0;
   (0, 3, 0) 0.384615 0.615385 0 0 0;
   (1, 3, 0) 0.218182 0.781818 0 0 0;
   (2, 3, 0) 0.0714286 0.928571 0 0 0;
   (0, 4, 0) 0.047619 0.952381 0 0 0;
   (1, 4, 0) 0.0487805 0.95122 0 0 0;
   (2, 4, 0) 0 1 0 0 0;
   (0, 5, 0) 0 1 0 0 0;
   (1, 5, 0) 0 1 0 0 0;
   (2, 5, 0) 0 1 0 0 0;
   (0, 6, 0) 0 1 0 0 0;
   (1, 6, 0) 0 1 0 0 0;
   (2, 6, 0) 0 0.95 0.05 0 0;
   (0, 7, 0) 0 1 0 0 0;
   (1, 7, 0) 0 1 0 0 0;
   (2, 7, 0) 0 0.909091 0.0909091 0 0;
   (0, 0, 1) 0 0.983193 0.0168067 0 0;
   (1, 0, 1) 0 0.98543 0.0145695 0 0;
   (2, 0, 1) 0 0.994937 0.00506329 0 0;
   (0, 1, 1) 0 0.857971 0.142029 0 0;
   (1, 1, 1) 0 0.825967 0.174033 0 0;
   (2, 1, 1) 0 0.846821 0.153179 0 0;
   (0, 2, 1) 0 0.683871 0.316129 0 0;
   (1, 2, 1) 0 0.658537 0.341463 0 0;
   (2, 2, 1) 0 0.602094 0.397906 0 0;
   (0, 3, 1) 0 0.543689 0.456311 0 0;
   (1, 3, 1) 0 0.474576 0.525424 0 0;
   (2, 3, 1) 0 0.373626 0.626374 0 0;
   (0, 4, 1) 0 0.491071 0.508929 0 0;
   (1, 4, 1) 0 0.375661 0.624339 0 0;
   (2, 4, 1) 0 0.243243 0.756757 0 0;
   (0, 5, 1) 0 0.30137 0.69863 0 0;
   (1, 5, 1) 0 0.281081 0.718919 0 0;
   (2, 5, 1) 0 0.242857 0.757143 0 0;
   (0, 6, 1) 0 0.188235 0.811765 0 0;
   (1, 6, 1) 0 0.209581 0.790419 0 0;
   (2, 6, 1) 0 0.105263 0.859649 0.0350877 0;
   (0, 7, 1) 0 0.297297 0.702703 0 0;
   (1, 7, 1) 0 0.190476 0.809524 0 0;
   (2, 7, 1) 0 0.0909091 0.863636 0.0454545 0;
   (0, 0, 2) 0 0 0.983553 0.0164474 0;
   (1, 0, 2) 0 0 0.982935 0.0170648 0;
   (2, 0, 2) 0 0 0.990826 0.00917431 0;
   (0, 1, 2) 0 0 0.901119 0.0988806 0;
   (1, 1, 2) 0 0 0.901794 0.0982059 0;
   (2, 1, 2) 0 0 0.919854 0.0801457 0;
   (0, 2, 2) 0 0 0.776371 0.223629 0;
   (1, 2, 2) 0 0 0.726872 0.273128 0;
   (2, 2, 2) 0 0 0.649402 0.350598 0;
   (0, 3, 2) 0 0 0.712418 0.287582 0;
   (1, 3, 2) 0 0 0.616564 0.383436 0;
   (2, 3, 2) 0 0 0.612903 0.387097 0;
   (0, 4, 2) 0 0 0.547445 0.452555 0;
   (1, 4, 2) 0 0 0.526502 0.473498 0;
   (2, 4, 2) 0 0 0.339744 0.660256 0;
   (0, 5, 2) 0 0 0.449541 0.550459 0;
   (1, 5, 2) 0 0 0.4 0.6 0;
   (2, 5, 2) 0 0 0.329897 0.670103 0;
   (0, 6, 2) 0 0 0.46988 0.53012 0;
   (1, 6, 2) 0 0 0.329949 0.670051 0;
   (2, 6, 2) 0 0 0.1875 0.8125 0;
   (0, 7, 2) 0 0 0.818182 0.181818 0;
   (1, 7, 2) 0 0 0.652174 0.347826 0;
   (2, 7, 2) 0 0 0.142857 0.857143 0;
   (0, 0, 3) 0 0 0 0.994444 0.00555556;
   (1, 0, 3) 0 0 0 0.996248 0.00375235;
   (2, 0, 3) 0 0 0 0.999169 0.000830565;
   (0, 1, 3) 0 0 0 0.906746 0.093254;
   (1, 1, 3) 0 0 0 0.916944 0.0830565;
   (2, 1, 3) 0 0 0 0.923567 0.0764331;
   (0, 2, 3) 0 0 0 0.833333 0.166667;
   (1, 2, 3) 0 0 0 0.760649 0.239351;
   (2, 2, 3) 0 0 0 0.809091 0.190909;
   (0, 3, 3) 0 0 0 0.660819 0.339181;
   (1, 3, 3) 0 0 0 0.716763 0.283237;
   (2, 3, 3) 0 0 0 0.661972 0.338028;
   (0, 4, 3) 0 0 0 0.685185 0.314815;
   (1, 4, 3) 0 0 0 0.566372 0.433628;
   (2, 4, 3) 0 0 0 0.47619 0.52381;
   (0, 5, 3) 0 0 0 0.846154 0.153846;
   (1, 5, 3) 0 0 0 0.733333 0.266667;
   (2, 5, 3) 0 0 0 0.650794 0.349206;
   (0, 6, 3) 0 0 0 1 0;
   (1, 6, 3) 0 0 0 0.882353 0.117647;
   (2, 6, 3) 0 0 0 0.769231 0.230769;
   (0, 7, 3) 0 0 0 0.5 0.5;
   (1, 7, 3) 0 0 0 0.5 0.5;
   (2, 7, 3) 0 0 0 0.5 0.5;
   (0, 0, 4) 0 0 0 0 1;
   (1, 0, 4) 0 0 0 0 1;
   (2, 0, 4) 0 0 0 0 1;
   (0, 1, 4) 0 0 0 0 1;
   (1, 1, 4) 0 0 0 0 1;
   (2, 1, 4) 0 0 0 0 1;
   (0, 2, 4) 0 0 0 0 1;
   (1, 2, 4) 0 0 0 0 1;
   (2, 2, 4) 0 0 0 0 1;
   (0, 3, 4) 0 0 0 0 1;
   (1, 3, 4) 0 0 0 0 1;
   (2, 3, 4) 0 0 0 0 1;
   (0, 4, 4) 0 0 0 0 1;
   (1, 4, 4) 0 0 0 0 1;
   (2, 4, 4) 0 0 0 0 1;
   (0, 5, 4) 0 0 0 0 1;
   (1, 5, 4) 0 0 0 0 1;
   (2, 5, 4) 0 0 0 0 1;
   (0, 6, 4) 0 0 0 0 1;
   (1, 6, 4) 0 0 0 0 1;
   (2, 6, 4) 0 0 0 0 1;
   (0, 7, 4) 0 0 0 0 1;
   (1, 7, 4) 0 0 0 0 1;
   (2, 7, 4) 0 0 0 0 1;
}
probability (km_2 | temp_1, lo_1, km_1) {
   (0, 0, 0) 0.966102 0.0338983 0 0 0;
   (1, 0, 0) 0.978903 0.021097 0 0 0;
   (2, 0, 0) 0.972028 0.027972 0 0 0;
   (0, 1, 0) 0.647059 0.352941 0 0 0;
   (1, 1, 0) 0.611111 0.388889 0 0 0;
   (2, 1, 0) 0.59375 0.40625 0 0 0;
   (0, 2, 0) 0.418605 0.581395 0 0 0;
   (1, 2, 0) 0.352941 0.647059 0 0 0;
   (2, 2, 0) 0.233333 0.766667 0 0 0;
   (0, 3, 0) 0.384615 0.615385 0 0 0;
   (1, 3, 0) 0.218182 0.781818 0 0 0;
   (2, 3, 0) 0.0714286 0.928571 0 0 0;
   (0, 4, 0) 0.047619 0.952381 0 0 0;
   (1, 4, 0) 0.0487805 0.95122 0 0 0;
   (2, 4, 0) 0 1 0 0 0;
   (0, 5, 0) 0 1 0 0 0;
   (1, 5, 0) 0 1 0 0 0;
   (2, 5, 0) 0 1 0 0 0;
   (0, 6, 0) 0 1 0 0 0;
   (1, 6, 0) 0 1 0 0 0;
   (2, 6, 0) 0 0.95 0.05 0 0;
   (0, 7, 0) 0 1 0 0 0;
   (1, 7, 0) 0 1 0 0 0;
   (2, 7, 0) 0 0.909091 0.0909091 0 0;
   (0, 0, 1) 0 0.983193 0.0168067 0 0;
   (1, 0, 1) 0 0.98543 0.0145695 0 0;
   (2, 0, 1) 0 0.994937 0.00506329 0 0;
   (0, 1, 1) 0 0.857971 0.142029 0 0;
   (1, 1, 1) 0 0.825967 0.174033 0 0;
   (2, 1, 1) 0 0.846821 0.153179 0 0;
   (0, 2, 1) 0 0.683871 0.316129 0 0;
   (1, 2, 1) 0 0.658537 0.341463 0 0;
   (2, 2, 1) 0 0.602094 0.397906 0 0;
   (0, 3, 1) 0 0.543689 0.456311 0 0;
   (1, 3, 1) 0 0.474576 0.525424 0 0;
   (2, 3, 1) 0 0.373626 0.626374 0 0;
   (0, 4, 1) 0 0.491071 0.508929 0 0;
   (1, 4, 1) 0 0.375661 0.624339 0 0;
   (2, 4, 1) 0 0.243243 0.756757 0 0;
   (0, 5, 1) 0 0.30137 0.69863 0 0;
   (1, 5, 1) 0 0.281081 0.718919 0 0;
   (2, 5, 1) 0 0.242857 0.757143 0 0;
   (0, 6, 1) 0 0.188235 0.811765 0 0;
   (1, 6, 1) 0 0.209581 0.790419 0 0;
   (2, 6, 1) 0 0.105263 0.859649 0.0350877 0;
   (0, 7, 1) 0 0.297297 0.702703 0 0;
   (1, 7, 1) 0 0.190476 0.809524 0 0;
   (2, 7, 1) 0 0.0909091 0.863636 0.0454545 0;
   (0, 0, 2) 0 0 0.983553 0.0164474 0;
   (1, 0, 2) 0 0 0.982935 0.0170648 0;
   (2, 0, 2) 0 0 0.990826 0.00917431 0;
   (0, 1, 2) 0 0 0.901119 0.0988806 0;
   (1, 1, 2) 0 0 0.901794 0.0982059 0;
   (2, 1, 2) 0 0 0.919854 0.0801457 0;
   (0, 2, 2) 0 0 0.776371 0.223629 0;
   (1, 2, 2) 0 0 0.726872 0.273128 0;
   (2, 2, 2) 0 0 0.649402 0.350598 0;
   (0, 3, 2) 0 0 0.712418 0.287582 0;
   (1, 3, 2) 0 0 0.616564 0.383436 0;
   (2, 3, 2) 0 0 0.612903 0.387097 0;
   (0, 4, 2) 0 0 0.547445 0.452555 0;
   (1, 4, 2) 0 0 0.526502 0.473498 0;
   (2, 4, 2) 0 0 0.339744 0.660256 0;
   (0, 5, 2) 0 0 0.449541 0.550459 0;
   (1, 5, 2) 0 0 0.4 0.6 0;
   (2, 5, 2) 0 0 0.329897 0.670103 0;
   (0, 6, 2) 0 0 0.46988 0.53012 0;
   (1, 6, 2) 0 0 0.329949 0.670051 0;
   (2, 6, 2) 0 0 0.1875 0.8125 0;
   (0, 7, 2) 0 0 0.818182 0.181818 0;
   (1, 7, 2) 0 0 0.652174 0.347826 0;
   (2, 7, 2) 0 0 0.142857 0.857143 0;
   (0, 0, 3) 0 0 0 0.994444 0.00555556;
   (1, 0, 3) 0 0 0 0.996248 0.00375235;
   (2, 0, 3) 0 0 0 0.999169 0.000830565;
   (0, 1, 3) 0 0 0 0.906746 0.093254;
   (1, 1, 3) 0 0 0 0.916944 0.0830565;
   (2, 1, 3) 0 0 0 0.923567 0.0764331;
   (0, 2, 3) 0 0 0 0.833333 0.166667;
   (1, 2, 3) 0 0 0 0.760649 0.239351;
   (2, 2, 3) 0 0 0 0.809091 0.190909;
   (0, 3, 3) 0 0 0 0.660819 0.339181;
   (1, 3, 3) 0 0 0 0.716763 0.283237;
   (2, 3, 3) 0 0 0 0.661972 0.338028;
   (0, 4, 3) 0 0 0 0.685185 0.314815;
   (1, 4, 3) 0 0 0 0.566372 0.433628;
   (2, 4, 3) 0 0 0 0.47619 0.52381;
   (0, 5, 3) 0 0 0 0.846154 0.153846;
   (1, 5, 3) 0 0 0 0.733333 0.266667;
   (2, 5, 3) 0 0 0 0.650794 0.349206;
   (0, 6, 3) 0 0 0 1 0;
   (1, 6, 3) 0 0 0 0.882353 0.117647;
   (2, 6, 3) 0 0 0 0.769231 0.230769;
   (0, 7, 3) 0 0 0 0.5 0.5;
   (1, 7, 3) 0 0 0 0.5 0.5;
   (2, 7, 3) 0 0 0 0.5 0.5;
   (0, 0, 4) 0 0 0 0 1;
   (1, 0, 4) 0 0 0 0 1;
   (2, 0, 4) 0 0 0 0 1;
   (0, 1, 4) 0 0 0 0 1;
   (1, 1, 4) 0 0 0 0 1;
   (2, 1, 4) 0 0 0 0 1;
   (0, 2, 4) 0 0 0 0 1;
   (1, 2, 4) 0 0 0 0 1;
   (2, 2, 4) 0 0 0 0 1;
   (0, 3, 4) 0 0 0 0 1;
   (1, 3, 4) 0 0 0 0 1;
   (2, 3, 4) 0 0 0 0 1;
   (0, 4, 4) 0 0 0 0 1;
   (1, 4, 4) 0 0 0 0 1;
   (2, 4, 4) 0 0 0 0 1;
   (0, 5, 4) 0 0 0 0 1;
   (1, 5, 4) 0 0 0 0 1;
   (2, 5, 4) 0 0 0 0 1;
   (0, 6, 4) 0 0 0 0 1;
   (1, 6, 4) 0 0 0 0 1;
   (2, 6, 4) 0 0 0 0 1;
   (0, 7, 4) 0 0 0 0 1;
   (1, 7, 4) 0 0 0 0 1;
   (2, 7, 4) 0 0 0 0 1;
}
probability (lo_1 | temp_0, km_0, lo_0) {
   (0, 0, 0) 1 0 0 0 0 0 0 0;
   (1, 0, 0) 1 0 0 0 0 0 0 0;
   (2, 0, 0) 1 0 0 0 0 0 0 0;
   (0, 1, 0) 1 0 0 0 0 0 0 0;
   (1, 1, 0) 1 0 0 0 0 0 0 0;
   (2, 1, 0) 1 0 0 0 0 0 0 0;
   (0, 2, 0) 1 0 0 0 0 0 0 0;
   (1, 2, 0) 1 0 0 0 0 0 0 0;
   (2, 2, 0) 1 0 0 0 0 0 0 0;
   (0, 3, 0) 1 0 0 0 0 0 0 0;
   (1, 3, 0) 1 0 0 0 0 0 0 0;
   (2, 3, 0) 1 0 0 0 0 0 0 0;
   (0, 4, 0) 1 0 0 0 0 0 0 0;
   (1, 4, 0) 1 0 0 0 0 0 0 0;
   (2, 4, 0) 1 0 0 0 0 0 0 0;
   (0, 0, 1) 0 1 0 0 0 0 0 0;
   (1, 0, 1) 0.0277778 0.972222 0 0 0 0 0 0;
   (2, 0, 1) 0 1 0 0 0 0 0 0;
   (0, 1, 1) 0.0347826 0.965217 0 0 0 0 0 0;
   (1, 1, 1) 0.0400552 0.959945 0 0 0 0 0 0;
   (2, 1, 1) 0.0433526 0.956647 0 0 0 0 0 0;
   (0, 2, 1) 0.0820896 0.91791 0 0 0 0 0 0;
   (1, 2, 1) 0.111426 0.888574 0 0 0 0 0 0;
   (2, 2, 1) 0.153005 0.846995 0 0 0 0 0 0;
   (0, 3, 1) 0.347222 0.652778 0 0 0 0 0 0;
   (1, 3, 1) 0.370986 0.629014 0 0 0 0 0 0;
   (2, 3, 1) 0.524416 0.475584 0 0 0 0 0 0;
   (0, 4, 1) 0.774038 0.225962 0 0 0 0 0 0;
   (1, 4, 1) 0.86215 0.13785 0 0 0 0 0 0;
   (2, 4, 1) 0.928934 0.071066 0 0 0 0 0 0;
   (0, 0, 2) 0 0.0697674 0.930233 0 0 0 0 0;
   (1, 0, 2) 0 0.0882353 0.911765 0 0 0 0 0;
   (2, 0, 2) 0 0.0666667 0.933333 0 0 0 0 0;
   (0, 1, 2) 0 0.0580645 0.941935 0 0 0 0 0;
   (1, 1, 2) 0 0.0921409 0.907859 0 0 0 0 0;
   (2, 1, 2) 0 0.141361 0.858639 0 0 0 0 0;
   (0, 2, 2) 0 0.236287 0.763713 0 0 0 0 0;
   (1, 2, 2) 0 0.301762 0.698238 0 0 0 0 0;
   (2, 2, 2) 0 0.310757 0.689243 0 0 0 0 0;
   (0, 3, 2) 0 0.733333 0.266667 0 0 0 0 0;
   (1, 3, 2) 0 0.752535 0.247465 0 0 0 0 0;
   (2, 3, 2) 0.0136364 0.863636 0.122727 0 0 0 0 0;
   (0, 4, 2) 0.0581395 0.930233 0.0116279 0 0 0 0 0;
   (1, 4, 2) 0.0519481 0.941558 0.00649351 0 0 0 0 0;
   (2, 4, 2) 0.270588 0.729412 0 0 0 0 0 0;
   (0, 0, 3) 0 0 0 1 0 0 0 0;
   (1, 0, 3) 0 0 0.0909091 0.909091 0 0 0 0;
   (2, 0, 3) 0 0 0.0714286 0.928571 0 0 0 0;
   (0, 1, 3) 0 0 0.126214 0.873786 0 0 0 0;
   (1, 1, 3) 0 0 0.110169 0.889831 0 0 0 0;
   (2, 1, 3) 0 0 0.175824 0.824176 0 0 0 0;
   (0, 2, 3) 0 0 0.411765 0.588235 0 0 0 0;
   (1, 2, 3) 0 0 0.447853 0.552147 0 0 0 0;
   (2, 2, 3) 0 0 0.541935 0.458065 0 0 0 0;
   (0, 3, 3) 0 0.0994152 0.777778 0.122807 0 0 0 0;
   (1, 3, 3) 0 0.115607 0.815029 0.0693642 0 0 0 0;
   (2, 3, 3) 0 0.288732 0.683099 0.028169 0 0 0 0;
   (0, 4, 3) 0 0.571429 0.428571 0 0 0 0 0;
   (1, 4, 3) 0 0.8 0.2 0 0 0 0 0;
   (2, 4, 3) 0 1 0 0 0 0 0 0;
   (0, 0, 4) 0 0 0 0.0952381 0.904762 0 0 0;
   (1, 0, 4) 0 0 0 0.0243902 0.97561 0 0 0;
   (2, 0, 4) 0 0 0 0.0434783 0.956522 0 0 0;
   (0, 1, 4) 0 0 0 0.107143 0.892857 0 0 0;
   (1, 1, 4) 0 0 0 0.190476 0.809524 0 0 0;
   (2, 1, 4) 0 0 0 0.243243 0.756757 0 0 0;
   (0, 2, 4) 0 0 0 0.510949 0.489051 0 0 0;
   (1, 2, 4) 0 0 0 0.515901 0.484099 0 0 0;
   (2, 2, 4) 0 0 0.0128205 0.698718 0.288462 0 0 0;
   (0, 3, 4) 0 0 0.333333 0.638889 0.0277778 0 0 0;
   (1, 3, 4) 0 0 0.446903 0.544248 0.00884956 0 0 0;
   (2, 3, 4) 0 0.0873016 0.626984 0.285714 0 0 0 0;
   (0, 4, 4) 0.2 0.2 0.2 0.2 0.2 0 0 0;
   (1, 4, 4) 0 0.25 0.75 0 0 0 0 0;
   (2, 4, 4) 0 0 1 0 0 0 0 0;
   (0, 0, 5) 0 0 0 0 0.0833333 0.916667 0 0;
   (1, 0, 5) 0 0 0 0 0.137931 0.862069 0 0;
   (2, 0, 5) 0 0 0 0 0.230769 0.769231 0 0;
   (0, 1, 5) 0 0 0 0 0.246575 0.753425 0 0;
   (1, 1, 5) 0 0 0 0 0.227027 0.772973 0 0;
   (2, 1, 5) 0 0 0 0 0.371429 0.628571 0 0;
   (0, 2, 5) 0 0 0 0.0183486 0.587156 0.394495 0 0;
   (1, 2, 5) 0 0 0 0.0130435 0.673913 0.313043 0 0;
   (2, 2, 5) 0 0 0 0.0515464 0.742268 0.206186 0 0;
   (0, 3, 5) 0 0 0.0384615 0.346154 0.615385 0 0 0;
   (1, 3, 5) 0 0 0.025 0.45 0.516667 0.00833333 0 0;
   (2, 3, 5) 0 0.015873 0.142857 0.634921 0.206349 0 0 0;
   (0, 4, 5) 0.166667 0.166667 0.166667 0.166667 0.166667 0.166667 0 0;
   (1, 4, 5) 0.166667 0.166667 0.166667 0.166667 0.166667 0.166667 0 0;
   (2, 4, 5) 0.166667 0.166667 0.166667 0.166667 0.166667 0.166667 0 0;
   (0, 0, 6) 0 0 0 0 0 0 1 0;
   (1, 0, 6) 0 0 0 0 0 0.108696 0.891304 0;
   (2, 0, 6) 0 0 0 0 0 0.1 0.9 0;
   (0, 1, 6) 0 0 0 0 0 0.2 0.8 0;
   (1, 1, 6) 0 0 0 0 0 0.251497 0.748503 0;
   (2, 1, 6) 0 0 0 0 0 0.403509 0.596491 0;
   (0, 2, 6) 0 0 0 0 0.0120482 0.674699 0.313253 0;
   (1, 2, 6) 0 0 0 0 0.0913706 0.680203 0.228426 0;
   (2, 2, 6) 0 0 0 0 0.270833 0.604167 0.125 0;
   (0, 3, 6) 0 0 0 0 0.769231 0.230769 0 0;
   (1, 3, 6) 0 0 0 0.0588235 0.764706 0.176471 0 0;
   (2, 3, 6) 0 0 0 0.307692 0.692308 0 0 0;
   (0, 4, 6) 0.142857 0.142857 0.142857 0.142857 0.142857 0.142857 0.142857 0;
   (1, 4, 6) 0.142857 0.142857 0.142857 0.142857 0.142857 0.142857 0.142857 0;
   (2, 4, 6) 0.142857 0.142857 0.142857 0.142857 0.142857 0.142857 0.142857 0;
   (0, 0, 7) 0 0 0 0 0 0 0.1 0.9;
   (1, 0, 7) 0 0 0 0 0 0 0.392857 0.607143;
   (2, 0, 7) 0 0 0 0 0 0 0.454545 0.545455;
   (0, 1, 7) 0 0 0 0 0 0 0.621622 0.378378;
   (1, 1, 7) 0 0 0 0 0 0 0.650794 0.349206;
   (2, 1, 7) 0 0 0 0 0 0 0.863636 0.136364;
   (0, 2, 7) 0 0 0 0 0 0 0.909091 0.0909091;
   (1, 2, 7) 0 0 0 0 0 0.0434783 0.956522 0;
   (2, 2, 7) 0 0 0 0 0 0.142857 0.857143 0;
   (0, 3, 7) 0.125 0.125 0.125 0.125 0.125 0.125 0.125 0.125;
   (1, 3, 7) 0.125 0.125 0.125 0.125 0.125 0.125 0.125 0.125;
   (2, 3, 7) 0.125 0.125 0.125 0.125 0.125 0.125 0.125 0.125;
   (0, 4, 7) 0.125 0.125 0.125 0.125 0.125 0.125 0.125 0.125;
   (1, 4, 7) 0.125 0.125 0.125 0.125 0.125 0.125 0.125 0.125;
   (2, 4, 7) 0.125 0.125 0.125 0.125 0.125 0.125 0.125 0.125;
}
probability (lo_13 | temp_12, km_12, lo_12) {
   (0, 0, 0) 1 0 0 0 0 0 0 0;
   (1, 0, 0) 1 0 0 0 0 0 0 0;
   (2, 0, 0) 1 0 0 0 0 0 0 0;
   (0, 1, 0) 1 0 0 0 0 0 0 0;
   (1, 1, 0) 1 0 0 0 0 0 0 0;
   (2, 1, 0) 1 0 0 0 0 0 0 0;
   (0, 2, 0) 1 0 0 0 0 0 0 0;
   (1, 2, 0) 1 0 0 0 0 0 0 0;
   (2, 2, 0) 1 0 0 0 0 0 0 0;
   (0, 3, 0) 1 0 0 0 0 0 0 0;
   (1, 3, 0) 1 0 0 0 0 0 0 0;
   (2, 3, 0) 1 0 0 0 0 0 0 0;
   (0, 4, 0) 1 0 0 0 0 0 0 0;
   (1, 4, 0) 1 0 0 0 0 0 0 0;
   (2, 4, 0) 1 0 0 0 0 0 0 0;
   (0, 0, 1) 0 1 0 0 0 0 0 0;
   (1, 0, 1) 0.0277778 0.972222 0 0 0 0 0 0;
   (2, 0, 1) 0 1 0 0 0 0 0 0;
   (0, 1, 1) 0.0347826 0.965217 0 0 0 0 0 0;
   (1, 1, 1) 0.0400552 0.959945 0 0 0 0 0 0;
   (2, 1, 1) 0.0433526 0.956647 0 0 0 0 0 0;
   (0, 2, 1) 0.0820896 0.91791 0 0 0 0 0 0;
   (1, 2, 1) 0.111426 0.888574 0 0 0 0 0 0;
   (2, 2, 1) 0.153005 0.846995 0 0 0 0 0 0;
   (0, 3, 1) 0.347222 0.652778 0 0 0 0 0 0;
   (1, 3, 1) 0.370986 0.629014 0 0 0 0 0 0;
   (2, 3, 1) 0.524416 0.475584 0 0 0 0 0 0;
   (0, 4, 1) 0.774038 0.225962 0 0 0 0 0 0;
   (1, 4, 1) 0.86215 0.13785 0 0 0 0 0 0;
   (2, 4, 1) 0.928934 0.071066 0 0 0 0 0 0;
   (0, 0, 2) 0 0.0697674 0.930233 0 0 0 0 0;
   (1, 0, 2) 0 0.0882353 0.911765 0 0 0 0 0;
   (2, 0, 2) 0 0.0666667 0.933333 0 0 0 0 0;
   (0, 1, 2) 0 0.0580645 0.941935 0 0 0 0 0;
   (1, 1, 2) 0 0.0921409 0.907859 0 0 0 0 0;
   (2, 1, 2) 0 0.141361 0.858639 0 0 0 0 0;
   (0, 2, 2) 0 0.236287 0.763713 0 0 0 0 0;
   (1, 2, 2) 0 0.301762 0.698238 0 0 0 0 0;
   (2, 2, 2) 0 0.310757 0.689243 0 0 0 0 0;
   (0, 3, 2) 0 0.733333 0.266667 0 0 0 0 0;
   (1, 3, 2) 0 0.752535 0.247465 0 0 0 0 0;
   (2, 3, 2) 0.0136364 0.863636 0.122727 0 0 0 0 0;
   (0, 4, 2) 0.0581395 0.930233 0.0116279 0 0 0 0 0;
   (1, 4, 2) 0.0519481 0.941558 0.00649351 0 0 0 0 0;
   (2, 4, 2) 0.270588 0.729412 0 0 0 0 0 0;
   (0, 0, 3) 0 0 0 1 0 0 0 0;
   (1, 0, 3) 0 0 0.0909091 0.909091 0 0 0 0;
   (2, 0, 3) 0 0 0.0714286 0.928571 0 0 0 0;
   (0, 1, 3) 0 0 0.126214 0.873786 0 0 0 0;
   (1, 1, 3) 0 0 0.110169 0.889831 0 0 0 0;
   (2, 1, 3) 0 0 0.175824 0.824176 0 0 0 0;
   (0, 2, 3) 0 0 0.411765 0.588235 0 0 0 0;
   (1, 2, 3) 0 0 0.447853 0.552147 0 0 0 0;
   (2, 2, 3) 0 0 0.541935 0.458065 0 0 0 0;
   (0, 3, 3) 0 0.0994152 0.777778 0.122807 0 0 0 0;
   (1, 3, 3) 0 0.115607 0.815029 0.0693642 0 0 0 0;
   (2, 3, 3) 0 0.288732 0.683099 0.028169 0 0 0 0;
   (0, 4, 3) 0 0.571429 0.428571 0 0 0 0 0;
   (1, 4, 3) 0 0.8 0.2 0 0 0 0 0;
   (2, 4, 3) 0 1 0 0 0 0 0 0;
   (0, 0, 4) 0 0 0 0.0952381 0.904762 0 0 0;
   (1, 0, 4) 0 0 0 0.0243902 0.97561 0 0 0;
   (2, 0, 4) 0 0 0 0.0434783 0.956522 0 0 0;
   (0, 1, 4) 0 0 0 0.107143 0.892857 0 0 0;
   (1, 1, 4) 0 0 0 0.190476 0.809524 0 0 0;
   (2, 1, 4) 0 0 0 0.243243 0.756757 0 0 0;
   (0, 2, 4) 0 0 0 0.510949 0.489051 0 0 0;
   (1, 2, 4) 0 0 0 0.515901 0.484099 0 0 0;
   (2, 2, 4) 0 0 0.0128205 0.698718 0.288462 0 0 0;
   (0, 3, 4) 0 0 0.333333 0.638889 0.0277778 0 0 0;
   (1, 3, 4) 0 0 0.446903 0.544248 0.00884956 0 0 0;
   (2, 3, 4) 0 0.0873016 0.626984 0.285714 0 0 0 0;
   (0, 4, 4) 0.2 0.2 0.2 0.2 0.2 0 0 0;
   (1, 4, 4) 0 0.25 0.75 0 0 0 0 0;
   (2, 4, 4) 0 0 1 0 0 0 0 0;
   (0, 0, 5) 0 0 0 0 0.0833333 0.916667 0 0;
   (1, 0, 5) 0 0 0 0 0.137931 0.862069 0 0;
   (2, 0, 5) 0 0 0 0 0.230769 0.769231 0 0;
   (0, 1, 5) 0 0 0 0 0.246575 0.753425 0 0;
   (1, 1, 5) 0 0 0 0 0.227027 0.772973 0 0;
   (2, 1, 5) 0 0 0 0 0.371429 0.628571 0 0;
   (0, 2, 5) 0 0 0 0.0183486 0.587156 0.394495 0 0;
   (1, 2, 5) 0 0 0 0.0130435 0.673913 0.313043 0 0;
   (2, 2, 5) 0 0 0 0.0515464 0.742268 0.206186 0 0;
   (0, 3, 5) 0 0 0.0384615 0.346154 0.615385 0 0 0;
   (1, 3, 5) 0 0 0.025 0.45 0.516667 0.00833333 0 0;
   (2, 3, 5) 0 0.015873 0.142857 0.634921 0.206349 0 0 0;
   (0, 4, 5) 0.166667 0.166667 0.166667 0.166667 0.166667 0.166667 0 0;
   (1, 4, 5) 0.166667 0.166667 0.166667 0.166667 0.166667 0.166667 0 0;
   (2, 4, 5) 0.166667 0.166667 0.166667 0.166667 0.166667 0.166667 0 0;
   (0, 0, 6) 0 0 0 0 0 0 1 0;
   (1, 0, 6) 0 0 0 0 0 0.108696 0.891304 0;
   (2, 0, 6) 0 0 0 0 0 0.1 0.9 0;
   (0, 1, 6) 0 0 0 0 0 0.2 0.8 0;
   (1, 1, 6) 0 0 0 0 0 0.251497 0.748503 0;
   (2, 1, 6) 0 0 0 0 0 0.403509 0.596491 0;
   (0, 2, 6) 0 0 0 0 0.0120482 0.674699 0.313253 0;
   (1, 2, 6) 0 0 0 0 0.0913706 0.680203 0.228426 0;
   (2, 2, 6) 0 0 0 0 0.270833 0.604167 0.125 0;
   (0, 3, 6) 0 0 0 0 0.769231 0.230769 0 0;
   (1, 3, 6) 0 0 0 0.0588235 0.764706 0.176471 0 0;
   (2, 3, 6) 0 0 0 0.307692 0.692308 0 0 0;
   (0, 4, 6) 0.142857 0.142857 0.142857 0.142857 0.142857 0.142857 0.142857 0;
   (1, 4, 6) 0.142857 0.142857 0.142857 0.142857 0.142857 0.142857 0.142857 0;
   (2, 4, 6) 0.142857 0.142857 0.142857 0.142857 0.142857 0.142857 0.142857 0;
   (0, 0, 7) 0 0 0 0 0 0 0.1 0.9;
   (1, 0, 7) 0 0 0 0 0 0 0.392857 0.607143;
   (2, 0, 7) 0 0 0 0 0 0 0.454545 0.545455;
   (0, 1, 7) 0 0 0 0 0 0 0.621622 0.378378;
   (1, 1, 7) 0 0 0 0 0 0 0.650794 0.349206;
   (2, 1, 7) 0 0 0 0 0 0 0.863636 0.136364;
   (0, 2, 7) 0 0 0 0 0 0 0.909091 0.0909091;
   (1, 2, 7) 0 0 0 0 0 0.0434783 0.956522 0;
   (2, 2, 7) 0 0 0 0 0 0.142857 0.857143 0;
   (0, 3, 7) 0.125 0.125 0.125 0.125 0.125 0.125 0.125 0.125;
   (1, 3, 7) 0.125 0.125 0.125 0.125 0.125 0.125 0.125 0.125;
   (2, 3, 7) 0.125 0.125 0.125 0.125 0.125 0.125 0.125 0.125;
   (0, 4, 7) 0.125 0.125 0.125 0.125 0.125 0.125 0.125 0.125;
   (1, 4, 7) 0.125 0.125 0.125 0.125 0.125 0.125 0.125 0.125;
   (2, 4, 7) 0.125 0.125 0.125 0.125 0.125 0.125 0.125 0.125;
}

probability (lo_12 | temp_11, km_11, lo_11) {
   (0, 0, 0) 1 0 0 0 0 0 0 0;
   (1, 0, 0) 1 0 0 0 0 0 0 0;
   (2, 0, 0) 1 0 0 0 0 0 0 0;
   (0, 1, 0) 1 0 0 0 0 0 0 0;
   (1, 1, 0) 1 0 0 0 0 0 0 0;
   (2, 1, 0) 1 0 0 0 0 0 0 0;
   (0, 2, 0) 1 0 0 0 0 0 0 0;
   (1, 2, 0) 1 0 0 0 0 0 0 0;
   (2, 2, 0) 1 0 0 0 0 0 0 0;
   (0, 3, 0) 1 0 0 0 0 0 0 0;
   (1, 3, 0) 1 0 0 0 0 0 0 0;
   (2, 3, 0) 1 0 0 0 0 0 0 0;
   (0, 4, 0) 1 0 0 0 0 0 0 0;
   (1, 4, 0) 1 0 0 0 0 0 0 0;
   (2, 4, 0) 1 0 0 0 0 0 0 0;
   (0, 0, 1) 0 1 0 0 0 0 0 0;
   (1, 0, 1) 0.0277778 0.972222 0 0 0 0 0 0;
   (2, 0, 1) 0 1 0 0 0 0 0 0;
   (0, 1, 1) 0.0347826 0.965217 0 0 0 0 0 0;
   (1, 1, 1) 0.0400552 0.959945 0 0 0 0 0 0;
   (2, 1, 1) 0.0433526 0.956647 0 0 0 0 0 0;
   (0, 2, 1) 0.0820896 0.91791 0 0 0 0 0 0;
   (1, 2, 1) 0.111426 0.888574 0 0 0 0 0 0;
   (2, 2, 1) 0.153005 0.846995 0 0 0 0 0 0;
   (0, 3, 1) 0.347222 0.652778 0 0 0 0 0 0;
   (1, 3, 1) 0.370986 0.629014 0 0 0 0 0 0;
   (2, 3, 1) 0.524416 0.475584 0 0 0 0 0 0;
   (0, 4, 1) 0.774038 0.225962 0 0 0 0 0 0;
   (1, 4, 1) 0.86215 0.13785 0 0 0 0 0 0;
   (2, 4, 1) 0.928934 0.071066 0 0 0 0 0 0;
   (0, 0, 2) 0 0.0697674 0.930233 0 0 0 0 0;
   (1, 0, 2) 0 0.0882353 0.911765 0 0 0 0 0;
   (2, 0, 2) 0 0.0666667 0.933333 0 0 0 0 0;
   (0, 1, 2) 0 0.0580645 0.941935 0 0 0 0 0;
   (1, 1, 2) 0 0.0921409 0.907859 0 0 0 0 0;
   (2, 1, 2) 0 0.141361 0.858639 0 0 0 0 0;
   (0, 2, 2) 0 0.236287 0.763713 0 0 0 0 0;
   (1, 2, 2) 0 0.301762 0.698238 0 0 0 0 0;
   (2, 2, 2) 0 0.310757 0.689243 0 0 0 0 0;
   (0, 3, 2) 0 0.733333 0.266667 0 0 0 0 0;
   (1, 3, 2) 0 0.752535 0.247465 0 0 0 0 0;
   (2, 3, 2) 0.0136364 0.863636 0.122727 0 0 0 0 0;
   (0, 4, 2) 0.0581395 0.930233 0.0116279 0 0 0 0 0;
   (1, 4, 2) 0.0519481 0.941558 0.00649351 0 0 0 0 0;
   (2, 4, 2) 0.270588 0.729412 0 0 0 0 0 0;
   (0, 0, 3) 0 0 0 1 0 0 0 0;
   (1, 0, 3) 0 0 0.0909091 0.909091 0 0 0 0;
   (2, 0, 3) 0 0 0.0714286 0.928571 0 0 0 0;
   (0, 1, 3) 0 0 0.126214 0.873786 0 0 0 0;
   (1, 1, 3) 0 0 0.110169 0.889831 0 0 0 0;
   (2, 1, 3) 0 0 0.175824 0.824176 0 0 0 0;
   (0, 2, 3) 0 0 0.411765 0.588235 0 0 0 0;
   (1, 2, 3) 0 0 0.447853 0.552147 0 0 0 0;
   (2, 2, 3) 0 0 0.541935 0.458065 0 0 0 0;
   (0, 3, 3) 0 0.0994152 0.777778 0.122807 0 0 0 0;
   (1, 3, 3) 0 0.115607 0.815029 0.0693642 0 0 0 0;
   (2, 3, 3) 0 0.288732 0.683099 0.028169 0 0 0 0;
   (0, 4, 3) 0 0.571429 0.428571 0 0 0 0 0;
   (1, 4, 3) 0 0.8 0.2 0 0 0 0 0;
   (2, 4, 3) 0 1 0 0 0 0 0 0;
   (0, 0, 4) 0 0 0 0.0952381 0.904762 0 0 0;
   (1, 0, 4) 0 0 0 0.0243902 0.97561 0 0 0;
   (2, 0, 4) 0 0 0 0.0434783 0.956522 0 0 0;
   (0, 1, 4) 0 0 0 0.107143 0.892857 0 0 0;
   (1, 1, 4) 0 0 0 0.190476 0.809524 0 0 0;
   (2, 1, 4) 0 0 0 0.243243 0.756757 0 0 0;
   (0, 2, 4) 0 0 0 0.510949 0.489051 0 0 0;
   (1, 2, 4) 0 0 0 0.515901 0.484099 0 0 0;
   (2, 2, 4) 0 0 0.0128205 0.698718 0.288462 0 0 0;
   (0, 3, 4) 0 0 0.333333 0.638889 0.0277778 0 0 0;
   (1, 3, 4) 0 0 0.446903 0.544248 0.00884956 0 0 0;
   (2, 3, 4) 0 0.0873016 0.626984 0.285714 0 0 0 0;
   (0, 4, 4) 0.2 0.2 0.2 0.2 0.2 0 0 0;
   (1, 4, 4) 0 0.25 0.75 0 0 0 0 0;
   (2, 4, 4) 0 0 1 0 0 0 0 0;
   (0, 0, 5) 0 0 0 0 0.0833333 0.916667 0 0;
   (1, 0, 5) 0 0 0 0 0.137931 0.862069 0 0;
   (2, 0, 5) 0 0 0 0 0.230769 0.769231 0 0;
   (0, 1, 5) 0 0 0 0 0.246575 0.753425 0 0;
   (1, 1, 5) 0 0 0 0 0.227027 0.772973 0 0;
   (2, 1, 5) 0 0 0 0 0.371429 0.628571 0 0;
   (0, 2, 5) 0 0 0 0.0183486 0.587156 0.394495 0 0;
   (1, 2, 5) 0 0 0 0.0130435 0.673913 0.313043 0 0;
   (2, 2, 5) 0 0 0 0.0515464 0.742268 0.206186 0 0;
   (0, 3, 5) 0 0 0.0384615 0.346154 0.615385 0 0 0;
   (1, 3, 5) 0 0 0.025 0.45 0.516667 0.00833333 0 0;
   (2, 3, 5) 0 0.015873 0.142857 0.634921 0.206349 0 0 0;
   (0, 4, 5) 0.166667 0.166667 0.166667 0.166667 0.166667 0.166667 0 0;
   (1, 4, 5) 0.166667 0.166667 0.166667 0.166667 0.166667 0.166667 0 0;
   (2, 4, 5) 0.166667 0.166667 0.166667 0.166667 0.166667 0.166667 0 0;
   (0, 0, 6) 0 0 0 0 0 0 1 0;
   (1, 0, 6) 0 0 0 0 0 0.108696 0.891304 0;
   (2, 0, 6) 0 0 0 0 0 0.1 0.9 0;
   (0, 1, 6) 0 0 0 0 0 0.2 0.8 0;
   (1, 1, 6) 0 0 0 0 0 0.251497 0.748503 0;
   (2, 1, 6) 0 0 0 0 0 0.403509 0.596491 0;
   (0, 2, 6) 0 0 0 0 0.0120482 0.674699 0.313253 0;
   (1, 2, 6) 0 0 0 0 0.0913706 0.680203 0.228426 0;
   (2, 2, 6) 0 0 0 0 0.270833 0.604167 0.125 0;
   (0, 3, 6) 0 0 0 0 0.769231 0.230769 0 0;
   (1, 3, 6) 0 0 0 0.0588235 0.764706 0.176471 0 0;
   (2, 3, 6) 0 0 0 0.307692 0.692308 0 0 0;
   (0, 4, 6) 0.142857 0.142857 0.142857 0.142857 0.142857 0.142857 0.142857 0;
   (1, 4, 6) 0.142857 0.142857 0.142857 0.142857 0.142857 0.142857 0.142857 0;
   (2, 4, 6) 0.142857 0.142857 0.142857 0.142857 0.142857 0.142857 0.142857 0;
   (0, 0, 7) 0 0 0 0 0 0 0.1 0.9;
   (1, 0, 7) 0 0 0 0 0 0 0.392857 0.607143;
   (2, 0, 7) 0 0 0 0 0 0 0.454545 0.545455;
   (0, 1, 7) 0 0 0 0 0 0 0.621622 0.378378;
   (1, 1, 7) 0 0 0 0 0 0 0.650794 0.349206;
   (2, 1, 7) 0 0 0 0 0 0 0.863636 0.136364;
   (0, 2, 7) 0 0 0 0 0 0 0.909091 0.0909091;
   (1, 2, 7) 0 0 0 0 0 0.0434783 0.956522 0;
   (2, 2, 7) 0 0 0 0 0 0.142857 0.857143 0;
   (0, 3, 7) 0.125 0.125 0.125 0.125 0.125 0.125 0.125 0.125;
   (1, 3, 7) 0.125 0.125 0.125 0.125 0.125 0.125 0.125 0.125;
   (2, 3, 7) 0.125 0.125 0.125 0.125 0.125 0.125 0.125 0.125;
   (0, 4, 7) 0.125 0.125 0.125 0.125 0.125 0.125 0.125 0.125;
   (1, 4, 7) 0.125 0.125 0.125 0.125 0.125 0.125 0.125 0.125;
   (2, 4, 7) 0.125 0.125 0.125 0.125 0.125 0.125 0.125 0.125;
}

probability (lo_11 | temp_10, km_10, lo_10) {
   (0, 0, 0) 1 0 0 0 0 0 0 0;
   (1, 0, 0) 1 0 0 0 0 0 0 0;
   (2, 0, 0) 1 0 0 0 0 0 0 0;
   (0, 1, 0) 1 0 0 0 0 0 0 0;
   (1, 1, 0) 1 0 0 0 0 0 0 0;
   (2, 1, 0) 1 0 0 0 0 0 0 0;
   (0, 2, 0) 1 0 0 0 0 0 0 0;
   (1, 2, 0) 1 0 0 0 0 0 0 0;
   (2, 2, 0) 1 0 0 0 0 0 0 0;
   (0, 3, 0) 1 0 0 0 0 0 0 0;
   (1, 3, 0) 1 0 0 0 0 0 0 0;
   (2, 3, 0) 1 0 0 0 0 0 0 0;
   (0, 4, 0) 1 0 0 0 0 0 0 0;
   (1, 4, 0) 1 0 0 0 0 0 0 0;
   (2, 4, 0) 1 0 0 0 0 0 0 0;
   (0, 0, 1) 0 1 0 0 0 0 0 0;
   (1, 0, 1) 0.0277778 0.972222 0 0 0 0 0 0;
   (2, 0, 1) 0 1 0 0 0 0 0 0;
   (0, 1, 1) 0.0347826 0.965217 0 0 0 0 0 0;
   (1, 1, 1) 0.0400552 0.959945 0 0 0 0 0 0;
   (2, 1, 1) 0.0433526 0.956647 0 0 0 0 0 0;
   (0, 2, 1) 0.0820896 0.91791 0 0 0 0 0 0;
   (1, 2, 1) 0.111426 0.888574 0 0 0 0 0 0;
   (2, 2, 1) 0.153005 0.846995 0 0 0 0 0 0;
   (0, 3, 1) 0.347222 0.652778 0 0 0 0 0 0;
   (1, 3, 1) 0.370986 0.629014 0 0 0 0 0 0;
   (2, 3, 1) 0.524416 0.475584 0 0 0 0 0 0;
   (0, 4, 1) 0.774038 0.225962 0 0 0 0 0 0;
   (1, 4, 1) 0.86215 0.13785 0 0 0 0 0 0;
   (2, 4, 1) 0.928934 0.071066 0 0 0 0 0 0;
   (0, 0, 2) 0 0.0697674 0.930233 0 0 0 0 0;
   (1, 0, 2) 0 0.0882353 0.911765 0 0 0 0 0;
   (2, 0, 2) 0 0.0666667 0.933333 0 0 0 0 0;
   (0, 1, 2) 0 0.0580645 0.941935 0 0 0 0 0;
   (1, 1, 2) 0 0.0921409 0.907859 0 0 0 0 0;
   (2, 1, 2) 0 0.141361 0.858639 0 0 0 0 0;
   (0, 2, 2) 0 0.236287 0.763713 0 0 0 0 0;
   (1, 2, 2) 0 0.301762 0.698238 0 0 0 0 0;
   (2, 2, 2) 0 0.310757 0.689243 0 0 0 0 0;
   (0, 3, 2) 0 0.733333 0.266667 0 0 0 0 0;
   (1, 3, 2) 0 0.752535 0.247465 0 0 0 0 0;
   (2, 3, 2) 0.0136364 0.863636 0.122727 0 0 0 0 0;
   (0, 4, 2) 0.0581395 0.930233 0.0116279 0 0 0 0 0;
   (1, 4, 2) 0.0519481 0.941558 0.00649351 0 0 0 0 0;
   (2, 4, 2) 0.270588 0.729412 0 0 0 0 0 0;
   (0, 0, 3) 0 0 0 1 0 0 0 0;
   (1, 0, 3) 0 0 0.0909091 0.909091 0 0 0 0;
   (2, 0, 3) 0 0 0.0714286 0.928571 0 0 0 0;
   (0, 1, 3) 0 0 0.126214 0.873786 0 0 0 0;
   (1, 1, 3) 0 0 0.110169 0.889831 0 0 0 0;
   (2, 1, 3) 0 0 0.175824 0.824176 0 0 0 0;
   (0, 2, 3) 0 0 0.411765 0.588235 0 0 0 0;
   (1, 2, 3) 0 0 0.447853 0.552147 0 0 0 0;
   (2, 2, 3) 0 0 0.541935 0.458065 0 0 0 0;
   (0, 3, 3) 0 0.0994152 0.777778 0.122807 0 0 0 0;
   (1, 3, 3) 0 0.115607 0.815029 0.0693642 0 0 0 0;
   (2, 3, 3) 0 0.288732 0.683099 0.028169 0 0 0 0;
   (0, 4, 3) 0 0.571429 0.428571 0 0 0 0 0;
   (1, 4, 3) 0 0.8 0.2 0 0 0 0 0;
   (2, 4, 3) 0 1 0 0 0 0 0 0;
   (0, 0, 4) 0 0 0 0.0952381 0.904762 0 0 0;
   (1, 0, 4) 0 0 0 0.0243902 0.97561 0 0 0;
   (2, 0, 4) 0 0 0 0.0434783 0.956522 0 0 0;
   (0, 1, 4) 0 0 0 0.107143 0.892857 0 0 0;
   (1, 1, 4) 0 0 0 0.190476 0.809524 0 0 0;
   (2, 1, 4) 0 0 0 0.243243 0.756757 0 0 0;
   (0, 2, 4) 0 0 0 0.510949 0.489051 0 0 0;
   (1, 2, 4) 0 0 0 0.515901 0.484099 0 0 0;
   (2, 2, 4) 0 0 0.0128205 0.698718 0.288462 0 0 0;
   (0, 3, 4) 0 0 0.333333 0.638889 0.0277778 0 0 0;
   (1, 3, 4) 0 0 0.446903 0.544248 0.00884956 0 0 0;
   (2, 3, 4) 0 0.0873016 0.626984 0.285714 0 0 0 0;
   (0, 4, 4) 0.2 0.2 0.2 0.2 0.2 0 0 0;
   (1, 4, 4) 0 0.25 0.75 0 0 0 0 0;
   (2, 4, 4) 0 0 1 0 0 0 0 0;
   (0, 0, 5) 0 0 0 0 0.0833333 0.916667 0 0;
   (1, 0, 5) 0 0 0 0 0.137931 0.862069 0 0;
   (2, 0, 5) 0 0 0 0 0.230769 0.769231 0 0;
   (0, 1, 5) 0 0 0 0 0.246575 0.753425 0 0;
   (1, 1, 5) 0 0 0 0 0.227027 0.772973 0 0;
   (2, 1, 5) 0 0 0 0 0.371429 0.628571 0 0;
   (0, 2, 5) 0 0 0 0.0183486 0.587156 0.394495 0 0;
   (1, 2, 5) 0 0 0 0.0130435 0.673913 0.313043 0 0;
   (2, 2, 5) 0 0 0 0.0515464 0.742268 0.206186 0 0;
   (0, 3, 5) 0 0 0.0384615 0.346154 0.615385 0 0 0;
   (1, 3, 5) 0 0 0.025 0.45 0.516667 0.00833333 0 0;
   (2, 3, 5) 0 0.015873 0.142857 0.634921 0.206349 0 0 0;
   (0, 4, 5) 0.166667 0.166667 0.166667 0.166667 0.166667 0.166667 0 0;
   (1, 4, 5) 0.166667 0.166667 0.166667 0.166667 0.166667 0.166667 0 0;
   (2, 4, 5) 0.166667 0.166667 0.166667 0.166667 0.166667 0.166667 0 0;
   (0, 0, 6) 0 0 0 0 0 0 1 0;
   (1, 0, 6) 0 0 0 0 0 0.108696 0.891304 0;
   (2, 0, 6) 0 0 0 0 0 0.1 0.9 0;
   (0, 1, 6) 0 0 0 0 0 0.2 0.8 0;
   (1, 1, 6) 0 0 0 0 0 0.251497 0.748503 0;
   (2, 1, 6) 0 0 0 0 0 0.403509 0.596491 0;
   (0, 2, 6) 0 0 0 0 0.0120482 0.674699 0.313253 0;
   (1, 2, 6) 0 0 0 0 0.0913706 0.680203 0.228426 0;
   (2, 2, 6) 0 0 0 0 0.270833 0.604167 0.125 0;
   (0, 3, 6) 0 0 0 0 0.769231 0.230769 0 0;
   (1, 3, 6) 0 0 0 0.0588235 0.764706 0.176471 0 0;
   (2, 3, 6) 0 0 0 0.307692 0.692308 0 0 0;
   (0, 4, 6) 0.142857 0.142857 0.142857 0.142857 0.142857 0.142857 0.142857 0;
   (1, 4, 6) 0.142857 0.142857 0.142857 0.142857 0.142857 0.142857 0.142857 0;
   (2, 4, 6) 0.142857 0.142857 0.142857 0.142857 0.142857 0.142857 0.142857 0;
   (0, 0, 7) 0 0 0 0 0 0 0.1 0.9;
   (1, 0, 7) 0 0 0 0 0 0 0.392857 0.607143;
   (2, 0, 7) 0 0 0 0 0 0 0.454545 0.545455;
   (0, 1, 7) 0 0 0 0 0 0 0.621622 0.378378;
   (1, 1, 7) 0 0 0 0 0 0 0.650794 0.349206;
   (2, 1, 7) 0 0 0 0 0 0 0.863636 0.136364;
   (0, 2, 7) 0 0 0 0 0 0 0.909091 0.0909091;
   (1, 2, 7) 0 0 0 0 0 0.0434783 0.956522 0;
   (2, 2, 7) 0 0 0 0 0 0.142857 0.857143 0;
   (0, 3, 7) 0.125 0.125 0.125 0.125 0.125 0.125 0.125 0.125;
   (1, 3, 7) 0.125 0.125 0.125 0.125 0.125 0.125 0.125 0.125;
   (2, 3, 7) 0.125 0.125 0.125 0.125 0.125 0.125 0.125 0.125;
   (0, 4, 7) 0.125 0.125 0.125 0.125 0.125 0.125 0.125 0.125;
   (1, 4, 7) 0.125 0.125 0.125 0.125 0.125 0.125 0.125 0.125;
   (2, 4, 7) 0.125 0.125 0.125 0.125 0.125 0.125 0.125 0.125;
}

probability (lo_10 | temp_9, km_9, lo_9) {
   (0, 0, 0) 1 0 0 0 0 0 0 0;
   (1, 0, 0) 1 0 0 0 0 0 0 0;
   (2, 0, 0) 1 0 0 0 0 0 0 0;
   (0, 1, 0) 1 0 0 0 0 0 0 0;
   (1, 1, 0) 1 0 0 0 0 0 0 0;
   (2, 1, 0) 1 0 0 0 0 0 0 0;
   (0, 2, 0) 1 0 0 0 0 0 0 0;
   (1, 2, 0) 1 0 0 0 0 0 0 0;
   (2, 2, 0) 1 0 0 0 0 0 0 0;
   (0, 3, 0) 1 0 0 0 0 0 0 0;
   (1, 3, 0) 1 0 0 0 0 0 0 0;
   (2, 3, 0) 1 0 0 0 0 0 0 0;
   (0, 4, 0) 1 0 0 0 0 0 0 0;
   (1, 4, 0) 1 0 0 0 0 0 0 0;
   (2, 4, 0) 1 0 0 0 0 0 0 0;
   (0, 0, 1) 0 1 0 0 0 0 0 0;
   (1, 0, 1) 0.0277778 0.972222 0 0 0 0 0 0;
   (2, 0, 1) 0 1 0 0 0 0 0 0;
   (0, 1, 1) 0.0347826 0.965217 0 0 0 0 0 0;
   (1, 1, 1) 0.0400552 0.959945 0 0 0 0 0 0;
   (2, 1, 1) 0.0433526 0.956647 0 0 0 0 0 0;
   (0, 2, 1) 0.0820896 0.91791 0 0 0 0 0 0;
   (1, 2, 1) 0.111426 0.888574 0 0 0 0 0 0;
   (2, 2, 1) 0.153005 0.846995 0 0 0 0 0 0;
   (0, 3, 1) 0.347222 0.652778 0 0 0 0 0 0;
   (1, 3, 1) 0.370986 0.629014 0 0 0 0 0 0;
   (2, 3, 1) 0.524416 0.475584 0 0 0 0 0 0;
   (0, 4, 1) 0.774038 0.225962 0 0 0 0 0 0;
   (1, 4, 1) 0.86215 0.13785 0 0 0 0 0 0;
   (2, 4, 1) 0.928934 0.071066 0 0 0 0 0 0;
   (0, 0, 2) 0 0.0697674 0.930233 0 0 0 0 0;
   (1, 0, 2) 0 0.0882353 0.911765 0 0 0 0 0;
   (2, 0, 2) 0 0.0666667 0.933333 0 0 0 0 0;
   (0, 1, 2) 0 0.0580645 0.941935 0 0 0 0 0;
   (1, 1, 2) 0 0.0921409 0.907859 0 0 0 0 0;
   (2, 1, 2) 0 0.141361 0.858639 0 0 0 0 0;
   (0, 2, 2) 0 0.236287 0.763713 0 0 0 0 0;
   (1, 2, 2) 0 0.301762 0.698238 0 0 0 0 0;
   (2, 2, 2) 0 0.310757 0.689243 0 0 0 0 0;
   (0, 3, 2) 0 0.733333 0.266667 0 0 0 0 0;
   (1, 3, 2) 0 0.752535 0.247465 0 0 0 0 0;
   (2, 3, 2) 0.0136364 0.863636 0.122727 0 0 0 0 0;
   (0, 4, 2) 0.0581395 0.930233 0.0116279 0 0 0 0 0;
   (1, 4, 2) 0.0519481 0.941558 0.00649351 0 0 0 0 0;
   (2, 4, 2) 0.270588 0.729412 0 0 0 0 0 0;
   (0, 0, 3) 0 0 0 1 0 0 0 0;
   (1, 0, 3) 0 0 0.0909091 0.909091 0 0 0 0;
   (2, 0, 3) 0 0 0.0714286 0.928571 0 0 0 0;
   (0, 1, 3) 0 0 0.126214 0.873786 0 0 0 0;
   (1, 1, 3) 0 0 0.110169 0.889831 0 0 0 0;
   (2, 1, 3) 0 0 0.175824 0.824176 0 0 0 0;
   (0, 2, 3) 0 0 0.411765 0.588235 0 0 0 0;
   (1, 2, 3) 0 0 0.447853 0.552147 0 0 0 0;
   (2, 2, 3) 0 0 0.541935 0.458065 0 0 0 0;
   (0, 3, 3) 0 0.0994152 0.777778 0.122807 0 0 0 0;
   (1, 3, 3) 0 0.115607 0.815029 0.0693642 0 0 0 0;
   (2, 3, 3) 0 0.288732 0.683099 0.028169 0 0 0 0;
   (0, 4, 3) 0 0.571429 0.428571 0 0 0 0 0;
   (1, 4, 3) 0 0.8 0.2 0 0 0 0 0;
   (2, 4, 3) 0 1 0 0 0 0 0 0;
   (0, 0, 4) 0 0 0 0.0952381 0.904762 0 0 0;
   (1, 0, 4) 0 0 0 0.0243902 0.97561 0 0 0;
   (2, 0, 4) 0 0 0 0.0434783 0.956522 0 0 0;
   (0, 1, 4) 0 0 0 0.107143 0.892857 0 0 0;
   (1, 1, 4) 0 0 0 0.190476 0.809524 0 0 0;
   (2, 1, 4) 0 0 0 0.243243 0.756757 0 0 0;
   (0, 2, 4) 0 0 0 0.510949 0.489051 0 0 0;
   (1, 2, 4) 0 0 0 0.515901 0.484099 0 0 0;
   (2, 2, 4) 0 0 0.0128205 0.698718 0.288462 0 0 0;
   (0, 3, 4) 0 0 0.333333 0.638889 0.0277778 0 0 0;
   (1, 3, 4) 0 0 0.446903 0.544248 0.00884956 0 0 0;
   (2, 3, 4) 0 0.0873016 0.626984 0.285714 0 0 0 0;
   (0, 4, 4) 0.2 0.2 0.2 0.2 0.2 0 0 0;
   (1, 4, 4) 0 0.25 0.75 0 0 0 0 0;
   (2, 4, 4) 0 0 1 0 0 0 0 0;
   (0, 0, 5) 0 0 0 0 0.0833333 0.916667 0 0;
   (1, 0, 5) 0 0 0 0 0.137931 0.862069 0 0;
   (2, 0, 5) 0 0 0 0 0.230769 0.769231 0 0;
   (0, 1, 5) 0 0 0 0 0.246575 0.753425 0 0;
   (1, 1, 5) 0 0 0 0 0.227027 0.772973 0 0;
   (2, 1, 5) 0 0 0 0 0.371429 0.628571 0 0;
   (0, 2, 5) 0 0 0 0.0183486 0.587156 0.394495 0 0;
   (1, 2, 5) 0 0 0 0.0130435 0.673913 0.313043 0 0;
   (2, 2, 5) 0 0 0 0.0515464 0.742268 0.206186 0 0;
   (0, 3, 5) 0 0 0.0384615 0.346154 0.615385 0 0 0;
   (1, 3, 5) 0 0 0.025 0.45 0.516667 0.00833333 0 0;
   (2, 3, 5) 0 0.015873 0.142857 0.634921 0.206349 0 0 0;
   (0, 4, 5) 0.166667 0.166667 0.166667 0.166667 0.166667 0.166667 0 0;
   (1, 4, 5) 0.166667 0.166667 0.166667 0.166667 0.166667 0.166667 0 0;
   (2, 4, 5) 0.166667 0.166667 0.166667 0.166667 0.166667 0.166667 0 0;
   (0, 0, 6) 0 0 0 0 0 0 1 0;
   (1, 0, 6) 0 0 0 0 0 0.108696 0.891304 0;
   (2, 0, 6) 0 0 0 0 0 0.1 0.9 0;
   (0, 1, 6) 0 0 0 0 0 0.2 0.8 0;
   (1, 1, 6) 0 0 0 0 0 0.251497 0.748503 0;
   (2, 1, 6) 0 0 0 0 0 0.403509 0.596491 0;
   (0, 2, 6) 0 0 0 0 0.0120482 0.674699 0.313253 0;
   (1, 2, 6) 0 0 0 0 0.0913706 0.680203 0.228426 0;
   (2, 2, 6) 0 0 0 0 0.270833 0.604167 0.125 0;
   (0, 3, 6) 0 0 0 0 0.769231 0.230769 0 0;
   (1, 3, 6) 0 0 0 0.0588235 0.764706 0.176471 0 0;
   (2, 3, 6) 0 0 0 0.307692 0.692308 0 0 0;
   (0, 4, 6) 0.142857 0.142857 0.142857 0.142857 0.142857 0.142857 0.142857 0;
   (1, 4, 6) 0.142857 0.142857 0.142857 0.142857 0.142857 0.142857 0.142857 0;
   (2, 4, 6) 0.142857 0.142857 0.142857 0.142857 0.142857 0.142857 0.142857 0;
   (0, 0, 7) 0 0 0 0 0 0 0.1 0.9;
   (1, 0, 7) 0 0 0 0 0 0 0.392857 0.607143;
   (2, 0, 7) 0 0 0 0 0 0 0.454545 0.545455;
   (0, 1, 7) 0 0 0 0 0 0 0.621622 0.378378;
   (1, 1, 7) 0 0 0 0 0 0 0.650794 0.349206;
   (2, 1, 7) 0 0 0 0 0 0 0.863636 0.136364;
   (0, 2, 7) 0 0 0 0 0 0 0.909091 0.0909091;
   (1, 2, 7) 0 0 0 0 0 0.0434783 0.956522 0;
   (2, 2, 7) 0 0 0 0 0 0.142857 0.857143 0;
   (0, 3, 7) 0.125 0.125 0.125 0.125 0.125 0.125 0.125 0.125;
   (1, 3, 7) 0.125 0.125 0.125 0.125 0.125 0.125 0.125 0.125;
   (2, 3, 7) 0.125 0.125 0.125 0.125 0.125 0.125 0.125 0.125;
   (0, 4, 7) 0.125 0.125 0.125 0.125 0.125 0.125 0.125 0.125;
   (1, 4, 7) 0.125 0.125 0.125 0.125 0.125 0.125 0.125 0.125;
   (2, 4, 7) 0.125 0.125 0.125 0.125 0.125 0.125 0.125 0.125;
}

probability (lo_9 | temp_8, km_8, lo_8) {
   (0, 0, 0) 1 0 0 0 0 0 0 0;
   (1, 0, 0) 1 0 0 0 0 0 0 0;
   (2, 0, 0) 1 0 0 0 0 0 0 0;
   (0, 1, 0) 1 0 0 0 0 0 0 0;
   (1, 1, 0) 1 0 0 0 0 0 0 0;
   (2, 1, 0) 1 0 0 0 0 0 0 0;
   (0, 2, 0) 1 0 0 0 0 0 0 0;
   (1, 2, 0) 1 0 0 0 0 0 0 0;
   (2, 2, 0) 1 0 0 0 0 0 0 0;
   (0, 3, 0) 1 0 0 0 0 0 0 0;
   (1, 3, 0) 1 0 0 0 0 0 0 0;
   (2, 3, 0) 1 0 0 0 0 0 0 0;
   (0, 4, 0) 1 0 0 0 0 0 0 0;
   (1, 4, 0) 1 0 0 0 0 0 0 0;
   (2, 4, 0) 1 0 0 0 0 0 0 0;
   (0, 0, 1) 0 1 0 0 0 0 0 0;
   (1, 0, 1) 0.0277778 0.972222 0 0 0 0 0 0;
   (2, 0, 1) 0 1 0 0 0 0 0 0;
   (0, 1, 1) 0.0347826 0.965217 0 0 0 0 0 0;
   (1, 1, 1) 0.0400552 0.959945 0 0 0 0 0 0;
   (2, 1, 1) 0.0433526 0.956647 0 0 0 0 0 0;
   (0, 2, 1) 0.0820896 0.91791 0 0 0 0 0 0;
   (1, 2, 1) 0.111426 0.888574 0 0 0 0 0 0;
   (2, 2, 1) 0.153005 0.846995 0 0 0 0 0 0;
   (0, 3, 1) 0.347222 0.652778 0 0 0 0 0 0;
   (1, 3, 1) 0.370986 0.629014 0 0 0 0 0 0;
   (2, 3, 1) 0.524416 0.475584 0 0 0 0 0 0;
   (0, 4, 1) 0.774038 0.225962 0 0 0 0 0 0;
   (1, 4, 1) 0.86215 0.13785 0 0 0 0 0 0;
   (2, 4, 1) 0.928934 0.071066 0 0 0 0 0 0;
   (0, 0, 2) 0 0.0697674 0.930233 0 0 0 0 0;
   (1, 0, 2) 0 0.0882353 0.911765 0 0 0 0 0;
   (2, 0, 2) 0 0.0666667 0.933333 0 0 0 0 0;
   (0, 1, 2) 0 0.0580645 0.941935 0 0 0 0 0;
   (1, 1, 2) 0 0.0921409 0.907859 0 0 0 0 0;
   (2, 1, 2) 0 0.141361 0.858639 0 0 0 0 0;
   (0, 2, 2) 0 0.236287 0.763713 0 0 0 0 0;
   (1, 2, 2) 0 0.301762 0.698238 0 0 0 0 0;
   (2, 2, 2) 0 0.310757 0.689243 0 0 0 0 0;
   (0, 3, 2) 0 0.733333 0.266667 0 0 0 0 0;
   (1, 3, 2) 0 0.752535 0.247465 0 0 0 0 0;
   (2, 3, 2) 0.0136364 0.863636 0.122727 0 0 0 0 0;
   (0, 4, 2) 0.0581395 0.930233 0.0116279 0 0 0 0 0;
   (1, 4, 2) 0.0519481 0.941558 0.00649351 0 0 0 0 0;
   (2, 4, 2) 0.270588 0.729412 0 0 0 0 0 0;
   (0, 0, 3) 0 0 0 1 0 0 0 0;
   (1, 0, 3) 0 0 0.0909091 0.909091 0 0 0 0;
   (2, 0, 3) 0 0 0.0714286 0.928571 0 0 0 0;
   (0, 1, 3) 0 0 0.126214 0.873786 0 0 0 0;
   (1, 1, 3) 0 0 0.110169 0.889831 0 0 0 0;
   (2, 1, 3) 0 0 0.175824 0.824176 0 0 0 0;
   (0, 2, 3) 0 0 0.411765 0.588235 0 0 0 0;
   (1, 2, 3) 0 0 0.447853 0.552147 0 0 0 0;
   (2, 2, 3) 0 0 0.541935 0.458065 0 0 0 0;
   (0, 3, 3) 0 0.0994152 0.777778 0.122807 0 0 0 0;
   (1, 3, 3) 0 0.115607 0.815029 0.0693642 0 0 0 0;
   (2, 3, 3) 0 0.288732 0.683099 0.028169 0 0 0 0;
   (0, 4, 3) 0 0.571429 0.428571 0 0 0 0 0;
   (1, 4, 3) 0 0.8 0.2 0 0 0 0 0;
   (2, 4, 3) 0 1 0 0 0 0 0 0;
   (0, 0, 4) 0 0 0 0.0952381 0.904762 0 0 0;
   (1, 0, 4) 0 0 0 0.0243902 0.97561 0 0 0;
   (2, 0, 4) 0 0 0 0.0434783 0.956522 0 0 0;
   (0, 1, 4) 0 0 0 0.107143 0.892857 0 0 0;
   (1, 1, 4) 0 0 0 0.190476 0.809524 0 0 0;
   (2, 1, 4) 0 0 0 0.243243 0.756757 0 0 0;
   (0, 2, 4) 0 0 0 0.510949 0.489051 0 0 0;
   (1, 2, 4) 0 0 0 0.515901 0.484099 0 0 0;
   (2, 2, 4) 0 0 0.0128205 0.698718 0.288462 0 0 0;
   (0, 3, 4) 0 0 0.333333 0.638889 0.0277778 0 0 0;
   (1, 3, 4) 0 0 0.446903 0.544248 0.00884956 0 0 0;
   (2, 3, 4) 0 0.0873016 0.626984 0.285714 0 0 0 0;
   (0, 4, 4) 0.2 0.2 0.2 0.2 0.2 0 0 0;
   (1, 4, 4) 0 0.25 0.75 0 0 0 0 0;
   (2, 4, 4) 0 0 1 0 0 0 0 0;
   (0, 0, 5) 0 0 0 0 0.0833333 0.916667 0 0;
   (1, 0, 5) 0 0 0 0 0.137931 0.862069 0 0;
   (2, 0, 5) 0 0 0 0 0.230769 0.769231 0 0;
   (0, 1, 5) 0 0 0 0 0.246575 0.753425 0 0;
   (1, 1, 5) 0 0 0 0 0.227027 0.772973 0 0;
   (2, 1, 5) 0 0 0 0 0.371429 0.628571 0 0;
   (0, 2, 5) 0 0 0 0.0183486 0.587156 0.394495 0 0;
   (1, 2, 5) 0 0 0 0.0130435 0.673913 0.313043 0 0;
   (2, 2, 5) 0 0 0 0.0515464 0.742268 0.206186 0 0;
   (0, 3, 5) 0 0 0.0384615 0.346154 0.615385 0 0 0;
   (1, 3, 5) 0 0 0.025 0.45 0.516667 0.00833333 0 0;
   (2, 3, 5) 0 0.015873 0.142857 0.634921 0.206349 0 0 0;
   (0, 4, 5) 0.166667 0.166667 0.166667 0.166667 0.166667 0.166667 0 0;
   (1, 4, 5) 0.166667 0.166667 0.166667 0.166667 0.166667 0.166667 0 0;
   (2, 4, 5) 0.166667 0.166667 0.166667 0.166667 0.166667 0.166667 0 0;
   (0, 0, 6) 0 0 0 0 0 0 1 0;
   (1, 0, 6) 0 0 0 0 0 0.108696 0.891304 0;
   (2, 0, 6) 0 0 0 0 0 0.1 0.9 0;
   (0, 1, 6) 0 0 0 0 0 0.2 0.8 0;
   (1, 1, 6) 0 0 0 0 0 0.251497 0.748503 0;
   (2, 1, 6) 0 0 0 0 0 0.403509 0.596491 0;
   (0, 2, 6) 0 0 0 0 0.0120482 0.674699 0.313253 0;
   (1, 2, 6) 0 0 0 0 0.0913706 0.680203 0.228426 0;
   (2, 2, 6) 0 0 0 0 0.270833 0.604167 0.125 0;
   (0, 3, 6) 0 0 0 0 0.769231 0.230769 0 0;
   (1, 3, 6) 0 0 0 0.0588235 0.764706 0.176471 0 0;
   (2, 3, 6) 0 0 0 0.307692 0.692308 0 0 0;
   (0, 4, 6) 0.142857 0.142857 0.142857 0.142857 0.142857 0.142857 0.142857 0;
   (1, 4, 6) 0.142857 0.142857 0.142857 0.142857 0.142857 0.142857 0.142857 0;
   (2, 4, 6) 0.142857 0.142857 0.142857 0.142857 0.142857 0.142857 0.142857 0;
   (0, 0, 7) 0 0 0 0 0 0 0.1 0.9;
   (1, 0, 7) 0 0 0 0 0 0 0.392857 0.607143;
   (2, 0, 7) 0 0 0 0 0 0 0.454545 0.545455;
   (0, 1, 7) 0 0 0 0 0 0 0.621622 0.378378;
   (1, 1, 7) 0 0 0 0 0 0 0.650794 0.349206;
   (2, 1, 7) 0 0 0 0 0 0 0.863636 0.136364;
   (0, 2, 7) 0 0 0 0 0 0 0.909091 0.0909091;
   (1, 2, 7) 0 0 0 0 0 0.0434783 0.956522 0;
   (2, 2, 7) 0 0 0 0 0 0.142857 0.857143 0;
   (0, 3, 7) 0.125 0.125 0.125 0.125 0.125 0.125 0.125 0.125;
   (1, 3, 7) 0.125 0.125 0.125 0.125 0.125 0.125 0.125 0.125;
   (2, 3, 7) 0.125 0.125 0.125 0.125 0.125 0.125 0.125 0.125;
   (0, 4, 7) 0.125 0.125 0.125 0.125 0.125 0.125 0.125 0.125;
   (1, 4, 7) 0.125 0.125 0.125 0.125 0.125 0.125 0.125 0.125;
   (2, 4, 7) 0.125 0.125 0.125 0.125 0.125 0.125 0.125 0.125;
}

probability (lo_8 | temp_7, km_7, lo_7) {
   (0, 0, 0) 1 0 0 0 0 0 0 0;
   (1, 0, 0) 1 0 0 0 0 0 0 0;
   (2, 0, 0) 1 0 0 0 0 0 0 0;
   (0, 1, 0) 1 0 0 0 0 0 0 0;
   (1, 1, 0) 1 0 0 0 0 0 0 0;
   (2, 1, 0) 1 0 0 0 0 0 0 0;
   (0, 2, 0) 1 0 0 0 0 0 0 0;
   (1, 2, 0) 1 0 0 0 0 0 0 0;
   (2, 2, 0) 1 0 0 0 0 0 0 0;
   (0, 3, 0) 1 0 0 0 0 0 0 0;
   (1, 3, 0) 1 0 0 0 0 0 0 0;
   (2, 3, 0) 1 0 0 0 0 0 0 0;
   (0, 4, 0) 1 0 0 0 0 0 0 0;
   (1, 4, 0) 1 0 0 0 0 0 0 0;
   (2, 4, 0) 1 0 0 0 0 0 0 0;
   (0, 0, 1) 0 1 0 0 0 0 0 0;
   (1, 0, 1) 0.0277778 0.972222 0 0 0 0 0 0;
   (2, 0, 1) 0 1 0 0 0 0 0 0;
   (0, 1, 1) 0.0347826 0.965217 0 0 0 0 0 0;
   (1, 1, 1) 0.0400552 0.959945 0 0 0 0 0 0;
   (2, 1, 1) 0.0433526 0.956647 0 0 0 0 0 0;
   (0, 2, 1) 0.0820896 0.91791 0 0 0 0 0 0;
   (1, 2, 1) 0.111426 0.888574 0 0 0 0 0 0;
   (2, 2, 1) 0.153005 0.846995 0 0 0 0 0 0;
   (0, 3, 1) 0.347222 0.652778 0 0 0 0 0 0;
   (1, 3, 1) 0.370986 0.629014 0 0 0 0 0 0;
   (2, 3, 1) 0.524416 0.475584 0 0 0 0 0 0;
   (0, 4, 1) 0.774038 0.225962 0 0 0 0 0 0;
   (1, 4, 1) 0.86215 0.13785 0 0 0 0 0 0;
   (2, 4, 1) 0.928934 0.071066 0 0 0 0 0 0;
   (0, 0, 2) 0 0.0697674 0.930233 0 0 0 0 0;
   (1, 0, 2) 0 0.0882353 0.911765 0 0 0 0 0;
   (2, 0, 2) 0 0.0666667 0.933333 0 0 0 0 0;
   (0, 1, 2) 0 0.0580645 0.941935 0 0 0 0 0;
   (1, 1, 2) 0 0.0921409 0.907859 0 0 0 0 0;
   (2, 1, 2) 0 0.141361 0.858639 0 0 0 0 0;
   (0, 2, 2) 0 0.236287 0.763713 0 0 0 0 0;
   (1, 2, 2) 0 0.301762 0.698238 0 0 0 0 0;
   (2, 2, 2) 0 0.310757 0.689243 0 0 0 0 0;
   (0, 3, 2) 0 0.733333 0.266667 0 0 0 0 0;
   (1, 3, 2) 0 0.752535 0.247465 0 0 0 0 0;
   (2, 3, 2) 0.0136364 0.863636 0.122727 0 0 0 0 0;
   (0, 4, 2) 0.0581395 0.930233 0.0116279 0 0 0 0 0;
   (1, 4, 2) 0.0519481 0.941558 0.00649351 0 0 0 0 0;
   (2, 4, 2) 0.270588 0.729412 0 0 0 0 0 0;
   (0, 0, 3) 0 0 0 1 0 0 0 0;
   (1, 0, 3) 0 0 0.0909091 0.909091 0 0 0 0;
   (2, 0, 3) 0 0 0.0714286 0.928571 0 0 0 0;
   (0, 1, 3) 0 0 0.126214 0.873786 0 0 0 0;
   (1, 1, 3) 0 0 0.110169 0.889831 0 0 0 0;
   (2, 1, 3) 0 0 0.175824 0.824176 0 0 0 0;
   (0, 2, 3) 0 0 0.411765 0.588235 0 0 0 0;
   (1, 2, 3) 0 0 0.447853 0.552147 0 0 0 0;
   (2, 2, 3) 0 0 0.541935 0.458065 0 0 0 0;
   (0, 3, 3) 0 0.0994152 0.777778 0.122807 0 0 0 0;
   (1, 3, 3) 0 0.115607 0.815029 0.0693642 0 0 0 0;
   (2, 3, 3) 0 0.288732 0.683099 0.028169 0 0 0 0;
   (0, 4, 3) 0 0.571429 0.428571 0 0 0 0 0;
   (1, 4, 3) 0 0.8 0.2 0 0 0 0 0;
   (2, 4, 3) 0 1 0 0 0 0 0 0;
   (0, 0, 4) 0 0 0 0.0952381 0.904762 0 0 0;
   (1, 0, 4) 0 0 0 0.0243902 0.97561 0 0 0;
   (2, 0, 4) 0 0 0 0.0434783 0.956522 0 0 0;
   (0, 1, 4) 0 0 0 0.107143 0.892857 0 0 0;
   (1, 1, 4) 0 0 0 0.190476 0.809524 0 0 0;
   (2, 1, 4) 0 0 0 0.243243 0.756757 0 0 0;
   (0, 2, 4) 0 0 0 0.510949 0.489051 0 0 0;
   (1, 2, 4) 0 0 0 0.515901 0.484099 0 0 0;
   (2, 2, 4) 0 0 0.0128205 0.698718 0.288462 0 0 0;
   (0, 3, 4) 0 0 0.333333 0.638889 0.0277778 0 0 0;
   (1, 3, 4) 0 0 0.446903 0.544248 0.00884956 0 0 0;
   (2, 3, 4) 0 0.0873016 0.626984 0.285714 0 0 0 0;
   (0, 4, 4) 0.2 0.2 0.2 0.2 0.2 0 0 0;
   (1, 4, 4) 0 0.25 0.75 0 0 0 0 0;
   (2, 4, 4) 0 0 1 0 0 0 0 0;
   (0, 0, 5) 0 0 0 0 0.0833333 0.916667 0 0;
   (1, 0, 5) 0 0 0 0 0.137931 0.862069 0 0;
   (2, 0, 5) 0 0 0 0 0.230769 0.769231 0 0;
   (0, 1, 5) 0 0 0 0 0.246575 0.753425 0 0;
   (1, 1, 5) 0 0 0 0 0.227027 0.772973 0 0;
   (2, 1, 5) 0 0 0 0 0.371429 0.628571 0 0;
   (0, 2, 5) 0 0 0 0.0183486 0.587156 0.394495 0 0;
   (1, 2, 5) 0 0 0 0.0130435 0.673913 0.313043 0 0;
   (2, 2, 5) 0 0 0 0.0515464 0.742268 0.206186 0 0;
   (0, 3, 5) 0 0 0.0384615 0.346154 0.615385 0 0 0;
   (1, 3, 5) 0 0 0.025 0.45 0.516667 0.00833333 0 0;
   (2, 3, 5) 0 0.015873 0.142857 0.634921 0.206349 0 0 0;
   (0, 4, 5) 0.166667 0.166667 0.166667 0.166667 0.166667 0.166667 0 0;
   (1, 4, 5) 0.166667 0.166667 0.166667 0.166667 0.166667 0.166667 0 0;
   (2, 4, 5) 0.166667 0.166667 0.166667 0.166667 0.166667 0.166667 0 0;
   (0, 0, 6) 0 0 0 0 0 0 1 0;
   (1, 0, 6) 0 0 0 0 0 0.108696 0.891304 0;
   (2, 0, 6) 0 0 0 0 0 0.1 0.9 0;
   (0, 1, 6) 0 0 0 0 0 0.2 0.8 0;
   (1, 1, 6) 0 0 0 0 0 0.251497 0.748503 0;
   (2, 1, 6) 0 0 0 0 0 0.403509 0.596491 0;
   (0, 2, 6) 0 0 0 0 0.0120482 0.674699 0.313253 0;
   (1, 2, 6) 0 0 0 0 0.0913706 0.680203 0.228426 0;
   (2, 2, 6) 0 0 0 0 0.270833 0.604167 0.125 0;
   (0, 3, 6) 0 0 0 0 0.769231 0.230769 0 0;
   (1, 3, 6) 0 0 0 0.0588235 0.764706 0.176471 0 0;
   (2, 3, 6) 0 0 0 0.307692 0.692308 0 0 0;
   (0, 4, 6) 0.142857 0.142857 0.142857 0.142857 0.142857 0.142857 0.142857 0;
   (1, 4, 6) 0.142857 0.142857 0.142857 0.142857 0.142857 0.142857 0.142857 0;
   (2, 4, 6) 0.142857 0.142857 0.142857 0.142857 0.142857 0.142857 0.142857 0;
   (0, 0, 7) 0 0 0 0 0 0 0.1 0.9;
   (1, 0, 7) 0 0 0 0 0 0 0.392857 0.607143;
   (2, 0, 7) 0 0 0 0 0 0 0.454545 0.545455;
   (0, 1, 7) 0 0 0 0 0 0 0.621622 0.378378;
   (1, 1, 7) 0 0 0 0 0 0 0.650794 0.349206;
   (2, 1, 7) 0 0 0 0 0 0 0.863636 0.136364;
   (0, 2, 7) 0 0 0 0 0 0 0.909091 0.0909091;
   (1, 2, 7) 0 0 0 0 0 0.0434783 0.956522 0;
   (2, 2, 7) 0 0 0 0 0 0.142857 0.857143 0;
   (0, 3, 7) 0.125 0.125 0.125 0.125 0.125 0.125 0.125 0.125;
   (1, 3, 7) 0.125 0.125 0.125 0.125 0.125 0.125 0.125 0.125;
   (2, 3, 7) 0.125 0.125 0.125 0.125 0.125 0.125 0.125 0.125;
   (0, 4, 7) 0.125 0.125 0.125 0.125 0.125 0.125 0.125 0.125;
   (1, 4, 7) 0.125 0.125 0.125 0.125 0.125 0.125 0.125 0.125;
   (2, 4, 7) 0.125 0.125 0.125 0.125 0.125 0.125 0.125 0.125;
}

probability (lo_7 | temp_6, km_6, lo_6) {
   (0, 0, 0) 1 0 0 0 0 0 0 0;
   (1, 0, 0) 1 0 0 0 0 0 0 0;
   (2, 0, 0) 1 0 0 0 0 0 0 0;
   (0, 1, 0) 1 0 0 0 0 0 0 0;
   (1, 1, 0) 1 0 0 0 0 0 0 0;
   (2, 1, 0) 1 0 0 0 0 0 0 0;
   (0, 2, 0) 1 0 0 0 0 0 0 0;
   (1, 2, 0) 1 0 0 0 0 0 0 0;
   (2, 2, 0) 1 0 0 0 0 0 0 0;
   (0, 3, 0) 1 0 0 0 0 0 0 0;
   (1, 3, 0) 1 0 0 0 0 0 0 0;
   (2, 3, 0) 1 0 0 0 0 0 0 0;
   (0, 4, 0) 1 0 0 0 0 0 0 0;
   (1, 4, 0) 1 0 0 0 0 0 0 0;
   (2, 4, 0) 1 0 0 0 0 0 0 0;
   (0, 0, 1) 0 1 0 0 0 0 0 0;
   (1, 0, 1) 0.0277778 0.972222 0 0 0 0 0 0;
   (2, 0, 1) 0 1 0 0 0 0 0 0;
   (0, 1, 1) 0.0347826 0.965217 0 0 0 0 0 0;
   (1, 1, 1) 0.0400552 0.959945 0 0 0 0 0 0;
   (2, 1, 1) 0.0433526 0.956647 0 0 0 0 0 0;
   (0, 2, 1) 0.0820896 0.91791 0 0 0 0 0 0;
   (1, 2, 1) 0.111426 0.888574 0 0 0 0 0 0;
   (2, 2, 1) 0.153005 0.846995 0 0 0 0 0 0;
   (0, 3, 1) 0.347222 0.652778 0 0 0 0 0 0;
   (1, 3, 1) 0.370986 0.629014 0 0 0 0 0 0;
   (2, 3, 1) 0.524416 0.475584 0 0 0 0 0 0;
   (0, 4, 1) 0.774038 0.225962 0 0 0 0 0 0;
   (1, 4, 1) 0.86215 0.13785 0 0 0 0 0 0;
   (2, 4, 1) 0.928934 0.071066 0 0 0 0 0 0;
   (0, 0, 2) 0 0.0697674 0.930233 0 0 0 0 0;
   (1, 0, 2) 0 0.0882353 0.911765 0 0 0 0 0;
   (2, 0, 2) 0 0.0666667 0.933333 0 0 0 0 0;
   (0, 1, 2) 0 0.0580645 0.941935 0 0 0 0 0;
   (1, 1, 2) 0 0.0921409 0.907859 0 0 0 0 0;
   (2, 1, 2) 0 0.141361 0.858639 0 0 0 0 0;
   (0, 2, 2) 0 0.236287 0.763713 0 0 0 0 0;
   (1, 2, 2) 0 0.301762 0.698238 0 0 0 0 0;
   (2, 2, 2) 0 0.310757 0.689243 0 0 0 0 0;
   (0, 3, 2) 0 0.733333 0.266667 0 0 0 0 0;
   (1, 3, 2) 0 0.752535 0.247465 0 0 0 0 0;
   (2, 3, 2) 0.0136364 0.863636 0.122727 0 0 0 0 0;
   (0, 4, 2) 0.0581395 0.930233 0.0116279 0 0 0 0 0;
   (1, 4, 2) 0.0519481 0.941558 0.00649351 0 0 0 0 0;
   (2, 4, 2) 0.270588 0.729412 0 0 0 0 0 0;
   (0, 0, 3) 0 0 0 1 0 0 0 0;
   (1, 0, 3) 0 0 0.0909091 0.909091 0 0 0 0;
   (2, 0, 3) 0 0 0.0714286 0.928571 0 0 0 0;
   (0, 1, 3) 0 0 0.126214 0.873786 0 0 0 0;
   (1, 1, 3) 0 0 0.110169 0.889831 0 0 0 0;
   (2, 1, 3) 0 0 0.175824 0.824176 0 0 0 0;
   (0, 2, 3) 0 0 0.411765 0.588235 0 0 0 0;
   (1, 2, 3) 0 0 0.447853 0.552147 0 0 0 0;
   (2, 2, 3) 0 0 0.541935 0.458065 0 0 0 0;
   (0, 3, 3) 0 0.0994152 0.777778 0.122807 0 0 0 0;
   (1, 3, 3) 0 0.115607 0.815029 0.0693642 0 0 0 0;
   (2, 3, 3) 0 0.288732 0.683099 0.028169 0 0 0 0;
   (0, 4, 3) 0 0.571429 0.428571 0 0 0 0 0;
   (1, 4, 3) 0 0.8 0.2 0 0 0 0 0;
   (2, 4, 3) 0 1 0 0 0 0 0 0;
   (0, 0, 4) 0 0 0 0.0952381 0.904762 0 0 0;
   (1, 0, 4) 0 0 0 0.0243902 0.97561 0 0 0;
   (2, 0, 4) 0 0 0 0.0434783 0.956522 0 0 0;
   (0, 1, 4) 0 0 0 0.107143 0.892857 0 0 0;
   (1, 1, 4) 0 0 0 0.190476 0.809524 0 0 0;
   (2, 1, 4) 0 0 0 0.243243 0.756757 0 0 0;
   (0, 2, 4) 0 0 0 0.510949 0.489051 0 0 0;
   (1, 2, 4) 0 0 0 0.515901 0.484099 0 0 0;
   (2, 2, 4) 0 0 0.0128205 0.698718 0.288462 0 0 0;
   (0, 3, 4) 0 0 0.333333 0.638889 0.0277778 0 0 0;
   (1, 3, 4) 0 0 0.446903 0.544248 0.00884956 0 0 0;
   (2, 3, 4) 0 0.0873016 0.626984 0.285714 0 0 0 0;
   (0, 4, 4) 0.2 0.2 0.2 0.2 0.2 0 0 0;
   (1, 4, 4) 0 0.25 0.75 0 0 0 0 0;
   (2, 4, 4) 0 0 1 0 0 0 0 0;
   (0, 0, 5) 0 0 0 0 0.0833333 0.916667 0 0;
   (1, 0, 5) 0 0 0 0 0.137931 0.862069 0 0;
   (2, 0, 5) 0 0 0 0 0.230769 0.769231 0 0;
   (0, 1, 5) 0 0 0 0 0.246575 0.753425 0 0;
   (1, 1, 5) 0 0 0 0 0.227027 0.772973 0 0;
   (2, 1, 5) 0 0 0 0 0.371429 0.628571 0 0;
   (0, 2, 5) 0 0 0 0.0183486 0.587156 0.394495 0 0;
   (1, 2, 5) 0 0 0 0.0130435 0.673913 0.313043 0 0;
   (2, 2, 5) 0 0 0 0.0515464 0.742268 0.206186 0 0;
   (0, 3, 5) 0 0 0.0384615 0.346154 0.615385 0 0 0;
   (1, 3, 5) 0 0 0.025 0.45 0.516667 0.00833333 0 0;
   (2, 3, 5) 0 0.015873 0.142857 0.634921 0.206349 0 0 0;
   (0, 4, 5) 0.166667 0.166667 0.166667 0.166667 0.166667 0.166667 0 0;
   (1, 4, 5) 0.166667 0.166667 0.166667 0.166667 0.166667 0.166667 0 0;
   (2, 4, 5) 0.166667 0.166667 0.166667 0.166667 0.166667 0.166667 0 0;
   (0, 0, 6) 0 0 0 0 0 0 1 0;
   (1, 0, 6) 0 0 0 0 0 0.108696 0.891304 0;
   (2, 0, 6) 0 0 0 0 0 0.1 0.9 0;
   (0, 1, 6) 0 0 0 0 0 0.2 0.8 0;
   (1, 1, 6) 0 0 0 0 0 0.251497 0.748503 0;
   (2, 1, 6) 0 0 0 0 0 0.403509 0.596491 0;
   (0, 2, 6) 0 0 0 0 0.0120482 0.674699 0.313253 0;
   (1, 2, 6) 0 0 0 0 0.0913706 0.680203 0.228426 0;
   (2, 2, 6) 0 0 0 0 0.270833 0.604167 0.125 0;
   (0, 3, 6) 0 0 0 0 0.769231 0.230769 0 0;
   (1, 3, 6) 0 0 0 0.0588235 0.764706 0.176471 0 0;
   (2, 3, 6) 0 0 0 0.307692 0.692308 0 0 0;
   (0, 4, 6) 0.142857 0.142857 0.142857 0.142857 0.142857 0.142857 0.142857 0;
