
network aGrUM_BN {
   property version 1.0;
   property author aGrUM;
}

variable temp_0 {
   type discrete[3] {0, 1, 2};
}

variable temp_1 {
   type discrete[3] {0, 1, 2};
}


variable temp_2 {
   type discrete[3] {0, 1, 2};
}


probability (temp_0) {
   default 0.33333333333 0.33333333334 0.33333333333;
}
probability (temp_1 | temp_0) {
   (0) 0.33333333333 0.33333333334 0.33333333333;
   (1) 0.33333333333 0.33333333334 0.33333333333;
   (2) 0.33333333333 0.33333333334 0.33333333333;
}
probability (temp_2 | temp_1) {
   (0) 0.33333333333 0.33333333334 0.33333333333;
   (1) 0.33333333333 0.33333333334 0.33333333333;
   (2) 0.33333333333 0.33333333334 0.33333333333;
}

