
network aGrUM_BN {
   property version 1.0;
   property author aGrUM;
}

variable temp_0 {
   type discrete[3] {0, 1, 2};
}

variable temp_1 {
   type discrete[3] {0, 1, 2};
}

variable temp_2 {
   type discrete[3] {0, 1, 2};
}

variable temp_3 {
   type discrete[3] {0, 1, 2};
}

variable temp_4 {
   type discrete[3] {0, 1, 2};
}

variable temp_5 {
   type discrete[3] {0, 1, 2};
}

variable temp_6 {
   type discrete[3] {0, 1, 2};
}

variable temp_7 {
   type discrete[3] {0, 1, 2};
}

variable temp_8 {
   type discrete[3] {0, 1, 2};
}

variable temp_9 {
   type discrete[3] {0, 1, 2};
}

variable temp_10 {
   type discrete[3] {0, 1, 2};
}

variable temp_11 {
   type discrete[3] {0, 1, 2};
}

variable temp_12 {
   type discrete[3] {0, 1, 2};
}

variable km_0 {
   type discrete[5] {0, 1, 2, 3, 4};
}

variable lo_0 {
   type discrete[8] {0, 1, 2, 3, 4, 5, 6, 7};
}

variable km_1 {
   type discrete[5] {0, 1, 2, 3, 4};
}

variable km_2 {
   type discrete[5] {0, 1, 2, 3, 4};
}

variable km_3 {
   type discrete[5] {0, 1, 2, 3, 4};
}

variable km_4 {
   type discrete[5] {0, 1, 2, 3, 4};
}

variable km_5 {
   type discrete[5] {0, 1, 2, 3, 4};
}

variable km_6 {
   type discrete[5] {0, 1, 2, 3, 4};
}

variable km_7 {
   type discrete[5] {0, 1, 2, 3, 4};
}

variable km_8 {
   type discrete[5] {0, 1, 2, 3, 4};
}

variable km_9 {
   type discrete[5] {0, 1, 2, 3, 4};
}

variable km_10 {
   type discrete[5] {0, 1, 2, 3, 4};
}

variable km_11 {
   type discrete[5] {0, 1, 2, 3, 4};
}

variable km_12 {
   type discrete[5] {0, 1, 2, 3, 4};
}

variable km_13 {
   type discrete[5] {0, 1, 2, 3, 4};
}

variable lo_1 {
   type discrete[8] {0, 1, 2, 3, 4, 5, 6, 7};
}

variable lo_2 {
   type discrete[8] {0, 1, 2, 3, 4, 5, 6, 7};
}

variable lo_3 {
   type discrete[8] {0, 1, 2, 3, 4, 5, 6, 7};
}

variable lo_4 {
   type discrete[8] {0, 1, 2, 3, 4, 5, 6, 7};
}

variable lo_5 {
   type discrete[8] {0, 1, 2, 3, 4, 5, 6, 7};
}

variable lo_6 {
   type discrete[8] {0, 1, 2, 3, 4, 5, 6, 7};
}

variable lo_7 {
   type discrete[8] {0, 1, 2, 3, 4, 5, 6, 7};
}

variable lo_8 {
   type discrete[8] {0, 1, 2, 3, 4, 5, 6, 7};
}

variable lo_9 {
   type discrete[8] {0, 1, 2, 3, 4, 5, 6, 7};
}

variable lo_10 {
   type discrete[8] {0, 1, 2, 3, 4, 5, 6, 7};
}

variable lo_11 {
   type discrete[8] {0, 1, 2, 3, 4, 5, 6, 7};
}

variable lo_12 {
   type discrete[8] {0, 1, 2, 3, 4, 5, 6, 7};
}

variable lo_13 {
   type discrete[8] {0, 1, 2, 3, 4, 5, 6, 7};
}

probability (temp_0) {
   default 0.727543 0.727543 0.727543;
}
probability (temp_1) {
   default 0.727543 0.727543 0.727543;
}
probability (temp_2) {
   default 0.727543 0.727543 0.727543;
}
probability (temp_3) {
   default 0.727543 0.727543 0.727543;
}
probability (temp_4) {
   default 0.727543 0.727543 0.727543;
}
probability (temp_5) {
   default 0.727543 0.727543 0.727543;
}
probability (temp_6) {
   default 0.727543 0.727543 0.727543;
}
probability (temp_7) {
   default 0.727543 0.727543 0.727543;
}
probability (temp_8) {
   default 0.727543 0.727543 0.727543;
}
probability (temp_9) {
   default 0.727543 0.727543 0.727543;
}
probability (temp_10) {
   default 0.727543 0.727543 0.727543;
}
probability (temp_11) {
   default 0.727543 0.727543 0.727543;
}
probability (temp_12) {
   default 0.727543 0.727543 0.727543;
}
probability (km_0) {
   default 0.673051 0.673051 0.673051 0.673051 0.673051;
}
probability (lo_0) {
   default 0.6424 0.6424 0.6424 0.6424 0.6424 0.6424 0.6424 0.6424;
}
probability (km_1 | km_0, lo_0, temp_0) {
   (0, 0, 0) 0.991496 0.757634 0 0 0;
   (1, 0, 0) 0 0.996551 0.798255 0 0;
   (2, 0, 0) 0 0 0.996313 0.779505 0;
   (3, 0, 0) 0 0 0 0.998482 0.728265;
   (4, 0, 0) 0 0 0 0 1;
   (0, 1, 0) 0.905411 0.826587 0 0 0;
   (1, 1, 0) 0 0.967963 0.806469 0 0;
   (2, 1, 0) 0 0 0.975768 0.77917 0;
   (3, 1, 0) 0 0 0 0.975659 0.763321;
   (4, 1, 0) 0 0 0 0 1;
   (0, 2, 0) 0.851232 0.892887 0 0 0;
   (1, 2, 0) 0 0.928352 0.845007 0 0;
   (2, 2, 0) 0 0 0.948912 0.822639 0;
   (3, 2, 0) 0 0 0 0.958665 0.793328;
   (4, 2, 0) 0 0 0 0 1;
   (0, 3, 0) 0.855177 0.909486 0 0 0;
   (1, 3, 0) 0 0.900341 0.881258 0 0;
   (2, 3, 0) 0 0 0.934671 0.838163 0;
   (3, 3, 0) 0 0 0 0.918958 0.842108;
   (4, 3, 0) 0 0 0 0 1;
   (0, 4, 0) 0.791378 0.989569 0 0 0;
   (1, 4, 0) 0 0.893555 0.897291 0 0;
   (2, 4, 0) 0 0 0.900011 0.879046 0;
   (3, 4, 0) 0 0 0 0.928002 0.843299;
   (4, 4, 0) 0 0 0 0 1;
   (0, 5, 0) 0 1 0 0 0;
   (1, 5, 0) 0 0.85447 0.937222 0 0;
   (2, 5, 0) 0 0 0.878044 0.900403 0;
   (3, 5, 0) 0 0 0 0.966873 0.817803;
   (4, 5, 0) 0 0 0 0 1;
   (0, 6, 0) 0 1 0 0 0;
   (1, 6, 0) 0 0.829878 0.960552 0 0;
   (2, 6, 0) 0 0 0.886623 0.899506 0;
   (3, 6, 0) 0 0 0 1 0;
   (4, 6, 0) 0 0 0 0 1;
   (0, 7, 0) 0 1 0 0 0;
   (1, 7, 0) 0 0.860025 0.94078 0 0;
   (2, 7, 0) 0 0 0.964955 0.842298 0;
   (3, 7, 0) 0 0 0 0.946708 0.946708;
   (4, 7, 0) 0 0 0 0 1;
   (0, 0, 1) 0.994746 0.756219 0 0 0;
   (1, 0, 1) 0 0.996953 0.793893 0 0;
   (2, 0, 1) 0 0 0.995959 0.767263 0;
   (3, 0, 1) 0 0 0 0.998929 0.715727;
   (4, 0, 1) 0 0 0 0 1;
   (0, 1, 1) 0.894263 0.833842 0 0 0;
   (1, 1, 1) 0 0.958586 0.803445 0 0;
   (2, 1, 1) 0 0 0.976179 0.781262 0;
   (3, 1, 1) 0 0 0 0.97849 0.762525;
   (4, 1, 1) 0 0 0 0 1;
   (0, 2, 1) 0.833072 0.908948 0 0 0;
   (1, 2, 1) 0 0.920763 0.847186 0 0;
   (2, 2, 1) 0 0 0.934689 0.826188 0;
   (3, 2, 1) 0 0 0 0.943042 0.818989;
   (4, 2, 1) 0 0 0 0 1;
   (0, 3, 1) 0.813647 0.947995 0 0 0;
   (1, 3, 1) 0 0.887822 0.898678 0 0;
   (2, 3, 1) 0 0 0.914933 0.863212 0;
   (3, 3, 1) 0 0 0 0.935083 0.83572;
   (4, 3, 1) 0 0 0 0 1;
   (0, 4, 1) 0.771476 0.988281 0 0 0;
   (1, 4, 1) 0 0.8689 0.921118 0 0;
   (2, 4, 1) 0 0 0.898732 0.887396 0;
   (3, 4, 1) 0 0 0 0.902306 0.872399;
   (4, 4, 1) 0 0 0 0 1;
   (0, 5, 1) 0 1 0 0 0;
   (1, 5, 1) 0 0.850552 0.941569 0 0;
   (2, 5, 1) 0 0 0.869558 0.913039 0;
   (3, 5, 1) 0 0 0 0.942299 0.841324;
   (4, 5, 1) 0 0 0 0 1;
   (0, 6, 1) 0 1 0 0 0;
   (1, 6, 1) 0 0.835013 0.956253 0 0;
   (2, 6, 1) 0 0 0.859856 0.93099 0;
   (3, 6, 1) 0 0 0 0.976565 0.82424;
   (4, 6, 1) 0 0 0 0 1;
   (0, 7, 1) 0 1 0 0 0;
   (1, 7, 1) 0 0.828717 0.959698 0 0;
   (2, 7, 1) 0 0 0.92561 0.860519 0;
   (3, 7, 1) 0 0 0 0.905637 0.905637;
   (4, 7, 1) 0 0 0 0 1;
   (0, 0, 2) 0.993306 0.767382 0 0 0;
   (1, 0, 2) 0 0.998858 0.775574 0 0;
   (2, 0, 2) 0 0 0.99771 0.752681 0;
   (3, 0, 2) 0 0 0 0.999727 0.671909;
   (4, 0, 2) 0 0 0 0 1;
   (0, 1, 2) 0.896494 0.848722 0 0 0;
   (1, 1, 2) 0 0.965532 0.809448 0 0;
   (2, 1, 2) 0 0 0.981276 0.785103 0;
   (3, 1, 2) 0 0 0 0.980424 0.763456;
   (4, 1, 2) 0 0 0 0 1;
   (0, 2, 2) 0.833846 0.949432 0 0 0;
   (1, 2, 2) 0 0.915809 0.872606 0 0;
   (2, 2, 2) 0 0 0.922324 0.856123 0;
   (3, 2, 2) 0 0 0 0.956292 0.814759;
   (4, 2, 2) 0 0 0 0 1;
   (0, 3, 2) 0.803528 0.984887 0 0 0;
   (1, 3, 2) 0 0.882232 0.929753 0 0;
   (2, 3, 2) 0 0 0.918876 0.871554 0;
   (3, 3, 2) 0 0 0 0.928216 0.859422;
   (4, 3, 2) 0 0 0 0 1;
   (0, 4, 2) 0 1 0 0 0;
   (1, 4, 2) 0 0.859975 0.954992 0 0;
   (2, 4, 2) 0 0 0.863915 0.929975 0;
   (3, 4, 2) 0 0 0 0.896234 0.905667;
   (4, 4, 2) 0 0 0 0 1;
   (0, 5, 2) 0 1 0 0 0;
   (1, 5, 2) 0 0.860495 0.955253 0 0;
   (2, 5, 2) 0 0 0.873534 0.93774 0;
   (3, 5, 2) 0 0 0 0.934855 0.878593;
   (4, 5, 2) 0 0 0 0 1;
   (0, 6, 2) 0 0.991328 0.835233 0 0;
   (1, 6, 2) 0 0.849768 0.976434 0.837985 0;
   (2, 6, 2) 0 0 0.853673 0.966232 0;
   (3, 6, 2) 0 0 0 0.963057 0.876855;
   (4, 6, 2) 0 0 0 0 1;
   (0, 7, 2) 0 0.98325 0.832499 0 0;
   (1, 7, 2) 0 0.847358 0.977104 0.839726 0;
   (2, 7, 2) 0 0 0.860402 0.976734 0;
   (3, 7, 2) 0 0 0 0.965681 0.965681;
   (4, 7, 2) 0 0 0 0 1;
}
probability (km_2 | km_1, lo_1, temp_1) {
   (0, 0, 0) 0.991496 0.757634 0 0 0;
   (1, 0, 0) 0 0.996551 0.798255 0 0;
   (2, 0, 0) 0 0 0.996313 0.779505 0;
   (3, 0, 0) 0 0 0 0.998482 0.728265;
   (4, 0, 0) 0 0 0 0 1;
   (0, 1, 0) 0.905411 0.826587 0 0 0;
   (1, 1, 0) 0 0.967963 0.806469 0 0;
   (2, 1, 0) 0 0 0.975768 0.77917 0;
   (3, 1, 0) 0 0 0 0.975659 0.763321;
   (4, 1, 0) 0 0 0 0 1;
   (0, 2, 0) 0.851232 0.892887 0 0 0;
   (1, 2, 0) 0 0.928352 0.845007 0 0;
   (2, 2, 0) 0 0 0.948912 0.822639 0;
   (3, 2, 0) 0 0 0 0.958665 0.793328;
   (4, 2, 0) 0 0 0 0 1;
   (0, 3, 0) 0.855177 0.909486 0 0 0;
   (1, 3, 0) 0 0.900341 0.881258 0 0;
   (2, 3, 0) 0 0 0.934671 0.838163 0;
   (3, 3, 0) 0 0 0 0.918958 0.842108;
   (4, 3, 0) 0 0 0 0 1;
   (0, 4, 0) 0.791378 0.989569 0 0 0;
   (1, 4, 0) 0 0.893555 0.897291 0 0;
   (2, 4, 0) 0 0 0.900011 0.879046 0;
   (3, 4, 0) 0 0 0 0.928002 0.843299;
   (4, 4, 0) 0 0 0 0 1;
   (0, 5, 0) 0 1 0 0 0;
   (1, 5, 0) 0 0.85447 0.937222 0 0;
   (2, 5, 0) 0 0 0.878044 0.900403 0;
   (3, 5, 0) 0 0 0 0.966873 0.817803;
   (4, 5, 0) 0 0 0 0 1;
   (0, 6, 0) 0 1 0 0 0;
   (1, 6, 0) 0 0.829878 0.960552 0 0;
   (2, 6, 0) 0 0 0.886623 0.899506 0;
   (3, 6, 0) 0 0 0 1 0;
   (4, 6, 0) 0 0 0 0 1;
   (0, 7, 0) 0 1 0 0 0;
   (1, 7, 0) 0 0.860025 0.94078 0 0;
   (2, 7, 0) 0 0 0.964955 0.842298 0;
   (3, 7, 0) 0 0 0 0.946708 0.946708;
   (4, 7, 0) 0 0 0 0 1;
   (0, 0, 1) 0.994746 0.756219 0 0 0;
   (1, 0, 1) 0 0.996953 0.793893 0 0;
   (2, 0, 1) 0 0 0.995959 0.767263 0;
   (3, 0, 1) 0 0 0 0.998929 0.715727;
   (4, 0, 1) 0 0 0 0 1;
   (0, 1, 1) 0.894263 0.833842 0 0 0;
   (1, 1, 1) 0 0.958586 0.803445 0 0;
   (2, 1, 1) 0 0 0.976179 0.781262 0;
   (3, 1, 1) 0 0 0 0.97849 0.762525;
   (4, 1, 1) 0 0 0 0 1;
   (0, 2, 1) 0.833072 0.908948 0 0 0;
   (1, 2, 1) 0 0.920763 0.847186 0 0;
   (2, 2, 1) 0 0 0.934689 0.826188 0;
   (3, 2, 1) 0 0 0 0.943042 0.818989;
   (4, 2, 1) 0 0 0 0 1;
   (0, 3, 1) 0.813647 0.947995 0 0 0;
   (1, 3, 1) 0 0.887822 0.898678 0 0;
   (2, 3, 1) 0 0 0.914933 0.863212 0;
   (3, 3, 1) 0 0 0 0.935083 0.83572;
   (4, 3, 1) 0 0 0 0 1;
   (0, 4, 1) 0.771476 0.988281 0 0 0;
   (1, 4, 1) 0 0.8689 0.921118 0 0;
   (2, 4, 1) 0 0 0.898732 0.887396 0;
   (3, 4, 1) 0 0 0 0.902306 0.872399;
   (4, 4, 1) 0 0 0 0 1;
   (0, 5, 1) 0 1 0 0 0;
   (1, 5, 1) 0 0.850552 0.941569 0 0;
   (2, 5, 1) 0 0 0.869558 0.913039 0;
   (3, 5, 1) 0 0 0 0.942299 0.841324;
   (4, 5, 1) 0 0 0 0 1;
   (0, 6, 1) 0 1 0 0 0;
   (1, 6, 1) 0 0.835013 0.956253 0 0;
   (2, 6, 1) 0 0 0.859856 0.93099 0;
   (3, 6, 1) 0 0 0 0.976565 0.82424;
   (4, 6, 1) 0 0 0 0 1;
   (0, 7, 1) 0 1 0 0 0;
   (1, 7, 1) 0 0.828717 0.959698 0 0;
   (2, 7, 1) 0 0 0.92561 0.860519 0;
   (3, 7, 1) 0 0 0 0.905637 0.905637;
   (4, 7, 1) 0 0 0 0 1;
   (0, 0, 2) 0.993306 0.767382 0 0 0;
   (1, 0, 2) 0 0.998858 0.775574 0 0;
   (2, 0, 2) 0 0 0.99771 0.752681 0;
   (3, 0, 2) 0 0 0 0.999727 0.671909;
   (4, 0, 2) 0 0 0 0 1;
   (0, 1, 2) 0.896494 0.848722 0 0 0;
   (1, 1, 2) 0 0.965532 0.809448 0 0;
   (2, 1, 2) 0 0 0.981276 0.785103 0;
   (3, 1, 2) 0 0 0 0.980424 0.763456;
   (4, 1, 2) 0 0 0 0 1;
   (0, 2, 2) 0.833846 0.949432 0 0 0;
   (1, 2, 2) 0 0.915809 0.872606 0 0;
   (2, 2, 2) 0 0 0.922324 0.856123 0;
   (3, 2, 2) 0 0 0 0.956292 0.814759;
   (4, 2, 2) 0 0 0 0 1;
   (0, 3, 2) 0.803528 0.984887 0 0 0;
   (1, 3, 2) 0 0.882232 0.929753 0 0;
   (2, 3, 2) 0 0 0.918876 0.871554 0;
   (3, 3, 2) 0 0 0 0.928216 0.859422;
   (4, 3, 2) 0 0 0 0 1;
   (0, 4, 2) 0 1 0 0 0;
   (1, 4, 2) 0 0.859975 0.954992 0 0;
   (2, 4, 2) 0 0 0.863915 0.929975 0;
   (3, 4, 2) 0 0 0 0.896234 0.905667;
   (4, 4, 2) 0 0 0 0 1;
   (0, 5, 2) 0 1 0 0 0;
   (1, 5, 2) 0 0.860495 0.955253 0 0;
   (2, 5, 2) 0 0 0.873534 0.93774 0;
   (3, 5, 2) 0 0 0 0.934855 0.878593;
   (4, 5, 2) 0 0 0 0 1;
   (0, 6, 2) 0 0.991328 0.835233 0 0;
   (1, 6, 2) 0 0.849768 0.976434 0.837985 0;
   (2, 6, 2) 0 0 0.853673 0.966232 0;
   (3, 6, 2) 0 0 0 0.963057 0.876855;
   (4, 6, 2) 0 0 0 0 1;
   (0, 7, 2) 0 0.98325 0.832499 0 0;
   (1, 7, 2) 0 0.847358 0.977104 0.839726 0;
   (2, 7, 2) 0 0 0.860402 0.976734 0;
   (3, 7, 2) 0 0 0 0.965681 0.965681;
   (4, 7, 2) 0 0 0 0 1;
}
probability (km_3 | km_2, lo_2, temp_2) {
   (0, 0, 0) 0.991496 0.757634 0 0 0;
   (1, 0, 0) 0 0.996551 0.798255 0 0;
   (2, 0, 0) 0 0 0.996313 0.779505 0;
   (3, 0, 0) 0 0 0 0.998482 0.728265;
   (4, 0, 0) 0 0 0 0 1;
   (0, 1, 0) 0.905411 0.826587 0 0 0;
   (1, 1, 0) 0 0.967963 0.806469 0 0;
   (2, 1, 0) 0 0 0.975768 0.77917 0;
   (3, 1, 0) 0 0 0 0.975659 0.763321;
   (4, 1, 0) 0 0 0 0 1;
   (0, 2, 0) 0.851232 0.892887 0 0 0;
   (1, 2, 0) 0 0.928352 0.845007 0 0;
   (2, 2, 0) 0 0 0.948912 0.822639 0;
   (3, 2, 0) 0 0 0 0.958665 0.793328;
   (4, 2, 0) 0 0 0 0 1;
   (0, 3, 0) 0.855177 0.909486 0 0 0;
   (1, 3, 0) 0 0.900341 0.881258 0 0;
   (2, 3, 0) 0 0 0.934671 0.838163 0;
   (3, 3, 0) 0 0 0 0.918958 0.842108;
   (4, 3, 0) 0 0 0 0 1;
   (0, 4, 0) 0.791378 0.989569 0 0 0;
   (1, 4, 0) 0 0.893555 0.897291 0 0;
   (2, 4, 0) 0 0 0.900011 0.879046 0;
   (3, 4, 0) 0 0 0 0.928002 0.843299;
   (4, 4, 0) 0 0 0 0 1;
   (0, 5, 0) 0 1 0 0 0;
   (1, 5, 0) 0 0.85447 0.937222 0 0;
   (2, 5, 0) 0 0 0.878044 0.900403 0;
   (3, 5, 0) 0 0 0 0.966873 0.817803;
   (4, 5, 0) 0 0 0 0 1;
   (0, 6, 0) 0 1 0 0 0;
   (1, 6, 0) 0 0.829878 0.960552 0 0;
   (2, 6, 0) 0 0 0.886623 0.899506 0;
   (3, 6, 0) 0 0 0 1 0;
   (4, 6, 0) 0 0 0 0 1;
   (0, 7, 0) 0 1 0 0 0;
   (1, 7, 0) 0 0.860025 0.94078 0 0;
   (2, 7, 0) 0 0 0.964955 0.842298 0;
   (3, 7, 0) 0 0 0 0.946708 0.946708;
   (4, 7, 0) 0 0 0 0 1;
   (0, 0, 1) 0.994746 0.756219 0 0 0;
   (1, 0, 1) 0 0.996953 0.793893 0 0;
   (2, 0, 1) 0 0 0.995959 0.767263 0;
   (3, 0, 1) 0 0 0 0.998929 0.715727;
   (4, 0, 1) 0 0 0 0 1;
   (0, 1, 1) 0.894263 0.833842 0 0 0;
   (1, 1, 1) 0 0.958586 0.803445 0 0;
   (2, 1, 1) 0 0 0.976179 0.781262 0;
   (3, 1, 1) 0 0 0 0.97849 0.762525;
   (4, 1, 1) 0 0 0 0 1;
   (0, 2, 1) 0.833072 0.908948 0 0 0;
   (1, 2, 1) 0 0.920763 0.847186 0 0;
   (2, 2, 1) 0 0 0.934689 0.826188 0;
   (3, 2, 1) 0 0 0 0.943042 0.818989;
   (4, 2, 1) 0 0 0 0 1;
   (0, 3, 1) 0.813647 0.947995 0 0 0;
   (1, 3, 1) 0 0.887822 0.898678 0 0;
   (2, 3, 1) 0 0 0.914933 0.863212 0;
   (3, 3, 1) 0 0 0 0.935083 0.83572;
   (4, 3, 1) 0 0 0 0 1;
   (0, 4, 1) 0.771476 0.988281 0 0 0;
   (1, 4, 1) 0 0.8689 0.921118 0 0;
   (2, 4, 1) 0 0 0.898732 0.887396 0;
   (3, 4, 1) 0 0 0 0.902306 0.872399;
   (4, 4, 1) 0 0 0 0 1;
   (0, 5, 1) 0 1 0 0 0;
   (1, 5, 1) 0 0.850552 0.941569 0 0;
   (2, 5, 1) 0 0 0.869558 0.913039 0;
   (3, 5, 1) 0 0 0 0.942299 0.841324;
   (4, 5, 1) 0 0 0 0 1;
   (0, 6, 1) 0 1 0 0 0;
   (1, 6, 1) 0 0.835013 0.956253 0 0;
   (2, 6, 1) 0 0 0.859856 0.93099 0;
   (3, 6, 1) 0 0 0 0.976565 0.82424;
   (4, 6, 1) 0 0 0 0 1;
   (0, 7, 1) 0 1 0 0 0;
   (1, 7, 1) 0 0.828717 0.959698 0 0;
   (2, 7, 1) 0 0 0.92561 0.860519 0;
   (3, 7, 1) 0 0 0 0.905637 0.905637;
   (4, 7, 1) 0 0 0 0 1;
   (0, 0, 2) 0.993306 0.767382 0 0 0;
   (1, 0, 2) 0 0.998858 0.775574 0 0;
   (2, 0, 2) 0 0 0.99771 0.752681 0;
   (3, 0, 2) 0 0 0 0.999727 0.671909;
   (4, 0, 2) 0 0 0 0 1;
   (0, 1, 2) 0.896494 0.848722 0 0 0;
   (1, 1, 2) 0 0.965532 0.809448 0 0;
   (2, 1, 2) 0 0 0.981276 0.785103 0;
   (3, 1, 2) 0 0 0 0.980424 0.763456;
   (4, 1, 2) 0 0 0 0 1;
   (0, 2, 2) 0.833846 0.949432 0 0 0;
   (1, 2, 2) 0 0.915809 0.872606 0 0;
   (2, 2, 2) 0 0 0.922324 0.856123 0;
   (3, 2, 2) 0 0 0 0.956292 0.814759;
   (4, 2, 2) 0 0 0 0 1;
   (0, 3, 2) 0.803528 0.984887 0 0 0;
   (1, 3, 2) 0 0.882232 0.929753 0 0;
   (2, 3, 2) 0 0 0.918876 0.871554 0;
   (3, 3, 2) 0 0 0 0.928216 0.859422;
   (4, 3, 2) 0 0 0 0 1;
   (0, 4, 2) 0 1 0 0 0;
   (1, 4, 2) 0 0.859975 0.954992 0 0;
   (2, 4, 2) 0 0 0.863915 0.929975 0;
   (3, 4, 2) 0 0 0 0.896234 0.905667;
   (4, 4, 2) 0 0 0 0 1;
   (0, 5, 2) 0 1 0 0 0;
   (1, 5, 2) 0 0.860495 0.955253 0 0;
   (2, 5, 2) 0 0 0.873534 0.93774 0;
   (3, 5, 2) 0 0 0 0.934855 0.878593;
   (4, 5, 2) 0 0 0 0 1;
   (0, 6, 2) 0 0.991328 0.835233 0 0;
   (1, 6, 2) 0 0.849768 0.976434 0.837985 0;
   (2, 6, 2) 0 0 0.853673 0.966232 0;
   (3, 6, 2) 0 0 0 0.963057 0.876855;
   (4, 6, 2) 0 0 0 0 1;
   (0, 7, 2) 0 0.98325 0.832499 0 0;
   (1, 7, 2) 0 0.847358 0.977104 0.839726 0;
   (2, 7, 2) 0 0 0.860402 0.976734 0;
   (3, 7, 2) 0 0 0 0.965681 0.965681;
   (4, 7, 2) 0 0 0 0 1;
}
probability (km_4 | km_3, lo_3, temp_3) {
   (0, 0, 0) 0.991496 0.757634 0 0 0;
   (1, 0, 0) 0 0.996551 0.798255 0 0;
   (2, 0, 0) 0 0 0.996313 0.779505 0;
   (3, 0, 0) 0 0 0 0.998482 0.728265;
   (4, 0, 0) 0 0 0 0 1;
   (0, 1, 0) 0.905411 0.826587 0 0 0;
   (1, 1, 0) 0 0.967963 0.806469 0 0;
   (2, 1, 0) 0 0 0.975768 0.77917 0;
   (3, 1, 0) 0 0 0 0.975659 0.763321;
   (4, 1, 0) 0 0 0 0 1;
   (0, 2, 0) 0.851232 0.892887 0 0 0;
   (1, 2, 0) 0 0.928352 0.845007 0 0;
   (2, 2, 0) 0 0 0.948912 0.822639 0;
   (3, 2, 0) 0 0 0 0.958665 0.793328;
   (4, 2, 0) 0 0 0 0 1;
   (0, 3, 0) 0.855177 0.909486 0 0 0;
   (1, 3, 0) 0 0.900341 0.881258 0 0;
   (2, 3, 0) 0 0 0.934671 0.838163 0;
   (3, 3, 0) 0 0 0 0.918958 0.842108;
   (4, 3, 0) 0 0 0 0 1;
   (0, 4, 0) 0.791378 0.989569 0 0 0;
   (1, 4, 0) 0 0.893555 0.897291 0 0;
   (2, 4, 0) 0 0 0.900011 0.879046 0;
   (3, 4, 0) 0 0 0 0.928002 0.843299;
   (4, 4, 0) 0 0 0 0 1;
   (0, 5, 0) 0 1 0 0 0;
   (1, 5, 0) 0 0.85447 0.937222 0 0;
   (2, 5, 0) 0 0 0.878044 0.900403 0;
   (3, 5, 0) 0 0 0 0.966873 0.817803;
   (4, 5, 0) 0 0 0 0 1;
   (0, 6, 0) 0 1 0 0 0;
   (1, 6, 0) 0 0.829878 0.960552 0 0;
   (2, 6, 0) 0 0 0.886623 0.899506 0;
   (3, 6, 0) 0 0 0 1 0;
   (4, 6, 0) 0 0 0 0 1;
   (0, 7, 0) 0 1 0 0 0;
   (1, 7, 0) 0 0.860025 0.94078 0 0;
   (2, 7, 0) 0 0 0.964955 0.842298 0;
   (3, 7, 0) 0 0 0 0.946708 0.946708;
   (4, 7, 0) 0 0 0 0 1;
   (0, 0, 1) 0.994746 0.756219 0 0 0;
   (1, 0, 1) 0 0.996953 0.793893 0 0;
   (2, 0, 1) 0 0 0.995959 0.767263 0;
   (3, 0, 1) 0 0 0 0.998929 0.715727;
   (4, 0, 1) 0 0 0 0 1;
   (0, 1, 1) 0.894263 0.833842 0 0 0;
   (1, 1, 1) 0 0.958586 0.803445 0 0;
   (2, 1, 1) 0 0 0.976179 0.781262 0;
   (3, 1, 1) 0 0 0 0.97849 0.762525;
   (4, 1, 1) 0 0 0 0 1;
   (0, 2, 1) 0.833072 0.908948 0 0 0;
   (1, 2, 1) 0 0.920763 0.847186 0 0;
   (2, 2, 1) 0 0 0.934689 0.826188 0;
   (3, 2, 1) 0 0 0 0.943042 0.818989;
   (4, 2, 1) 0 0 0 0 1;
   (0, 3, 1) 0.813647 0.947995 0 0 0;
   (1, 3, 1) 0 0.887822 0.898678 0 0;
   (2, 3, 1) 0 0 0.914933 0.863212 0;
   (3, 3, 1) 0 0 0 0.935083 0.83572;
   (4, 3, 1) 0 0 0 0 1;
   (0, 4, 1) 0.771476 0.988281 0 0 0;
   (1, 4, 1) 0 0.8689 0.921118 0 0;
   (2, 4, 1) 0 0 0.898732 0.887396 0;
   (3, 4, 1) 0 0 0 0.902306 0.872399;
   (4, 4, 1) 0 0 0 0 1;
   (0, 5, 1) 0 1 0 0 0;
   (1, 5, 1) 0 0.850552 0.941569 0 0;
   (2, 5, 1) 0 0 0.869558 0.913039 0;
   (3, 5, 1) 0 0 0 0.942299 0.841324;
   (4, 5, 1) 0 0 0 0 1;
   (0, 6, 1) 0 1 0 0 0;
   (1, 6, 1) 0 0.835013 0.956253 0 0;
   (2, 6, 1) 0 0 0.859856 0.93099 0;
   (3, 6, 1) 0 0 0 0.976565 0.82424;
   (4, 6, 1) 0 0 0 0 1;
   (0, 7, 1) 0 1 0 0 0;
   (1, 7, 1) 0 0.828717 0.959698 0 0;
   (2, 7, 1) 0 0 0.92561 0.860519 0;
   (3, 7, 1) 0 0 0 0.905637 0.905637;
   (4, 7, 1) 0 0 0 0 1;
   (0, 0, 2) 0.993306 0.767382 0 0 0;
   (1, 0, 2) 0 0.998858 0.775574 0 0;
   (2, 0, 2) 0 0 0.99771 0.752681 0;
   (3, 0, 2) 0 0 0 0.999727 0.671909;
   (4, 0, 2) 0 0 0 0 1;
   (0, 1, 2) 0.896494 0.848722 0 0 0;
   (1, 1, 2) 0 0.965532 0.809448 0 0;
   (2, 1, 2) 0 0 0.981276 0.785103 0;
   (3, 1, 2) 0 0 0 0.980424 0.763456;
   (4, 1, 2) 0 0 0 0 1;
   (0, 2, 2) 0.833846 0.949432 0 0 0;
   (1, 2, 2) 0 0.915809 0.872606 0 0;
   (2, 2, 2) 0 0 0.922324 0.856123 0;
   (3, 2, 2) 0 0 0 0.956292 0.814759;
   (4, 2, 2) 0 0 0 0 1;
   (0, 3, 2) 0.803528 0.984887 0 0 0;
   (1, 3, 2) 0 0.882232 0.929753 0 0;
   (2, 3, 2) 0 0 0.918876 0.871554 0;
   (3, 3, 2) 0 0 0 0.928216 0.859422;
   (4, 3, 2) 0 0 0 0 1;
   (0, 4, 2) 0 1 0 0 0;
   (1, 4, 2) 0 0.859975 0.954992 0 0;
   (2, 4, 2) 0 0 0.863915 0.929975 0;
   (3, 4, 2) 0 0 0 0.896234 0.905667;
   (4, 4, 2) 0 0 0 0 1;
   (0, 5, 2) 0 1 0 0 0;
   (1, 5, 2) 0 0.860495 0.955253 0 0;
   (2, 5, 2) 0 0 0.873534 0.93774 0;
   (3, 5, 2) 0 0 0 0.934855 0.878593;
   (4, 5, 2) 0 0 0 0 1;
   (0, 6, 2) 0 0.991328 0.835233 0 0;
   (1, 6, 2) 0 0.849768 0.976434 0.837985 0;
   (2, 6, 2) 0 0 0.853673 0.966232 0;
   (3, 6, 2) 0 0 0 0.963057 0.876855;
   (4, 6, 2) 0 0 0 0 1;
   (0, 7, 2) 0 0.98325 0.832499 0 0;
   (1, 7, 2) 0 0.847358 0.977104 0.839726 0;
   (2, 7, 2) 0 0 0.860402 0.976734 0;
   (3, 7, 2) 0 0 0 0.965681 0.965681;
   (4, 7, 2) 0 0 0 0 1;
}
probability (km_5 | km_4, lo_4, temp_4) {
   (0, 0, 0) 0.991496 0.757634 0 0 0;
   (1, 0, 0) 0 0.996551 0.798255 0 0;
   (2, 0, 0) 0 0 0.996313 0.779505 0;
   (3, 0, 0) 0 0 0 0.998482 0.728265;
   (4, 0, 0) 0 0 0 0 1;
   (0, 1, 0) 0.905411 0.826587 0 0 0;
   (1, 1, 0) 0 0.967963 0.806469 0 0;
   (2, 1, 0) 0 0 0.975768 0.77917 0;
   (3, 1, 0) 0 0 0 0.975659 0.763321;
   (4, 1, 0) 0 0 0 0 1;
   (0, 2, 0) 0.851232 0.892887 0 0 0;
   (1, 2, 0) 0 0.928352 0.845007 0 0;
   (2, 2, 0) 0 0 0.948912 0.822639 0;
   (3, 2, 0) 0 0 0 0.958665 0.793328;
   (4, 2, 0) 0 0 0 0 1;
   (0, 3, 0) 0.855177 0.909486 0 0 0;
   (1, 3, 0) 0 0.900341 0.881258 0 0;
   (2, 3, 0) 0 0 0.934671 0.838163 0;
   (3, 3, 0) 0 0 0 0.918958 0.842108;
   (4, 3, 0) 0 0 0 0 1;
   (0, 4, 0) 0.791378 0.989569 0 0 0;
   (1, 4, 0) 0 0.893555 0.897291 0 0;
   (2, 4, 0) 0 0 0.900011 0.879046 0;
   (3, 4, 0) 0 0 0 0.928002 0.843299;
   (4, 4, 0) 0 0 0 0 1;
   (0, 5, 0) 0 1 0 0 0;
   (1, 5, 0) 0 0.85447 0.937222 0 0;
   (2, 5, 0) 0 0 0.878044 0.900403 0;
   (3, 5, 0) 0 0 0 0.966873 0.817803;
   (4, 5, 0) 0 0 0 0 1;
   (0, 6, 0) 0 1 0 0 0;
   (1, 6, 0) 0 0.829878 0.960552 0 0;
   (2, 6, 0) 0 0 0.886623 0.899506 0;
   (3, 6, 0) 0 0 0 1 0;
   (4, 6, 0) 0 0 0 0 1;
   (0, 7, 0) 0 1 0 0 0;
   (1, 7, 0) 0 0.860025 0.94078 0 0;
   (2, 7, 0) 0 0 0.964955 0.842298 0;
   (3, 7, 0) 0 0 0 0.946708 0.946708;
   (4, 7, 0) 0 0 0 0 1;
   (0, 0, 1) 0.994746 0.756219 0 0 0;
   (1, 0, 1) 0 0.996953 0.793893 0 0;
   (2, 0, 1) 0 0 0.995959 0.767263 0;
   (3, 0, 1) 0 0 0 0.998929 0.715727;
   (4, 0, 1) 0 0 0 0 1;
   (0, 1, 1) 0.894263 0.833842 0 0 0;
   (1, 1, 1) 0 0.958586 0.803445 0 0;
   (2, 1, 1) 0 0 0.976179 0.781262 0;
   (3, 1, 1) 0 0 0 0.97849 0.762525;
   (4, 1, 1) 0 0 0 0 1;
   (0, 2, 1) 0.833072 0.908948 0 0 0;
   (1, 2, 1) 0 0.920763 0.847186 0 0;
   (2, 2, 1) 0 0 0.934689 0.826188 0;
   (3, 2, 1) 0 0 0 0.943042 0.818989;
   (4, 2, 1) 0 0 0 0 1;
   (0, 3, 1) 0.813647 0.947995 0 0 0;
   (1, 3, 1) 0 0.887822 0.898678 0 0;
   (2, 3, 1) 0 0 0.914933 0.863212 0;
   (3, 3, 1) 0 0 0 0.935083 0.83572;
   (4, 3, 1) 0 0 0 0 1;
   (0, 4, 1) 0.771476 0.988281 0 0 0;
   (1, 4, 1) 0 0.8689 0.921118 0 0;
   (2, 4, 1) 0 0 0.898732 0.887396 0;
   (3, 4, 1) 0 0 0 0.902306 0.872399;
   (4, 4, 1) 0 0 0 0 1;
   (0, 5, 1) 0 1 0 0 0;
   (1, 5, 1) 0 0.850552 0.941569 0 0;
   (2, 5, 1) 0 0 0.869558 0.913039 0;
   (3, 5, 1) 0 0 0 0.942299 0.841324;
   (4, 5, 1) 0 0 0 0 1;
   (0, 6, 1) 0 1 0 0 0;
   (1, 6, 1) 0 0.835013 0.956253 0 0;
   (2, 6, 1) 0 0 0.859856 0.93099 0;
   (3, 6, 1) 0 0 0 0.976565 0.82424;
   (4, 6, 1) 0 0 0 0 1;
   (0, 7, 1) 0 1 0 0 0;
   (1, 7, 1) 0 0.828717 0.959698 0 0;
   (2, 7, 1) 0 0 0.92561 0.860519 0;
   (3, 7, 1) 0 0 0 0.905637 0.905637;
   (4, 7, 1) 0 0 0 0 1;
   (0, 0, 2) 0.993306 0.767382 0 0 0;
   (1, 0, 2) 0 0.998858 0.775574 0 0;
   (2, 0, 2) 0 0 0.99771 0.752681 0;
   (3, 0, 2) 0 0 0 0.999727 0.671909;
   (4, 0, 2) 0 0 0 0 1;
   (0, 1, 2) 0.896494 0.848722 0 0 0;
   (1, 1, 2) 0 0.965532 0.809448 0 0;
   (2, 1, 2) 0 0 0.981276 0.785103 0;
   (3, 1, 2) 0 0 0 0.980424 0.763456;
   (4, 1, 2) 0 0 0 0 1;
   (0, 2, 2) 0.833846 0.949432 0 0 0;
   (1, 2, 2) 0 0.915809 0.872606 0 0;
   (2, 2, 2) 0 0 0.922324 0.856123 0;
   (3, 2, 2) 0 0 0 0.956292 0.814759;
   (4, 2, 2) 0 0 0 0 1;
   (0, 3, 2) 0.803528 0.984887 0 0 0;
   (1, 3, 2) 0 0.882232 0.929753 0 0;
   (2, 3, 2) 0 0 0.918876 0.871554 0;
   (3, 3, 2) 0 0 0 0.928216 0.859422;
   (4, 3, 2) 0 0 0 0 1;
   (0, 4, 2) 0 1 0 0 0;
   (1, 4, 2) 0 0.859975 0.954992 0 0;
   (2, 4, 2) 0 0 0.863915 0.929975 0;
   (3, 4, 2) 0 0 0 0.896234 0.905667;
   (4, 4, 2) 0 0 0 0 1;
   (0, 5, 2) 0 1 0 0 0;
   (1, 5, 2) 0 0.860495 0.955253 0 0;
   (2, 5, 2) 0 0 0.873534 0.93774 0;
   (3, 5, 2) 0 0 0 0.934855 0.878593;
   (4, 5, 2) 0 0 0 0 1;
   (0, 6, 2) 0 0.991328 0.835233 0 0;
   (1, 6, 2) 0 0.849768 0.976434 0.837985 0;
   (2, 6, 2) 0 0 0.853673 0.966232 0;
   (3, 6, 2) 0 0 0 0.963057 0.876855;
   (4, 6, 2) 0 0 0 0 1;
   (0, 7, 2) 0 0.98325 0.832499 0 0;
   (1, 7, 2) 0 0.847358 0.977104 0.839726 0;
   (2, 7, 2) 0 0 0.860402 0.976734 0;
   (3, 7, 2) 0 0 0 0.965681 0.965681;
   (4, 7, 2) 0 0 0 0 1;
}
probability (km_6 | km_5, lo_5, temp_5) {
   (0, 0, 0) 0.991496 0.757634 0 0 0;
   (1, 0, 0) 0 0.996551 0.798255 0 0;
   (2, 0, 0) 0 0 0.996313 0.779505 0;
   (3, 0, 0) 0 0 0 0.998482 0.728265;
   (4, 0, 0) 0 0 0 0 1;
   (0, 1, 0) 0.905411 0.826587 0 0 0;
   (1, 1, 0) 0 0.967963 0.806469 0 0;
   (2, 1, 0) 0 0 0.975768 0.77917 0;
   (3, 1, 0) 0 0 0 0.975659 0.763321;
   (4, 1, 0) 0 0 0 0 1;
   (0, 2, 0) 0.851232 0.892887 0 0 0;
   (1, 2, 0) 0 0.928352 0.845007 0 0;
   (2, 2, 0) 0 0 0.948912 0.822639 0;
   (3, 2, 0) 0 0 0 0.958665 0.793328;
   (4, 2, 0) 0 0 0 0 1;
   (0, 3, 0) 0.855177 0.909486 0 0 0;
   (1, 3, 0) 0 0.900341 0.881258 0 0;
   (2, 3, 0) 0 0 0.934671 0.838163 0;
   (3, 3, 0) 0 0 0 0.918958 0.842108;
   (4, 3, 0) 0 0 0 0 1;
   (0, 4, 0) 0.791378 0.989569 0 0 0;
   (1, 4, 0) 0 0.893555 0.897291 0 0;
   (2, 4, 0) 0 0 0.900011 0.879046 0;
   (3, 4, 0) 0 0 0 0.928002 0.843299;
   (4, 4, 0) 0 0 0 0 1;
   (0, 5, 0) 0 1 0 0 0;
   (1, 5, 0) 0 0.85447 0.937222 0 0;
   (2, 5, 0) 0 0 0.878044 0.900403 0;
   (3, 5, 0) 0 0 0 0.966873 0.817803;
   (4, 5, 0) 0 0 0 0 1;
   (0, 6, 0) 0 1 0 0 0;
   (1, 6, 0) 0 0.829878 0.960552 0 0;
   (2, 6, 0) 0 0 0.886623 0.899506 0;
   (3, 6, 0) 0 0 0 1 0;
   (4, 6, 0) 0 0 0 0 1;
   (0, 7, 0) 0 1 0 0 0;
   (1, 7, 0) 0 0.860025 0.94078 0 0;
   (2, 7, 0) 0 0 0.964955 0.842298 0;
   (3, 7, 0) 0 0 0 0.946708 0.946708;
   (4, 7, 0) 0 0 0 0 1;
   (0, 0, 1) 0.994746 0.756219 0 0 0;
   (1, 0, 1) 0 0.996953 0.793893 0 0;
   (2, 0, 1) 0 0 0.995959 0.767263 0;
   (3, 0, 1) 0 0 0 0.998929 0.715727;
   (4, 0, 1) 0 0 0 0 1;
   (0, 1, 1) 0.894263 0.833842 0 0 0;
   (1, 1, 1) 0 0.958586 0.803445 0 0;
   (2, 1, 1) 0 0 0.976179 0.781262 0;
   (3, 1, 1) 0 0 0 0.97849 0.762525;
   (4, 1, 1) 0 0 0 0 1;
   (0, 2, 1) 0.833072 0.908948 0 0 0;
   (1, 2, 1) 0 0.920763 0.847186 0 0;
   (2, 2, 1) 0 0 0.934689 0.826188 0;
   (3, 2, 1) 0 0 0 0.943042 0.818989;
   (4, 2, 1) 0 0 0 0 1;
   (0, 3, 1) 0.813647 0.947995 0 0 0;
   (1, 3, 1) 0 0.887822 0.898678 0 0;
   (2, 3, 1) 0 0 0.914933 0.863212 0;
   (3, 3, 1) 0 0 0 0.935083 0.83572;
   (4, 3, 1) 0 0 0 0 1;
   (0, 4, 1) 0.771476 0.988281 0 0 0;
   (1, 4, 1) 0 0.8689 0.921118 0 0;
   (2, 4, 1) 0 0 0.898732 0.887396 0;
   (3, 4, 1) 0 0 0 0.902306 0.872399;
   (4, 4, 1) 0 0 0 0 1;
   (0, 5, 1) 0 1 0 0 0;
   (1, 5, 1) 0 0.850552 0.941569 0 0;
   (2, 5, 1) 0 0 0.869558 0.913039 0;
   (3, 5, 1) 0 0 0 0.942299 0.841324;
   (4, 5, 1) 0 0 0 0 1;
   (0, 6, 1) 0 1 0 0 0;
   (1, 6, 1) 0 0.835013 0.956253 0 0;
   (2, 6, 1) 0 0 0.859856 0.93099 0;
   (3, 6, 1) 0 0 0 0.976565 0.82424;
   (4, 6, 1) 0 0 0 0 1;
   (0, 7, 1) 0 1 0 0 0;
   (1, 7, 1) 0 0.828717 0.959698 0 0;
   (2, 7, 1) 0 0 0.92561 0.860519 0;
   (3, 7, 1) 0 0 0 0.905637 0.905637;
   (4, 7, 1) 0 0 0 0 1;
   (0, 0, 2) 0.993306 0.767382 0 0 0;
   (1, 0, 2) 0 0.998858 0.775574 0 0;
   (2, 0, 2) 0 0 0.99771 0.752681 0;
   (3, 0, 2) 0 0 0 0.999727 0.671909;
   (4, 0, 2) 0 0 0 0 1;
   (0, 1, 2) 0.896494 0.848722 0 0 0;
   (1, 1, 2) 0 0.965532 0.809448 0 0;
   (2, 1, 2) 0 0 0.981276 0.785103 0;
   (3, 1, 2) 0 0 0 0.980424 0.763456;
   (4, 1, 2) 0 0 0 0 1;
   (0, 2, 2) 0.833846 0.949432 0 0 0;
   (1, 2, 2) 0 0.915809 0.872606 0 0;
   (2, 2, 2) 0 0 0.922324 0.856123 0;
   (3, 2, 2) 0 0 0 0.956292 0.814759;
   (4, 2, 2) 0 0 0 0 1;
   (0, 3, 2) 0.803528 0.984887 0 0 0;
   (1, 3, 2) 0 0.882232 0.929753 0 0;
   (2, 3, 2) 0 0 0.918876 0.871554 0;
   (3, 3, 2) 0 0 0 0.928216 0.859422;
   (4, 3, 2) 0 0 0 0 1;
   (0, 4, 2) 0 1 0 0 0;
   (1, 4, 2) 0 0.859975 0.954992 0 0;
   (2, 4, 2) 0 0 0.863915 0.929975 0;
   (3, 4, 2) 0 0 0 0.896234 0.905667;
   (4, 4, 2) 0 0 0 0 1;
   (0, 5, 2) 0 1 0 0 0;
   (1, 5, 2) 0 0.860495 0.955253 0 0;
   (2, 5, 2) 0 0 0.873534 0.93774 0;
   (3, 5, 2) 0 0 0 0.934855 0.878593;
   (4, 5, 2) 0 0 0 0 1;
   (0, 6, 2) 0 0.991328 0.835233 0 0;
   (1, 6, 2) 0 0.849768 0.976434 0.837985 0;
   (2, 6, 2) 0 0 0.853673 0.966232 0;
   (3, 6, 2) 0 0 0 0.963057 0.876855;
   (4, 6, 2) 0 0 0 0 1;
   (0, 7, 2) 0 0.98325 0.832499 0 0;
   (1, 7, 2) 0 0.847358 0.977104 0.839726 0;
   (2, 7, 2) 0 0 0.860402 0.976734 0;
   (3, 7, 2) 0 0 0 0.965681 0.965681;
   (4, 7, 2) 0 0 0 0 1;
}
probability (km_7 | km_6, lo_6, temp_6) {
   (0, 0, 0) 0.991496 0.757634 0 0 0;
   (1, 0, 0) 0 0.996551 0.798255 0 0;
   (2, 0, 0) 0 0 0.996313 0.779505 0;
   (3, 0, 0) 0 0 0 0.998482 0.728265;
   (4, 0, 0) 0 0 0 0 1;
   (0, 1, 0) 0.905411 0.826587 0 0 0;
   (1, 1, 0) 0 0.967963 0.806469 0 0;
   (2, 1, 0) 0 0 0.975768 0.77917 0;
   (3, 1, 0) 0 0 0 0.975659 0.763321;
   (4, 1, 0) 0 0 0 0 1;
   (0, 2, 0) 0.851232 0.892887 0 0 0;
   (1, 2, 0) 0 0.928352 0.845007 0 0;
   (2, 2, 0) 0 0 0.948912 0.822639 0;
   (3, 2, 0) 0 0 0 0.958665 0.793328;
   (4, 2, 0) 0 0 0 0 1;
   (0, 3, 0) 0.855177 0.909486 0 0 0;
   (1, 3, 0) 0 0.900341 0.881258 0 0;
   (2, 3, 0) 0 0 0.934671 0.838163 0;
   (3, 3, 0) 0 0 0 0.918958 0.842108;
   (4, 3, 0) 0 0 0 0 1;
   (0, 4, 0) 0.791378 0.989569 0 0 0;
   (1, 4, 0) 0 0.893555 0.897291 0 0;
   (2, 4, 0) 0 0 0.900011 0.879046 0;
   (3, 4, 0) 0 0 0 0.928002 0.843299;
   (4, 4, 0) 0 0 0 0 1;
   (0, 5, 0) 0 1 0 0 0;
   (1, 5, 0) 0 0.85447 0.937222 0 0;
   (2, 5, 0) 0 0 0.878044 0.900403 0;
   (3, 5, 0) 0 0 0 0.966873 0.817803;
   (4, 5, 0) 0 0 0 0 1;
   (0, 6, 0) 0 1 0 0 0;
   (1, 6, 0) 0 0.829878 0.960552 0 0;
   (2, 6, 0) 0 0 0.886623 0.899506 0;
   (3, 6, 0) 0 0 0 1 0;
   (4, 6, 0) 0 0 0 0 1;
   (0, 7, 0) 0 1 0 0 0;
   (1, 7, 0) 0 0.860025 0.94078 0 0;
   (2, 7, 0) 0 0 0.964955 0.842298 0;
   (3, 7, 0) 0 0 0 0.946708 0.946708;
   (4, 7, 0) 0 0 0 0 1;
   (0, 0, 1) 0.994746 0.756219 0 0 0;
   (1, 0, 1) 0 0.996953 0.793893 0 0;
   (2, 0, 1) 0 0 0.995959 0.767263 0;
   (3, 0, 1) 0 0 0 0.998929 0.715727;
   (4, 0, 1) 0 0 0 0 1;
   (0, 1, 1) 0.894263 0.833842 0 0 0;
   (1, 1, 1) 0 0.958586 0.803445 0 0;
   (2, 1, 1) 0 0 0.976179 0.781262 0;
   (3, 1, 1) 0 0 0 0.97849 0.762525;
   (4, 1, 1) 0 0 0 0 1;
   (0, 2, 1) 0.833072 0.908948 0 0 0;
   (1, 2, 1) 0 0.920763 0.847186 0 0;
   (2, 2, 1) 0 0 0.934689 0.826188 0;
   (3, 2, 1) 0 0 0 0.943042 0.818989;
   (4, 2, 1) 0 0 0 0 1;
   (0, 3, 1) 0.813647 0.947995 0 0 0;
   (1, 3, 1) 0 0.887822 0.898678 0 0;
   (2, 3, 1) 0 0 0.914933 0.863212 0;
   (3, 3, 1) 0 0 0 0.935083 0.83572;
   (4, 3, 1) 0 0 0 0 1;
   (0, 4, 1) 0.771476 0.988281 0 0 0;
   (1, 4, 1) 0 0.8689 0.921118 0 0;
   (2, 4, 1) 0 0 0.898732 0.887396 0;
   (3, 4, 1) 0 0 0 0.902306 0.872399;
   (4, 4, 1) 0 0 0 0 1;
   (0, 5, 1) 0 1 0 0 0;
   (1, 5, 1) 0 0.850552 0.941569 0 0;
   (2, 5, 1) 0 0 0.869558 0.913039 0;
   (3, 5, 1) 0 0 0 0.942299 0.841324;
   (4, 5, 1) 0 0 0 0 1;
   (0, 6, 1) 0 1 0 0 0;
   (1, 6, 1) 0 0.835013 0.956253 0 0;
   (2, 6, 1) 0 0 0.859856 0.93099 0;
   (3, 6, 1) 0 0 0 0.976565 0.82424;
   (4, 6, 1) 0 0 0 0 1;
   (0, 7, 1) 0 1 0 0 0;
   (1, 7, 1) 0 0.828717 0.959698 0 0;
   (2, 7, 1) 0 0 0.92561 0.860519 0;
   (3, 7, 1) 0 0 0 0.905637 0.905637;
   (4, 7, 1) 0 0 0 0 1;
   (0, 0, 2) 0.993306 0.767382 0 0 0;
   (1, 0, 2) 0 0.998858 0.775574 0 0;
   (2, 0, 2) 0 0 0.99771 0.752681 0;
   (3, 0, 2) 0 0 0 0.999727 0.671909;
   (4, 0, 2) 0 0 0 0 1;
   (0, 1, 2) 0.896494 0.848722 0 0 0;
   (1, 1, 2) 0 0.965532 0.809448 0 0;
   (2, 1, 2) 0 0 0.981276 0.785103 0;
   (3, 1, 2) 0 0 0 0.980424 0.763456;
   (4, 1, 2) 0 0 0 0 1;
   (0, 2, 2) 0.833846 0.949432 0 0 0;
   (1, 2, 2) 0 0.915809 0.872606 0 0;
   (2, 2, 2) 0 0 0.922324 0.856123 0;
   (3, 2, 2) 0 0 0 0.956292 0.814759;
   (4, 2, 2) 0 0 0 0 1;
   (0, 3, 2) 0.803528 0.984887 0 0 0;
   (1, 3, 2) 0 0.882232 0.929753 0 0;
   (2, 3, 2) 0 0 0.918876 0.871554 0;
   (3, 3, 2) 0 0 0 0.928216 0.859422;
   (4, 3, 2) 0 0 0 0 1;
   (0, 4, 2) 0 1 0 0 0;
   (1, 4, 2) 0 0.859975 0.954992 0 0;
   (2, 4, 2) 0 0 0.863915 0.929975 0;
   (3, 4, 2) 0 0 0 0.896234 0.905667;
   (4, 4, 2) 0 0 0 0 1;
   (0, 5, 2) 0 1 0 0 0;
   (1, 5, 2) 0 0.860495 0.955253 0 0;
   (2, 5, 2) 0 0 0.873534 0.93774 0;
   (3, 5, 2) 0 0 0 0.934855 0.878593;
   (4, 5, 2) 0 0 0 0 1;
   (0, 6, 2) 0 0.991328 0.835233 0 0;
   (1, 6, 2) 0 0.849768 0.976434 0.837985 0;
   (2, 6, 2) 0 0 0.853673 0.966232 0;
   (3, 6, 2) 0 0 0 0.963057 0.876855;
   (4, 6, 2) 0 0 0 0 1;
   (0, 7, 2) 0 0.98325 0.832499 0 0;
   (1, 7, 2) 0 0.847358 0.977104 0.839726 0;
   (2, 7, 2) 0 0 0.860402 0.976734 0;
   (3, 7, 2) 0 0 0 0.965681 0.965681;
   (4, 7, 2) 0 0 0 0 1;
}
probability (km_8 | km_7, lo_7, temp_7) {
   (0, 0, 0) 0.991496 0.757634 0 0 0;
   (1, 0, 0) 0 0.996551 0.798255 0 0;
   (2, 0, 0) 0 0 0.996313 0.779505 0;
   (3, 0, 0) 0 0 0 0.998482 0.728265;
   (4, 0, 0) 0 0 0 0 1;
   (0, 1, 0) 0.905411 0.826587 0 0 0;
   (1, 1, 0) 0 0.967963 0.806469 0 0;
   (2, 1, 0) 0 0 0.975768 0.77917 0;
   (3, 1, 0) 0 0 0 0.975659 0.763321;
   (4, 1, 0) 0 0 0 0 1;
   (0, 2, 0) 0.851232 0.892887 0 0 0;
   (1, 2, 0) 0 0.928352 0.845007 0 0;
   (2, 2, 0) 0 0 0.948912 0.822639 0;
   (3, 2, 0) 0 0 0 0.958665 0.793328;
   (4, 2, 0) 0 0 0 0 1;
   (0, 3, 0) 0.855177 0.909486 0 0 0;
   (1, 3, 0) 0 0.900341 0.881258 0 0;
   (2, 3, 0) 0 0 0.934671 0.838163 0;
   (3, 3, 0) 0 0 0 0.918958 0.842108;
   (4, 3, 0) 0 0 0 0 1;
   (0, 4, 0) 0.791378 0.989569 0 0 0;
   (1, 4, 0) 0 0.893555 0.897291 0 0;
   (2, 4, 0) 0 0 0.900011 0.879046 0;
   (3, 4, 0) 0 0 0 0.928002 0.843299;
   (4, 4, 0) 0 0 0 0 1;
   (0, 5, 0) 0 1 0 0 0;
   (1, 5, 0) 0 0.85447 0.937222 0 0;
   (2, 5, 0) 0 0 0.878044 0.900403 0;
   (3, 5, 0) 0 0 0 0.966873 0.817803;
   (4, 5, 0) 0 0 0 0 1;
   (0, 6, 0) 0 1 0 0 0;
   (1, 6, 0) 0 0.829878 0.960552 0 0;
   (2, 6, 0) 0 0 0.886623 0.899506 0;
   (3, 6, 0) 0 0 0 1 0;
   (4, 6, 0) 0 0 0 0 1;
   (0, 7, 0) 0 1 0 0 0;
   (1, 7, 0) 0 0.860025 0.94078 0 0;
   (2, 7, 0) 0 0 0.964955 0.842298 0;
   (3, 7, 0) 0 0 0 0.946708 0.946708;
   (4, 7, 0) 0 0 0 0 1;
   (0, 0, 1) 0.994746 0.756219 0 0 0;
   (1, 0, 1) 0 0.996953 0.793893 0 0;
   (2, 0, 1) 0 0 0.995959 0.767263 0;
   (3, 0, 1) 0 0 0 0.998929 0.715727;
   (4, 0, 1) 0 0 0 0 1;
   (0, 1, 1) 0.894263 0.833842 0 0 0;
   (1, 1, 1) 0 0.958586 0.803445 0 0;
   (2, 1, 1) 0 0 0.976179 0.781262 0;
   (3, 1, 1) 0 0 0 0.97849 0.762525;
   (4, 1, 1) 0 0 0 0 1;
   (0, 2, 1) 0.833072 0.908948 0 0 0;
   (1, 2, 1) 0 0.920763 0.847186 0 0;
   (2, 2, 1) 0 0 0.934689 0.826188 0;
   (3, 2, 1) 0 0 0 0.943042 0.818989;
   (4, 2, 1) 0 0 0 0 1;
   (0, 3, 1) 0.813647 0.947995 0 0 0;
   (1, 3, 1) 0 0.887822 0.898678 0 0;
   (2, 3, 1) 0 0 0.914933 0.863212 0;
   (3, 3, 1) 0 0 0 0.935083 0.83572;
   (4, 3, 1) 0 0 0 0 1;
   (0, 4, 1) 0.771476 0.988281 0 0 0;
   (1, 4, 1) 0 0.8689 0.921118 0 0;
   (2, 4, 1) 0 0 0.898732 0.887396 0;
   (3, 4, 1) 0 0 0 0.902306 0.872399;
   (4, 4, 1) 0 0 0 0 1;
   (0, 5, 1) 0 1 0 0 0;
   (1, 5, 1) 0 0.850552 0.941569 0 0;
   (2, 5, 1) 0 0 0.869558 0.913039 0;
   (3, 5, 1) 0 0 0 0.942299 0.841324;
   (4, 5, 1) 0 0 0 0 1;
   (0, 6, 1) 0 1 0 0 0;
   (1, 6, 1) 0 0.835013 0.956253 0 0;
   (2, 6, 1) 0 0 0.859856 0.93099 0;
   (3, 6, 1) 0 0 0 0.976565 0.82424;
   (4, 6, 1) 0 0 0 0 1;
   (0, 7, 1) 0 1 0 0 0;
   (1, 7, 1) 0 0.828717 0.959698 0 0;
   (2, 7, 1) 0 0 0.92561 0.860519 0;
   (3, 7, 1) 0 0 0 0.905637 0.905637;
   (4, 7, 1) 0 0 0 0 1;
   (0, 0, 2) 0.993306 0.767382 0 0 0;
   (1, 0, 2) 0 0.998858 0.775574 0 0;
   (2, 0, 2) 0 0 0.99771 0.752681 0;
   (3, 0, 2) 0 0 0 0.999727 0.671909;
   (4, 0, 2) 0 0 0 0 1;
   (0, 1, 2) 0.896494 0.848722 0 0 0;
   (1, 1, 2) 0 0.965532 0.809448 0 0;
   (2, 1, 2) 0 0 0.981276 0.785103 0;
   (3, 1, 2) 0 0 0 0.980424 0.763456;
   (4, 1, 2) 0 0 0 0 1;
   (0, 2, 2) 0.833846 0.949432 0 0 0;
   (1, 2, 2) 0 0.915809 0.872606 0 0;
   (2, 2, 2) 0 0 0.922324 0.856123 0;
   (3, 2, 2) 0 0 0 0.956292 0.814759;
   (4, 2, 2) 0 0 0 0 1;
   (0, 3, 2) 0.803528 0.984887 0 0 0;
   (1, 3, 2) 0 0.882232 0.929753 0 0;
   (2, 3, 2) 0 0 0.918876 0.871554 0;
   (3, 3, 2) 0 0 0 0.928216 0.859422;
   (4, 3, 2) 0 0 0 0 1;
   (0, 4, 2) 0 1 0 0 0;
   (1, 4, 2) 0 0.859975 0.954992 0 0;
   (2, 4, 2) 0 0 0.863915 0.929975 0;
   (3, 4, 2) 0 0 0 0.896234 0.905667;
   (4, 4, 2) 0 0 0 0 1;
   (0, 5, 2) 0 1 0 0 0;
   (1, 5, 2) 0 0.860495 0.955253 0 0;
   (2, 5, 2) 0 0 0.873534 0.93774 0;
   (3, 5, 2) 0 0 0 0.934855 0.878593;
   (4, 5, 2) 0 0 0 0 1;
   (0, 6, 2) 0 0.991328 0.835233 0 0;
   (1, 6, 2) 0 0.849768 0.976434 0.837985 0;
   (2, 6, 2) 0 0 0.853673 0.966232 0;
   (3, 6, 2) 0 0 0 0.963057 0.876855;
   (4, 6, 2) 0 0 0 0 1;
   (0, 7, 2) 0 0.98325 0.832499 0 0;
   (1, 7, 2) 0 0.847358 0.977104 0.839726 0;
   (2, 7, 2) 0 0 0.860402 0.976734 0;
   (3, 7, 2) 0 0 0 0.965681 0.965681;
   (4, 7, 2) 0 0 0 0 1;
}
probability (km_9 | km_8, lo_8, temp_8) {
   (0, 0, 0) 0.991496 0.757634 0 0 0;
   (1, 0, 0) 0 0.996551 0.798255 0 0;
   (2, 0, 0) 0 0 0.996313 0.779505 0;
   (3, 0, 0) 0 0 0 0.998482 0.728265;
   (4, 0, 0) 0 0 0 0 1;
   (0, 1, 0) 0.905411 0.826587 0 0 0;
   (1, 1, 0) 0 0.967963 0.806469 0 0;
   (2, 1, 0) 0 0 0.975768 0.77917 0;
   (3, 1, 0) 0 0 0 0.975659 0.763321;
   (4, 1, 0) 0 0 0 0 1;
   (0, 2, 0) 0.851232 0.892887 0 0 0;
   (1, 2, 0) 0 0.928352 0.845007 0 0;
   (2, 2, 0) 0 0 0.948912 0.822639 0;
   (3, 2, 0) 0 0 0 0.958665 0.793328;
   (4, 2, 0) 0 0 0 0 1;
   (0, 3, 0) 0.855177 0.909486 0 0 0;
   (1, 3, 0) 0 0.900341 0.881258 0 0;
   (2, 3, 0) 0 0 0.934671 0.838163 0;
   (3, 3, 0) 0 0 0 0.918958 0.842108;
   (4, 3, 0) 0 0 0 0 1;
   (0, 4, 0) 0.791378 0.989569 0 0 0;
   (1, 4, 0) 0 0.893555 0.897291 0 0;
   (2, 4, 0) 0 0 0.900011 0.879046 0;
   (3, 4, 0) 0 0 0 0.928002 0.843299;
   (4, 4, 0) 0 0 0 0 1;
   (0, 5, 0) 0 1 0 0 0;
   (1, 5, 0) 0 0.85447 0.937222 0 0;
   (2, 5, 0) 0 0 0.878044 0.900403 0;
   (3, 5, 0) 0 0 0 0.966873 0.817803;
   (4, 5, 0) 0 0 0 0 1;
   (0, 6, 0) 0 1 0 0 0;
   (1, 6, 0) 0 0.829878 0.960552 0 0;
   (2, 6, 0) 0 0 0.886623 0.899506 0;
   (3, 6, 0) 0 0 0 1 0;
   (4, 6, 0) 0 0 0 0 1;
   (0, 7, 0) 0 1 0 0 0;
   (1, 7, 0) 0 0.860025 0.94078 0 0;
   (2, 7, 0) 0 0 0.964955 0.842298 0;
   (3, 7, 0) 0 0 0 0.946708 0.946708;
   (4, 7, 0) 0 0 0 0 1;
   (0, 0, 1) 0.994746 0.756219 0 0 0;
   (1, 0, 1) 0 0.996953 0.793893 0 0;
   (2, 0, 1) 0 0 0.995959 0.767263 0;
   (3, 0, 1) 0 0 0 0.998929 0.715727;
   (4, 0, 1) 0 0 0 0 1;
   (0, 1, 1) 0.894263 0.833842 0 0 0;
   (1, 1, 1) 0 0.958586 0.803445 0 0;
   (2, 1, 1) 0 0 0.976179 0.781262 0;
   (3, 1, 1) 0 0 0 0.97849 0.762525;
   (4, 1, 1) 0 0 0 0 1;
   (0, 2, 1) 0.833072 0.908948 0 0 0;
   (1, 2, 1) 0 0.920763 0.847186 0 0;
   (2, 2, 1) 0 0 0.934689 0.826188 0;
   (3, 2, 1) 0 0 0 0.943042 0.818989;
   (4, 2, 1) 0 0 0 0 1;
   (0, 3, 1) 0.813647 0.947995 0 0 0;
   (1, 3, 1) 0 0.887822 0.898678 0 0;
   (2, 3, 1) 0 0 0.914933 0.863212 0;
   (3, 3, 1) 0 0 0 0.935083 0.83572;
   (4, 3, 1) 0 0 0 0 1;
   (0, 4, 1) 0.771476 0.988281 0 0 0;
   (1, 4, 1) 0 0.8689 0.921118 0 0;
   (2, 4, 1) 0 0 0.898732 0.887396 0;
   (3, 4, 1) 0 0 0 0.902306 0.872399;
   (4, 4, 1) 0 0 0 0 1;
   (0, 5, 1) 0 1 0 0 0;
   (1, 5, 1) 0 0.850552 0.941569 0 0;
   (2, 5, 1) 0 0 0.869558 0.913039 0;
   (3, 5, 1) 0 0 0 0.942299 0.841324;
   (4, 5, 1) 0 0 0 0 1;
   (0, 6, 1) 0 1 0 0 0;
   (1, 6, 1) 0 0.835013 0.956253 0 0;
   (2, 6, 1) 0 0 0.859856 0.93099 0;
   (3, 6, 1) 0 0 0 0.976565 0.82424;
   (4, 6, 1) 0 0 0 0 1;
   (0, 7, 1) 0 1 0 0 0;
   (1, 7, 1) 0 0.828717 0.959698 0 0;
   (2, 7, 1) 0 0 0.92561 0.860519 0;
   (3, 7, 1) 0 0 0 0.905637 0.905637;
   (4, 7, 1) 0 0 0 0 1;
   (0, 0, 2) 0.993306 0.767382 0 0 0;
   (1, 0, 2) 0 0.998858 0.775574 0 0;
   (2, 0, 2) 0 0 0.99771 0.752681 0;
   (3, 0, 2) 0 0 0 0.999727 0.671909;
   (4, 0, 2) 0 0 0 0 1;
   (0, 1, 2) 0.896494 0.848722 0 0 0;
   (1, 1, 2) 0 0.965532 0.809448 0 0;
   (2, 1, 2) 0 0 0.981276 0.785103 0;
   (3, 1, 2) 0 0 0 0.980424 0.763456;
   (4, 1, 2) 0 0 0 0 1;
   (0, 2, 2) 0.833846 0.949432 0 0 0;
   (1, 2, 2) 0 0.915809 0.872606 0 0;
   (2, 2, 2) 0 0 0.922324 0.856123 0;
   (3, 2, 2) 0 0 0 0.956292 0.814759;
   (4, 2, 2) 0 0 0 0 1;
   (0, 3, 2) 0.803528 0.984887 0 0 0;
   (1, 3, 2) 0 0.882232 0.929753 0 0;
   (2, 3, 2) 0 0 0.918876 0.871554 0;
   (3, 3, 2) 0 0 0 0.928216 0.859422;
   (4, 3, 2) 0 0 0 0 1;
   (0, 4, 2) 0 1 0 0 0;
   (1, 4, 2) 0 0.859975 0.954992 0 0;
   (2, 4, 2) 0 0 0.863915 0.929975 0;
   (3, 4, 2) 0 0 0 0.896234 0.905667;
   (4, 4, 2) 0 0 0 0 1;
   (0, 5, 2) 0 1 0 0 0;
   (1, 5, 2) 0 0.860495 0.955253 0 0;
   (2, 5, 2) 0 0 0.873534 0.93774 0;
   (3, 5, 2) 0 0 0 0.934855 0.878593;
   (4, 5, 2) 0 0 0 0 1;
   (0, 6, 2) 0 0.991328 0.835233 0 0;
   (1, 6, 2) 0 0.849768 0.976434 0.837985 0;
   (2, 6, 2) 0 0 0.853673 0.966232 0;
   (3, 6, 2) 0 0 0 0.963057 0.876855;
   (4, 6, 2) 0 0 0 0 1;
   (0, 7, 2) 0 0.98325 0.832499 0 0;
   (1, 7, 2) 0 0.847358 0.977104 0.839726 0;
   (2, 7, 2) 0 0 0.860402 0.976734 0;
   (3, 7, 2) 0 0 0 0.965681 0.965681;
   (4, 7, 2) 0 0 0 0 1;
}
probability (km_10 | km_9, lo_9, temp_9) {
   (0, 0, 0) 0.991496 0.757634 0 0 0;
   (1, 0, 0) 0 0.996551 0.798255 0 0;
   (2, 0, 0) 0 0 0.996313 0.779505 0;
   (3, 0, 0) 0 0 0 0.998482 0.728265;
   (4, 0, 0) 0 0 0 0 1;
   (0, 1, 0) 0.905411 0.826587 0 0 0;
   (1, 1, 0) 0 0.967963 0.806469 0 0;
   (2, 1, 0) 0 0 0.975768 0.77917 0;
   (3, 1, 0) 0 0 0 0.975659 0.763321;
   (4, 1, 0) 0 0 0 0 1;
   (0, 2, 0) 0.851232 0.892887 0 0 0;
   (1, 2, 0) 0 0.928352 0.845007 0 0;
   (2, 2, 0) 0 0 0.948912 0.822639 0;
   (3, 2, 0) 0 0 0 0.958665 0.793328;
   (4, 2, 0) 0 0 0 0 1;
   (0, 3, 0) 0.855177 0.909486 0 0 0;
   (1, 3, 0) 0 0.900341 0.881258 0 0;
   (2, 3, 0) 0 0 0.934671 0.838163 0;
   (3, 3, 0) 0 0 0 0.918958 0.842108;
   (4, 3, 0) 0 0 0 0 1;
   (0, 4, 0) 0.791378 0.989569 0 0 0;
   (1, 4, 0) 0 0.893555 0.897291 0 0;
   (2, 4, 0) 0 0 0.900011 0.879046 0;
   (3, 4, 0) 0 0 0 0.928002 0.843299;
   (4, 4, 0) 0 0 0 0 1;
   (0, 5, 0) 0 1 0 0 0;
   (1, 5, 0) 0 0.85447 0.937222 0 0;
   (2, 5, 0) 0 0 0.878044 0.900403 0;
   (3, 5, 0) 0 0 0 0.966873 0.817803;
   (4, 5, 0) 0 0 0 0 1;
   (0, 6, 0) 0 1 0 0 0;
   (1, 6, 0) 0 0.829878 0.960552 0 0;
   (2, 6, 0) 0 0 0.886623 0.899506 0;
   (3, 6, 0) 0 0 0 1 0;
   (4, 6, 0) 0 0 0 0 1;
   (0, 7, 0) 0 1 0 0 0;
   (1, 7, 0) 0 0.860025 0.94078 0 0;
   (2, 7, 0) 0 0 0.964955 0.842298 0;
   (3, 7, 0) 0 0 0 0.946708 0.946708;
   (4, 7, 0) 0 0 0 0 1;
   (0, 0, 1) 0.994746 0.756219 0 0 0;
   (1, 0, 1) 0 0.996953 0.793893 0 0;
   (2, 0, 1) 0 0 0.995959 0.767263 0;
   (3, 0, 1) 0 0 0 0.998929 0.715727;
   (4, 0, 1) 0 0 0 0 1;
   (0, 1, 1) 0.894263 0.833842 0 0 0;
   (1, 1, 1) 0 0.958586 0.803445 0 0;
   (2, 1, 1) 0 0 0.976179 0.781262 0;
   (3, 1, 1) 0 0 0 0.97849 0.762525;
   (4, 1, 1) 0 0 0 0 1;
   (0, 2, 1) 0.833072 0.908948 0 0 0;
   (1, 2, 1) 0 0.920763 0.847186 0 0;
   (2, 2, 1) 0 0 0.934689 0.826188 0;
   (3, 2, 1) 0 0 0 0.943042 0.818989;
   (4, 2, 1) 0 0 0 0 1;
   (0, 3, 1) 0.813647 0.947995 0 0 0;
   (1, 3, 1) 0 0.887822 0.898678 0 0;
   (2, 3, 1) 0 0 0.914933 0.863212 0;
   (3, 3, 1) 0 0 0 0.935083 0.83572;
   (4, 3, 1) 0 0 0 0 1;
   (0, 4, 1) 0.771476 0.988281 0 0 0;
   (1, 4, 1) 0 0.8689 0.921118 0 0;
   (2, 4, 1) 0 0 0.898732 0.887396 0;
   (3, 4, 1) 0 0 0 0.902306 0.872399;
   (4, 4, 1) 0 0 0 0 1;
   (0, 5, 1) 0 1 0 0 0;
   (1, 5, 1) 0 0.850552 0.941569 0 0;
   (2, 5, 1) 0 0 0.869558 0.913039 0;
   (3, 5, 1) 0 0 0 0.942299 0.841324;
   (4, 5, 1) 0 0 0 0 1;
   (0, 6, 1) 0 1 0 0 0;
   (1, 6, 1) 0 0.835013 0.956253 0 0;
   (2, 6, 1) 0 0 0.859856 0.93099 0;
   (3, 6, 1) 0 0 0 0.976565 0.82424;
   (4, 6, 1) 0 0 0 0 1;
   (0, 7, 1) 0 1 0 0 0;
   (1, 7, 1) 0 0.828717 0.959698 0 0;
   (2, 7, 1) 0 0 0.92561 0.860519 0;
   (3, 7, 1) 0 0 0 0.905637 0.905637;
   (4, 7, 1) 0 0 0 0 1;
   (0, 0, 2) 0.993306 0.767382 0 0 0;
   (1, 0, 2) 0 0.998858 0.775574 0 0;
   (2, 0, 2) 0 0 0.99771 0.752681 0;
   (3, 0, 2) 0 0 0 0.999727 0.671909;
   (4, 0, 2) 0 0 0 0 1;
   (0, 1, 2) 0.896494 0.848722 0 0 0;
   (1, 1, 2) 0 0.965532 0.809448 0 0;
   (2, 1, 2) 0 0 0.981276 0.785103 0;
   (3, 1, 2) 0 0 0 0.980424 0.763456;
   (4, 1, 2) 0 0 0 0 1;
   (0, 2, 2) 0.833846 0.949432 0 0 0;
   (1, 2, 2) 0 0.915809 0.872606 0 0;
   (2, 2, 2) 0 0 0.922324 0.856123 0;
   (3, 2, 2) 0 0 0 0.956292 0.814759;
   (4, 2, 2) 0 0 0 0 1;
   (0, 3, 2) 0.803528 0.984887 0 0 0;
   (1, 3, 2) 0 0.882232 0.929753 0 0;
   (2, 3, 2) 0 0 0.918876 0.871554 0;
   (3, 3, 2) 0 0 0 0.928216 0.859422;
   (4, 3, 2) 0 0 0 0 1;
   (0, 4, 2) 0 1 0 0 0;
   (1, 4, 2) 0 0.859975 0.954992 0 0;
   (2, 4, 2) 0 0 0.863915 0.929975 0;
   (3, 4, 2) 0 0 0 0.896234 0.905667;
   (4, 4, 2) 0 0 0 0 1;
   (0, 5, 2) 0 1 0 0 0;
   (1, 5, 2) 0 0.860495 0.955253 0 0;
   (2, 5, 2) 0 0 0.873534 0.93774 0;
   (3, 5, 2) 0 0 0 0.934855 0.878593;
   (4, 5, 2) 0 0 0 0 1;
   (0, 6, 2) 0 0.991328 0.835233 0 0;
   (1, 6, 2) 0 0.849768 0.976434 0.837985 0;
   (2, 6, 2) 0 0 0.853673 0.966232 0;
   (3, 6, 2) 0 0 0 0.963057 0.876855;
   (4, 6, 2) 0 0 0 0 1;
   (0, 7, 2) 0 0.98325 0.832499 0 0;
   (1, 7, 2) 0 0.847358 0.977104 0.839726 0;
   (2, 7, 2) 0 0 0.860402 0.976734 0;
   (3, 7, 2) 0 0 0 0.965681 0.965681;
   (4, 7, 2) 0 0 0 0 1;
}
probability (km_11 | km_10, lo_10, temp_10) {
   (0, 0, 0) 0.991496 0.757634 0 0 0;
   (1, 0, 0) 0 0.996551 0.798255 0 0;
   (2, 0, 0) 0 0 0.996313 0.779505 0;
   (3, 0, 0) 0 0 0 0.998482 0.728265;
   (4, 0, 0) 0 0 0 0 1;
   (0, 1, 0) 0.905411 0.826587 0 0 0;
   (1, 1, 0) 0 0.967963 0.806469 0 0;
   (2, 1, 0) 0 0 0.975768 0.77917 0;
   (3, 1, 0) 0 0 0 0.975659 0.763321;
   (4, 1, 0) 0 0 0 0 1;
   (0, 2, 0) 0.851232 0.892887 0 0 0;
   (1, 2, 0) 0 0.928352 0.845007 0 0;
   (2, 2, 0) 0 0 0.948912 0.822639 0;
   (3, 2, 0) 0 0 0 0.958665 0.793328;
   (4, 2, 0) 0 0 0 0 1;
   (0, 3, 0) 0.855177 0.909486 0 0 0;
   (1, 3, 0) 0 0.900341 0.881258 0 0;
   (2, 3, 0) 0 0 0.934671 0.838163 0;
   (3, 3, 0) 0 0 0 0.918958 0.842108;
   (4, 3, 0) 0 0 0 0 1;
   (0, 4, 0) 0.791378 0.989569 0 0 0;
   (1, 4, 0) 0 0.893555 0.897291 0 0;
   (2, 4, 0) 0 0 0.900011 0.879046 0;
   (3, 4, 0) 0 0 0 0.928002 0.843299;
   (4, 4, 0) 0 0 0 0 1;
   (0, 5, 0) 0 1 0 0 0;
   (1, 5, 0) 0 0.85447 0.937222 0 0;
   (2, 5, 0) 0 0 0.878044 0.900403 0;
   (3, 5, 0) 0 0 0 0.966873 0.817803;
   (4, 5, 0) 0 0 0 0 1;
   (0, 6, 0) 0 1 0 0 0;
   (1, 6, 0) 0 0.829878 0.960552 0 0;
   (2, 6, 0) 0 0 0.886623 0.899506 0;
   (3, 6, 0) 0 0 0 1 0;
   (4, 6, 0) 0 0 0 0 1;
   (0, 7, 0) 0 1 0 0 0;
   (1, 7, 0) 0 0.860025 0.94078 0 0;
   (2, 7, 0) 0 0 0.964955 0.842298 0;
   (3, 7, 0) 0 0 0 0.946708 0.946708;
   (4, 7, 0) 0 0 0 0 1;
   (0, 0, 1) 0.994746 0.756219 0 0 0;
   (1, 0, 1) 0 0.996953 0.793893 0 0;
   (2, 0, 1) 0 0 0.995959 0.767263 0;
   (3, 0, 1) 0 0 0 0.998929 0.715727;
   (4, 0, 1) 0 0 0 0 1;
   (0, 1, 1) 0.894263 0.833842 0 0 0;
   (1, 1, 1) 0 0.958586 0.803445 0 0;
   (2, 1, 1) 0 0 0.976179 0.781262 0;
   (3, 1, 1) 0 0 0 0.97849 0.762525;
   (4, 1, 1) 0 0 0 0 1;
   (0, 2, 1) 0.833072 0.908948 0 0 0;
   (1, 2, 1) 0 0.920763 0.847186 0 0;
   (2, 2, 1) 0 0 0.934689 0.826188 0;
   (3, 2, 1) 0 0 0 0.943042 0.818989;
   (4, 2, 1) 0 0 0 0 1;
   (0, 3, 1) 0.813647 0.947995 0 0 0;
   (1, 3, 1) 0 0.887822 0.898678 0 0;
   (2, 3, 1) 0 0 0.914933 0.863212 0;
   (3, 3, 1) 0 0 0 0.935083 0.83572;
   (4, 3, 1) 0 0 0 0 1;
   (0, 4, 1) 0.771476 0.988281 0 0 0;
   (1, 4, 1) 0 0.8689 0.921118 0 0;
   (2, 4, 1) 0 0 0.898732 0.887396 0;
   (3, 4, 1) 0 0 0 0.902306 0.872399;
   (4, 4, 1) 0 0 0 0 1;
   (0, 5, 1) 0 1 0 0 0;
   (1, 5, 1) 0 0.850552 0.941569 0 0;
   (2, 5, 1) 0 0 0.869558 0.913039 0;
   (3, 5, 1) 0 0 0 0.942299 0.841324;
   (4, 5, 1) 0 0 0 0 1;
   (0, 6, 1) 0 1 0 0 0;
   (1, 6, 1) 0 0.835013 0.956253 0 0;
   (2, 6, 1) 0 0 0.859856 0.93099 0;
   (3, 6, 1) 0 0 0 0.976565 0.82424;
   (4, 6, 1) 0 0 0 0 1;
   (0, 7, 1) 0 1 0 0 0;
   (1, 7, 1) 0 0.828717 0.959698 0 0;
   (2, 7, 1) 0 0 0.92561 0.860519 0;
   (3, 7, 1) 0 0 0 0.905637 0.905637;
   (4, 7, 1) 0 0 0 0 1;
   (0, 0, 2) 0.993306 0.767382 0 0 0;
   (1, 0, 2) 0 0.998858 0.775574 0 0;
   (2, 0, 2) 0 0 0.99771 0.752681 0;
   (3, 0, 2) 0 0 0 0.999727 0.671909;
   (4, 0, 2) 0 0 0 0 1;
   (0, 1, 2) 0.896494 0.848722 0 0 0;
   (1, 1, 2) 0 0.965532 0.809448 0 0;
   (2, 1, 2) 0 0 0.981276 0.785103 0;
   (3, 1, 2) 0 0 0 0.980424 0.763456;
   (4, 1, 2) 0 0 0 0 1;
   (0, 2, 2) 0.833846 0.949432 0 0 0;
   (1, 2, 2) 0 0.915809 0.872606 0 0;
   (2, 2, 2) 0 0 0.922324 0.856123 0;
   (3, 2, 2) 0 0 0 0.956292 0.814759;
   (4, 2, 2) 0 0 0 0 1;
   (0, 3, 2) 0.803528 0.984887 0 0 0;
   (1, 3, 2) 0 0.882232 0.929753 0 0;
   (2, 3, 2) 0 0 0.918876 0.871554 0;
   (3, 3, 2) 0 0 0 0.928216 0.859422;
   (4, 3, 2) 0 0 0 0 1;
   (0, 4, 2) 0 1 0 0 0;
   (1, 4, 2) 0 0.859975 0.954992 0 0;
   (2, 4, 2) 0 0 0.863915 0.929975 0;
   (3, 4, 2) 0 0 0 0.896234 0.905667;
   (4, 4, 2) 0 0 0 0 1;
   (0, 5, 2) 0 1 0 0 0;
   (1, 5, 2) 0 0.860495 0.955253 0 0;
   (2, 5, 2) 0 0 0.873534 0.93774 0;
   (3, 5, 2) 0 0 0 0.934855 0.878593;
   (4, 5, 2) 0 0 0 0 1;
   (0, 6, 2) 0 0.991328 0.835233 0 0;
   (1, 6, 2) 0 0.849768 0.976434 0.837985 0;
   (2, 6, 2) 0 0 0.853673 0.966232 0;
   (3, 6, 2) 0 0 0 0.963057 0.876855;
   (4, 6, 2) 0 0 0 0 1;
   (0, 7, 2) 0 0.98325 0.832499 0 0;
   (1, 7, 2) 0 0.847358 0.977104 0.839726 0;
   (2, 7, 2) 0 0 0.860402 0.976734 0;
   (3, 7, 2) 0 0 0 0.965681 0.965681;
   (4, 7, 2) 0 0 0 0 1;
}
probability (km_12 | km_11, lo_11, temp_11) {
   (0, 0, 0) 0.991496 0.757634 0 0 0;
   (1, 0, 0) 0 0.996551 0.798255 0 0;
   (2, 0, 0) 0 0 0.996313 0.779505 0;
   (3, 0, 0) 0 0 0 0.998482 0.728265;
   (4, 0, 0) 0 0 0 0 1;
   (0, 1, 0) 0.905411 0.826587 0 0 0;
   (1, 1, 0) 0 0.967963 0.806469 0 0;
   (2, 1, 0) 0 0 0.975768 0.77917 0;
   (3, 1, 0) 0 0 0 0.975659 0.763321;
   (4, 1, 0) 0 0 0 0 1;
   (0, 2, 0) 0.851232 0.892887 0 0 0;
   (1, 2, 0) 0 0.928352 0.845007 0 0;
   (2, 2, 0) 0 0 0.948912 0.822639 0;
   (3, 2, 0) 0 0 0 0.958665 0.793328;
   (4, 2, 0) 0 0 0 0 1;
   (0, 3, 0) 0.855177 0.909486 0 0 0;
   (1, 3, 0) 0 0.900341 0.881258 0 0;
   (2, 3, 0) 0 0 0.934671 0.838163 0;
   (3, 3, 0) 0 0 0 0.918958 0.842108;
   (4, 3, 0) 0 0 0 0 1;
   (0, 4, 0) 0.791378 0.989569 0 0 0;
   (1, 4, 0) 0 0.893555 0.897291 0 0;
   (2, 4, 0) 0 0 0.900011 0.879046 0;
   (3, 4, 0) 0 0 0 0.928002 0.843299;
   (4, 4, 0) 0 0 0 0 1;
   (0, 5, 0) 0 1 0 0 0;
   (1, 5, 0) 0 0.85447 0.937222 0 0;
   (2, 5, 0) 0 0 0.878044 0.900403 0;
   (3, 5, 0) 0 0 0 0.966873 0.817803;
   (4, 5, 0) 0 0 0 0 1;
   (0, 6, 0) 0 1 0 0 0;
   (1, 6, 0) 0 0.829878 0.960552 0 0;
   (2, 6, 0) 0 0 0.886623 0.899506 0;
   (3, 6, 0) 0 0 0 1 0;
   (4, 6, 0) 0 0 0 0 1;
   (0, 7, 0) 0 1 0 0 0;
   (1, 7, 0) 0 0.860025 0.94078 0 0;
   (2, 7, 0) 0 0 0.964955 0.842298 0;
   (3, 7, 0) 0 0 0 0.946708 0.946708;
   (4, 7, 0) 0 0 0 0 1;
   (0, 0, 1) 0.994746 0.756219 0 0 0;
   (1, 0, 1) 0 0.996953 0.793893 0 0;
   (2, 0, 1) 0 0 0.995959 0.767263 0;
   (3, 0, 1) 0 0 0 0.998929 0.715727;
   (4, 0, 1) 0 0 0 0 1;
   (0, 1, 1) 0.894263 0.833842 0 0 0;
   (1, 1, 1) 0 0.958586 0.803445 0 0;
   (2, 1, 1) 0 0 0.976179 0.781262 0;
   (3, 1, 1) 0 0 0 0.97849 0.762525;
   (4, 1, 1) 0 0 0 0 1;
   (0, 2, 1) 0.833072 0.908948 0 0 0;
   (1, 2, 1) 0 0.920763 0.847186 0 0;
   (2, 2, 1) 0 0 0.934689 0.826188 0;
   (3, 2, 1) 0 0 0 0.943042 0.818989;
   (4, 2, 1) 0 0 0 0 1;
   (0, 3, 1) 0.813647 0.947995 0 0 0;
   (1, 3, 1) 0 0.887822 0.898678 0 0;
   (2, 3, 1) 0 0 0.914933 0.863212 0;
   (3, 3, 1) 0 0 0 0.935083 0.83572;
   (4, 3, 1) 0 0 0 0 1;
   (0, 4, 1) 0.771476 0.988281 0 0 0;
   (1, 4, 1) 0 0.8689 0.921118 0 0;
   (2, 4, 1) 0 0 0.898732 0.887396 0;
   (3, 4, 1) 0 0 0 0.902306 0.872399;
   (4, 4, 1) 0 0 0 0 1;
   (0, 5, 1) 0 1 0 0 0;
   (1, 5, 1) 0 0.850552 0.941569 0 0;
   (2, 5, 1) 0 0 0.869558 0.913039 0;
   (3, 5, 1) 0 0 0 0.942299 0.841324;
   (4, 5, 1) 0 0 0 0 1;
   (0, 6, 1) 0 1 0 0 0;
   (1, 6, 1) 0 0.835013 0.956253 0 0;
   (2, 6, 1) 0 0 0.859856 0.93099 0;
   (3, 6, 1) 0 0 0 0.976565 0.82424;
   (4, 6, 1) 0 0 0 0 1;
   (0, 7, 1) 0 1 0 0 0;
   (1, 7, 1) 0 0.828717 0.959698 0 0;
   (2, 7, 1) 0 0 0.92561 0.860519 0;
   (3, 7, 1) 0 0 0 0.905637 0.905637;
   (4, 7, 1) 0 0 0 0 1;
   (0, 0, 2) 0.993306 0.767382 0 0 0;
   (1, 0, 2) 0 0.998858 0.775574 0 0;
   (2, 0, 2) 0 0 0.99771 0.752681 0;
   (3, 0, 2) 0 0 0 0.999727 0.671909;
   (4, 0, 2) 0 0 0 0 1;
   (0, 1, 2) 0.896494 0.848722 0 0 0;
   (1, 1, 2) 0 0.965532 0.809448 0 0;
   (2, 1, 2) 0 0 0.981276 0.785103 0;
   (3, 1, 2) 0 0 0 0.980424 0.763456;
   (4, 1, 2) 0 0 0 0 1;
   (0, 2, 2) 0.833846 0.949432 0 0 0;
   (1, 2, 2) 0 0.915809 0.872606 0 0;
   (2, 2, 2) 0 0 0.922324 0.856123 0;
   (3, 2, 2) 0 0 0 0.956292 0.814759;
   (4, 2, 2) 0 0 0 0 1;
   (0, 3, 2) 0.803528 0.984887 0 0 0;
   (1, 3, 2) 0 0.882232 0.929753 0 0;
   (2, 3, 2) 0 0 0.918876 0.871554 0;
   (3, 3, 2) 0 0 0 0.928216 0.859422;
   (4, 3, 2) 0 0 0 0 1;
   (0, 4, 2) 0 1 0 0 0;
   (1, 4, 2) 0 0.859975 0.954992 0 0;
   (2, 4, 2) 0 0 0.863915 0.929975 0;
   (3, 4, 2) 0 0 0 0.896234 0.905667;
   (4, 4, 2) 0 0 0 0 1;
   (0, 5, 2) 0 1 0 0 0;
   (1, 5, 2) 0 0.860495 0.955253 0 0;
   (2, 5, 2) 0 0 0.873534 0.93774 0;
   (3, 5, 2) 0 0 0 0.934855 0.878593;
   (4, 5, 2) 0 0 0 0 1;
   (0, 6, 2) 0 0.991328 0.835233 0 0;
   (1, 6, 2) 0 0.849768 0.976434 0.837985 0;
   (2, 6, 2) 0 0 0.853673 0.966232 0;
   (3, 6, 2) 0 0 0 0.963057 0.876855;
   (4, 6, 2) 0 0 0 0 1;
   (0, 7, 2) 0 0.98325 0.832499 0 0;
   (1, 7, 2) 0 0.847358 0.977104 0.839726 0;
   (2, 7, 2) 0 0 0.860402 0.976734 0;
   (3, 7, 2) 0 0 0 0.965681 0.965681;
   (4, 7, 2) 0 0 0 0 1;
}
probability (km_13 | km_12, lo_12, temp_12) {
   (0, 0, 0) 0.991496 0.757634 0 0 0;
   (1, 0, 0) 0 0.996551 0.798255 0 0;
   (2, 0, 0) 0 0 0.996313 0.779505 0;
   (3, 0, 0) 0 0 0 0.998482 0.728265;
   (4, 0, 0) 0 0 0 0 1;
   (0, 1, 0) 0.905411 0.826587 0 0 0;
   (1, 1, 0) 0 0.967963 0.806469 0 0;
   (2, 1, 0) 0 0 0.975768 0.77917 0;
   (3, 1, 0) 0 0 0 0.975659 0.763321;
   (4, 1, 0) 0 0 0 0 1;
   (0, 2, 0) 0.851232 0.892887 0 0 0;
   (1, 2, 0) 0 0.928352 0.845007 0 0;
   (2, 2, 0) 0 0 0.948912 0.822639 0;
   (3, 2, 0) 0 0 0 0.958665 0.793328;
   (4, 2, 0) 0 0 0 0 1;
   (0, 3, 0) 0.855177 0.909486 0 0 0;
   (1, 3, 0) 0 0.900341 0.881258 0 0;
   (2, 3, 0) 0 0 0.934671 0.838163 0;
   (3, 3, 0) 0 0 0 0.918958 0.842108;
   (4, 3, 0) 0 0 0 0 1;
   (0, 4, 0) 0.791378 0.989569 0 0 0;
   (1, 4, 0) 0 0.893555 0.897291 0 0;
   (2, 4, 0) 0 0 0.900011 0.879046 0;
   (3, 4, 0) 0 0 0 0.928002 0.843299;
   (4, 4, 0) 0 0 0 0 1;
   (0, 5, 0) 0 1 0 0 0;
   (1, 5, 0) 0 0.85447 0.937222 0 0;
   (2, 5, 0) 0 0 0.878044 0.900403 0;
   (3, 5, 0) 0 0 0 0.966873 0.817803;
   (4, 5, 0) 0 0 0 0 1;
   (0, 6, 0) 0 1 0 0 0;
   (1, 6, 0) 0 0.829878 0.960552 0 0;
   (2, 6, 0) 0 0 0.886623 0.899506 0;
   (3, 6, 0) 0 0 0 1 0;
   (4, 6, 0) 0 0 0 0 1;
   (0, 7, 0) 0 1 0 0 0;
   (1, 7, 0) 0 0.860025 0.94078 0 0;
   (2, 7, 0) 0 0 0.964955 0.842298 0;
   (3, 7, 0) 0 0 0 0.946708 0.946708;
   (4, 7, 0) 0 0 0 0 1;
   (0, 0, 1) 0.994746 0.756219 0 0 0;
   (1, 0, 1) 0 0.996953 0.793893 0 0;
   (2, 0, 1) 0 0 0.995959 0.767263 0;
   (3, 0, 1) 0 0 0 0.998929 0.715727;
   (4, 0, 1) 0 0 0 0 1;
   (0, 1, 1) 0.894263 0.833842 0 0 0;
   (1, 1, 1) 0 0.958586 0.803445 0 0;
   (2, 1, 1) 0 0 0.976179 0.781262 0;
   (3, 1, 1) 0 0 0 0.97849 0.762525;
   (4, 1, 1) 0 0 0 0 1;
   (0, 2, 1) 0.833072 0.908948 0 0 0;
   (1, 2, 1) 0 0.920763 0.847186 0 0;
   (2, 2, 1) 0 0 0.934689 0.826188 0;
   (3, 2, 1) 0 0 0 0.943042 0.818989;
   (4, 2, 1) 0 0 0 0 1;
   (0, 3, 1) 0.813647 0.947995 0 0 0;
   (1, 3, 1) 0 0.887822 0.898678 0 0;
   (2, 3, 1) 0 0 0.914933 0.863212 0;
   (3, 3, 1) 0 0 0 0.935083 0.83572;
   (4, 3, 1) 0 0 0 0 1;
   (0, 4, 1) 0.771476 0.988281 0 0 0;
   (1, 4, 1) 0 0.8689 0.921118 0 0;
   (2, 4, 1) 0 0 0.898732 0.887396 0;
   (3, 4, 1) 0 0 0 0.902306 0.872399;
   (4, 4, 1) 0 0 0 0 1;
   (0, 5, 1) 0 1 0 0 0;
   (1, 5, 1) 0 0.850552 0.941569 0 0;
   (2, 5, 1) 0 0 0.869558 0.913039 0;
   (3, 5, 1) 0 0 0 0.942299 0.841324;
   (4, 5, 1) 0 0 0 0 1;
   (0, 6, 1) 0 1 0 0 0;
   (1, 6, 1) 0 0.835013 0.956253 0 0;
   (2, 6, 1) 0 0 0.859856 0.93099 0;
   (3, 6, 1) 0 0 0 0.976565 0.82424;
   (4, 6, 1) 0 0 0 0 1;
   (0, 7, 1) 0 1 0 0 0;
   (1, 7, 1) 0 0.828717 0.959698 0 0;
   (2, 7, 1) 0 0 0.92561 0.860519 0;
   (3, 7, 1) 0 0 0 0.905637 0.905637;
   (4, 7, 1) 0 0 0 0 1;
   (0, 0, 2) 0.993306 0.767382 0 0 0;
   (1, 0, 2) 0 0.998858 0.775574 0 0;
   (2, 0, 2) 0 0 0.99771 0.752681 0;
   (3, 0, 2) 0 0 0 0.999727 0.671909;
   (4, 0, 2) 0 0 0 0 1;
   (0, 1, 2) 0.896494 0.848722 0 0 0;
   (1, 1, 2) 0 0.965532 0.809448 0 0;
   (2, 1, 2) 0 0 0.981276 0.785103 0;
   (3, 1, 2) 0 0 0 0.980424 0.763456;
   (4, 1, 2) 0 0 0 0 1;
   (0, 2, 2) 0.833846 0.949432 0 0 0;
   (1, 2, 2) 0 0.915809 0.872606 0 0;
   (2, 2, 2) 0 0 0.922324 0.856123 0;
   (3, 2, 2) 0 0 0 0.956292 0.814759;
   (4, 2, 2) 0 0 0 0 1;
   (0, 3, 2) 0.803528 0.984887 0 0 0;
   (1, 3, 2) 0 0.882232 0.929753 0 0;
   (2, 3, 2) 0 0 0.918876 0.871554 0;
   (3, 3, 2) 0 0 0 0.928216 0.859422;
   (4, 3, 2) 0 0 0 0 1;
   (0, 4, 2) 0 1 0 0 0;
   (1, 4, 2) 0 0.859975 0.954992 0 0;
   (2, 4, 2) 0 0 0.863915 0.929975 0;
   (3, 4, 2) 0 0 0 0.896234 0.905667;
   (4, 4, 2) 0 0 0 0 1;
   (0, 5, 2) 0 1 0 0 0;
   (1, 5, 2) 0 0.860495 0.955253 0 0;
   (2, 5, 2) 0 0 0.873534 0.93774 0;
   (3, 5, 2) 0 0 0 0.934855 0.878593;
   (4, 5, 2) 0 0 0 0 1;
   (0, 6, 2) 0 0.991328 0.835233 0 0;
   (1, 6, 2) 0 0.849768 0.976434 0.837985 0;
   (2, 6, 2) 0 0 0.853673 0.966232 0;
   (3, 6, 2) 0 0 0 0.963057 0.876855;
   (4, 6, 2) 0 0 0 0 1;
   (0, 7, 2) 0 0.98325 0.832499 0 0;
   (1, 7, 2) 0 0.847358 0.977104 0.839726 0;
   (2, 7, 2) 0 0 0.860402 0.976734 0;
   (3, 7, 2) 0 0 0 0.965681 0.965681;
   (4, 7, 2) 0 0 0 0 1;
}
probability (lo_1 | lo_0, km_0, temp_0) {
   (0, 0, 0) 1 0 0 0 0 0 0 0;
   (1, 0, 0) 0 1 0 0 0 0 0 0;
   (2, 0, 0) 0 0.761971 0.982148 0 0 0 0 0;
   (3, 0, 0) 0 0 0 1 0 0 0 0;
   (4, 0, 0) 0 0 0 0.801809 0.979138 0 0 0;
   (5, 0, 0) 0 0 0 0 0.787077 0.980643 0 0;
   (6, 0, 0) 0 0 0 0 0 0 1 0;
   (7, 0, 0) 0 0 0 0 0 0 0.802563 0.978063;
   (0, 1, 0) 1 0 0 0 0 0 0 0;
   (1, 1, 0) 0.782278 0.992154 0 0 0 0 0 0;
   (2, 1, 0) 0 0.786519 0.98684 0 0 0 0 0;
   (3, 1, 0) 0 0 0.809164 0.972435 0 0 0 0;
   (4, 1, 0) 0 0 0 0.813255 0.977591 0 0 0;
   (5, 1, 0) 0 0 0 0 0.843055 0.948636 0 0;
   (6, 1, 0) 0 0 0 0 0 0.832344 0.958086 0;
   (7, 1, 0) 0 0 0 0 0 0 0.924629 0.876176;
   (0, 2, 0) 1 0 0 0 0 0 0 0;
   (1, 2, 0) 0.775055 0.979883 0 0 0 0 0 0;
   (2, 2, 0) 0 0.825531 0.946021 0 0 0 0 0;
   (3, 2, 0) 0 0 0.866373 0.906461 0 0 0 0;
   (4, 2, 0) 0 0 0 0.891947 0.887109 0 0 0;
   (5, 2, 0) 0 0 0 0.782512 0.908533 0.865848 0 0;
   (6, 2, 0) 0 0 0 0 0.788706 0.930427 0.853125 0;
   (7, 2, 0) 0 0 0 0 0 0 0.982478 0.824776;
   (0, 3, 0) 1 0 0 0 0 0 0 0;
   (1, 3, 0) 0.829612 0.909368 0 0 0 0 0 0;
   (2, 3, 0) 0 0.933865 0.818128 0 0 0 0 0;
   (3, 3, 0) 0 0.78482 0.946904 0.790409 0 0 0 0;
   (4, 3, 0) 0 0 0.847534 0.917414 0.777653 0 0 0;
   (5, 3, 0) 0 0 0.792959 0.859212 0.917183 0 0 0;
   (6, 3, 0) 0 0 0 0 0.956128 0.853759 0 0;
   (7, 3, 0) 0.906739 0.906739 0.906739 0.906739 0.906739 0.906739 0.906739 0.906739;
   (0, 4, 0) 1 0 0 0 0 0 0 0;
   (1, 4, 0) 0.940856 0.797402 0 0 0 0 0 0;
   (2, 4, 0) 0.781657 0.983827 0.770874 0 0 0 0 0;
   (3, 4, 0) 0 0.915831 0.887774 0 0 0 0 0;
   (4, 4, 0) 0.8708 0.8708 0.8708 0.8708 0.8708 0 0 0;
   (5, 4, 0) 0.91118 0.91118 0.91118 0.91118 0.91118 0.91118 0 0;
   (6, 4, 0) 0.953034 0.953034 0.953034 0.953034 0.953034 0.953034 0.953034 0;
   (7, 4, 0) 1 1 1 1 1 1 1 1;
   (0, 0, 1) 1 0 0 0 0 0 0 0;
   (1, 0, 1) 0.735657 0.992447 0 0 0 0 0 0;
   (2, 0, 1) 0 0.764783 0.977237 0 0 0 0 0;
   (3, 0, 1) 0 0 0.783311 0.978331 0 0 0 0;
   (4, 0, 1) 0 0 0 0.765616 0.99414 0 0 0;
   (5, 0, 1) 0 0 0 0 0.796231 0.967397 0 0;
   (6, 0, 1) 0 0 0 0 0 0.78878 0.974241 0;
   (7, 0, 1) 0 0 0 0 0 0 0.853262 0.905052;
   (0, 1, 1) 1 0 0 0 0 0 0 0;
   (1, 1, 1) 0.771563 0.990468 0 0 0 0 0 0;
   (2, 1, 1) 0 0.78933 0.978619 0 0 0 0 0;
   (3, 1, 1) 0 0 0.810022 0.976479 0 0 0 0;
   (4, 1, 1) 0 0 0 0.830015 0.960004 0 0 0;
   (5, 1, 1) 0 0 0 0 0.839315 0.952806 0 0;
   (6, 1, 1) 0 0 0 0 0 0.843762 0.947504 0;
   (7, 1, 1) 0 0 0 0 0 0 0.926113 0.862302;
   (0, 2, 1) 1 0 0 0 0 0 0 0;
   (1, 2, 1) 0.784468 0.972973 0 0 0 0 0 0;
   (2, 2, 1) 0 0.833035 0.927842 0 0 0 0 0;
   (3, 2, 1) 0 0 0.877504 0.900642 0 0 0 0;
   (4, 2, 1) 0 0 0 0.896465 0.889664 0 0 0;
   (5, 2, 1) 0 0 0 0.785433 0.929108 0.850654 0 0;
   (6, 2, 1) 0 0 0 0 0.809957 0.933113 0.838622 0;
   (7, 2, 1) 0 0 0 0 0 0.795428 0.990701 0;
   (0, 3, 1) 1 0 0 0 0 0 0 0;
   (1, 3, 1) 0.837095 0.90392 0 0 0 0 0 0;
   (2, 3, 1) 0 0.941111 0.82092 0 0 0 0 0;
   (3, 3, 1) 0 0.7973 0.957605 0.786701 0 0 0 0;
   (4, 3, 1) 0 0 0.87539 0.897321 0.776699 0 0 0;
   (5, 3, 1) 0 0 0.789032 0.880993 0.895418 0.785426 0 0;
   (6, 3, 1) 0 0 0 0.812523 0.953131 0.835957 0 0;
   (7, 3, 1) 0.834864 0.834864 0.834864 0.834864 0.834864 0.834864 0.834864 0.834864;
   (0, 4, 1) 1 0 0 0 0 0 0 0;
   (1, 4, 1) 0.963632 0.772544 0 0 0 0 0 0;
   (2, 4, 1) 0.775714 0.986174 0.764961 0 0 0 0 0;
   (3, 4, 1) 0 0.955629 0.822516 0 0 0 0 0;
   (4, 4, 1) 0 0.848644 0.949548 0 0 0 0 0;
   (5, 4, 1) 0.838851 0.838851 0.838851 0.838851 0.838851 0.838851 0 0;
   (6, 4, 1) 0.846392 0.846392 0.846392 0.846392 0.846392 0.846392 0.846392 0;
   (7, 4, 1) 0.83248 0.83248 0.83248 0.83248 0.83248 0.83248 0.83248 0.83248;
   (0, 0, 2) 1 0 0 0 0 0 0 0;
   (1, 0, 2) 0 1 0 0 0 0 0 0;
   (2, 0, 2) 0 0.797726 0.985552 0 0 0 0 0;
   (3, 0, 2) 0 0 0.803528 0.984887 0 0 0 0;
   (4, 0, 2) 0 0 0 0.808952 0.991316 0 0 0;
   (5, 0, 2) 0 0 0 0 0.850298 0.955089 0 0;
   (6, 0, 2) 0 0 0 0 0 0.843905 0.982656 0;
   (7, 0, 2) 0 0 0 0 0 0 0.899499 0.916249;
   (0, 1, 2) 1 0 0 0 0 0 0 0;
   (1, 1, 2) 0.784735 0.990245 0 0 0 0 0 0;
   (2, 1, 2) 0 0.818325 0.97009 0 0 0 0 0;
   (3, 1, 2) 0 0 0.845042 0.966942 0 0 0 0;
   (4, 1, 2) 0 0 0 0.859975 0.954992 0 0 0;
   (5, 1, 2) 0 0 0 0 0.884185 0.931564 0 0;
   (6, 1, 2) 0 0 0 0 0 0.899845 0.932248 0;
   (7, 1, 2) 0 0 0 0 0 0 0.977104 0.85499;
   (0, 2, 2) 1 0 0 0 0 0 0 0;
   (1, 2, 2) 0.802124 0.964255 0 0 0 0 0 0;
   (2, 2, 2) 0 0.847296 0.931151 0 0 0 0 0;
   (3, 2, 2) 0 0 0.904003 0.886427 0 0 0 0;
   (4, 2, 2) 0 0 0.796533 0.937903 0.853345 0 0 0;
   (5, 2, 2) 0 0 0 0.821001 0.951359 0.850186 0 0;
   (6, 2, 2) 0 0 0 0 0.868681 0.928713 0.842417 0;
   (7, 2, 2) 0 0 0 0 0 0.860402 0.976734 0;
   (0, 3, 2) 1 0 0 0 0 0 0 0;
   (1, 3, 2) 0.878193 0.865686 0 0 0 0 0 0;
   (2, 3, 2) 0.774173 0.96878 0.799149 0 0 0 0 0;
   (3, 3, 2) 0 0.848954 0.932702 0.79362 0 0 0 0;
   (4, 3, 2) 0 0.819196 0.926106 0.858501 0 0 0 0;
   (5, 3, 2) 0 0.816409 0.840098 0.931894 0.851943 0 0 0;
   (6, 3, 2) 0 0 0 0.88917 0.950742 0 0 0;
   (7, 3, 2) 0.939941 0.939941 0.939941 0.939941 0.939941 0.939941 0.939941 0.939941;
   (0, 4, 2) 1 0 0 0 0 0 0 0;
   (1, 4, 2) 0.983034 0.778224 0 0 0 0 0 0;
   (2, 4, 2) 0.850669 0.944603 0 0 0 0 0 0;
   (3, 4, 2) 0 1 0 0 0 0 0 0;
   (4, 4, 2) 0 0 1 0 0 0 0 0;
   (5, 4, 2) 0.970892 0.970892 0.970892 0.970892 0.970892 0.970892 0 0;
   (6, 4, 2) 0.970061 0.970061 0.970061 0.970061 0.970061 0.970061 0.970061 0;
   (7, 4, 2) 1 1 1 1 1 1 1 1;
}
probability (lo_2 | lo_1, km_1, temp_1) {
   (0, 0, 0) 1 0 0 0 0 0 0 0;
   (1, 0, 0) 0 1 0 0 0 0 0 0;
   (2, 0, 0) 0 0.761971 0.982148 0 0 0 0 0;
   (3, 0, 0) 0 0 0 1 0 0 0 0;
   (4, 0, 0) 0 0 0 0.801809 0.979138 0 0 0;
   (5, 0, 0) 0 0 0 0 0.787077 0.980643 0 0;
   (6, 0, 0) 0 0 0 0 0 0 1 0;
   (7, 0, 0) 0 0 0 0 0 0 0.802563 0.978063;
   (0, 1, 0) 1 0 0 0 0 0 0 0;
   (1, 1, 0) 0.782278 0.992154 0 0 0 0 0 0;
   (2, 1, 0) 0 0.786519 0.98684 0 0 0 0 0;
   (3, 1, 0) 0 0 0.809164 0.972435 0 0 0 0;
   (4, 1, 0) 0 0 0 0.813255 0.977591 0 0 0;
   (5, 1, 0) 0 0 0 0 0.843055 0.948636 0 0;
   (6, 1, 0) 0 0 0 0 0 0.832344 0.958086 0;
   (7, 1, 0) 0 0 0 0 0 0 0.924629 0.876176;
   (0, 2, 0) 1 0 0 0 0 0 0 0;
   (1, 2, 0) 0.775055 0.979883 0 0 0 0 0 0;
   (2, 2, 0) 0 0.825531 0.946021 0 0 0 0 0;
   (3, 2, 0) 0 0 0.866373 0.906461 0 0 0 0;
   (4, 2, 0) 0 0 0 0.891947 0.887109 0 0 0;
   (5, 2, 0) 0 0 0 0.782512 0.908533 0.865848 0 0;
   (6, 2, 0) 0 0 0 0 0.788706 0.930427 0.853125 0;
   (7, 2, 0) 0 0 0 0 0 0 0.982478 0.824776;
   (0, 3, 0) 1 0 0 0 0 0 0 0;
   (1, 3, 0) 0.829612 0.909368 0 0 0 0 0 0;
   (2, 3, 0) 0 0.933865 0.818128 0 0 0 0 0;
   (3, 3, 0) 0 0.78482 0.946904 0.790409 0 0 0 0;
   (4, 3, 0) 0 0 0.847534 0.917414 0.777653 0 0 0;
   (5, 3, 0) 0 0 0.792959 0.859212 0.917183 0 0 0;
   (6, 3, 0) 0 0 0 0 0.956128 0.853759 0 0;
   (7, 3, 0) 0.906739 0.906739 0.906739 0.906739 0.906739 0.906739 0.906739 0.906739;
   (0, 4, 0) 1 0 0 0 0 0 0 0;
   (1, 4, 0) 0.940856 0.797402 0 0 0 0 0 0;
   (2, 4, 0) 0.781657 0.983827 0.770874 0 0 0 0 0;
   (3, 4, 0) 0 0.915831 0.887774 0 0 0 0 0;
   (4, 4, 0) 0.8708 0.8708 0.8708 0.8708 0.8708 0 0 0;
   (5, 4, 0) 0.91118 0.91118 0.91118 0.91118 0.91118 0.91118 0 0;
   (6, 4, 0) 0.953034 0.953034 0.953034 0.953034 0.953034 0.953034 0.953034 0;
   (7, 4, 0) 1 1 1 1 1 1 1 1;
   (0, 0, 1) 1 0 0 0 0 0 0 0;
   (1, 0, 1) 0.735657 0.992447 0 0 0 0 0 0;
   (2, 0, 1) 0 0.764783 0.977237 0 0 0 0 0;
   (3, 0, 1) 0 0 0.783311 0.978331 0 0 0 0;
   (4, 0, 1) 0 0 0 0.765616 0.99414 0 0 0;
   (5, 0, 1) 0 0 0 0 0.796231 0.967397 0 0;
   (6, 0, 1) 0 0 0 0 0 0.78878 0.974241 0;
   (7, 0, 1) 0 0 0 0 0 0 0.853262 0.905052;
   (0, 1, 1) 1 0 0 0 0 0 0 0;
   (1, 1, 1) 0.771563 0.990468 0 0 0 0 0 0;
   (2, 1, 1) 0 0.78933 0.978619 0 0 0 0 0;
   (3, 1, 1) 0 0 0.810022 0.976479 0 0 0 0;
   (4, 1, 1) 0 0 0 0.830015 0.960004 0 0 0;
   (5, 1, 1) 0 0 0 0 0.839315 0.952806 0 0;
   (6, 1, 1) 0 0 0 0 0 0.843762 0.947504 0;
   (7, 1, 1) 0 0 0 0 0 0 0.926113 0.862302;
   (0, 2, 1) 1 0 0 0 0 0 0 0;
   (1, 2, 1) 0.784468 0.972973 0 0 0 0 0 0;
   (2, 2, 1) 0 0.833035 0.927842 0 0 0 0 0;
   (3, 2, 1) 0 0 0.877504 0.900642 0 0 0 0;
   (4, 2, 1) 0 0 0 0.896465 0.889664 0 0 0;
   (5, 2, 1) 0 0 0 0.785433 0.929108 0.850654 0 0;
   (6, 2, 1) 0 0 0 0 0.809957 0.933113 0.838622 0;
   (7, 2, 1) 0 0 0 0 0 0.795428 0.990701 0;
   (0, 3, 1) 1 0 0 0 0 0 0 0;
   (1, 3, 1) 0.837095 0.90392 0 0 0 0 0 0;
   (2, 3, 1) 0 0.941111 0.82092 0 0 0 0 0;
   (3, 3, 1) 0 0.7973 0.957605 0.786701 0 0 0 0;
   (4, 3, 1) 0 0 0.87539 0.897321 0.776699 0 0 0;
   (5, 3, 1) 0 0 0.789032 0.880993 0.895418 0.785426 0 0;
   (6, 3, 1) 0 0 0 0.812523 0.953131 0.835957 0 0;
   (7, 3, 1) 0.834864 0.834864 0.834864 0.834864 0.834864 0.834864 0.834864 0.834864;
   (0, 4, 1) 1 0 0 0 0 0 0 0;
   (1, 4, 1) 0.963632 0.772544 0 0 0 0 0 0;
   (2, 4, 1) 0.775714 0.986174 0.764961 0 0 0 0 0;
   (3, 4, 1) 0 0.955629 0.822516 0 0 0 0 0;
   (4, 4, 1) 0 0.848644 0.949548 0 0 0 0 0;
   (5, 4, 1) 0.838851 0.838851 0.838851 0.838851 0.838851 0.838851 0 0;
   (6, 4, 1) 0.846392 0.846392 0.846392 0.846392 0.846392 0.846392 0.846392 0;
   (7, 4, 1) 0.83248 0.83248 0.83248 0.83248 0.83248 0.83248 0.83248 0.83248;
   (0, 0, 2) 1 0 0 0 0 0 0 0;
   (1, 0, 2) 0 1 0 0 0 0 0 0;
   (2, 0, 2) 0 0.797726 0.985552 0 0 0 0 0;
   (3, 0, 2) 0 0 0.803528 0.984887 0 0 0 0;
   (4, 0, 2) 0 0 0 0.808952 0.991316 0 0 0;
   (5, 0, 2) 0 0 0 0 0.850298 0.955089 0 0;
   (6, 0, 2) 0 0 0 0 0 0.843905 0.982656 0;
   (7, 0, 2) 0 0 0 0 0 0 0.899499 0.916249;
   (0, 1, 2) 1 0 0 0 0 0 0 0;
   (1, 1, 2) 0.784735 0.990245 0 0 0 0 0 0;
   (2, 1, 2) 0 0.818325 0.97009 0 0 0 0 0;
   (3, 1, 2) 0 0 0.845042 0.966942 0 0 0 0;
   (4, 1, 2) 0 0 0 0.859975 0.954992 0 0 0;
   (5, 1, 2) 0 0 0 0 0.884185 0.931564 0 0;
   (6, 1, 2) 0 0 0 0 0 0.899845 0.932248 0;
   (7, 1, 2) 0 0 0 0 0 0 0.977104 0.85499;
   (0, 2, 2) 1 0 0 0 0 0 0 0;
   (1, 2, 2) 0.802124 0.964255 0 0 0 0 0 0;
   (2, 2, 2) 0 0.847296 0.931151 0 0 0 0 0;
   (3, 2, 2) 0 0 0.904003 0.886427 0 0 0 0;
   (4, 2, 2) 0 0 0.796533 0.937903 0.853345 0 0 0;
   (5, 2, 2) 0 0 0 0.821001 0.951359 0.850186 0 0;
   (6, 2, 2) 0 0 0 0 0.868681 0.928713 0.842417 0;
   (7, 2, 2) 0 0 0 0 0 0.860402 0.976734 0;
   (0, 3, 2) 1 0 0 0 0 0 0 0;
   (1, 3, 2) 0.878193 0.865686 0 0 0 0 0 0;
   (2, 3, 2) 0.774173 0.96878 0.799149 0 0 0 0 0;
   (3, 3, 2) 0 0.848954 0.932702 0.79362 0 0 0 0;
   (4, 3, 2) 0 0.819196 0.926106 0.858501 0 0 0 0;
   (5, 3, 2) 0 0.816409 0.840098 0.931894 0.851943 0 0 0;
   (6, 3, 2) 0 0 0 0.88917 0.950742 0 0 0;
   (7, 3, 2) 0.939941 0.939941 0.939941 0.939941 0.939941 0.939941 0.939941 0.939941;
   (0, 4, 2) 1 0 0 0 0 0 0 0;
   (1, 4, 2) 0.983034 0.778224 0 0 0 0 0 0;
   (2, 4, 2) 0.850669 0.944603 0 0 0 0 0 0;
   (3, 4, 2) 0 1 0 0 0 0 0 0;
   (4, 4, 2) 0 0 1 0 0 0 0 0;
   (5, 4, 2) 0.970892 0.970892 0.970892 0.970892 0.970892 0.970892 0 0;
   (6, 4, 2) 0.970061 0.970061 0.970061 0.970061 0.970061 0.970061 0.970061 0;
   (7, 4, 2) 1 1 1 1 1 1 1 1;
}
probability (lo_3 | lo_2, km_2, temp_2) {
   (0, 0, 0) 1 0 0 0 0 0 0 0;
   (1, 0, 0) 0 1 0 0 0 0 0 0;
   (2, 0, 0) 0 0.761971 0.982148 0 0 0 0 0;
   (3, 0, 0) 0 0 0 1 0 0 0 0;
   (4, 0, 0) 0 0 0 0.801809 0.979138 0 0 0;
   (5, 0, 0) 0 0 0 0 0.787077 0.980643 0 0;
   (6, 0, 0) 0 0 0 0 0 0 1 0;
   (7, 0, 0) 0 0 0 0 0 0 0.802563 0.978063;
   (0, 1, 0) 1 0 0 0 0 0 0 0;
   (1, 1, 0) 0.782278 0.992154 0 0 0 0 0 0;
   (2, 1, 0) 0 0.786519 0.98684 0 0 0 0 0;
   (3, 1, 0) 0 0 0.809164 0.972435 0 0 0 0;
   (4, 1, 0) 0 0 0 0.813255 0.977591 0 0 0;
   (5, 1, 0) 0 0 0 0 0.843055 0.948636 0 0;
   (6, 1, 0) 0 0 0 0 0 0.832344 0.958086 0;
   (7, 1, 0) 0 0 0 0 0 0 0.924629 0.876176;
   (0, 2, 0) 1 0 0 0 0 0 0 0;
   (1, 2, 0) 0.775055 0.979883 0 0 0 0 0 0;
   (2, 2, 0) 0 0.825531 0.946021 0 0 0 0 0;
   (3, 2, 0) 0 0 0.866373 0.906461 0 0 0 0;
   (4, 2, 0) 0 0 0 0.891947 0.887109 0 0 0;
   (5, 2, 0) 0 0 0 0.782512 0.908533 0.865848 0 0;
   (6, 2, 0) 0 0 0 0 0.788706 0.930427 0.853125 0;
   (7, 2, 0) 0 0 0 0 0 0 0.982478 0.824776;
   (0, 3, 0) 1 0 0 0 0 0 0 0;
   (1, 3, 0) 0.829612 0.909368 0 0 0 0 0 0;
   (2, 3, 0) 0 0.933865 0.818128 0 0 0 0 0;
   (3, 3, 0) 0 0.78482 0.946904 0.790409 0 0 0 0;
   (4, 3, 0) 0 0 0.847534 0.917414 0.777653 0 0 0;
   (5, 3, 0) 0 0 0.792959 0.859212 0.917183 0 0 0;
   (6, 3, 0) 0 0 0 0 0.956128 0.853759 0 0;
   (7, 3, 0) 0.906739 0.906739 0.906739 0.906739 0.906739 0.906739 0.906739 0.906739;
   (0, 4, 0) 1 0 0 0 0 0 0 0;
   (1, 4, 0) 0.940856 0.797402 0 0 0 0 0 0;
   (2, 4, 0) 0.781657 0.983827 0.770874 0 0 0 0 0;
   (3, 4, 0) 0 0.915831 0.887774 0 0 0 0 0;
   (4, 4, 0) 0.8708 0.8708 0.8708 0.8708 0.8708 0 0 0;
   (5, 4, 0) 0.91118 0.91118 0.91118 0.91118 0.91118 0.91118 0 0;
   (6, 4, 0) 0.953034 0.953034 0.953034 0.953034 0.953034 0.953034 0.953034 0;
   (7, 4, 0) 1 1 1 1 1 1 1 1;
   (0, 0, 1) 1 0 0 0 0 0 0 0;
   (1, 0, 1) 0.735657 0.992447 0 0 0 0 0 0;
   (2, 0, 1) 0 0.764783 0.977237 0 0 0 0 0;
   (3, 0, 1) 0 0 0.783311 0.978331 0 0 0 0;
   (4, 0, 1) 0 0 0 0.765616 0.99414 0 0 0;
   (5, 0, 1) 0 0 0 0 0.796231 0.967397 0 0;
   (6, 0, 1) 0 0 0 0 0 0.78878 0.974241 0;
   (7, 0, 1) 0 0 0 0 0 0 0.853262 0.905052;
   (0, 1, 1) 1 0 0 0 0 0 0 0;
   (1, 1, 1) 0.771563 0.990468 0 0 0 0 0 0;
   (2, 1, 1) 0 0.78933 0.978619 0 0 0 0 0;
   (3, 1, 1) 0 0 0.810022 0.976479 0 0 0 0;
   (4, 1, 1) 0 0 0 0.830015 0.960004 0 0 0;
   (5, 1, 1) 0 0 0 0 0.839315 0.952806 0 0;
   (6, 1, 1) 0 0 0 0 0 0.843762 0.947504 0;
   (7, 1, 1) 0 0 0 0 0 0 0.926113 0.862302;
   (0, 2, 1) 1 0 0 0 0 0 0 0;
   (1, 2, 1) 0.784468 0.972973 0 0 0 0 0 0;
   (2, 2, 1) 0 0.833035 0.927842 0 0 0 0 0;
   (3, 2, 1) 0 0 0.877504 0.900642 0 0 0 0;
   (4, 2, 1) 0 0 0 0.896465 0.889664 0 0 0;
   (5, 2, 1) 0 0 0 0.785433 0.929108 0.850654 0 0;
   (6, 2, 1) 0 0 0 0 0.809957 0.933113 0.838622 0;
   (7, 2, 1) 0 0 0 0 0 0.795428 0.990701 0;
   (0, 3, 1) 1 0 0 0 0 0 0 0;
   (1, 3, 1) 0.837095 0.90392 0 0 0 0 0 0;
   (2, 3, 1) 0 0.941111 0.82092 0 0 0 0 0;
   (3, 3, 1) 0 0.7973 0.957605 0.786701 0 0 0 0;
   (4, 3, 1) 0 0 0.87539 0.897321 0.776699 0 0 0;
   (5, 3, 1) 0 0 0.789032 0.880993 0.895418 0.785426 0 0;
   (6, 3, 1) 0 0 0 0.812523 0.953131 0.835957 0 0;
   (7, 3, 1) 0.834864 0.834864 0.834864 0.834864 0.834864 0.834864 0.834864 0.834864;
   (0, 4, 1) 1 0 0 0 0 0 0 0;
   (1, 4, 1) 0.963632 0.772544 0 0 0 0 0 0;
   (2, 4, 1) 0.775714 0.986174 0.764961 0 0 0 0 0;
   (3, 4, 1) 0 0.955629 0.822516 0 0 0 0 0;
   (4, 4, 1) 0 0.848644 0.949548 0 0 0 0 0;
   (5, 4, 1) 0.838851 0.838851 0.838851 0.838851 0.838851 0.838851 0 0;
   (6, 4, 1) 0.846392 0.846392 0.846392 0.846392 0.846392 0.846392 0.846392 0;
   (7, 4, 1) 0.83248 0.83248 0.83248 0.83248 0.83248 0.83248 0.83248 0.83248;
   (0, 0, 2) 1 0 0 0 0 0 0 0;
   (1, 0, 2) 0 1 0 0 0 0 0 0;
   (2, 0, 2) 0 0.797726 0.985552 0 0 0 0 0;
   (3, 0, 2) 0 0 0.803528 0.984887 0 0 0 0;
   (4, 0, 2) 0 0 0 0.808952 0.991316 0 0 0;
   (5, 0, 2) 0 0 0 0 0.850298 0.955089 0 0;
   (6, 0, 2) 0 0 0 0 0 0.843905 0.982656 0;
   (7, 0, 2) 0 0 0 0 0 0 0.899499 0.916249;
   (0, 1, 2) 1 0 0 0 0 0 0 0;
   (1, 1, 2) 0.784735 0.990245 0 0 0 0 0 0;
   (2, 1, 2) 0 0.818325 0.97009 0 0 0 0 0;
   (3, 1, 2) 0 0 0.845042 0.966942 0 0 0 0;
   (4, 1, 2) 0 0 0 0.859975 0.954992 0 0 0;
   (5, 1, 2) 0 0 0 0 0.884185 0.931564 0 0;
   (6, 1, 2) 0 0 0 0 0 0.899845 0.932248 0;
   (7, 1, 2) 0 0 0 0 0 0 0.977104 0.85499;
   (0, 2, 2) 1 0 0 0 0 0 0 0;
   (1, 2, 2) 0.802124 0.964255 0 0 0 0 0 0;
   (2, 2, 2) 0 0.847296 0.931151 0 0 0 0 0;
   (3, 2, 2) 0 0 0.904003 0.886427 0 0 0 0;
   (4, 2, 2) 0 0 0.796533 0.937903 0.853345 0 0 0;
   (5, 2, 2) 0 0 0 0.821001 0.951359 0.850186 0 0;
   (6, 2, 2) 0 0 0 0 0.868681 0.928713 0.842417 0;
   (7, 2, 2) 0 0 0 0 0 0.860402 0.976734 0;
   (0, 3, 2) 1 0 0 0 0 0 0 0;
   (1, 3, 2) 0.878193 0.865686 0 0 0 0 0 0;
   (2, 3, 2) 0.774173 0.96878 0.799149 0 0 0 0 0;
   (3, 3, 2) 0 0.848954 0.932702 0.79362 0 0 0 0;
   (4, 3, 2) 0 0.819196 0.926106 0.858501 0 0 0 0;
   (5, 3, 2) 0 0.816409 0.840098 0.931894 0.851943 0 0 0;
   (6, 3, 2) 0 0 0 0.88917 0.950742 0 0 0;
   (7, 3, 2) 0.939941 0.939941 0.939941 0.939941 0.939941 0.939941 0.939941 0.939941;
   (0, 4, 2) 1 0 0 0 0 0 0 0;
   (1, 4, 2) 0.983034 0.778224 0 0 0 0 0 0;
   (2, 4, 2) 0.850669 0.944603 0 0 0 0 0 0;
   (3, 4, 2) 0 1 0 0 0 0 0 0;
   (4, 4, 2) 0 0 1 0 0 0 0 0;
   (5, 4, 2) 0.970892 0.970892 0.970892 0.970892 0.970892 0.970892 0 0;
   (6, 4, 2) 0.970061 0.970061 0.970061 0.970061 0.970061 0.970061 0.970061 0;
   (7, 4, 2) 1 1 1 1 1 1 1 1;
}
probability (lo_4 | lo_3, km_3, temp_3) {
   (0, 0, 0) 1 0 0 0 0 0 0 0;
   (1, 0, 0) 0 1 0 0 0 0 0 0;
   (2, 0, 0) 0 0.761971 0.982148 0 0 0 0 0;
   (3, 0, 0) 0 0 0 1 0 0 0 0;
   (4, 0, 0) 0 0 0 0.801809 0.979138 0 0 0;
   (5, 0, 0) 0 0 0 0 0.787077 0.980643 0 0;
   (6, 0, 0) 0 0 0 0 0 0 1 0;
   (7, 0, 0) 0 0 0 0 0 0 0.802563 0.978063;
   (0, 1, 0) 1 0 0 0 0 0 0 0;
   (1, 1, 0) 0.782278 0.992154 0 0 0 0 0 0;
   (2, 1, 0) 0 0.786519 0.98684 0 0 0 0 0;
   (3, 1, 0) 0 0 0.809164 0.972435 0 0 0 0;
   (4, 1, 0) 0 0 0 0.813255 0.977591 0 0 0;
   (5, 1, 0) 0 0 0 0 0.843055 0.948636 0 0;
   (6, 1, 0) 0 0 0 0 0 0.832344 0.958086 0;
   (7, 1, 0) 0 0 0 0 0 0 0.924629 0.876176;
   (0, 2, 0) 1 0 0 0 0 0 0 0;
   (1, 2, 0) 0.775055 0.979883 0 0 0 0 0 0;
   (2, 2, 0) 0 0.825531 0.946021 0 0 0 0 0;
   (3, 2, 0) 0 0 0.866373 0.906461 0 0 0 0;
   (4, 2, 0) 0 0 0 0.891947 0.887109 0 0 0;
   (5, 2, 0) 0 0 0 0.782512 0.908533 0.865848 0 0;
   (6, 2, 0) 0 0 0 0 0.788706 0.930427 0.853125 0;
   (7, 2, 0) 0 0 0 0 0 0 0.982478 0.824776;
   (0, 3, 0) 1 0 0 0 0 0 0 0;
   (1, 3, 0) 0.829612 0.909368 0 0 0 0 0 0;
   (2, 3, 0) 0 0.933865 0.818128 0 0 0 0 0;
   (3, 3, 0) 0 0.78482 0.946904 0.790409 0 0 0 0;
   (4, 3, 0) 0 0 0.847534 0.917414 0.777653 0 0 0;
   (5, 3, 0) 0 0 0.792959 0.859212 0.917183 0 0 0;
   (6, 3, 0) 0 0 0 0 0.956128 0.853759 0 0;
   (7, 3, 0) 0.906739 0.906739 0.906739 0.906739 0.906739 0.906739 0.906739 0.906739;
   (0, 4, 0) 1 0 0 0 0 0 0 0;
   (1, 4, 0) 0.940856 0.797402 0 0 0 0 0 0;
   (2, 4, 0) 0.781657 0.983827 0.770874 0 0 0 0 0;
   (3, 4, 0) 0 0.915831 0.887774 0 0 0 0 0;
   (4, 4, 0) 0.8708 0.8708 0.8708 0.8708 0.8708 0 0 0;
   (5, 4, 0) 0.91118 0.91118 0.91118 0.91118 0.91118 0.91118 0 0;
   (6, 4, 0) 0.953034 0.953034 0.953034 0.953034 0.953034 0.953034 0.953034 0;
   (7, 4, 0) 1 1 1 1 1 1 1 1;
   (0, 0, 1) 1 0 0 0 0 0 0 0;
   (1, 0, 1) 0.735657 0.992447 0 0 0 0 0 0;
   (2, 0, 1) 0 0.764783 0.977237 0 0 0 0 0;
   (3, 0, 1) 0 0 0.783311 0.978331 0 0 0 0;
   (4, 0, 1) 0 0 0 0.765616 0.99414 0 0 0;
   (5, 0, 1) 0 0 0 0 0.796231 0.967397 0 0;
   (6, 0, 1) 0 0 0 0 0 0.78878 0.974241 0;
   (7, 0, 1) 0 0 0 0 0 0 0.853262 0.905052;
   (0, 1, 1) 1 0 0 0 0 0 0 0;
   (1, 1, 1) 0.771563 0.990468 0 0 0 0 0 0;
   (2, 1, 1) 0 0.78933 0.978619 0 0 0 0 0;
   (3, 1, 1) 0 0 0.810022 0.976479 0 0 0 0;
   (4, 1, 1) 0 0 0 0.830015 0.960004 0 0 0;
   (5, 1, 1) 0 0 0 0 0.839315 0.952806 0 0;
   (6, 1, 1) 0 0 0 0 0 0.843762 0.947504 0;
   (7, 1, 1) 0 0 0 0 0 0 0.926113 0.862302;
   (0, 2, 1) 1 0 0 0 0 0 0 0;
   (1, 2, 1) 0.784468 0.972973 0 0 0 0 0 0;
   (2, 2, 1) 0 0.833035 0.927842 0 0 0 0 0;
   (3, 2, 1) 0 0 0.877504 0.900642 0 0 0 0;
   (4, 2, 1) 0 0 0 0.896465 0.889664 0 0 0;
   (5, 2, 1) 0 0 0 0.785433 0.929108 0.850654 0 0;
   (6, 2, 1) 0 0 0 0 0.809957 0.933113 0.838622 0;
   (7, 2, 1) 0 0 0 0 0 0.795428 0.990701 0;
   (0, 3, 1) 1 0 0 0 0 0 0 0;
   (1, 3, 1) 0.837095 0.90392 0 0 0 0 0 0;
   (2, 3, 1) 0 0.941111 0.82092 0 0 0 0 0;
   (3, 3, 1) 0 0.7973 0.957605 0.786701 0 0 0 0;
   (4, 3, 1) 0 0 0.87539 0.897321 0.776699 0 0 0;
   (5, 3, 1) 0 0 0.789032 0.880993 0.895418 0.785426 0 0;
   (6, 3, 1) 0 0 0 0.812523 0.953131 0.835957 0 0;
   (7, 3, 1) 0.834864 0.834864 0.834864 0.834864 0.834864 0.834864 0.834864 0.834864;
   (0, 4, 1) 1 0 0 0 0 0 0 0;
   (1, 4, 1) 0.963632 0.772544 0 0 0 0 0 0;
   (2, 4, 1) 0.775714 0.986174 0.764961 0 0 0 0 0;
   (3, 4, 1) 0 0.955629 0.822516 0 0 0 0 0;
   (4, 4, 1) 0 0.848644 0.949548 0 0 0 0 0;
   (5, 4, 1) 0.838851 0.838851 0.838851 0.838851 0.838851 0.838851 0 0;
   (6, 4, 1) 0.846392 0.846392 0.846392 0.846392 0.846392 0.846392 0.846392 0;
   (7, 4, 1) 0.83248 0.83248 0.83248 0.83248 0.83248 0.83248 0.83248 0.83248;
   (0, 0, 2) 1 0 0 0 0 0 0 0;
   (1, 0, 2) 0 1 0 0 0 0 0 0;
   (2, 0, 2) 0 0.797726 0.985552 0 0 0 0 0;
   (3, 0, 2) 0 0 0.803528 0.984887 0 0 0 0;
   (4, 0, 2) 0 0 0 0.808952 0.991316 0 0 0;
   (5, 0, 2) 0 0 0 0 0.850298 0.955089 0 0;
   (6, 0, 2) 0 0 0 0 0 0.843905 0.982656 0;
   (7, 0, 2) 0 0 0 0 0 0 0.899499 0.916249;
   (0, 1, 2) 1 0 0 0 0 0 0 0;
   (1, 1, 2) 0.784735 0.990245 0 0 0 0 0 0;
   (2, 1, 2) 0 0.818325 0.97009 0 0 0 0 0;
   (3, 1, 2) 0 0 0.845042 0.966942 0 0 0 0;
   (4, 1, 2) 0 0 0 0.859975 0.954992 0 0 0;
   (5, 1, 2) 0 0 0 0 0.884185 0.931564 0 0;
   (6, 1, 2) 0 0 0 0 0 0.899845 0.932248 0;
   (7, 1, 2) 0 0 0 0 0 0 0.977104 0.85499;
   (0, 2, 2) 1 0 0 0 0 0 0 0;
   (1, 2, 2) 0.802124 0.964255 0 0 0 0 0 0;
   (2, 2, 2) 0 0.847296 0.931151 0 0 0 0 0;
   (3, 2, 2) 0 0 0.904003 0.886427 0 0 0 0;
   (4, 2, 2) 0 0 0.796533 0.937903 0.853345 0 0 0;
   (5, 2, 2) 0 0 0 0.821001 0.951359 0.850186 0 0;
   (6, 2, 2) 0 0 0 0 0.868681 0.928713 0.842417 0;
   (7, 2, 2) 0 0 0 0 0 0.860402 0.976734 0;
   (0, 3, 2) 1 0 0 0 0 0 0 0;
   (1, 3, 2) 0.878193 0.865686 0 0 0 0 0 0;
   (2, 3, 2) 0.774173 0.96878 0.799149 0 0 0 0 0;
   (3, 3, 2) 0 0.848954 0.932702 0.79362 0 0 0 0;
   (4, 3, 2) 0 0.819196 0.926106 0.858501 0 0 0 0;
   (5, 3, 2) 0 0.816409 0.840098 0.931894 0.851943 0 0 0;
   (6, 3, 2) 0 0 0 0.88917 0.950742 0 0 0;
   (7, 3, 2) 0.939941 0.939941 0.939941 0.939941 0.939941 0.939941 0.939941 0.939941;
   (0, 4, 2) 1 0 0 0 0 0 0 0;
   (1, 4, 2) 0.983034 0.778224 0 0 0 0 0 0;
   (2, 4, 2) 0.850669 0.944603 0 0 0 0 0 0;
   (3, 4, 2) 0 1 0 0 0 0 0 0;
   (4, 4, 2) 0 0 1 0 0 0 0 0;
   (5, 4, 2) 0.970892 0.970892 0.970892 0.970892 0.970892 0.970892 0 0;
   (6, 4, 2) 0.970061 0.970061 0.970061 0.970061 0.970061 0.970061 0.970061 0;
   (7, 4, 2) 1 1 1 1 1 1 1 1;
}
probability (lo_5 | lo_4, km_4, temp_4) {
   (0, 0, 0) 1 0 0 0 0 0 0 0;
   (1, 0, 0) 0 1 0 0 0 0 0 0;
   (2, 0, 0) 0 0.761971 0.982148 0 0 0 0 0;
   (3, 0, 0) 0 0 0 1 0 0 0 0;
   (4, 0, 0) 0 0 0 0.801809 0.979138 0 0 0;
   (5, 0, 0) 0 0 0 0 0.787077 0.980643 0 0;
   (6, 0, 0) 0 0 0 0 0 0 1 0;
   (7, 0, 0) 0 0 0 0 0 0 0.802563 0.978063;
   (0, 1, 0) 1 0 0 0 0 0 0 0;
   (1, 1, 0) 0.782278 0.992154 0 0 0 0 0 0;
   (2, 1, 0) 0 0.786519 0.98684 0 0 0 0 0;
   (3, 1, 0) 0 0 0.809164 0.972435 0 0 0 0;
   (4, 1, 0) 0 0 0 0.813255 0.977591 0 0 0;
   (5, 1, 0) 0 0 0 0 0.843055 0.948636 0 0;
   (6, 1, 0) 0 0 0 0 0 0.832344 0.958086 0;
   (7, 1, 0) 0 0 0 0 0 0 0.924629 0.876176;
   (0, 2, 0) 1 0 0 0 0 0 0 0;
   (1, 2, 0) 0.775055 0.979883 0 0 0 0 0 0;
   (2, 2, 0) 0 0.825531 0.946021 0 0 0 0 0;
   (3, 2, 0) 0 0 0.866373 0.906461 0 0 0 0;
   (4, 2, 0) 0 0 0 0.891947 0.887109 0 0 0;
   (5, 2, 0) 0 0 0 0.782512 0.908533 0.865848 0 0;
   (6, 2, 0) 0 0 0 0 0.788706 0.930427 0.853125 0;
   (7, 2, 0) 0 0 0 0 0 0 0.982478 0.824776;
   (0, 3, 0) 1 0 0 0 0 0 0 0;
   (1, 3, 0) 0.829612 0.909368 0 0 0 0 0 0;
   (2, 3, 0) 0 0.933865 0.818128 0 0 0 0 0;
   (3, 3, 0) 0 0.78482 0.946904 0.790409 0 0 0 0;
   (4, 3, 0) 0 0 0.847534 0.917414 0.777653 0 0 0;
   (5, 3, 0) 0 0 0.792959 0.859212 0.917183 0 0 0;
   (6, 3, 0) 0 0 0 0 0.956128 0.853759 0 0;
   (7, 3, 0) 0.906739 0.906739 0.906739 0.906739 0.906739 0.906739 0.906739 0.906739;
   (0, 4, 0) 1 0 0 0 0 0 0 0;
   (1, 4, 0) 0.940856 0.797402 0 0 0 0 0 0;
   (2, 4, 0) 0.781657 0.983827 0.770874 0 0 0 0 0;
   (3, 4, 0) 0 0.915831 0.887774 0 0 0 0 0;
   (4, 4, 0) 0.8708 0.8708 0.8708 0.8708 0.8708 0 0 0;
   (5, 4, 0) 0.91118 0.91118 0.91118 0.91118 0.91118 0.91118 0 0;
   (6, 4, 0) 0.953034 0.953034 0.953034 0.953034 0.953034 0.953034 0.953034 0;
   (7, 4, 0) 1 1 1 1 1 1 1 1;
   (0, 0, 1) 1 0 0 0 0 0 0 0;
   (1, 0, 1) 0.735657 0.992447 0 0 0 0 0 0;
   (2, 0, 1) 0 0.764783 0.977237 0 0 0 0 0;
   (3, 0, 1) 0 0 0.783311 0.978331 0 0 0 0;
   (4, 0, 1) 0 0 0 0.765616 0.99414 0 0 0;
   (5, 0, 1) 0 0 0 0 0.796231 0.967397 0 0;
   (6, 0, 1) 0 0 0 0 0 0.78878 0.974241 0;
   (7, 0, 1) 0 0 0 0 0 0 0.853262 0.905052;
   (0, 1, 1) 1 0 0 0 0 0 0 0;
   (1, 1, 1) 0.771563 0.990468 0 0 0 0 0 0;
   (2, 1, 1) 0 0.78933 0.978619 0 0 0 0 0;
   (3, 1, 1) 0 0 0.810022 0.976479 0 0 0 0;
   (4, 1, 1) 0 0 0 0.830015 0.960004 0 0 0;
   (5, 1, 1) 0 0 0 0 0.839315 0.952806 0 0;
   (6, 1, 1) 0 0 0 0 0 0.843762 0.947504 0;
   (7, 1, 1) 0 0 0 0 0 0 0.926113 0.862302;
   (0, 2, 1) 1 0 0 0 0 0 0 0;
   (1, 2, 1) 0.784468 0.972973 0 0 0 0 0 0;
   (2, 2, 1) 0 0.833035 0.927842 0 0 0 0 0;
   (3, 2, 1) 0 0 0.877504 0.900642 0 0 0 0;
   (4, 2, 1) 0 0 0 0.896465 0.889664 0 0 0;
   (5, 2, 1) 0 0 0 0.785433 0.929108 0.850654 0 0;
   (6, 2, 1) 0 0 0 0 0.809957 0.933113 0.838622 0;
   (7, 2, 1) 0 0 0 0 0 0.795428 0.990701 0;
   (0, 3, 1) 1 0 0 0 0 0 0 0;
   (1, 3, 1) 0.837095 0.90392 0 0 0 0 0 0;
   (2, 3, 1) 0 0.941111 0.82092 0 0 0 0 0;
   (3, 3, 1) 0 0.7973 0.957605 0.786701 0 0 0 0;
   (4, 3, 1) 0 0 0.87539 0.897321 0.776699 0 0 0;
   (5, 3, 1) 0 0 0.789032 0.880993 0.895418 0.785426 0 0;
   (6, 3, 1) 0 0 0 0.812523 0.953131 0.835957 0 0;
   (7, 3, 1) 0.834864 0.834864 0.834864 0.834864 0.834864 0.834864 0.834864 0.834864;
   (0, 4, 1) 1 0 0 0 0 0 0 0;
   (1, 4, 1) 0.963632 0.772544 0 0 0 0 0 0;
   (2, 4, 1) 0.775714 0.986174 0.764961 0 0 0 0 0;
   (3, 4, 1) 0 0.955629 0.822516 0 0 0 0 0;
   (4, 4, 1) 0 0.848644 0.949548 0 0 0 0 0;
   (5, 4, 1) 0.838851 0.838851 0.838851 0.838851 0.838851 0.838851 0 0;
   (6, 4, 1) 0.846392 0.846392 0.846392 0.846392 0.846392 0.846392 0.846392 0;
   (7, 4, 1) 0.83248 0.83248 0.83248 0.83248 0.83248 0.83248 0.83248 0.83248;
   (0, 0, 2) 1 0 0 0 0 0 0 0;
   (1, 0, 2) 0 1 0 0 0 0 0 0;
   (2, 0, 2) 0 0.797726 0.985552 0 0 0 0 0;
   (3, 0, 2) 0 0 0.803528 0.984887 0 0 0 0;
   (4, 0, 2) 0 0 0 0.808952 0.991316 0 0 0;
   (5, 0, 2) 0 0 0 0 0.850298 0.955089 0 0;
   (6, 0, 2) 0 0 0 0 0 0.843905 0.982656 0;
   (7, 0, 2) 0 0 0 0 0 0 0.899499 0.916249;
   (0, 1, 2) 1 0 0 0 0 0 0 0;
   (1, 1, 2) 0.784735 0.990245 0 0 0 0 0 0;
   (2, 1, 2) 0 0.818325 0.97009 0 0 0 0 0;
   (3, 1, 2) 0 0 0.845042 0.966942 0 0 0 0;
   (4, 1, 2) 0 0 0 0.859975 0.954992 0 0 0;
   (5, 1, 2) 0 0 0 0 0.884185 0.931564 0 0;
   (6, 1, 2) 0 0 0 0 0 0.899845 0.932248 0;
   (7, 1, 2) 0 0 0 0 0 0 0.977104 0.85499;
   (0, 2, 2) 1 0 0 0 0 0 0 0;
   (1, 2, 2) 0.802124 0.964255 0 0 0 0 0 0;
   (2, 2, 2) 0 0.847296 0.931151 0 0 0 0 0;
   (3, 2, 2) 0 0 0.904003 0.886427 0 0 0 0;
   (4, 2, 2) 0 0 0.796533 0.937903 0.853345 0 0 0;
   (5, 2, 2) 0 0 0 0.821001 0.951359 0.850186 0 0;
   (6, 2, 2) 0 0 0 0 0.868681 0.928713 0.842417 0;
   (7, 2, 2) 0 0 0 0 0 0.860402 0.976734 0;
   (0, 3, 2) 1 0 0 0 0 0 0 0;
   (1, 3, 2) 0.878193 0.865686 0 0 0 0 0 0;
   (2, 3, 2) 0.774173 0.96878 0.799149 0 0 0 0 0;
   (3, 3, 2) 0 0.848954 0.932702 0.79362 0 0 0 0;
   (4, 3, 2) 0 0.819196 0.926106 0.858501 0 0 0 0;
   (5, 3, 2) 0 0.816409 0.840098 0.931894 0.851943 0 0 0;
   (6, 3, 2) 0 0 0 0.88917 0.950742 0 0 0;
   (7, 3, 2) 0.939941 0.939941 0.939941 0.939941 0.939941 0.939941 0.939941 0.939941;
   (0, 4, 2) 1 0 0 0 0 0 0 0;
   (1, 4, 2) 0.983034 0.778224 0 0 0 0 0 0;
   (2, 4, 2) 0.850669 0.944603 0 0 0 0 0 0;
   (3, 4, 2) 0 1 0 0 0 0 0 0;
   (4, 4, 2) 0 0 1 0 0 0 0 0;
   (5, 4, 2) 0.970892 0.970892 0.970892 0.970892 0.970892 0.970892 0 0;
   (6, 4, 2) 0.970061 0.970061 0.970061 0.970061 0.970061 0.970061 0.970061 0;
   (7, 4, 2) 1 1 1 1 1 1 1 1;
}
probability (lo_6 | lo_5, km_5, temp_5) {
   (0, 0, 0) 1 0 0 0 0 0 0 0;
   (1, 0, 0) 0 1 0 0 0 0 0 0;
   (2, 0, 0) 0 0.761971 0.982148 0 0 0 0 0;
   (3, 0, 0) 0 0 0 1 0 0 0 0;
   (4, 0, 0) 0 0 0 0.801809 0.979138 0 0 0;
   (5, 0, 0) 0 0 0 0 0.787077 0.980643 0 0;
   (6, 0, 0) 0 0 0 0 0 0 1 0;
   (7, 0, 0) 0 0 0 0 0 0 0.802563 0.978063;
   (0, 1, 0) 1 0 0 0 0 0 0 0;
   (1, 1, 0) 0.782278 0.992154 0 0 0 0 0 0;
   (2, 1, 0) 0 0.786519 0.98684 0 0 0 0 0;
   (3, 1, 0) 0 0 0.809164 0.972435 0 0 0 0;
   (4, 1, 0) 0 0 0 0.813255 0.977591 0 0 0;
   (5, 1, 0) 0 0 0 0 0.843055 0.948636 0 0;
   (6, 1, 0) 0 0 0 0 0 0.832344 0.958086 0;
   (7, 1, 0) 0 0 0 0 0 0 0.924629 0.876176;
   (0, 2, 0) 1 0 0 0 0 0 0 0;
   (1, 2, 0) 0.775055 0.979883 0 0 0 0 0 0;
   (2, 2, 0) 0 0.825531 0.946021 0 0 0 0 0;
   (3, 2, 0) 0 0 0.866373 0.906461 0 0 0 0;
   (4, 2, 0) 0 0 0 0.891947 0.887109 0 0 0;
   (5, 2, 0) 0 0 0 0.782512 0.908533 0.865848 0 0;
   (6, 2, 0) 0 0 0 0 0.788706 0.930427 0.853125 0;
   (7, 2, 0) 0 0 0 0 0 0 0.982478 0.824776;
   (0, 3, 0) 1 0 0 0 0 0 0 0;
   (1, 3, 0) 0.829612 0.909368 0 0 0 0 0 0;
   (2, 3, 0) 0 0.933865 0.818128 0 0 0 0 0;
   (3, 3, 0) 0 0.78482 0.946904 0.790409 0 0 0 0;
   (4, 3, 0) 0 0 0.847534 0.917414 0.777653 0 0 0;
   (5, 3, 0) 0 0 0.792959 0.859212 0.917183 0 0 0;
   (6, 3, 0) 0 0 0 0 0.956128 0.853759 0 0;
   (7, 3, 0) 0.906739 0.906739 0.906739 0.906739 0.906739 0.906739 0.906739 0.906739;
   (0, 4, 0) 1 0 0 0 0 0 0 0;
   (1, 4, 0) 0.940856 0.797402 0 0 0 0 0 0;
   (2, 4, 0) 0.781657 0.983827 0.770874 0 0 0 0 0;
   (3, 4, 0) 0 0.915831 0.887774 0 0 0 0 0;
   (4, 4, 0) 0.8708 0.8708 0.8708 0.8708 0.8708 0 0 0;
   (5, 4, 0) 0.91118 0.91118 0.91118 0.91118 0.91118 0.91118 0 0;
   (6, 4, 0) 0.953034 0.953034 0.953034 0.953034 0.953034 0.953034 0.953034 0;
   (7, 4, 0) 1 1 1 1 1 1 1 1;
   (0, 0, 1) 1 0 0 0 0 0 0 0;
   (1, 0, 1) 0.735657 0.992447 0 0 0 0 0 0;
   (2, 0, 1) 0 0.764783 0.977237 0 0 0 0 0;
   (3, 0, 1) 0 0 0.783311 0.978331 0 0 0 0;
   (4, 0, 1) 0 0 0 0.765616 0.99414 0 0 0;
   (5, 0, 1) 0 0 0 0 0.796231 0.967397 0 0;
   (6, 0, 1) 0 0 0 0 0 0.78878 0.974241 0;
   (7, 0, 1) 0 0 0 0 0 0 0.853262 0.905052;
   (0, 1, 1) 1 0 0 0 0 0 0 0;
   (1, 1, 1) 0.771563 0.990468 0 0 0 0 0 0;
   (2, 1, 1) 0 0.78933 0.978619 0 0 0 0 0;
   (3, 1, 1) 0 0 0.810022 0.976479 0 0 0 0;
   (4, 1, 1) 0 0 0 0.830015 0.960004 0 0 0;
   (5, 1, 1) 0 0 0 0 0.839315 0.952806 0 0;
   (6, 1, 1) 0 0 0 0 0 0.843762 0.947504 0;
   (7, 1, 1) 0 0 0 0 0 0 0.926113 0.862302;
   (0, 2, 1) 1 0 0 0 0 0 0 0;
   (1, 2, 1) 0.784468 0.972973 0 0 0 0 0 0;
   (2, 2, 1) 0 0.833035 0.927842 0 0 0 0 0;
   (3, 2, 1) 0 0 0.877504 0.900642 0 0 0 0;
   (4, 2, 1) 0 0 0 0.896465 0.889664 0 0 0;
   (5, 2, 1) 0 0 0 0.785433 0.929108 0.850654 0 0;
   (6, 2, 1) 0 0 0 0 0.809957 0.933113 0.838622 0;
   (7, 2, 1) 0 0 0 0 0 0.795428 0.990701 0;
   (0, 3, 1) 1 0 0 0 0 0 0 0;
   (1, 3, 1) 0.837095 0.90392 0 0 0 0 0 0;
   (2, 3, 1) 0 0.941111 0.82092 0 0 0 0 0;
   (3, 3, 1) 0 0.7973 0.957605 0.786701 0 0 0 0;
   (4, 3, 1) 0 0 0.87539 0.897321 0.776699 0 0 0;
   (5, 3, 1) 0 0 0.789032 0.880993 0.895418 0.785426 0 0;
   (6, 3, 1) 0 0 0 0.812523 0.953131 0.835957 0 0;
   (7, 3, 1) 0.834864 0.834864 0.834864 0.834864 0.834864 0.834864 0.834864 0.834864;
   (0, 4, 1) 1 0 0 0 0 0 0 0;
   (1, 4, 1) 0.963632 0.772544 0 0 0 0 0 0;
   (2, 4, 1) 0.775714 0.986174 0.764961 0 0 0 0 0;
   (3, 4, 1) 0 0.955629 0.822516 0 0 0 0 0;
   (4, 4, 1) 0 0.848644 0.949548 0 0 0 0 0;
   (5, 4, 1) 0.838851 0.838851 0.838851 0.838851 0.838851 0.838851 0 0;
   (6, 4, 1) 0.846392 0.846392 0.846392 0.846392 0.846392 0.846392 0.846392 0;
   (7, 4, 1) 0.83248 0.83248 0.83248 0.83248 0.83248 0.83248 0.83248 0.83248;
   (0, 0, 2) 1 0 0 0 0 0 0 0;
   (1, 0, 2) 0 1 0 0 0 0 0 0;
   (2, 0, 2) 0 0.797726 0.985552 0 0 0 0 0;
   (3, 0, 2) 0 0 0.803528 0.984887 0 0 0 0;
   (4, 0, 2) 0 0 0 0.808952 0.991316 0 0 0;
   (5, 0, 2) 0 0 0 0 0.850298 0.955089 0 0;
   (6, 0, 2) 0 0 0 0 0 0.843905 0.982656 0;
   (7, 0, 2) 0 0 0 0 0 0 0.899499 0.916249;
   (0, 1, 2) 1 0 0 0 0 0 0 0;
   (1, 1, 2) 0.784735 0.990245 0 0 0 0 0 0;
   (2, 1, 2) 0 0.818325 0.97009 0 0 0 0 0;
   (3, 1, 2) 0 0 0.845042 0.966942 0 0 0 0;
   (4, 1, 2) 0 0 0 0.859975 0.954992 0 0 0;
   (5, 1, 2) 0 0 0 0 0.884185 0.931564 0 0;
   (6, 1, 2) 0 0 0 0 0 0.899845 0.932248 0;
   (7, 1, 2) 0 0 0 0 0 0 0.977104 0.85499;
   (0, 2, 2) 1 0 0 0 0 0 0 0;
   (1, 2, 2) 0.802124 0.964255 0 0 0 0 0 0;
   (2, 2, 2) 0 0.847296 0.931151 0 0 0 0 0;
   (3, 2, 2) 0 0 0.904003 0.886427 0 0 0 0;
   (4, 2, 2) 0 0 0.796533 0.937903 0.853345 0 0 0;
   (5, 2, 2) 0 0 0 0.821001 0.951359 0.850186 0 0;
   (6, 2, 2) 0 0 0 0 0.868681 0.928713 0.842417 0;
   (7, 2, 2) 0 0 0 0 0 0.860402 0.976734 0;
   (0, 3, 2) 1 0 0 0 0 0 0 0;
   (1, 3, 2) 0.878193 0.865686 0 0 0 0 0 0;
   (2, 3, 2) 0.774173 0.96878 0.799149 0 0 0 0 0;
   (3, 3, 2) 0 0.848954 0.932702 0.79362 0 0 0 0;
   (4, 3, 2) 0 0.819196 0.926106 0.858501 0 0 0 0;
   (5, 3, 2) 0 0.816409 0.840098 0.931894 0.851943 0 0 0;
   (6, 3, 2) 0 0 0 0.88917 0.950742 0 0 0;
   (7, 3, 2) 0.939941 0.939941 0.939941 0.939941 0.939941 0.939941 0.939941 0.939941;
   (0, 4, 2) 1 0 0 0 0 0 0 0;
   (1, 4, 2) 0.983034 0.778224 0 0 0 0 0 0;
   (2, 4, 2) 0.850669 0.944603 0 0 0 0 0 0;
   (3, 4, 2) 0 1 0 0 0 0 0 0;
   (4, 4, 2) 0 0 1 0 0 0 0 0;
   (5, 4, 2) 0.970892 0.970892 0.970892 0.970892 0.970892 0.970892 0 0;
   (6, 4, 2) 0.970061 0.970061 0.970061 0.970061 0.970061 0.970061 0.970061 0;
   (7, 4, 2) 1 1 1 1 1 1 1 1;
}
probability (lo_7 | lo_6, km_6, temp_6) {
   (0, 0, 0) 1 0 0 0 0 0 0 0;
   (1, 0, 0) 0 1 0 0 0 0 0 0;
   (2, 0, 0) 0 0.761971 0.982148 0 0 0 0 0;
   (3, 0, 0) 0 0 0 1 0 0 0 0;
   (4, 0, 0) 0 0 0 0.801809 0.979138 0 0 0;
   (5, 0, 0) 0 0 0 0 0.787077 0.980643 0 0;
   (6, 0, 0) 0 0 0 0 0 0 1 0;
   (7, 0, 0) 0 0 0 0 0 0 0.802563 0.978063;
   (0, 1, 0) 1 0 0 0 0 0 0 0;
   (1, 1, 0) 0.782278 0.992154 0 0 0 0 0 0;
   (2, 1, 0) 0 0.786519 0.98684 0 0 0 0 0;
   (3, 1, 0) 0 0 0.809164 0.972435 0 0 0 0;
   (4, 1, 0) 0 0 0 0.813255 0.977591 0 0 0;
   (5, 1, 0) 0 0 0 0 0.843055 0.948636 0 0;
   (6, 1, 0) 0 0 0 0 0 0.832344 0.958086 0;
   (7, 1, 0) 0 0 0 0 0 0 0.924629 0.876176;
   (0, 2, 0) 1 0 0 0 0 0 0 0;
   (1, 2, 0) 0.775055 0.979883 0 0 0 0 0 0;
   (2, 2, 0) 0 0.825531 0.946021 0 0 0 0 0;
   (3, 2, 0) 0 0 0.866373 0.906461 0 0 0 0;
   (4, 2, 0) 0 0 0 0.891947 0.887109 0 0 0;
   (5, 2, 0) 0 0 0 0.782512 0.908533 0.865848 0 0;
   (6, 2, 0) 0 0 0 0 0.788706 0.930427 0.853125 0;
   (7, 2, 0) 0 0 0 0 0 0 0.982478 0.824776;
   (0, 3, 0) 1 0 0 0 0 0 0 0;
   (1, 3, 0) 0.829612 0.909368 0 0 0 0 0 0;
   (2, 3, 0) 0 0.933865 0.818128 0 0 0 0 0;
   (3, 3, 0) 0 0.78482 0.946904 0.790409 0 0 0 0;
   (4, 3, 0) 0 0 0.847534 0.917414 0.777653 0 0 0;
   (5, 3, 0) 0 0 0.792959 0.859212 0.917183 0 0 0;
   (6, 3, 0) 0 0 0 0 0.956128 0.853759 0 0;
   (7, 3, 0) 0.906739 0.906739 0.906739 0.906739 0.906739 0.906739 0.906739 0.906739;
   (0, 4, 0) 1 0 0 0 0 0 0 0;
   (1, 4, 0) 0.940856 0.797402 0 0 0 0 0 0;
   (2, 4, 0) 0.781657 0.983827 0.770874 0 0 0 0 0;
   (3, 4, 0) 0 0.915831 0.887774 0 0 0 0 0;
   (4, 4, 0) 0.8708 0.8708 0.8708 0.8708 0.8708 0 0 0;
   (5, 4, 0) 0.91118 0.91118 0.91118 0.91118 0.91118 0.91118 0 0;
   (6, 4, 0) 0.953034 0.953034 0.953034 0.953034 0.953034 0.953034 0.953034 0;
   (7, 4, 0) 1 1 1 1 1 1 1 1;
   (0, 0, 1) 1 0 0 0 0 0 0 0;
   (1, 0, 1) 0.735657 0.992447 0 0 0 0 0 0;
   (2, 0, 1) 0 0.764783 0.977237 0 0 0 0 0;
   (3, 0, 1) 0 0 0.783311 0.978331 0 0 0 0;
   (4, 0, 1) 0 0 0 0.765616 0.99414 0 0 0;
   (5, 0, 1) 0 0 0 0 0.796231 0.967397 0 0;
   (6, 0, 1) 0 0 0 0 0 0.78878 0.974241 0;
   (7, 0, 1) 0 0 0 0 0 0 0.853262 0.905052;
   (0, 1, 1) 1 0 0 0 0 0 0 0;
   (1, 1, 1) 0.771563 0.990468 0 0 0 0 0 0;
   (2, 1, 1) 0 0.78933 0.978619 0 0 0 0 0;
   (3, 1, 1) 0 0 0.810022 0.976479 0 0 0 0;
   (4, 1, 1) 0 0 0 0.830015 0.960004 0 0 0;
   (5, 1, 1) 0 0 0 0 0.839315 0.952806 0 0;
   (6, 1, 1) 0 0 0 0 0 0.843762 0.947504 0;
   (7, 1, 1) 0 0 0 0 0 0 0.926113 0.862302;
   (0, 2, 1) 1 0 0 0 0 0 0 0;
   (1, 2, 1) 0.784468 0.972973 0 0 0 0 0 0;
   (2, 2, 1) 0 0.833035 0.927842 0 0 0 0 0;
   (3, 2, 1) 0 0 0.877504 0.900642 0 0 0 0;
   (4, 2, 1) 0 0 0 0.896465 0.889664 0 0 0;
   (5, 2, 1) 0 0 0 0.785433 0.929108 0.850654 0 0;
   (6, 2, 1) 0 0 0 0 0.809957 0.933113 0.838622 0;
   (7, 2, 1) 0 0 0 0 0 0.795428 0.990701 0;
   (0, 3, 1) 1 0 0 0 0 0 0 0;
   (1, 3, 1) 0.837095 0.90392 0 0 0 0 0 0;
   (2, 3, 1) 0 0.941111 0.82092 0 0 0 0 0;
   (3, 3, 1) 0 0.7973 0.957605 0.786701 0 0 0 0;
   (4, 3, 1) 0 0 0.87539 0.897321 0.776699 0 0 0;
   (5, 3, 1) 0 0 0.789032 0.880993 0.895418 0.785426 0 0;
   (6, 3, 1) 0 0 0 0.812523 0.953131 0.835957 0 0;
   (7, 3, 1) 0.834864 0.834864 0.834864 0.834864 0.834864 0.834864 0.834864 0.834864;
   (0, 4, 1) 1 0 0 0 0 0 0 0;
   (1, 4, 1) 0.963632 0.772544 0 0 0 0 0 0;
   (2, 4, 1) 0.775714 0.986174 0.764961 0 0 0 0 0;
   (3, 4, 1) 0 0.955629 0.822516 0 0 0 0 0;
   (4, 4, 1) 0 0.848644 0.949548 0 0 0 0 0;
   (5, 4, 1) 0.838851 0.838851 0.838851 0.838851 0.838851 0.838851 0 0;
   (6, 4, 1) 0.846392 0.846392 0.846392 0.846392 0.846392 0.846392 0.846392 0;
   (7, 4, 1) 0.83248 0.83248 0.83248 0.83248 0.83248 0.83248 0.83248 0.83248;
   (0, 0, 2) 1 0 0 0 0 0 0 0;
   (1, 0, 2) 0 1 0 0 0 0 0 0;
   (2, 0, 2) 0 0.797726 0.985552 0 0 0 0 0;
   (3, 0, 2) 0 0 0.803528 0.984887 0 0 0 0;
   (4, 0, 2) 0 0 0 0.808952 0.991316 0 0 0;
   (5, 0, 2) 0 0 0 0 0.850298 0.955089 0 0;
   (6, 0, 2) 0 0 0 0 0 0.843905 0.982656 0;
   (7, 0, 2) 0 0 0 0 0 0 0.899499 0.916249;
   (0, 1, 2) 1 0 0 0 0 0 0 0;
   (1, 1, 2) 0.784735 0.990245 0 0 0 0 0 0;
   (2, 1, 2) 0 0.818325 0.97009 0 0 0 0 0;
   (3, 1, 2) 0 0 0.845042 0.966942 0 0 0 0;
   (4, 1, 2) 0 0 0 0.859975 0.954992 0 0 0;
   (5, 1, 2) 0 0 0 0 0.884185 0.931564 0 0;
   (6, 1, 2) 0 0 0 0 0 0.899845 0.932248 0;
   (7, 1, 2) 0 0 0 0 0 0 0.977104 0.85499;
   (0, 2, 2) 1 0 0 0 0 0 0 0;
   (1, 2, 2) 0.802124 0.964255 0 0 0 0 0 0;
   (2, 2, 2) 0 0.847296 0.931151 0 0 0 0 0;
   (3, 2, 2) 0 0 0.904003 0.886427 0 0 0 0;
   (4, 2, 2) 0 0 0.796533 0.937903 0.853345 0 0 0;
   (5, 2, 2) 0 0 0 0.821001 0.951359 0.850186 0 0;
   (6, 2, 2) 0 0 0 0 0.868681 0.928713 0.842417 0;
   (7, 2, 2) 0 0 0 0 0 0.860402 0.976734 0;
   (0, 3, 2) 1 0 0 0 0 0 0 0;
   (1, 3, 2) 0.878193 0.865686 0 0 0 0 0 0;
   (2, 3, 2) 0.774173 0.96878 0.799149 0 0 0 0 0;
   (3, 3, 2) 0 0.848954 0.932702 0.79362 0 0 0 0;
   (4, 3, 2) 0 0.819196 0.926106 0.858501 0 0 0 0;
   (5, 3, 2) 0 0.816409 0.840098 0.931894 0.851943 0 0 0;
   (6, 3, 2) 0 0 0 0.88917 0.950742 0 0 0;
   (7, 3, 2) 0.939941 0.939941 0.939941 0.939941 0.939941 0.939941 0.939941 0.939941;
   (0, 4, 2) 1 0 0 0 0 0 0 0;
   (1, 4, 2) 0.983034 0.778224 0 0 0 0 0 0;
   (2, 4, 2) 0.850669 0.944603 0 0 0 0 0 0;
   (3, 4, 2) 0 1 0 0 0 0 0 0;
   (4, 4, 2) 0 0 1 0 0 0 0 0;
   (5, 4, 2) 0.970892 0.970892 0.970892 0.970892 0.970892 0.970892 0 0;
   (6, 4, 2) 0.970061 0.970061 0.970061 0.970061 0.970061 0.970061 0.970061 0;
   (7, 4, 2) 1 1 1 1 1 1 1 1;
}
probability (lo_8 | lo_7, km_7, temp_7) {
   (0, 0, 0) 1 0 0 0 0 0 0 0;
   (1, 0, 0) 0 1 0 0 0 0 0 0;
   (2, 0, 0) 0 0.761971 0.982148 0 0 0 0 0;
   (3, 0, 0) 0 0 0 1 0 0 0 0;
   (4, 0, 0) 0 0 0 0.801809 0.979138 0 0 0;
   (5, 0, 0) 0 0 0 0 0.787077 0.980643 0 0;
   (6, 0, 0) 0 0 0 0 0 0 1 0;
   (7, 0, 0) 0 0 0 0 0 0 0.802563 0.978063;
   (0, 1, 0) 1 0 0 0 0 0 0 0;
   (1, 1, 0) 0.782278 0.992154 0 0 0 0 0 0;
   (2, 1, 0) 0 0.786519 0.98684 0 0 0 0 0;
   (3, 1, 0) 0 0 0.809164 0.972435 0 0 0 0;
   (4, 1, 0) 0 0 0 0.813255 0.977591 0 0 0;
   (5, 1, 0) 0 0 0 0 0.843055 0.948636 0 0;
   (6, 1, 0) 0 0 0 0 0 0.832344 0.958086 0;
   (7, 1, 0) 0 0 0 0 0 0 0.924629 0.876176;
   (0, 2, 0) 1 0 0 0 0 0 0 0;
   (1, 2, 0) 0.775055 0.979883 0 0 0 0 0 0;
   (2, 2, 0) 0 0.825531 0.946021 0 0 0 0 0;
   (3, 2, 0) 0 0 0.866373 0.906461 0 0 0 0;
   (4, 2, 0) 0 0 0 0.891947 0.887109 0 0 0;
   (5, 2, 0) 0 0 0 0.782512 0.908533 0.865848 0 0;
   (6, 2, 0) 0 0 0 0 0.788706 0.930427 0.853125 0;
   (7, 2, 0) 0 0 0 0 0 0 0.982478 0.824776;
   (0, 3, 0) 1 0 0 0 0 0 0 0;
   (1, 3, 0) 0.829612 0.909368 0 0 0 0 0 0;
   (2, 3, 0) 0 0.933865 0.818128 0 0 0 0 0;
   (3, 3, 0) 0 0.78482 0.946904 0.790409 0 0 0 0;
   (4, 3, 0) 0 0 0.847534 0.917414 0.777653 0 0 0;
   (5, 3, 0) 0 0 0.792959 0.859212 0.917183 0 0 0;
   (6, 3, 0) 0 0 0 0 0.956128 0.853759 0 0;
   (7, 3, 0) 0.906739 0.906739 0.906739 0.906739 0.906739 0.906739 0.906739 0.906739;
   (0, 4, 0) 1 0 0 0 0 0 0 0;
   (1, 4, 0) 0.940856 0.797402 0 0 0 0 0 0;
   (2, 4, 0) 0.781657 0.983827 0.770874 0 0 0 0 0;
   (3, 4, 0) 0 0.915831 0.887774 0 0 0 0 0;
   (4, 4, 0) 0.8708 0.8708 0.8708 0.8708 0.8708 0 0 0;
   (5, 4, 0) 0.91118 0.91118 0.91118 0.91118 0.91118 0.91118 0 0;
   (6, 4, 0) 0.953034 0.953034 0.953034 0.953034 0.953034 0.953034 0.953034 0;
   (7, 4, 0) 1 1 1 1 1 1 1 1;
   (0, 0, 1) 1 0 0 0 0 0 0 0;
   (1, 0, 1) 0.735657 0.992447 0 0 0 0 0 0;
   (2, 0, 1) 0 0.764783 0.977237 0 0 0 0 0;
   (3, 0, 1) 0 0 0.783311 0.978331 0 0 0 0;
   (4, 0, 1) 0 0 0 0.765616 0.99414 0 0 0;
   (5, 0, 1) 0 0 0 0 0.796231 0.967397 0 0;
   (6, 0, 1) 0 0 0 0 0 0.78878 0.974241 0;
   (7, 0, 1) 0 0 0 0 0 0 0.853262 0.905052;
   (0, 1, 1) 1 0 0 0 0 0 0 0;
   (1, 1, 1) 0.771563 0.990468 0 0 0 0 0 0;
   (2, 1, 1) 0 0.78933 0.978619 0 0 0 0 0;
   (3, 1, 1) 0 0 0.810022 0.976479 0 0 0 0;
   (4, 1, 1) 0 0 0 0.830015 0.960004 0 0 0;
   (5, 1, 1) 0 0 0 0 0.839315 0.952806 0 0;
   (6, 1, 1) 0 0 0 0 0 0.843762 0.947504 0;
   (7, 1, 1) 0 0 0 0 0 0 0.926113 0.862302;
   (0, 2, 1) 1 0 0 0 0 0 0 0;
   (1, 2, 1) 0.784468 0.972973 0 0 0 0 0 0;
   (2, 2, 1) 0 0.833035 0.927842 0 0 0 0 0;
   (3, 2, 1) 0 0 0.877504 0.900642 0 0 0 0;
   (4, 2, 1) 0 0 0 0.896465 0.889664 0 0 0;
   (5, 2, 1) 0 0 0 0.785433 0.929108 0.850654 0 0;
   (6, 2, 1) 0 0 0 0 0.809957 0.933113 0.838622 0;
   (7, 2, 1) 0 0 0 0 0 0.795428 0.990701 0;
   (0, 3, 1) 1 0 0 0 0 0 0 0;
   (1, 3, 1) 0.837095 0.90392 0 0 0 0 0 0;
   (2, 3, 1) 0 0.941111 0.82092 0 0 0 0 0;
   (3, 3, 1) 0 0.7973 0.957605 0.786701 0 0 0 0;
   (4, 3, 1) 0 0 0.87539 0.897321 0.776699 0 0 0;
   (5, 3, 1) 0 0 0.789032 0.880993 0.895418 0.785426 0 0;
   (6, 3, 1) 0 0 0 0.812523 0.953131 0.835957 0 0;
   (7, 3, 1) 0.834864 0.834864 0.834864 0.834864 0.834864 0.834864 0.834864 0.834864;
   (0, 4, 1) 1 0 0 0 0 0 0 0;
   (1, 4, 1) 0.963632 0.772544 0 0 0 0 0 0;
   (2, 4, 1) 0.775714 0.986174 0.764961 0 0 0 0 0;
   (3, 4, 1) 0 0.955629 0.822516 0 0 0 0 0;
   (4, 4, 1) 0 0.848644 0.949548 0 0 0 0 0;
   (5, 4, 1) 0.838851 0.838851 0.838851 0.838851 0.838851 0.838851 0 0;
   (6, 4, 1) 0.846392 0.846392 0.846392 0.846392 0.846392 0.846392 0.846392 0;
   (7, 4, 1) 0.83248 0.83248 0.83248 0.83248 0.83248 0.83248 0.83248 0.83248;
   (0, 0, 2) 1 0 0 0 0 0 0 0;
   (1, 0, 2) 0 1 0 0 0 0 0 0;
   (2, 0, 2) 0 0.797726 0.985552 0 0 0 0 0;
   (3, 0, 2) 0 0 0.803528 0.984887 0 0 0 0;
   (4, 0, 2) 0 0 0 0.808952 0.991316 0 0 0;
   (5, 0, 2) 0 0 0 0 0.850298 0.955089 0 0;
   (6, 0, 2) 0 0 0 0 0 0.843905 0.982656 0;
   (7, 0, 2) 0 0 0 0 0 0 0.899499 0.916249;
   (0, 1, 2) 1 0 0 0 0 0 0 0;
   (1, 1, 2) 0.784735 0.990245 0 0 0 0 0 0;
   (2, 1, 2) 0 0.818325 0.97009 0 0 0 0 0;
   (3, 1, 2) 0 0 0.845042 0.966942 0 0 0 0;
