
network aGrUM_BN {
   property version 1.0;
   property author aGrUM;
}

variable temp_0 {
   type discrete[3] {0, 1, 2};
}

variable temp_1 {
   type discrete[3] {0, 1, 2};
}

variable temp_2 {
   type discrete[3] {0, 1, 2};
}

variable temp_3 {
   type discrete[3] {0, 1, 2};
}

variable temp_4 {
   type discrete[3] {0, 1, 2};
}

variable temp_5 {
   type discrete[3] {0, 1, 2};
}

variable temp_6 {
   type discrete[3] {0, 1, 2};
}

variable temp_7 {
   type discrete[3] {0, 1, 2};
}

variable temp_8 {
   type discrete[3] {0, 1, 2};
}

variable temp_9 {
   type discrete[3] {0, 1, 2};
}

variable temp_10 {
   type discrete[3] {0, 1, 2};
}

variable temp_11 {
   type discrete[3] {0, 1, 2};
}

variable temp_12 {
   type discrete[3] {0, 1, 2};
}

variable km_0 {
   type discrete[5] {0, 1, 2, 3, 4};
}

variable lo_0 {
   type discrete[8] {0, 1, 2, 3, 4, 5, 6, 7};
}

variable km_1 {
   type discrete[5] {0, 1, 2, 3, 4};
}

variable km_2 {
   type discrete[5] {0, 1, 2, 3, 4};
}

variable km_3 {
   type discrete[5] {0, 1, 2, 3, 4};
}

variable km_4 {
   type discrete[5] {0, 1, 2, 3, 4};
}

variable km_5 {
   type discrete[5] {0, 1, 2, 3, 4};
}

variable km_6 {
   type discrete[5] {0, 1, 2, 3, 4};
}

variable km_7 {
   type discrete[5] {0, 1, 2, 3, 4};
}

variable km_8 {
   type discrete[5] {0, 1, 2, 3, 4};
}

variable km_9 {
   type discrete[5] {0, 1, 2, 3, 4};
}

variable km_10 {
   type discrete[5] {0, 1, 2, 3, 4};
}

variable km_11 {
   type discrete[5] {0, 1, 2, 3, 4};
}

variable km_12 {
   type discrete[5] {0, 1, 2, 3, 4};
}

variable km_13 {
   type discrete[5] {0, 1, 2, 3, 4};
}

variable lo_1 {
   type discrete[8] {0, 1, 2, 3, 4, 5, 6, 7};
}

variable lo_2 {
   type discrete[8] {0, 1, 2, 3, 4, 5, 6, 7};
}

variable lo_3 {
   type discrete[8] {0, 1, 2, 3, 4, 5, 6, 7};
}

variable lo_4 {
   type discrete[8] {0, 1, 2, 3, 4, 5, 6, 7};
}

variable lo_5 {
   type discrete[8] {0, 1, 2, 3, 4, 5, 6, 7};
}

variable lo_6 {
   type discrete[8] {0, 1, 2, 3, 4, 5, 6, 7};
}

variable lo_7 {
   type discrete[8] {0, 1, 2, 3, 4, 5, 6, 7};
}

variable lo_8 {
   type discrete[8] {0, 1, 2, 3, 4, 5, 6, 7};
}

variable lo_9 {
   type discrete[8] {0, 1, 2, 3, 4, 5, 6, 7};
}

variable lo_10 {
   type discrete[8] {0, 1, 2, 3, 4, 5, 6, 7};
}

variable lo_11 {
   type discrete[8] {0, 1, 2, 3, 4, 5, 6, 7};
}

variable lo_12 {
   type discrete[8] {0, 1, 2, 3, 4, 5, 6, 7};
}

variable lo_13 {
   type discrete[8] {0, 1, 2, 3, 4, 5, 6, 7};
}

probability (temp_0) {
   default 0.136229 0.136229 0.136229;
}
probability (temp_1) {
   default 0.136229 0.136229 0.136229;
}
probability (temp_2) {
   default 0.136229 0.136229 0.136229;
}
probability (temp_3) {
   default 0.136229 0.136229 0.136229;
}
probability (temp_4) {
   default 0.136229 0.136229 0.136229;
}
probability (temp_5) {
   default 0.136229 0.136229 0.136229;
}
probability (temp_6) {
   default 0.136229 0.136229 0.136229;
}
probability (temp_7) {
   default 0.136229 0.136229 0.136229;
}
probability (temp_8) {
   default 0.136229 0.136229 0.136229;
}
probability (temp_9) {
   default 0.136229 0.136229 0.136229;
}
probability (temp_10) {
   default 0.136229 0.136229 0.136229;
}
probability (temp_11) {
   default 0.136229 0.136229 0.136229;
}
probability (temp_12) {
   default 0.136229 0.136229 0.136229;
}
probability (km_0) {
   default 0.0817372 0.0817372 0.0817372 0.0817372 0.0817372;
}
probability (lo_0) {
   default 0.0510857 0.0510857 0.0510857 0.0510857 0.0510857 0.0510857 0.0510857 0.0510857;
}
probability (km_1 | km_0, lo_0, temp_0) {
   (0, 0, 0) 0.242366 0.00850408 0 0 0;
   (1, 0, 0) 0 0.201745 0.00344864 0 0;
   (2, 0, 0) 0 0 0.220496 0.00368722 0;
   (3, 0, 0) 0 0 0 0.271734 0.00151807;
   (4, 0, 0) 0 0 0 0 1;
   (0, 1, 0) 0.173413 0.0945888 0 0 0;
   (1, 1, 0) 0 0.193531 0.0320372 0 0;
   (2, 1, 0) 0 0 0.22083 0.0242319 0;
   (3, 1, 0) 0 0 0 0.236679 0.0243412;
   (4, 1, 0) 0 0 0 0 1;
   (0, 2, 0) 0.107113 0.148768 0 0 0;
   (1, 2, 0) 0 0.154993 0.0716478 0 0;
   (2, 2, 0) 0 0 0.177361 0.0510876 0;
   (3, 2, 0) 0 0 0 0.206672 0.0413346;
   (4, 2, 0) 0 0 0 0 1;
   (0, 3, 0) 0.0905144 0.144823 0 0 0;
   (1, 3, 0) 0 0.118742 0.099659 0 0;
   (2, 3, 0) 0 0 0.161837 0.0653289 0;
   (3, 3, 0) 0 0 0 0.157892 0.0810418;
   (4, 3, 0) 0 0 0 0 1;
   (0, 4, 0) 0.0104311 0.208622 0 0 0;
   (1, 4, 0) 0 0.102709 0.106445 0 0;
   (2, 4, 0) 0 0 0.120954 0.0999891 0;
   (3, 4, 0) 0 0 0 0.156701 0.071998;
   (4, 4, 0) 0 0 0 0 1;
   (0, 5, 0) 0 1 0 0 0;
   (1, 5, 0) 0 0.0627779 0.14553 0 0;
   (2, 5, 0) 0 0 0.0995974 0.121956 0;
   (3, 5, 0) 0 0 0 0.182197 0.0331266;
   (4, 5, 0) 0 0 0 0 1;
   (0, 6, 0) 0 1 0 0 0;
   (1, 6, 0) 0 0.0394484 0.170122 0 0;
   (2, 6, 0) 0 0 0.100494 0.113377 0;
   (3, 6, 0) 0 0 0 1 0;
   (4, 6, 0) 0 0 0 0 1;
   (0, 7, 0) 0 1 0 0 0;
   (1, 7, 0) 0 0.05922 0.139975 0 0;
   (2, 7, 0) 0 0 0.157702 0.0350449 0;
   (3, 7, 0) 0 0 0 0.053292 0.053292;
   (4, 7, 0) 0 0 0 0 1;
   (0, 0, 1) 0.243781 0.00525389 0 0 0;
   (1, 0, 1) 0 0.206107 0.00304727 0 0;
   (2, 0, 1) 0 0 0.232737 0.00404056 0;
   (3, 0, 1) 0 0 0 0.284273 0.00107071;
   (4, 0, 1) 0 0 0 0 1;
   (0, 1, 1) 0.166158 0.105737 0 0 0;
   (1, 1, 1) 0 0.196555 0.0414145 0 0;
   (2, 1, 1) 0 0 0.218738 0.0238207 0;
   (3, 1, 1) 0 0 0 0.237475 0.0215104;
   (4, 1, 1) 0 0 0 0 1;
   (0, 2, 1) 0.0910516 0.166928 0 0 0;
   (1, 2, 1) 0 0.152814 0.0792368 0 0;
   (2, 2, 1) 0 0 0.173812 0.0653113 0;
   (3, 2, 1) 0 0 0 0.181011 0.0569581;
   (4, 2, 1) 0 0 0 0 1;
   (0, 3, 1) 0.0520054 0.186353 0 0 0;
   (1, 3, 1) 0 0.101322 0.112178 0 0;
   (2, 3, 1) 0 0 0.136788 0.0850671 0;
   (3, 3, 1) 0 0 0 0.16428 0.0649171;
   (4, 3, 1) 0 0 0 0 1;
   (0, 4, 1) 0.0117192 0.228524 0 0 0;
   (1, 4, 1) 0 0.0788818 0.1311 0 0;
   (2, 4, 1) 0 0 0.112604 0.101268 0;
   (3, 4, 1) 0 0 0 0.127601 0.0976943;
   (4, 4, 1) 0 0 0 0 1;
   (0, 5, 1) 0 1 0 0 0;
   (1, 5, 1) 0 0.0584307 0.149448 0 0;
   (2, 5, 1) 0 0 0.0869611 0.130442 0;
   (3, 5, 1) 0 0 0 0.158676 0.0577006;
   (4, 5, 1) 0 0 0 0 1;
   (0, 6, 1) 0 1 0 0 0;
   (1, 6, 1) 0 0.0437466 0.164987 0 0;
   (2, 6, 1) 0 0 0.0690101 0.140144 0;
   (3, 6, 1) 0 0 0 0.17576 0.0234347;
   (4, 6, 1) 0 0 0 0 1;
   (0, 7, 1) 0 1 0 0 0;
   (1, 7, 1) 0 0.0403018 0.171283 0 0;
   (2, 7, 1) 0 0 0.139481 0.07439 0;
   (3, 7, 1) 0 0 0 0.0943634 0.0943634;
   (4, 7, 1) 0 0 0 0 1;
   (0, 0, 2) 0.232619 0.00669405 0 0 0;
   (1, 0, 2) 0 0.224426 0.00114212 0 0;
   (2, 0, 2) 0 0 0.24732 0.00228999 0;
   (3, 0, 2) 0 0 0 0.328091 0.000272727;
   (4, 0, 2) 0 0 0 0 1;
   (0, 1, 2) 0.151278 0.103506 0 0 0;
   (1, 1, 2) 0 0.190552 0.0344683 0 0;
   (2, 1, 2) 0 0 0.214897 0.0187237 0;
   (3, 1, 2) 0 0 0 0.236544 0.0195761;
   (4, 1, 2) 0 0 0 0 1;
   (0, 2, 2) 0.0505684 0.166154 0 0 0;
   (1, 2, 2) 0 0.127394 0.0841909 0 0;
   (2, 2, 2) 0 0 0.143877 0.0776762 0;
   (3, 2, 2) 0 0 0 0.185241 0.0437084;
   (4, 2, 2) 0 0 0 0 1;
   (0, 3, 2) 0.0151132 0.196472 0 0 0;
   (1, 3, 2) 0 0.0702473 0.117768 0 0;
   (2, 3, 2) 0 0 0.128446 0.0811239 0;
   (3, 3, 2) 0 0 0 0.140578 0.0717844;
   (4, 3, 2) 0 0 0 0 1;
   (0, 4, 2) 0 1 0 0 0;
   (1, 4, 2) 0 0.0450081 0.140025 0 0;
   (2, 4, 2) 0 0 0.0700246 0.136085 0;
   (3, 4, 2) 0 0 0 0.0943326 0.103766;
   (4, 4, 2) 0 0 0 0 1;
   (0, 5, 2) 0 1 0 0 0;
   (1, 5, 2) 0 0.0447468 0.139505 0 0;
   (2, 5, 2) 0 0 0.0622604 0.126466 0;
   (3, 5, 2) 0 0 0 0.121407 0.0651452;
   (4, 5, 2) 0 0 0 0 1;
   (0, 6, 2) 0 0.164767 0.00867194 0 0;
   (1, 6, 2) 0 0.0176743 0.144341 0.00589145 0;
   (2, 6, 2) 0 0 0.0337678 0.146327 0;
   (3, 6, 2) 0 0 0 0.123145 0.0369434;
   (4, 6, 2) 0 0 0 0 1;
   (0, 7, 2) 0 0.167502 0.0167502 0 0;
   (1, 7, 2) 0 0.0152642 0.14501 0.00763211 0;
   (2, 7, 2) 0 0 0.0232663 0.139598 0;
   (3, 7, 2) 0 0 0 0.0343192 0.0343192;
   (4, 7, 2) 0 0 0 0 1;
}
probability (km_2 | km_1, lo_1, temp_1) {
   (0, 0, 0) 0.242366 0.00850408 0 0 0;
   (1, 0, 0) 0 0.201745 0.00344864 0 0;
   (2, 0, 0) 0 0 0.220496 0.00368722 0;
   (3, 0, 0) 0 0 0 0.271734 0.00151807;
   (4, 0, 0) 0 0 0 0 1;
   (0, 1, 0) 0.173413 0.0945888 0 0 0;
   (1, 1, 0) 0 0.193531 0.0320372 0 0;
   (2, 1, 0) 0 0 0.22083 0.0242319 0;
   (3, 1, 0) 0 0 0 0.236679 0.0243412;
   (4, 1, 0) 0 0 0 0 1;
   (0, 2, 0) 0.107113 0.148768 0 0 0;
   (1, 2, 0) 0 0.154993 0.0716478 0 0;
   (2, 2, 0) 0 0 0.177361 0.0510876 0;
   (3, 2, 0) 0 0 0 0.206672 0.0413346;
   (4, 2, 0) 0 0 0 0 1;
   (0, 3, 0) 0.0905144 0.144823 0 0 0;
   (1, 3, 0) 0 0.118742 0.099659 0 0;
   (2, 3, 0) 0 0 0.161837 0.0653289 0;
   (3, 3, 0) 0 0 0 0.157892 0.0810418;
   (4, 3, 0) 0 0 0 0 1;
   (0, 4, 0) 0.0104311 0.208622 0 0 0;
   (1, 4, 0) 0 0.102709 0.106445 0 0;
   (2, 4, 0) 0 0 0.120954 0.0999891 0;
   (3, 4, 0) 0 0 0 0.156701 0.071998;
   (4, 4, 0) 0 0 0 0 1;
   (0, 5, 0) 0 1 0 0 0;
   (1, 5, 0) 0 0.0627779 0.14553 0 0;
   (2, 5, 0) 0 0 0.0995974 0.121956 0;
   (3, 5, 0) 0 0 0 0.182197 0.0331266;
   (4, 5, 0) 0 0 0 0 1;
   (0, 6, 0) 0 1 0 0 0;
   (1, 6, 0) 0 0.0394484 0.170122 0 0;
   (2, 6, 0) 0 0 0.100494 0.113377 0;
   (3, 6, 0) 0 0 0 1 0;
   (4, 6, 0) 0 0 0 0 1;
   (0, 7, 0) 0 1 0 0 0;
   (1, 7, 0) 0 0.05922 0.139975 0 0;
   (2, 7, 0) 0 0 0.157702 0.0350449 0;
   (3, 7, 0) 0 0 0 0.053292 0.053292;
   (4, 7, 0) 0 0 0 0 1;
   (0, 0, 1) 0.243781 0.00525389 0 0 0;
   (1, 0, 1) 0 0.206107 0.00304727 0 0;
   (2, 0, 1) 0 0 0.232737 0.00404056 0;
   (3, 0, 1) 0 0 0 0.284273 0.00107071;
   (4, 0, 1) 0 0 0 0 1;
   (0, 1, 1) 0.166158 0.105737 0 0 0;
   (1, 1, 1) 0 0.196555 0.0414145 0 0;
   (2, 1, 1) 0 0 0.218738 0.0238207 0;
   (3, 1, 1) 0 0 0 0.237475 0.0215104;
   (4, 1, 1) 0 0 0 0 1;
   (0, 2, 1) 0.0910516 0.166928 0 0 0;
   (1, 2, 1) 0 0.152814 0.0792368 0 0;
   (2, 2, 1) 0 0 0.173812 0.0653113 0;
   (3, 2, 1) 0 0 0 0.181011 0.0569581;
   (4, 2, 1) 0 0 0 0 1;
   (0, 3, 1) 0.0520054 0.186353 0 0 0;
   (1, 3, 1) 0 0.101322 0.112178 0 0;
   (2, 3, 1) 0 0 0.136788 0.0850671 0;
   (3, 3, 1) 0 0 0 0.16428 0.0649171;
   (4, 3, 1) 0 0 0 0 1;
   (0, 4, 1) 0.0117192 0.228524 0 0 0;
   (1, 4, 1) 0 0.0788818 0.1311 0 0;
   (2, 4, 1) 0 0 0.112604 0.101268 0;
   (3, 4, 1) 0 0 0 0.127601 0.0976943;
   (4, 4, 1) 0 0 0 0 1;
   (0, 5, 1) 0 1 0 0 0;
   (1, 5, 1) 0 0.0584307 0.149448 0 0;
   (2, 5, 1) 0 0 0.0869611 0.130442 0;
   (3, 5, 1) 0 0 0 0.158676 0.0577006;
   (4, 5, 1) 0 0 0 0 1;
   (0, 6, 1) 0 1 0 0 0;
   (1, 6, 1) 0 0.0437466 0.164987 0 0;
   (2, 6, 1) 0 0 0.0690101 0.140144 0;
   (3, 6, 1) 0 0 0 0.17576 0.0234347;
   (4, 6, 1) 0 0 0 0 1;
   (0, 7, 1) 0 1 0 0 0;
   (1, 7, 1) 0 0.0403018 0.171283 0 0;
   (2, 7, 1) 0 0 0.139481 0.07439 0;
   (3, 7, 1) 0 0 0 0.0943634 0.0943634;
   (4, 7, 1) 0 0 0 0 1;
   (0, 0, 2) 0.232619 0.00669405 0 0 0;
   (1, 0, 2) 0 0.224426 0.00114212 0 0;
   (2, 0, 2) 0 0 0.24732 0.00228999 0;
   (3, 0, 2) 0 0 0 0.328091 0.000272727;
   (4, 0, 2) 0 0 0 0 1;
   (0, 1, 2) 0.151278 0.103506 0 0 0;
   (1, 1, 2) 0 0.190552 0.0344683 0 0;
   (2, 1, 2) 0 0 0.214897 0.0187237 0;
   (3, 1, 2) 0 0 0 0.236544 0.0195761;
   (4, 1, 2) 0 0 0 0 1;
   (0, 2, 2) 0.0505684 0.166154 0 0 0;
   (1, 2, 2) 0 0.127394 0.0841909 0 0;
   (2, 2, 2) 0 0 0.143877 0.0776762 0;
   (3, 2, 2) 0 0 0 0.185241 0.0437084;
   (4, 2, 2) 0 0 0 0 1;
   (0, 3, 2) 0.0151132 0.196472 0 0 0;
   (1, 3, 2) 0 0.0702473 0.117768 0 0;
   (2, 3, 2) 0 0 0.128446 0.0811239 0;
   (3, 3, 2) 0 0 0 0.140578 0.0717844;
   (4, 3, 2) 0 0 0 0 1;
   (0, 4, 2) 0 1 0 0 0;
   (1, 4, 2) 0 0.0450081 0.140025 0 0;
   (2, 4, 2) 0 0 0.0700246 0.136085 0;
   (3, 4, 2) 0 0 0 0.0943326 0.103766;
   (4, 4, 2) 0 0 0 0 1;
   (0, 5, 2) 0 1 0 0 0;
   (1, 5, 2) 0 0.0447468 0.139505 0 0;
   (2, 5, 2) 0 0 0.0622604 0.126466 0;
   (3, 5, 2) 0 0 0 0.121407 0.0651452;
   (4, 5, 2) 0 0 0 0 1;
   (0, 6, 2) 0 0.164767 0.00867194 0 0;
   (1, 6, 2) 0 0.0176743 0.144341 0.00589145 0;
   (2, 6, 2) 0 0 0.0337678 0.146327 0;
   (3, 6, 2) 0 0 0 0.123145 0.0369434;
   (4, 6, 2) 0 0 0 0 1;
   (0, 7, 2) 0 0.167502 0.0167502 0 0;
   (1, 7, 2) 0 0.0152642 0.14501 0.00763211 0;
   (2, 7, 2) 0 0 0.0232663 0.139598 0;
   (3, 7, 2) 0 0 0 0.0343192 0.0343192;
   (4, 7, 2) 0 0 0 0 1;
}
probability (km_3 | km_2, lo_2, temp_2) {
   (0, 0, 0) 0.242366 0.00850408 0 0 0;
   (1, 0, 0) 0 0.201745 0.00344864 0 0;
   (2, 0, 0) 0 0 0.220496 0.00368722 0;
   (3, 0, 0) 0 0 0 0.271734 0.00151807;
   (4, 0, 0) 0 0 0 0 1;
   (0, 1, 0) 0.173413 0.0945888 0 0 0;
   (1, 1, 0) 0 0.193531 0.0320372 0 0;
   (2, 1, 0) 0 0 0.22083 0.0242319 0;
   (3, 1, 0) 0 0 0 0.236679 0.0243412;
   (4, 1, 0) 0 0 0 0 1;
   (0, 2, 0) 0.107113 0.148768 0 0 0;
   (1, 2, 0) 0 0.154993 0.0716478 0 0;
   (2, 2, 0) 0 0 0.177361 0.0510876 0;
   (3, 2, 0) 0 0 0 0.206672 0.0413346;
   (4, 2, 0) 0 0 0 0 1;
   (0, 3, 0) 0.0905144 0.144823 0 0 0;
   (1, 3, 0) 0 0.118742 0.099659 0 0;
   (2, 3, 0) 0 0 0.161837 0.0653289 0;
   (3, 3, 0) 0 0 0 0.157892 0.0810418;
   (4, 3, 0) 0 0 0 0 1;
   (0, 4, 0) 0.0104311 0.208622 0 0 0;
   (1, 4, 0) 0 0.102709 0.106445 0 0;
   (2, 4, 0) 0 0 0.120954 0.0999891 0;
   (3, 4, 0) 0 0 0 0.156701 0.071998;
   (4, 4, 0) 0 0 0 0 1;
   (0, 5, 0) 0 1 0 0 0;
   (1, 5, 0) 0 0.0627779 0.14553 0 0;
   (2, 5, 0) 0 0 0.0995974 0.121956 0;
   (3, 5, 0) 0 0 0 0.182197 0.0331266;
   (4, 5, 0) 0 0 0 0 1;
   (0, 6, 0) 0 1 0 0 0;
   (1, 6, 0) 0 0.0394484 0.170122 0 0;
   (2, 6, 0) 0 0 0.100494 0.113377 0;
   (3, 6, 0) 0 0 0 1 0;
   (4, 6, 0) 0 0 0 0 1;
   (0, 7, 0) 0 1 0 0 0;
   (1, 7, 0) 0 0.05922 0.139975 0 0;
   (2, 7, 0) 0 0 0.157702 0.0350449 0;
   (3, 7, 0) 0 0 0 0.053292 0.053292;
   (4, 7, 0) 0 0 0 0 1;
   (0, 0, 1) 0.243781 0.00525389 0 0 0;
   (1, 0, 1) 0 0.206107 0.00304727 0 0;
   (2, 0, 1) 0 0 0.232737 0.00404056 0;
   (3, 0, 1) 0 0 0 0.284273 0.00107071;
   (4, 0, 1) 0 0 0 0 1;
   (0, 1, 1) 0.166158 0.105737 0 0 0;
   (1, 1, 1) 0 0.196555 0.0414145 0 0;
   (2, 1, 1) 0 0 0.218738 0.0238207 0;
   (3, 1, 1) 0 0 0 0.237475 0.0215104;
   (4, 1, 1) 0 0 0 0 1;
   (0, 2, 1) 0.0910516 0.166928 0 0 0;
   (1, 2, 1) 0 0.152814 0.0792368 0 0;
   (2, 2, 1) 0 0 0.173812 0.0653113 0;
   (3, 2, 1) 0 0 0 0.181011 0.0569581;
   (4, 2, 1) 0 0 0 0 1;
   (0, 3, 1) 0.0520054 0.186353 0 0 0;
   (1, 3, 1) 0 0.101322 0.112178 0 0;
   (2, 3, 1) 0 0 0.136788 0.0850671 0;
   (3, 3, 1) 0 0 0 0.16428 0.0649171;
   (4, 3, 1) 0 0 0 0 1;
   (0, 4, 1) 0.0117192 0.228524 0 0 0;
   (1, 4, 1) 0 0.0788818 0.1311 0 0;
   (2, 4, 1) 0 0 0.112604 0.101268 0;
   (3, 4, 1) 0 0 0 0.127601 0.0976943;
   (4, 4, 1) 0 0 0 0 1;
   (0, 5, 1) 0 1 0 0 0;
   (1, 5, 1) 0 0.0584307 0.149448 0 0;
   (2, 5, 1) 0 0 0.0869611 0.130442 0;
   (3, 5, 1) 0 0 0 0.158676 0.0577006;
   (4, 5, 1) 0 0 0 0 1;
   (0, 6, 1) 0 1 0 0 0;
   (1, 6, 1) 0 0.0437466 0.164987 0 0;
   (2, 6, 1) 0 0 0.0690101 0.140144 0;
   (3, 6, 1) 0 0 0 0.17576 0.0234347;
   (4, 6, 1) 0 0 0 0 1;
   (0, 7, 1) 0 1 0 0 0;
   (1, 7, 1) 0 0.0403018 0.171283 0 0;
   (2, 7, 1) 0 0 0.139481 0.07439 0;
   (3, 7, 1) 0 0 0 0.0943634 0.0943634;
   (4, 7, 1) 0 0 0 0 1;
   (0, 0, 2) 0.232619 0.00669405 0 0 0;
   (1, 0, 2) 0 0.224426 0.00114212 0 0;
   (2, 0, 2) 0 0 0.24732 0.00228999 0;
   (3, 0, 2) 0 0 0 0.328091 0.000272727;
   (4, 0, 2) 0 0 0 0 1;
   (0, 1, 2) 0.151278 0.103506 0 0 0;
   (1, 1, 2) 0 0.190552 0.0344683 0 0;
   (2, 1, 2) 0 0 0.214897 0.0187237 0;
   (3, 1, 2) 0 0 0 0.236544 0.0195761;
   (4, 1, 2) 0 0 0 0 1;
   (0, 2, 2) 0.0505684 0.166154 0 0 0;
   (1, 2, 2) 0 0.127394 0.0841909 0 0;
   (2, 2, 2) 0 0 0.143877 0.0776762 0;
   (3, 2, 2) 0 0 0 0.185241 0.0437084;
   (4, 2, 2) 0 0 0 0 1;
   (0, 3, 2) 0.0151132 0.196472 0 0 0;
   (1, 3, 2) 0 0.0702473 0.117768 0 0;
   (2, 3, 2) 0 0 0.128446 0.0811239 0;
   (3, 3, 2) 0 0 0 0.140578 0.0717844;
   (4, 3, 2) 0 0 0 0 1;
   (0, 4, 2) 0 1 0 0 0;
   (1, 4, 2) 0 0.0450081 0.140025 0 0;
   (2, 4, 2) 0 0 0.0700246 0.136085 0;
   (3, 4, 2) 0 0 0 0.0943326 0.103766;
   (4, 4, 2) 0 0 0 0 1;
   (0, 5, 2) 0 1 0 0 0;
   (1, 5, 2) 0 0.0447468 0.139505 0 0;
   (2, 5, 2) 0 0 0.0622604 0.126466 0;
   (3, 5, 2) 0 0 0 0.121407 0.0651452;
   (4, 5, 2) 0 0 0 0 1;
   (0, 6, 2) 0 0.164767 0.00867194 0 0;
   (1, 6, 2) 0 0.0176743 0.144341 0.00589145 0;
   (2, 6, 2) 0 0 0.0337678 0.146327 0;
   (3, 6, 2) 0 0 0 0.123145 0.0369434;
   (4, 6, 2) 0 0 0 0 1;
   (0, 7, 2) 0 0.167502 0.0167502 0 0;
   (1, 7, 2) 0 0.0152642 0.14501 0.00763211 0;
   (2, 7, 2) 0 0 0.0232663 0.139598 0;
   (3, 7, 2) 0 0 0 0.0343192 0.0343192;
   (4, 7, 2) 0 0 0 0 1;
}
probability (km_4 | km_3, lo_3, temp_3) {
   (0, 0, 0) 0.242366 0.00850408 0 0 0;
   (1, 0, 0) 0 0.201745 0.00344864 0 0;
   (2, 0, 0) 0 0 0.220496 0.00368722 0;
   (3, 0, 0) 0 0 0 0.271734 0.00151807;
   (4, 0, 0) 0 0 0 0 1;
   (0, 1, 0) 0.173413 0.0945888 0 0 0;
   (1, 1, 0) 0 0.193531 0.0320372 0 0;
   (2, 1, 0) 0 0 0.22083 0.0242319 0;
   (3, 1, 0) 0 0 0 0.236679 0.0243412;
   (4, 1, 0) 0 0 0 0 1;
   (0, 2, 0) 0.107113 0.148768 0 0 0;
   (1, 2, 0) 0 0.154993 0.0716478 0 0;
   (2, 2, 0) 0 0 0.177361 0.0510876 0;
   (3, 2, 0) 0 0 0 0.206672 0.0413346;
   (4, 2, 0) 0 0 0 0 1;
   (0, 3, 0) 0.0905144 0.144823 0 0 0;
   (1, 3, 0) 0 0.118742 0.099659 0 0;
   (2, 3, 0) 0 0 0.161837 0.0653289 0;
   (3, 3, 0) 0 0 0 0.157892 0.0810418;
   (4, 3, 0) 0 0 0 0 1;
   (0, 4, 0) 0.0104311 0.208622 0 0 0;
   (1, 4, 0) 0 0.102709 0.106445 0 0;
   (2, 4, 0) 0 0 0.120954 0.0999891 0;
   (3, 4, 0) 0 0 0 0.156701 0.071998;
   (4, 4, 0) 0 0 0 0 1;
   (0, 5, 0) 0 1 0 0 0;
   (1, 5, 0) 0 0.0627779 0.14553 0 0;
   (2, 5, 0) 0 0 0.0995974 0.121956 0;
   (3, 5, 0) 0 0 0 0.182197 0.0331266;
   (4, 5, 0) 0 0 0 0 1;
   (0, 6, 0) 0 1 0 0 0;
   (1, 6, 0) 0 0.0394484 0.170122 0 0;
   (2, 6, 0) 0 0 0.100494 0.113377 0;
   (3, 6, 0) 0 0 0 1 0;
   (4, 6, 0) 0 0 0 0 1;
   (0, 7, 0) 0 1 0 0 0;
   (1, 7, 0) 0 0.05922 0.139975 0 0;
   (2, 7, 0) 0 0 0.157702 0.0350449 0;
   (3, 7, 0) 0 0 0 0.053292 0.053292;
   (4, 7, 0) 0 0 0 0 1;
   (0, 0, 1) 0.243781 0.00525389 0 0 0;
   (1, 0, 1) 0 0.206107 0.00304727 0 0;
   (2, 0, 1) 0 0 0.232737 0.00404056 0;
   (3, 0, 1) 0 0 0 0.284273 0.00107071;
   (4, 0, 1) 0 0 0 0 1;
   (0, 1, 1) 0.166158 0.105737 0 0 0;
   (1, 1, 1) 0 0.196555 0.0414145 0 0;
   (2, 1, 1) 0 0 0.218738 0.0238207 0;
   (3, 1, 1) 0 0 0 0.237475 0.0215104;
   (4, 1, 1) 0 0 0 0 1;
   (0, 2, 1) 0.0910516 0.166928 0 0 0;
   (1, 2, 1) 0 0.152814 0.0792368 0 0;
   (2, 2, 1) 0 0 0.173812 0.0653113 0;
   (3, 2, 1) 0 0 0 0.181011 0.0569581;
   (4, 2, 1) 0 0 0 0 1;
   (0, 3, 1) 0.0520054 0.186353 0 0 0;
   (1, 3, 1) 0 0.101322 0.112178 0 0;
   (2, 3, 1) 0 0 0.136788 0.0850671 0;
   (3, 3, 1) 0 0 0 0.16428 0.0649171;
   (4, 3, 1) 0 0 0 0 1;
   (0, 4, 1) 0.0117192 0.228524 0 0 0;
   (1, 4, 1) 0 0.0788818 0.1311 0 0;
   (2, 4, 1) 0 0 0.112604 0.101268 0;
   (3, 4, 1) 0 0 0 0.127601 0.0976943;
   (4, 4, 1) 0 0 0 0 1;
   (0, 5, 1) 0 1 0 0 0;
   (1, 5, 1) 0 0.0584307 0.149448 0 0;
   (2, 5, 1) 0 0 0.0869611 0.130442 0;
   (3, 5, 1) 0 0 0 0.158676 0.0577006;
   (4, 5, 1) 0 0 0 0 1;
   (0, 6, 1) 0 1 0 0 0;
   (1, 6, 1) 0 0.0437466 0.164987 0 0;
   (2, 6, 1) 0 0 0.0690101 0.140144 0;
   (3, 6, 1) 0 0 0 0.17576 0.0234347;
   (4, 6, 1) 0 0 0 0 1;
   (0, 7, 1) 0 1 0 0 0;
   (1, 7, 1) 0 0.0403018 0.171283 0 0;
   (2, 7, 1) 0 0 0.139481 0.07439 0;
   (3, 7, 1) 0 0 0 0.0943634 0.0943634;
   (4, 7, 1) 0 0 0 0 1;
   (0, 0, 2) 0.232619 0.00669405 0 0 0;
   (1, 0, 2) 0 0.224426 0.00114212 0 0;
   (2, 0, 2) 0 0 0.24732 0.00228999 0;
   (3, 0, 2) 0 0 0 0.328091 0.000272727;
   (4, 0, 2) 0 0 0 0 1;
   (0, 1, 2) 0.151278 0.103506 0 0 0;
   (1, 1, 2) 0 0.190552 0.0344683 0 0;
   (2, 1, 2) 0 0 0.214897 0.0187237 0;
   (3, 1, 2) 0 0 0 0.236544 0.0195761;
   (4, 1, 2) 0 0 0 0 1;
   (0, 2, 2) 0.0505684 0.166154 0 0 0;
   (1, 2, 2) 0 0.127394 0.0841909 0 0;
   (2, 2, 2) 0 0 0.143877 0.0776762 0;
   (3, 2, 2) 0 0 0 0.185241 0.0437084;
   (4, 2, 2) 0 0 0 0 1;
   (0, 3, 2) 0.0151132 0.196472 0 0 0;
   (1, 3, 2) 0 0.0702473 0.117768 0 0;
   (2, 3, 2) 0 0 0.128446 0.0811239 0;
   (3, 3, 2) 0 0 0 0.140578 0.0717844;
   (4, 3, 2) 0 0 0 0 1;
   (0, 4, 2) 0 1 0 0 0;
   (1, 4, 2) 0 0.0450081 0.140025 0 0;
   (2, 4, 2) 0 0 0.0700246 0.136085 0;
   (3, 4, 2) 0 0 0 0.0943326 0.103766;
   (4, 4, 2) 0 0 0 0 1;
   (0, 5, 2) 0 1 0 0 0;
   (1, 5, 2) 0 0.0447468 0.139505 0 0;
   (2, 5, 2) 0 0 0.0622604 0.126466 0;
   (3, 5, 2) 0 0 0 0.121407 0.0651452;
   (4, 5, 2) 0 0 0 0 1;
   (0, 6, 2) 0 0.164767 0.00867194 0 0;
   (1, 6, 2) 0 0.0176743 0.144341 0.00589145 0;
   (2, 6, 2) 0 0 0.0337678 0.146327 0;
   (3, 6, 2) 0 0 0 0.123145 0.0369434;
   (4, 6, 2) 0 0 0 0 1;
   (0, 7, 2) 0 0.167502 0.0167502 0 0;
   (1, 7, 2) 0 0.0152642 0.14501 0.00763211 0;
   (2, 7, 2) 0 0 0.0232663 0.139598 0;
   (3, 7, 2) 0 0 0 0.0343192 0.0343192;
   (4, 7, 2) 0 0 0 0 1;
}
probability (km_5 | km_4, lo_4, temp_4) {
   (0, 0, 0) 0.242366 0.00850408 0 0 0;
   (1, 0, 0) 0 0.201745 0.00344864 0 0;
   (2, 0, 0) 0 0 0.220496 0.00368722 0;
   (3, 0, 0) 0 0 0 0.271734 0.00151807;
   (4, 0, 0) 0 0 0 0 1;
   (0, 1, 0) 0.173413 0.0945888 0 0 0;
   (1, 1, 0) 0 0.193531 0.0320372 0 0;
   (2, 1, 0) 0 0 0.22083 0.0242319 0;
   (3, 1, 0) 0 0 0 0.236679 0.0243412;
   (4, 1, 0) 0 0 0 0 1;
   (0, 2, 0) 0.107113 0.148768 0 0 0;
   (1, 2, 0) 0 0.154993 0.0716478 0 0;
   (2, 2, 0) 0 0 0.177361 0.0510876 0;
   (3, 2, 0) 0 0 0 0.206672 0.0413346;
   (4, 2, 0) 0 0 0 0 1;
   (0, 3, 0) 0.0905144 0.144823 0 0 0;
   (1, 3, 0) 0 0.118742 0.099659 0 0;
   (2, 3, 0) 0 0 0.161837 0.0653289 0;
   (3, 3, 0) 0 0 0 0.157892 0.0810418;
   (4, 3, 0) 0 0 0 0 1;
   (0, 4, 0) 0.0104311 0.208622 0 0 0;
   (1, 4, 0) 0 0.102709 0.106445 0 0;
   (2, 4, 0) 0 0 0.120954 0.0999891 0;
   (3, 4, 0) 0 0 0 0.156701 0.071998;
   (4, 4, 0) 0 0 0 0 1;
   (0, 5, 0) 0 1 0 0 0;
   (1, 5, 0) 0 0.0627779 0.14553 0 0;
   (2, 5, 0) 0 0 0.0995974 0.121956 0;
   (3, 5, 0) 0 0 0 0.182197 0.0331266;
   (4, 5, 0) 0 0 0 0 1;
   (0, 6, 0) 0 1 0 0 0;
   (1, 6, 0) 0 0.0394484 0.170122 0 0;
   (2, 6, 0) 0 0 0.100494 0.113377 0;
   (3, 6, 0) 0 0 0 1 0;
   (4, 6, 0) 0 0 0 0 1;
   (0, 7, 0) 0 1 0 0 0;
   (1, 7, 0) 0 0.05922 0.139975 0 0;
   (2, 7, 0) 0 0 0.157702 0.0350449 0;
   (3, 7, 0) 0 0 0 0.053292 0.053292;
   (4, 7, 0) 0 0 0 0 1;
   (0, 0, 1) 0.243781 0.00525389 0 0 0;
   (1, 0, 1) 0 0.206107 0.00304727 0 0;
   (2, 0, 1) 0 0 0.232737 0.00404056 0;
   (3, 0, 1) 0 0 0 0.284273 0.00107071;
   (4, 0, 1) 0 0 0 0 1;
   (0, 1, 1) 0.166158 0.105737 0 0 0;
   (1, 1, 1) 0 0.196555 0.0414145 0 0;
   (2, 1, 1) 0 0 0.218738 0.0238207 0;
   (3, 1, 1) 0 0 0 0.237475 0.0215104;
   (4, 1, 1) 0 0 0 0 1;
   (0, 2, 1) 0.0910516 0.166928 0 0 0;
   (1, 2, 1) 0 0.152814 0.0792368 0 0;
   (2, 2, 1) 0 0 0.173812 0.0653113 0;
   (3, 2, 1) 0 0 0 0.181011 0.0569581;
   (4, 2, 1) 0 0 0 0 1;
   (0, 3, 1) 0.0520054 0.186353 0 0 0;
   (1, 3, 1) 0 0.101322 0.112178 0 0;
   (2, 3, 1) 0 0 0.136788 0.0850671 0;
   (3, 3, 1) 0 0 0 0.16428 0.0649171;
   (4, 3, 1) 0 0 0 0 1;
   (0, 4, 1) 0.0117192 0.228524 0 0 0;
   (1, 4, 1) 0 0.0788818 0.1311 0 0;
   (2, 4, 1) 0 0 0.112604 0.101268 0;
   (3, 4, 1) 0 0 0 0.127601 0.0976943;
   (4, 4, 1) 0 0 0 0 1;
   (0, 5, 1) 0 1 0 0 0;
   (1, 5, 1) 0 0.0584307 0.149448 0 0;
   (2, 5, 1) 0 0 0.0869611 0.130442 0;
   (3, 5, 1) 0 0 0 0.158676 0.0577006;
   (4, 5, 1) 0 0 0 0 1;
   (0, 6, 1) 0 1 0 0 0;
   (1, 6, 1) 0 0.0437466 0.164987 0 0;
   (2, 6, 1) 0 0 0.0690101 0.140144 0;
   (3, 6, 1) 0 0 0 0.17576 0.0234347;
   (4, 6, 1) 0 0 0 0 1;
   (0, 7, 1) 0 1 0 0 0;
   (1, 7, 1) 0 0.0403018 0.171283 0 0;
   (2, 7, 1) 0 0 0.139481 0.07439 0;
   (3, 7, 1) 0 0 0 0.0943634 0.0943634;
   (4, 7, 1) 0 0 0 0 1;
   (0, 0, 2) 0.232619 0.00669405 0 0 0;
   (1, 0, 2) 0 0.224426 0.00114212 0 0;
   (2, 0, 2) 0 0 0.24732 0.00228999 0;
   (3, 0, 2) 0 0 0 0.328091 0.000272727;
   (4, 0, 2) 0 0 0 0 1;
   (0, 1, 2) 0.151278 0.103506 0 0 0;
   (1, 1, 2) 0 0.190552 0.0344683 0 0;
   (2, 1, 2) 0 0 0.214897 0.0187237 0;
   (3, 1, 2) 0 0 0 0.236544 0.0195761;
   (4, 1, 2) 0 0 0 0 1;
   (0, 2, 2) 0.0505684 0.166154 0 0 0;
   (1, 2, 2) 0 0.127394 0.0841909 0 0;
   (2, 2, 2) 0 0 0.143877 0.0776762 0;
   (3, 2, 2) 0 0 0 0.185241 0.0437084;
   (4, 2, 2) 0 0 0 0 1;
   (0, 3, 2) 0.0151132 0.196472 0 0 0;
   (1, 3, 2) 0 0.0702473 0.117768 0 0;
   (2, 3, 2) 0 0 0.128446 0.0811239 0;
   (3, 3, 2) 0 0 0 0.140578 0.0717844;
   (4, 3, 2) 0 0 0 0 1;
   (0, 4, 2) 0 1 0 0 0;
   (1, 4, 2) 0 0.0450081 0.140025 0 0;
   (2, 4, 2) 0 0 0.0700246 0.136085 0;
   (3, 4, 2) 0 0 0 0.0943326 0.103766;
   (4, 4, 2) 0 0 0 0 1;
   (0, 5, 2) 0 1 0 0 0;
   (1, 5, 2) 0 0.0447468 0.139505 0 0;
   (2, 5, 2) 0 0 0.0622604 0.126466 0;
   (3, 5, 2) 0 0 0 0.121407 0.0651452;
   (4, 5, 2) 0 0 0 0 1;
   (0, 6, 2) 0 0.164767 0.00867194 0 0;
   (1, 6, 2) 0 0.0176743 0.144341 0.00589145 0;
   (2, 6, 2) 0 0 0.0337678 0.146327 0;
   (3, 6, 2) 0 0 0 0.123145 0.0369434;
   (4, 6, 2) 0 0 0 0 1;
   (0, 7, 2) 0 0.167502 0.0167502 0 0;
   (1, 7, 2) 0 0.0152642 0.14501 0.00763211 0;
   (2, 7, 2) 0 0 0.0232663 0.139598 0;
   (3, 7, 2) 0 0 0 0.0343192 0.0343192;
   (4, 7, 2) 0 0 0 0 1;
}
probability (km_6 | km_5, lo_5, temp_5) {
   (0, 0, 0) 0.242366 0.00850408 0 0 0;
   (1, 0, 0) 0 0.201745 0.00344864 0 0;
   (2, 0, 0) 0 0 0.220496 0.00368722 0;
   (3, 0, 0) 0 0 0 0.271734 0.00151807;
   (4, 0, 0) 0 0 0 0 1;
   (0, 1, 0) 0.173413 0.0945888 0 0 0;
   (1, 1, 0) 0 0.193531 0.0320372 0 0;
   (2, 1, 0) 0 0 0.22083 0.0242319 0;
   (3, 1, 0) 0 0 0 0.236679 0.0243412;
   (4, 1, 0) 0 0 0 0 1;
   (0, 2, 0) 0.107113 0.148768 0 0 0;
   (1, 2, 0) 0 0.154993 0.0716478 0 0;
   (2, 2, 0) 0 0 0.177361 0.0510876 0;
   (3, 2, 0) 0 0 0 0.206672 0.0413346;
   (4, 2, 0) 0 0 0 0 1;
   (0, 3, 0) 0.0905144 0.144823 0 0 0;
   (1, 3, 0) 0 0.118742 0.099659 0 0;
   (2, 3, 0) 0 0 0.161837 0.0653289 0;
   (3, 3, 0) 0 0 0 0.157892 0.0810418;
   (4, 3, 0) 0 0 0 0 1;
   (0, 4, 0) 0.0104311 0.208622 0 0 0;
   (1, 4, 0) 0 0.102709 0.106445 0 0;
   (2, 4, 0) 0 0 0.120954 0.0999891 0;
   (3, 4, 0) 0 0 0 0.156701 0.071998;
   (4, 4, 0) 0 0 0 0 1;
   (0, 5, 0) 0 1 0 0 0;
   (1, 5, 0) 0 0.0627779 0.14553 0 0;
   (2, 5, 0) 0 0 0.0995974 0.121956 0;
   (3, 5, 0) 0 0 0 0.182197 0.0331266;
   (4, 5, 0) 0 0 0 0 1;
   (0, 6, 0) 0 1 0 0 0;
   (1, 6, 0) 0 0.0394484 0.170122 0 0;
   (2, 6, 0) 0 0 0.100494 0.113377 0;
   (3, 6, 0) 0 0 0 1 0;
   (4, 6, 0) 0 0 0 0 1;
   (0, 7, 0) 0 1 0 0 0;
   (1, 7, 0) 0 0.05922 0.139975 0 0;
   (2, 7, 0) 0 0 0.157702 0.0350449 0;
   (3, 7, 0) 0 0 0 0.053292 0.053292;
   (4, 7, 0) 0 0 0 0 1;
   (0, 0, 1) 0.243781 0.00525389 0 0 0;
   (1, 0, 1) 0 0.206107 0.00304727 0 0;
   (2, 0, 1) 0 0 0.232737 0.00404056 0;
   (3, 0, 1) 0 0 0 0.284273 0.00107071;
   (4, 0, 1) 0 0 0 0 1;
   (0, 1, 1) 0.166158 0.105737 0 0 0;
   (1, 1, 1) 0 0.196555 0.0414145 0 0;
   (2, 1, 1) 0 0 0.218738 0.0238207 0;
   (3, 1, 1) 0 0 0 0.237475 0.0215104;
   (4, 1, 1) 0 0 0 0 1;
   (0, 2, 1) 0.0910516 0.166928 0 0 0;
   (1, 2, 1) 0 0.152814 0.0792368 0 0;
   (2, 2, 1) 0 0 0.173812 0.0653113 0;
   (3, 2, 1) 0 0 0 0.181011 0.0569581;
   (4, 2, 1) 0 0 0 0 1;
   (0, 3, 1) 0.0520054 0.186353 0 0 0;
   (1, 3, 1) 0 0.101322 0.112178 0 0;
   (2, 3, 1) 0 0 0.136788 0.0850671 0;
   (3, 3, 1) 0 0 0 0.16428 0.0649171;
   (4, 3, 1) 0 0 0 0 1;
   (0, 4, 1) 0.0117192 0.228524 0 0 0;
   (1, 4, 1) 0 0.0788818 0.1311 0 0;
   (2, 4, 1) 0 0 0.112604 0.101268 0;
   (3, 4, 1) 0 0 0 0.127601 0.0976943;
   (4, 4, 1) 0 0 0 0 1;
   (0, 5, 1) 0 1 0 0 0;
   (1, 5, 1) 0 0.0584307 0.149448 0 0;
   (2, 5, 1) 0 0 0.0869611 0.130442 0;
   (3, 5, 1) 0 0 0 0.158676 0.0577006;
   (4, 5, 1) 0 0 0 0 1;
   (0, 6, 1) 0 1 0 0 0;
   (1, 6, 1) 0 0.0437466 0.164987 0 0;
   (2, 6, 1) 0 0 0.0690101 0.140144 0;
   (3, 6, 1) 0 0 0 0.17576 0.0234347;
   (4, 6, 1) 0 0 0 0 1;
   (0, 7, 1) 0 1 0 0 0;
   (1, 7, 1) 0 0.0403018 0.171283 0 0;
   (2, 7, 1) 0 0 0.139481 0.07439 0;
   (3, 7, 1) 0 0 0 0.0943634 0.0943634;
   (4, 7, 1) 0 0 0 0 1;
   (0, 0, 2) 0.232619 0.00669405 0 0 0;
   (1, 0, 2) 0 0.224426 0.00114212 0 0;
   (2, 0, 2) 0 0 0.24732 0.00228999 0;
   (3, 0, 2) 0 0 0 0.328091 0.000272727;
   (4, 0, 2) 0 0 0 0 1;
   (0, 1, 2) 0.151278 0.103506 0 0 0;
   (1, 1, 2) 0 0.190552 0.0344683 0 0;
   (2, 1, 2) 0 0 0.214897 0.0187237 0;
   (3, 1, 2) 0 0 0 0.236544 0.0195761;
   (4, 1, 2) 0 0 0 0 1;
   (0, 2, 2) 0.0505684 0.166154 0 0 0;
   (1, 2, 2) 0 0.127394 0.0841909 0 0;
   (2, 2, 2) 0 0 0.143877 0.0776762 0;
   (3, 2, 2) 0 0 0 0.185241 0.0437084;
   (4, 2, 2) 0 0 0 0 1;
   (0, 3, 2) 0.0151132 0.196472 0 0 0;
   (1, 3, 2) 0 0.0702473 0.117768 0 0;
   (2, 3, 2) 0 0 0.128446 0.0811239 0;
   (3, 3, 2) 0 0 0 0.140578 0.0717844;
   (4, 3, 2) 0 0 0 0 1;
   (0, 4, 2) 0 1 0 0 0;
   (1, 4, 2) 0 0.0450081 0.140025 0 0;
   (2, 4, 2) 0 0 0.0700246 0.136085 0;
   (3, 4, 2) 0 0 0 0.0943326 0.103766;
   (4, 4, 2) 0 0 0 0 1;
   (0, 5, 2) 0 1 0 0 0;
   (1, 5, 2) 0 0.0447468 0.139505 0 0;
   (2, 5, 2) 0 0 0.0622604 0.126466 0;
   (3, 5, 2) 0 0 0 0.121407 0.0651452;
   (4, 5, 2) 0 0 0 0 1;
   (0, 6, 2) 0 0.164767 0.00867194 0 0;
   (1, 6, 2) 0 0.0176743 0.144341 0.00589145 0;
   (2, 6, 2) 0 0 0.0337678 0.146327 0;
   (3, 6, 2) 0 0 0 0.123145 0.0369434;
   (4, 6, 2) 0 0 0 0 1;
   (0, 7, 2) 0 0.167502 0.0167502 0 0;
   (1, 7, 2) 0 0.0152642 0.14501 0.00763211 0;
   (2, 7, 2) 0 0 0.0232663 0.139598 0;
   (3, 7, 2) 0 0 0 0.0343192 0.0343192;
   (4, 7, 2) 0 0 0 0 1;
}
probability (km_7 | km_6, lo_6, temp_6) {
   (0, 0, 0) 0.242366 0.00850408 0 0 0;
   (1, 0, 0) 0 0.201745 0.00344864 0 0;
   (2, 0, 0) 0 0 0.220496 0.00368722 0;
   (3, 0, 0) 0 0 0 0.271734 0.00151807;
   (4, 0, 0) 0 0 0 0 1;
   (0, 1, 0) 0.173413 0.0945888 0 0 0;
   (1, 1, 0) 0 0.193531 0.0320372 0 0;
   (2, 1, 0) 0 0 0.22083 0.0242319 0;
   (3, 1, 0) 0 0 0 0.236679 0.0243412;
   (4, 1, 0) 0 0 0 0 1;
   (0, 2, 0) 0.107113 0.148768 0 0 0;
   (1, 2, 0) 0 0.154993 0.0716478 0 0;
   (2, 2, 0) 0 0 0.177361 0.0510876 0;
   (3, 2, 0) 0 0 0 0.206672 0.0413346;
   (4, 2, 0) 0 0 0 0 1;
   (0, 3, 0) 0.0905144 0.144823 0 0 0;
   (1, 3, 0) 0 0.118742 0.099659 0 0;
   (2, 3, 0) 0 0 0.161837 0.0653289 0;
   (3, 3, 0) 0 0 0 0.157892 0.0810418;
   (4, 3, 0) 0 0 0 0 1;
   (0, 4, 0) 0.0104311 0.208622 0 0 0;
   (1, 4, 0) 0 0.102709 0.106445 0 0;
   (2, 4, 0) 0 0 0.120954 0.0999891 0;
   (3, 4, 0) 0 0 0 0.156701 0.071998;
   (4, 4, 0) 0 0 0 0 1;
   (0, 5, 0) 0 1 0 0 0;
   (1, 5, 0) 0 0.0627779 0.14553 0 0;
   (2, 5, 0) 0 0 0.0995974 0.121956 0;
   (3, 5, 0) 0 0 0 0.182197 0.0331266;
   (4, 5, 0) 0 0 0 0 1;
   (0, 6, 0) 0 1 0 0 0;
   (1, 6, 0) 0 0.0394484 0.170122 0 0;
   (2, 6, 0) 0 0 0.100494 0.113377 0;
   (3, 6, 0) 0 0 0 1 0;
   (4, 6, 0) 0 0 0 0 1;
   (0, 7, 0) 0 1 0 0 0;
   (1, 7, 0) 0 0.05922 0.139975 0 0;
   (2, 7, 0) 0 0 0.157702 0.0350449 0;
   (3, 7, 0) 0 0 0 0.053292 0.053292;
   (4, 7, 0) 0 0 0 0 1;
   (0, 0, 1) 0.243781 0.00525389 0 0 0;
   (1, 0, 1) 0 0.206107 0.00304727 0 0;
   (2, 0, 1) 0 0 0.232737 0.00404056 0;
   (3, 0, 1) 0 0 0 0.284273 0.00107071;
   (4, 0, 1) 0 0 0 0 1;
   (0, 1, 1) 0.166158 0.105737 0 0 0;
   (1, 1, 1) 0 0.196555 0.0414145 0 0;
   (2, 1, 1) 0 0 0.218738 0.0238207 0;
   (3, 1, 1) 0 0 0 0.237475 0.0215104;
   (4, 1, 1) 0 0 0 0 1;
   (0, 2, 1) 0.0910516 0.166928 0 0 0;
   (1, 2, 1) 0 0.152814 0.0792368 0 0;
   (2, 2, 1) 0 0 0.173812 0.0653113 0;
   (3, 2, 1) 0 0 0 0.181011 0.0569581;
   (4, 2, 1) 0 0 0 0 1;
   (0, 3, 1) 0.0520054 0.186353 0 0 0;
   (1, 3, 1) 0 0.101322 0.112178 0 0;
   (2, 3, 1) 0 0 0.136788 0.0850671 0;
   (3, 3, 1) 0 0 0 0.16428 0.0649171;
   (4, 3, 1) 0 0 0 0 1;
   (0, 4, 1) 0.0117192 0.228524 0 0 0;
   (1, 4, 1) 0 0.0788818 0.1311 0 0;
   (2, 4, 1) 0 0 0.112604 0.101268 0;
   (3, 4, 1) 0 0 0 0.127601 0.0976943;
   (4, 4, 1) 0 0 0 0 1;
   (0, 5, 1) 0 1 0 0 0;
   (1, 5, 1) 0 0.0584307 0.149448 0 0;
   (2, 5, 1) 0 0 0.0869611 0.130442 0;
   (3, 5, 1) 0 0 0 0.158676 0.0577006;
   (4, 5, 1) 0 0 0 0 1;
   (0, 6, 1) 0 1 0 0 0;
   (1, 6, 1) 0 0.0437466 0.164987 0 0;
   (2, 6, 1) 0 0 0.0690101 0.140144 0;
   (3, 6, 1) 0 0 0 0.17576 0.0234347;
   (4, 6, 1) 0 0 0 0 1;
   (0, 7, 1) 0 1 0 0 0;
   (1, 7, 1) 0 0.0403018 0.171283 0 0;
   (2, 7, 1) 0 0 0.139481 0.07439 0;
   (3, 7, 1) 0 0 0 0.0943634 0.0943634;
   (4, 7, 1) 0 0 0 0 1;
   (0, 0, 2) 0.232619 0.00669405 0 0 0;
   (1, 0, 2) 0 0.224426 0.00114212 0 0;
   (2, 0, 2) 0 0 0.24732 0.00228999 0;
   (3, 0, 2) 0 0 0 0.328091 0.000272727;
   (4, 0, 2) 0 0 0 0 1;
   (0, 1, 2) 0.151278 0.103506 0 0 0;
   (1, 1, 2) 0 0.190552 0.0344683 0 0;
   (2, 1, 2) 0 0 0.214897 0.0187237 0;
   (3, 1, 2) 0 0 0 0.236544 0.0195761;
   (4, 1, 2) 0 0 0 0 1;
   (0, 2, 2) 0.0505684 0.166154 0 0 0;
   (1, 2, 2) 0 0.127394 0.0841909 0 0;
   (2, 2, 2) 0 0 0.143877 0.0776762 0;
   (3, 2, 2) 0 0 0 0.185241 0.0437084;
   (4, 2, 2) 0 0 0 0 1;
   (0, 3, 2) 0.0151132 0.196472 0 0 0;
   (1, 3, 2) 0 0.0702473 0.117768 0 0;
   (2, 3, 2) 0 0 0.128446 0.0811239 0;
   (3, 3, 2) 0 0 0 0.140578 0.0717844;
   (4, 3, 2) 0 0 0 0 1;
   (0, 4, 2) 0 1 0 0 0;
   (1, 4, 2) 0 0.0450081 0.140025 0 0;
   (2, 4, 2) 0 0 0.0700246 0.136085 0;
   (3, 4, 2) 0 0 0 0.0943326 0.103766;
   (4, 4, 2) 0 0 0 0 1;
   (0, 5, 2) 0 1 0 0 0;
   (1, 5, 2) 0 0.0447468 0.139505 0 0;
   (2, 5, 2) 0 0 0.0622604 0.126466 0;
   (3, 5, 2) 0 0 0 0.121407 0.0651452;
   (4, 5, 2) 0 0 0 0 1;
   (0, 6, 2) 0 0.164767 0.00867194 0 0;
   (1, 6, 2) 0 0.0176743 0.144341 0.00589145 0;
   (2, 6, 2) 0 0 0.0337678 0.146327 0;
   (3, 6, 2) 0 0 0 0.123145 0.0369434;
   (4, 6, 2) 0 0 0 0 1;
   (0, 7, 2) 0 0.167502 0.0167502 0 0;
   (1, 7, 2) 0 0.0152642 0.14501 0.00763211 0;
   (2, 7, 2) 0 0 0.0232663 0.139598 0;
   (3, 7, 2) 0 0 0 0.0343192 0.0343192;
   (4, 7, 2) 0 0 0 0 1;
}
probability (km_8 | km_7, lo_7, temp_7) {
   (0, 0, 0) 0.242366 0.00850408 0 0 0;
   (1, 0, 0) 0 0.201745 0.00344864 0 0;
   (2, 0, 0) 0 0 0.220496 0.00368722 0;
   (3, 0, 0) 0 0 0 0.271734 0.00151807;
   (4, 0, 0) 0 0 0 0 1;
   (0, 1, 0) 0.173413 0.0945888 0 0 0;
   (1, 1, 0) 0 0.193531 0.0320372 0 0;
   (2, 1, 0) 0 0 0.22083 0.0242319 0;
   (3, 1, 0) 0 0 0 0.236679 0.0243412;
   (4, 1, 0) 0 0 0 0 1;
   (0, 2, 0) 0.107113 0.148768 0 0 0;
   (1, 2, 0) 0 0.154993 0.0716478 0 0;
   (2, 2, 0) 0 0 0.177361 0.0510876 0;
   (3, 2, 0) 0 0 0 0.206672 0.0413346;
   (4, 2, 0) 0 0 0 0 1;
   (0, 3, 0) 0.0905144 0.144823 0 0 0;
   (1, 3, 0) 0 0.118742 0.099659 0 0;
   (2, 3, 0) 0 0 0.161837 0.0653289 0;
   (3, 3, 0) 0 0 0 0.157892 0.0810418;
   (4, 3, 0) 0 0 0 0 1;
   (0, 4, 0) 0.0104311 0.208622 0 0 0;
   (1, 4, 0) 0 0.102709 0.106445 0 0;
   (2, 4, 0) 0 0 0.120954 0.0999891 0;
   (3, 4, 0) 0 0 0 0.156701 0.071998;
   (4, 4, 0) 0 0 0 0 1;
   (0, 5, 0) 0 1 0 0 0;
   (1, 5, 0) 0 0.0627779 0.14553 0 0;
   (2, 5, 0) 0 0 0.0995974 0.121956 0;
   (3, 5, 0) 0 0 0 0.182197 0.0331266;
   (4, 5, 0) 0 0 0 0 1;
   (0, 6, 0) 0 1 0 0 0;
   (1, 6, 0) 0 0.0394484 0.170122 0 0;
   (2, 6, 0) 0 0 0.100494 0.113377 0;
   (3, 6, 0) 0 0 0 1 0;
   (4, 6, 0) 0 0 0 0 1;
   (0, 7, 0) 0 1 0 0 0;
   (1, 7, 0) 0 0.05922 0.139975 0 0;
   (2, 7, 0) 0 0 0.157702 0.0350449 0;
   (3, 7, 0) 0 0 0 0.053292 0.053292;
   (4, 7, 0) 0 0 0 0 1;
   (0, 0, 1) 0.243781 0.00525389 0 0 0;
   (1, 0, 1) 0 0.206107 0.00304727 0 0;
   (2, 0, 1) 0 0 0.232737 0.00404056 0;
   (3, 0, 1) 0 0 0 0.284273 0.00107071;
   (4, 0, 1) 0 0 0 0 1;
   (0, 1, 1) 0.166158 0.105737 0 0 0;
   (1, 1, 1) 0 0.196555 0.0414145 0 0;
   (2, 1, 1) 0 0 0.218738 0.0238207 0;
   (3, 1, 1) 0 0 0 0.237475 0.0215104;
   (4, 1, 1) 0 0 0 0 1;
   (0, 2, 1) 0.0910516 0.166928 0 0 0;
   (1, 2, 1) 0 0.152814 0.0792368 0 0;
   (2, 2, 1) 0 0 0.173812 0.0653113 0;
   (3, 2, 1) 0 0 0 0.181011 0.0569581;
   (4, 2, 1) 0 0 0 0 1;
   (0, 3, 1) 0.0520054 0.186353 0 0 0;
   (1, 3, 1) 0 0.101322 0.112178 0 0;
   (2, 3, 1) 0 0 0.136788 0.0850671 0;
   (3, 3, 1) 0 0 0 0.16428 0.0649171;
   (4, 3, 1) 0 0 0 0 1;
   (0, 4, 1) 0.0117192 0.228524 0 0 0;
   (1, 4, 1) 0 0.0788818 0.1311 0 0;
   (2, 4, 1) 0 0 0.112604 0.101268 0;
   (3, 4, 1) 0 0 0 0.127601 0.0976943;
   (4, 4, 1) 0 0 0 0 1;
   (0, 5, 1) 0 1 0 0 0;
   (1, 5, 1) 0 0.0584307 0.149448 0 0;
   (2, 5, 1) 0 0 0.0869611 0.130442 0;
   (3, 5, 1) 0 0 0 0.158676 0.0577006;
   (4, 5, 1) 0 0 0 0 1;
   (0, 6, 1) 0 1 0 0 0;
   (1, 6, 1) 0 0.0437466 0.164987 0 0;
   (2, 6, 1) 0 0 0.0690101 0.140144 0;
   (3, 6, 1) 0 0 0 0.17576 0.0234347;
   (4, 6, 1) 0 0 0 0 1;
   (0, 7, 1) 0 1 0 0 0;
   (1, 7, 1) 0 0.0403018 0.171283 0 0;
   (2, 7, 1) 0 0 0.139481 0.07439 0;
   (3, 7, 1) 0 0 0 0.0943634 0.0943634;
   (4, 7, 1) 0 0 0 0 1;
   (0, 0, 2) 0.232619 0.00669405 0 0 0;
   (1, 0, 2) 0 0.224426 0.00114212 0 0;
   (2, 0, 2) 0 0 0.24732 0.00228999 0;
   (3, 0, 2) 0 0 0 0.328091 0.000272727;
   (4, 0, 2) 0 0 0 0 1;
   (0, 1, 2) 0.151278 0.103506 0 0 0;
   (1, 1, 2) 0 0.190552 0.0344683 0 0;
   (2, 1, 2) 0 0 0.214897 0.0187237 0;
   (3, 1, 2) 0 0 0 0.236544 0.0195761;
   (4, 1, 2) 0 0 0 0 1;
   (0, 2, 2) 0.0505684 0.166154 0 0 0;
   (1, 2, 2) 0 0.127394 0.0841909 0 0;
   (2, 2, 2) 0 0 0.143877 0.0776762 0;
   (3, 2, 2) 0 0 0 0.185241 0.0437084;
   (4, 2, 2) 0 0 0 0 1;
   (0, 3, 2) 0.0151132 0.196472 0 0 0;
   (1, 3, 2) 0 0.0702473 0.117768 0 0;
   (2, 3, 2) 0 0 0.128446 0.0811239 0;
   (3, 3, 2) 0 0 0 0.140578 0.0717844;
   (4, 3, 2) 0 0 0 0 1;
   (0, 4, 2) 0 1 0 0 0;
   (1, 4, 2) 0 0.0450081 0.140025 0 0;
   (2, 4, 2) 0 0 0.0700246 0.136085 0;
   (3, 4, 2) 0 0 0 0.0943326 0.103766;
   (4, 4, 2) 0 0 0 0 1;
   (0, 5, 2) 0 1 0 0 0;
   (1, 5, 2) 0 0.0447468 0.139505 0 0;
   (2, 5, 2) 0 0 0.0622604 0.126466 0;
   (3, 5, 2) 0 0 0 0.121407 0.0651452;
   (4, 5, 2) 0 0 0 0 1;
   (0, 6, 2) 0 0.164767 0.00867194 0 0;
   (1, 6, 2) 0 0.0176743 0.144341 0.00589145 0;
   (2, 6, 2) 0 0 0.0337678 0.146327 0;
   (3, 6, 2) 0 0 0 0.123145 0.0369434;
   (4, 6, 2) 0 0 0 0 1;
   (0, 7, 2) 0 0.167502 0.0167502 0 0;
   (1, 7, 2) 0 0.0152642 0.14501 0.00763211 0;
   (2, 7, 2) 0 0 0.0232663 0.139598 0;
   (3, 7, 2) 0 0 0 0.0343192 0.0343192;
   (4, 7, 2) 0 0 0 0 1;
}
probability (km_9 | km_8, lo_8, temp_8) {
   (0, 0, 0) 0.242366 0.00850408 0 0 0;
   (1, 0, 0) 0 0.201745 0.00344864 0 0;
   (2, 0, 0) 0 0 0.220496 0.00368722 0;
   (3, 0, 0) 0 0 0 0.271734 0.00151807;
   (4, 0, 0) 0 0 0 0 1;
   (0, 1, 0) 0.173413 0.0945888 0 0 0;
   (1, 1, 0) 0 0.193531 0.0320372 0 0;
   (2, 1, 0) 0 0 0.22083 0.0242319 0;
   (3, 1, 0) 0 0 0 0.236679 0.0243412;
   (4, 1, 0) 0 0 0 0 1;
   (0, 2, 0) 0.107113 0.148768 0 0 0;
   (1, 2, 0) 0 0.154993 0.0716478 0 0;
   (2, 2, 0) 0 0 0.177361 0.0510876 0;
   (3, 2, 0) 0 0 0 0.206672 0.0413346;
   (4, 2, 0) 0 0 0 0 1;
   (0, 3, 0) 0.0905144 0.144823 0 0 0;
   (1, 3, 0) 0 0.118742 0.099659 0 0;
   (2, 3, 0) 0 0 0.161837 0.0653289 0;
   (3, 3, 0) 0 0 0 0.157892 0.0810418;
   (4, 3, 0) 0 0 0 0 1;
   (0, 4, 0) 0.0104311 0.208622 0 0 0;
   (1, 4, 0) 0 0.102709 0.106445 0 0;
   (2, 4, 0) 0 0 0.120954 0.0999891 0;
   (3, 4, 0) 0 0 0 0.156701 0.071998;
   (4, 4, 0) 0 0 0 0 1;
   (0, 5, 0) 0 1 0 0 0;
   (1, 5, 0) 0 0.0627779 0.14553 0 0;
   (2, 5, 0) 0 0 0.0995974 0.121956 0;
   (3, 5, 0) 0 0 0 0.182197 0.0331266;
   (4, 5, 0) 0 0 0 0 1;
   (0, 6, 0) 0 1 0 0 0;
   (1, 6, 0) 0 0.0394484 0.170122 0 0;
   (2, 6, 0) 0 0 0.100494 0.113377 0;
   (3, 6, 0) 0 0 0 1 0;
   (4, 6, 0) 0 0 0 0 1;
   (0, 7, 0) 0 1 0 0 0;
   (1, 7, 0) 0 0.05922 0.139975 0 0;
   (2, 7, 0) 0 0 0.157702 0.0350449 0;
   (3, 7, 0) 0 0 0 0.053292 0.053292;
   (4, 7, 0) 0 0 0 0 1;
   (0, 0, 1) 0.243781 0.00525389 0 0 0;
   (1, 0, 1) 0 0.206107 0.00304727 0 0;
   (2, 0, 1) 0 0 0.232737 0.00404056 0;
   (3, 0, 1) 0 0 0 0.284273 0.00107071;
   (4, 0, 1) 0 0 0 0 1;
   (0, 1, 1) 0.166158 0.105737 0 0 0;
   (1, 1, 1) 0 0.196555 0.0414145 0 0;
   (2, 1, 1) 0 0 0.218738 0.0238207 0;
   (3, 1, 1) 0 0 0 0.237475 0.0215104;
   (4, 1, 1) 0 0 0 0 1;
   (0, 2, 1) 0.0910516 0.166928 0 0 0;
   (1, 2, 1) 0 0.152814 0.0792368 0 0;
   (2, 2, 1) 0 0 0.173812 0.0653113 0;
   (3, 2, 1) 0 0 0 0.181011 0.0569581;
   (4, 2, 1) 0 0 0 0 1;
   (0, 3, 1) 0.0520054 0.186353 0 0 0;
   (1, 3, 1) 0 0.101322 0.112178 0 0;
   (2, 3, 1) 0 0 0.136788 0.0850671 0;
   (3, 3, 1) 0 0 0 0.16428 0.0649171;
   (4, 3, 1) 0 0 0 0 1;
   (0, 4, 1) 0.0117192 0.228524 0 0 0;
   (1, 4, 1) 0 0.0788818 0.1311 0 0;
   (2, 4, 1) 0 0 0.112604 0.101268 0;
   (3, 4, 1) 0 0 0 0.127601 0.0976943;
   (4, 4, 1) 0 0 0 0 1;
   (0, 5, 1) 0 1 0 0 0;
   (1, 5, 1) 0 0.0584307 0.149448 0 0;
   (2, 5, 1) 0 0 0.0869611 0.130442 0;
   (3, 5, 1) 0 0 0 0.158676 0.0577006;
   (4, 5, 1) 0 0 0 0 1;
   (0, 6, 1) 0 1 0 0 0;
   (1, 6, 1) 0 0.0437466 0.164987 0 0;
   (2, 6, 1) 0 0 0.0690101 0.140144 0;
   (3, 6, 1) 0 0 0 0.17576 0.0234347;
   (4, 6, 1) 0 0 0 0 1;
   (0, 7, 1) 0 1 0 0 0;
   (1, 7, 1) 0 0.0403018 0.171283 0 0;
   (2, 7, 1) 0 0 0.139481 0.07439 0;
   (3, 7, 1) 0 0 0 0.0943634 0.0943634;
   (4, 7, 1) 0 0 0 0 1;
   (0, 0, 2) 0.232619 0.00669405 0 0 0;
   (1, 0, 2) 0 0.224426 0.00114212 0 0;
   (2, 0, 2) 0 0 0.24732 0.00228999 0;
   (3, 0, 2) 0 0 0 0.328091 0.000272727;
   (4, 0, 2) 0 0 0 0 1;
   (0, 1, 2) 0.151278 0.103506 0 0 0;
   (1, 1, 2) 0 0.190552 0.0344683 0 0;
   (2, 1, 2) 0 0 0.214897 0.0187237 0;
   (3, 1, 2) 0 0 0 0.236544 0.0195761;
   (4, 1, 2) 0 0 0 0 1;
   (0, 2, 2) 0.0505684 0.166154 0 0 0;
   (1, 2, 2) 0 0.127394 0.0841909 0 0;
   (2, 2, 2) 0 0 0.143877 0.0776762 0;
   (3, 2, 2) 0 0 0 0.185241 0.0437084;
   (4, 2, 2) 0 0 0 0 1;
   (0, 3, 2) 0.0151132 0.196472 0 0 0;
   (1, 3, 2) 0 0.0702473 0.117768 0 0;
   (2, 3, 2) 0 0 0.128446 0.0811239 0;
   (3, 3, 2) 0 0 0 0.140578 0.0717844;
   (4, 3, 2) 0 0 0 0 1;
   (0, 4, 2) 0 1 0 0 0;
   (1, 4, 2) 0 0.0450081 0.140025 0 0;
   (2, 4, 2) 0 0 0.0700246 0.136085 0;
   (3, 4, 2) 0 0 0 0.0943326 0.103766;
   (4, 4, 2) 0 0 0 0 1;
   (0, 5, 2) 0 1 0 0 0;
   (1, 5, 2) 0 0.0447468 0.139505 0 0;
   (2, 5, 2) 0 0 0.0622604 0.126466 0;
   (3, 5, 2) 0 0 0 0.121407 0.0651452;
   (4, 5, 2) 0 0 0 0 1;
   (0, 6, 2) 0 0.164767 0.00867194 0 0;
   (1, 6, 2) 0 0.0176743 0.144341 0.00589145 0;
   (2, 6, 2) 0 0 0.0337678 0.146327 0;
   (3, 6, 2) 0 0 0 0.123145 0.0369434;
   (4, 6, 2) 0 0 0 0 1;
   (0, 7, 2) 0 0.167502 0.0167502 0 0;
   (1, 7, 2) 0 0.0152642 0.14501 0.00763211 0;
   (2, 7, 2) 0 0 0.0232663 0.139598 0;
   (3, 7, 2) 0 0 0 0.0343192 0.0343192;
   (4, 7, 2) 0 0 0 0 1;
}
probability (km_10 | km_9, lo_9, temp_9) {
   (0, 0, 0) 0.242366 0.00850408 0 0 0;
   (1, 0, 0) 0 0.201745 0.00344864 0 0;
   (2, 0, 0) 0 0 0.220496 0.00368722 0;
   (3, 0, 0) 0 0 0 0.271734 0.00151807;
   (4, 0, 0) 0 0 0 0 1;
   (0, 1, 0) 0.173413 0.0945888 0 0 0;
   (1, 1, 0) 0 0.193531 0.0320372 0 0;
   (2, 1, 0) 0 0 0.22083 0.0242319 0;
   (3, 1, 0) 0 0 0 0.236679 0.0243412;
   (4, 1, 0) 0 0 0 0 1;
   (0, 2, 0) 0.107113 0.148768 0 0 0;
   (1, 2, 0) 0 0.154993 0.0716478 0 0;
   (2, 2, 0) 0 0 0.177361 0.0510876 0;
   (3, 2, 0) 0 0 0 0.206672 0.0413346;
   (4, 2, 0) 0 0 0 0 1;
   (0, 3, 0) 0.0905144 0.144823 0 0 0;
   (1, 3, 0) 0 0.118742 0.099659 0 0;
   (2, 3, 0) 0 0 0.161837 0.0653289 0;
   (3, 3, 0) 0 0 0 0.157892 0.0810418;
   (4, 3, 0) 0 0 0 0 1;
   (0, 4, 0) 0.0104311 0.208622 0 0 0;
   (1, 4, 0) 0 0.102709 0.106445 0 0;
   (2, 4, 0) 0 0 0.120954 0.0999891 0;
   (3, 4, 0) 0 0 0 0.156701 0.071998;
   (4, 4, 0) 0 0 0 0 1;
   (0, 5, 0) 0 1 0 0 0;
   (1, 5, 0) 0 0.0627779 0.14553 0 0;
   (2, 5, 0) 0 0 0.0995974 0.121956 0;
   (3, 5, 0) 0 0 0 0.182197 0.0331266;
   (4, 5, 0) 0 0 0 0 1;
   (0, 6, 0) 0 1 0 0 0;
   (1, 6, 0) 0 0.0394484 0.170122 0 0;
   (2, 6, 0) 0 0 0.100494 0.113377 0;
   (3, 6, 0) 0 0 0 1 0;
   (4, 6, 0) 0 0 0 0 1;
   (0, 7, 0) 0 1 0 0 0;
   (1, 7, 0) 0 0.05922 0.139975 0 0;
   (2, 7, 0) 0 0 0.157702 0.0350449 0;
   (3, 7, 0) 0 0 0 0.053292 0.053292;
   (4, 7, 0) 0 0 0 0 1;
   (0, 0, 1) 0.243781 0.00525389 0 0 0;
   (1, 0, 1) 0 0.206107 0.00304727 0 0;
   (2, 0, 1) 0 0 0.232737 0.00404056 0;
   (3, 0, 1) 0 0 0 0.284273 0.00107071;
   (4, 0, 1) 0 0 0 0 1;
   (0, 1, 1) 0.166158 0.105737 0 0 0;
   (1, 1, 1) 0 0.196555 0.0414145 0 0;
   (2, 1, 1) 0 0 0.218738 0.0238207 0;
   (3, 1, 1) 0 0 0 0.237475 0.0215104;
   (4, 1, 1) 0 0 0 0 1;
   (0, 2, 1) 0.0910516 0.166928 0 0 0;
   (1, 2, 1) 0 0.152814 0.0792368 0 0;
   (2, 2, 1) 0 0 0.173812 0.0653113 0;
   (3, 2, 1) 0 0 0 0.181011 0.0569581;
   (4, 2, 1) 0 0 0 0 1;
   (0, 3, 1) 0.0520054 0.186353 0 0 0;
   (1, 3, 1) 0 0.101322 0.112178 0 0;
   (2, 3, 1) 0 0 0.136788 0.0850671 0;
   (3, 3, 1) 0 0 0 0.16428 0.0649171;
   (4, 3, 1) 0 0 0 0 1;
   (0, 4, 1) 0.0117192 0.228524 0 0 0;
   (1, 4, 1) 0 0.0788818 0.1311 0 0;
   (2, 4, 1) 0 0 0.112604 0.101268 0;
   (3, 4, 1) 0 0 0 0.127601 0.0976943;
   (4, 4, 1) 0 0 0 0 1;
   (0, 5, 1) 0 1 0 0 0;
   (1, 5, 1) 0 0.0584307 0.149448 0 0;
   (2, 5, 1) 0 0 0.0869611 0.130442 0;
   (3, 5, 1) 0 0 0 0.158676 0.0577006;
   (4, 5, 1) 0 0 0 0 1;
   (0, 6, 1) 0 1 0 0 0;
   (1, 6, 1) 0 0.0437466 0.164987 0 0;
   (2, 6, 1) 0 0 0.0690101 0.140144 0;
   (3, 6, 1) 0 0 0 0.17576 0.0234347;
   (4, 6, 1) 0 0 0 0 1;
   (0, 7, 1) 0 1 0 0 0;
   (1, 7, 1) 0 0.0403018 0.171283 0 0;
   (2, 7, 1) 0 0 0.139481 0.07439 0;
   (3, 7, 1) 0 0 0 0.0943634 0.0943634;
   (4, 7, 1) 0 0 0 0 1;
   (0, 0, 2) 0.232619 0.00669405 0 0 0;
   (1, 0, 2) 0 0.224426 0.00114212 0 0;
   (2, 0, 2) 0 0 0.24732 0.00228999 0;
   (3, 0, 2) 0 0 0 0.328091 0.000272727;
   (4, 0, 2) 0 0 0 0 1;
   (0, 1, 2) 0.151278 0.103506 0 0 0;
   (1, 1, 2) 0 0.190552 0.0344683 0 0;
   (2, 1, 2) 0 0 0.214897 0.0187237 0;
   (3, 1, 2) 0 0 0 0.236544 0.0195761;
   (4, 1, 2) 0 0 0 0 1;
   (0, 2, 2) 0.0505684 0.166154 0 0 0;
   (1, 2, 2) 0 0.127394 0.0841909 0 0;
   (2, 2, 2) 0 0 0.143877 0.0776762 0;
   (3, 2, 2) 0 0 0 0.185241 0.0437084;
   (4, 2, 2) 0 0 0 0 1;
   (0, 3, 2) 0.0151132 0.196472 0 0 0;
   (1, 3, 2) 0 0.0702473 0.117768 0 0;
   (2, 3, 2) 0 0 0.128446 0.0811239 0;
   (3, 3, 2) 0 0 0 0.140578 0.0717844;
   (4, 3, 2) 0 0 0 0 1;
   (0, 4, 2) 0 1 0 0 0;
   (1, 4, 2) 0 0.0450081 0.140025 0 0;
   (2, 4, 2) 0 0 0.0700246 0.136085 0;
   (3, 4, 2) 0 0 0 0.0943326 0.103766;
   (4, 4, 2) 0 0 0 0 1;
   (0, 5, 2) 0 1 0 0 0;
   (1, 5, 2) 0 0.0447468 0.139505 0 0;
   (2, 5, 2) 0 0 0.0622604 0.126466 0;
   (3, 5, 2) 0 0 0 0.121407 0.0651452;
   (4, 5, 2) 0 0 0 0 1;
   (0, 6, 2) 0 0.164767 0.00867194 0 0;
   (1, 6, 2) 0 0.0176743 0.144341 0.00589145 0;
   (2, 6, 2) 0 0 0.0337678 0.146327 0;
   (3, 6, 2) 0 0 0 0.123145 0.0369434;
   (4, 6, 2) 0 0 0 0 1;
   (0, 7, 2) 0 0.167502 0.0167502 0 0;
   (1, 7, 2) 0 0.0152642 0.14501 0.00763211 0;
   (2, 7, 2) 0 0 0.0232663 0.139598 0;
   (3, 7, 2) 0 0 0 0.0343192 0.0343192;
   (4, 7, 2) 0 0 0 0 1;
}
probability (km_11 | km_10, lo_10, temp_10) {
   (0, 0, 0) 0.242366 0.00850408 0 0 0;
   (1, 0, 0) 0 0.201745 0.00344864 0 0;
   (2, 0, 0) 0 0 0.220496 0.00368722 0;
   (3, 0, 0) 0 0 0 0.271734 0.00151807;
   (4, 0, 0) 0 0 0 0 1;
   (0, 1, 0) 0.173413 0.0945888 0 0 0;
   (1, 1, 0) 0 0.193531 0.0320372 0 0;
   (2, 1, 0) 0 0 0.22083 0.0242319 0;
   (3, 1, 0) 0 0 0 0.236679 0.0243412;
   (4, 1, 0) 0 0 0 0 1;
   (0, 2, 0) 0.107113 0.148768 0 0 0;
   (1, 2, 0) 0 0.154993 0.0716478 0 0;
   (2, 2, 0) 0 0 0.177361 0.0510876 0;
   (3, 2, 0) 0 0 0 0.206672 0.0413346;
   (4, 2, 0) 0 0 0 0 1;
   (0, 3, 0) 0.0905144 0.144823 0 0 0;
   (1, 3, 0) 0 0.118742 0.099659 0 0;
   (2, 3, 0) 0 0 0.161837 0.0653289 0;
   (3, 3, 0) 0 0 0 0.157892 0.0810418;
   (4, 3, 0) 0 0 0 0 1;
   (0, 4, 0) 0.0104311 0.208622 0 0 0;
   (1, 4, 0) 0 0.102709 0.106445 0 0;
   (2, 4, 0) 0 0 0.120954 0.0999891 0;
   (3, 4, 0) 0 0 0 0.156701 0.071998;
   (4, 4, 0) 0 0 0 0 1;
   (0, 5, 0) 0 1 0 0 0;
   (1, 5, 0) 0 0.0627779 0.14553 0 0;
   (2, 5, 0) 0 0 0.0995974 0.121956 0;
   (3, 5, 0) 0 0 0 0.182197 0.0331266;
   (4, 5, 0) 0 0 0 0 1;
   (0, 6, 0) 0 1 0 0 0;
   (1, 6, 0) 0 0.0394484 0.170122 0 0;
   (2, 6, 0) 0 0 0.100494 0.113377 0;
   (3, 6, 0) 0 0 0 1 0;
   (4, 6, 0) 0 0 0 0 1;
   (0, 7, 0) 0 1 0 0 0;
   (1, 7, 0) 0 0.05922 0.139975 0 0;
   (2, 7, 0) 0 0 0.157702 0.0350449 0;
   (3, 7, 0) 0 0 0 0.053292 0.053292;
   (4, 7, 0) 0 0 0 0 1;
   (0, 0, 1) 0.243781 0.00525389 0 0 0;
   (1, 0, 1) 0 0.206107 0.00304727 0 0;
   (2, 0, 1) 0 0 0.232737 0.00404056 0;
   (3, 0, 1) 0 0 0 0.284273 0.00107071;
   (4, 0, 1) 0 0 0 0 1;
   (0, 1, 1) 0.166158 0.105737 0 0 0;
   (1, 1, 1) 0 0.196555 0.0414145 0 0;
   (2, 1, 1) 0 0 0.218738 0.0238207 0;
   (3, 1, 1) 0 0 0 0.237475 0.0215104;
   (4, 1, 1) 0 0 0 0 1;
   (0, 2, 1) 0.0910516 0.166928 0 0 0;
   (1, 2, 1) 0 0.152814 0.0792368 0 0;
   (2, 2, 1) 0 0 0.173812 0.0653113 0;
   (3, 2, 1) 0 0 0 0.181011 0.0569581;
   (4, 2, 1) 0 0 0 0 1;
   (0, 3, 1) 0.0520054 0.186353 0 0 0;
   (1, 3, 1) 0 0.101322 0.112178 0 0;
   (2, 3, 1) 0 0 0.136788 0.0850671 0;
   (3, 3, 1) 0 0 0 0.16428 0.0649171;
   (4, 3, 1) 0 0 0 0 1;
   (0, 4, 1) 0.0117192 0.228524 0 0 0;
   (1, 4, 1) 0 0.0788818 0.1311 0 0;
   (2, 4, 1) 0 0 0.112604 0.101268 0;
   (3, 4, 1) 0 0 0 0.127601 0.0976943;
   (4, 4, 1) 0 0 0 0 1;
   (0, 5, 1) 0 1 0 0 0;
   (1, 5, 1) 0 0.0584307 0.149448 0 0;
   (2, 5, 1) 0 0 0.0869611 0.130442 0;
   (3, 5, 1) 0 0 0 0.158676 0.0577006;
   (4, 5, 1) 0 0 0 0 1;
   (0, 6, 1) 0 1 0 0 0;
   (1, 6, 1) 0 0.0437466 0.164987 0 0;
   (2, 6, 1) 0 0 0.0690101 0.140144 0;
   (3, 6, 1) 0 0 0 0.17576 0.0234347;
   (4, 6, 1) 0 0 0 0 1;
   (0, 7, 1) 0 1 0 0 0;
   (1, 7, 1) 0 0.0403018 0.171283 0 0;
   (2, 7, 1) 0 0 0.139481 0.07439 0;
   (3, 7, 1) 0 0 0 0.0943634 0.0943634;
   (4, 7, 1) 0 0 0 0 1;
   (0, 0, 2) 0.232619 0.00669405 0 0 0;
   (1, 0, 2) 0 0.224426 0.00114212 0 0;
   (2, 0, 2) 0 0 0.24732 0.00228999 0;
   (3, 0, 2) 0 0 0 0.328091 0.000272727;
   (4, 0, 2) 0 0 0 0 1;
   (0, 1, 2) 0.151278 0.103506 0 0 0;
   (1, 1, 2) 0 0.190552 0.0344683 0 0;
   (2, 1, 2) 0 0 0.214897 0.0187237 0;
   (3, 1, 2) 0 0 0 0.236544 0.0195761;
   (4, 1, 2) 0 0 0 0 1;
   (0, 2, 2) 0.0505684 0.166154 0 0 0;
   (1, 2, 2) 0 0.127394 0.0841909 0 0;
   (2, 2, 2) 0 0 0.143877 0.0776762 0;
   (3, 2, 2) 0 0 0 0.185241 0.0437084;
   (4, 2, 2) 0 0 0 0 1;
   (0, 3, 2) 0.0151132 0.196472 0 0 0;
   (1, 3, 2) 0 0.0702473 0.117768 0 0;
   (2, 3, 2) 0 0 0.128446 0.0811239 0;
   (3, 3, 2) 0 0 0 0.140578 0.0717844;
   (4, 3, 2) 0 0 0 0 1;
   (0, 4, 2) 0 1 0 0 0;
   (1, 4, 2) 0 0.0450081 0.140025 0 0;
   (2, 4, 2) 0 0 0.0700246 0.136085 0;
   (3, 4, 2) 0 0 0 0.0943326 0.103766;
   (4, 4, 2) 0 0 0 0 1;
   (0, 5, 2) 0 1 0 0 0;
   (1, 5, 2) 0 0.0447468 0.139505 0 0;
   (2, 5, 2) 0 0 0.0622604 0.126466 0;
   (3, 5, 2) 0 0 0 0.121407 0.0651452;
   (4, 5, 2) 0 0 0 0 1;
   (0, 6, 2) 0 0.164767 0.00867194 0 0;
   (1, 6, 2) 0 0.0176743 0.144341 0.00589145 0;
   (2, 6, 2) 0 0 0.0337678 0.146327 0;
   (3, 6, 2) 0 0 0 0.123145 0.0369434;
   (4, 6, 2) 0 0 0 0 1;
   (0, 7, 2) 0 0.167502 0.0167502 0 0;
   (1, 7, 2) 0 0.0152642 0.14501 0.00763211 0;
   (2, 7, 2) 0 0 0.0232663 0.139598 0;
   (3, 7, 2) 0 0 0 0.0343192 0.0343192;
   (4, 7, 2) 0 0 0 0 1;
}
probability (km_12 | km_11, lo_11, temp_11) {
   (0, 0, 0) 0.242366 0.00850408 0 0 0;
   (1, 0, 0) 0 0.201745 0.00344864 0 0;
   (2, 0, 0) 0 0 0.220496 0.00368722 0;
   (3, 0, 0) 0 0 0 0.271734 0.00151807;
   (4, 0, 0) 0 0 0 0 1;
   (0, 1, 0) 0.173413 0.0945888 0 0 0;
   (1, 1, 0) 0 0.193531 0.0320372 0 0;
   (2, 1, 0) 0 0 0.22083 0.0242319 0;
   (3, 1, 0) 0 0 0 0.236679 0.0243412;
   (4, 1, 0) 0 0 0 0 1;
   (0, 2, 0) 0.107113 0.148768 0 0 0;
   (1, 2, 0) 0 0.154993 0.0716478 0 0;
   (2, 2, 0) 0 0 0.177361 0.0510876 0;
   (3, 2, 0) 0 0 0 0.206672 0.0413346;
   (4, 2, 0) 0 0 0 0 1;
   (0, 3, 0) 0.0905144 0.144823 0 0 0;
   (1, 3, 0) 0 0.118742 0.099659 0 0;
   (2, 3, 0) 0 0 0.161837 0.0653289 0;
   (3, 3, 0) 0 0 0 0.157892 0.0810418;
   (4, 3, 0) 0 0 0 0 1;
   (0, 4, 0) 0.0104311 0.208622 0 0 0;
   (1, 4, 0) 0 0.102709 0.106445 0 0;
   (2, 4, 0) 0 0 0.120954 0.0999891 0;
   (3, 4, 0) 0 0 0 0.156701 0.071998;
   (4, 4, 0) 0 0 0 0 1;
   (0, 5, 0) 0 1 0 0 0;
   (1, 5, 0) 0 0.0627779 0.14553 0 0;
   (2, 5, 0) 0 0 0.0995974 0.121956 0;
   (3, 5, 0) 0 0 0 0.182197 0.0331266;
   (4, 5, 0) 0 0 0 0 1;
   (0, 6, 0) 0 1 0 0 0;
   (1, 6, 0) 0 0.0394484 0.170122 0 0;
   (2, 6, 0) 0 0 0.100494 0.113377 0;
   (3, 6, 0) 0 0 0 1 0;
   (4, 6, 0) 0 0 0 0 1;
   (0, 7, 0) 0 1 0 0 0;
   (1, 7, 0) 0 0.05922 0.139975 0 0;
   (2, 7, 0) 0 0 0.157702 0.0350449 0;
   (3, 7, 0) 0 0 0 0.053292 0.053292;
   (4, 7, 0) 0 0 0 0 1;
   (0, 0, 1) 0.243781 0.00525389 0 0 0;
   (1, 0, 1) 0 0.206107 0.00304727 0 0;
   (2, 0, 1) 0 0 0.232737 0.00404056 0;
   (3, 0, 1) 0 0 0 0.284273 0.00107071;
   (4, 0, 1) 0 0 0 0 1;
   (0, 1, 1) 0.166158 0.105737 0 0 0;
   (1, 1, 1) 0 0.196555 0.0414145 0 0;
   (2, 1, 1) 0 0 0.218738 0.0238207 0;
   (3, 1, 1) 0 0 0 0.237475 0.0215104;
   (4, 1, 1) 0 0 0 0 1;
   (0, 2, 1) 0.0910516 0.166928 0 0 0;
   (1, 2, 1) 0 0.152814 0.0792368 0 0;
   (2, 2, 1) 0 0 0.173812 0.0653113 0;
   (3, 2, 1) 0 0 0 0.181011 0.0569581;
   (4, 2, 1) 0 0 0 0 1;
   (0, 3, 1) 0.0520054 0.186353 0 0 0;
   (1, 3, 1) 0 0.101322 0.112178 0 0;
   (2, 3, 1) 0 0 0.136788 0.0850671 0;
   (3, 3, 1) 0 0 0 0.16428 0.0649171;
   (4, 3, 1) 0 0 0 0 1;
   (0, 4, 1) 0.0117192 0.228524 0 0 0;
   (1, 4, 1) 0 0.0788818 0.1311 0 0;
   (2, 4, 1) 0 0 0.112604 0.101268 0;
   (3, 4, 1) 0 0 0 0.127601 0.0976943;
   (4, 4, 1) 0 0 0 0 1;
   (0, 5, 1) 0 1 0 0 0;
   (1, 5, 1) 0 0.0584307 0.149448 0 0;
   (2, 5, 1) 0 0 0.0869611 0.130442 0;
   (3, 5, 1) 0 0 0 0.158676 0.0577006;
   (4, 5, 1) 0 0 0 0 1;
   (0, 6, 1) 0 1 0 0 0;
   (1, 6, 1) 0 0.0437466 0.164987 0 0;
   (2, 6, 1) 0 0 0.0690101 0.140144 0;
   (3, 6, 1) 0 0 0 0.17576 0.0234347;
   (4, 6, 1) 0 0 0 0 1;
   (0, 7, 1) 0 1 0 0 0;
   (1, 7, 1) 0 0.0403018 0.171283 0 0;
   (2, 7, 1) 0 0 0.139481 0.07439 0;
   (3, 7, 1) 0 0 0 0.0943634 0.0943634;
   (4, 7, 1) 0 0 0 0 1;
   (0, 0, 2) 0.232619 0.00669405 0 0 0;
   (1, 0, 2) 0 0.224426 0.00114212 0 0;
   (2, 0, 2) 0 0 0.24732 0.00228999 0;
   (3, 0, 2) 0 0 0 0.328091 0.000272727;
   (4, 0, 2) 0 0 0 0 1;
   (0, 1, 2) 0.151278 0.103506 0 0 0;
   (1, 1, 2) 0 0.190552 0.0344683 0 0;
   (2, 1, 2) 0 0 0.214897 0.0187237 0;
   (3, 1, 2) 0 0 0 0.236544 0.0195761;
   (4, 1, 2) 0 0 0 0 1;
   (0, 2, 2) 0.0505684 0.166154 0 0 0;
   (1, 2, 2) 0 0.127394 0.0841909 0 0;
   (2, 2, 2) 0 0 0.143877 0.0776762 0;
   (3, 2, 2) 0 0 0 0.185241 0.0437084;
   (4, 2, 2) 0 0 0 0 1;
   (0, 3, 2) 0.0151132 0.196472 0 0 0;
   (1, 3, 2) 0 0.0702473 0.117768 0 0;
   (2, 3, 2) 0 0 0.128446 0.0811239 0;
   (3, 3, 2) 0 0 0 0.140578 0.0717844;
   (4, 3, 2) 0 0 0 0 1;
   (0, 4, 2) 0 1 0 0 0;
   (1, 4, 2) 0 0.0450081 0.140025 0 0;
   (2, 4, 2) 0 0 0.0700246 0.136085 0;
   (3, 4, 2) 0 0 0 0.0943326 0.103766;
   (4, 4, 2) 0 0 0 0 1;
   (0, 5, 2) 0 1 0 0 0;
   (1, 5, 2) 0 0.0447468 0.139505 0 0;
   (2, 5, 2) 0 0 0.0622604 0.126466 0;
   (3, 5, 2) 0 0 0 0.121407 0.0651452;
   (4, 5, 2) 0 0 0 0 1;
   (0, 6, 2) 0 0.164767 0.00867194 0 0;
   (1, 6, 2) 0 0.0176743 0.144341 0.00589145 0;
   (2, 6, 2) 0 0 0.0337678 0.146327 0;
   (3, 6, 2) 0 0 0 0.123145 0.0369434;
   (4, 6, 2) 0 0 0 0 1;
   (0, 7, 2) 0 0.167502 0.0167502 0 0;
   (1, 7, 2) 0 0.0152642 0.14501 0.00763211 0;
   (2, 7, 2) 0 0 0.0232663 0.139598 0;
   (3, 7, 2) 0 0 0 0.0343192 0.0343192;
   (4, 7, 2) 0 0 0 0 1;
}
probability (km_13 | km_12, lo_12, temp_12) {
   (0, 0, 0) 0.242366 0.00850408 0 0 0;
   (1, 0, 0) 0 0.201745 0.00344864 0 0;
   (2, 0, 0) 0 0 0.220496 0.00368722 0;
   (3, 0, 0) 0 0 0 0.271734 0.00151807;
   (4, 0, 0) 0 0 0 0 1;
   (0, 1, 0) 0.173413 0.0945888 0 0 0;
   (1, 1, 0) 0 0.193531 0.0320372 0 0;
   (2, 1, 0) 0 0 0.22083 0.0242319 0;
   (3, 1, 0) 0 0 0 0.236679 0.0243412;
   (4, 1, 0) 0 0 0 0 1;
   (0, 2, 0) 0.107113 0.148768 0 0 0;
   (1, 2, 0) 0 0.154993 0.0716478 0 0;
   (2, 2, 0) 0 0 0.177361 0.0510876 0;
   (3, 2, 0) 0 0 0 0.206672 0.0413346;
   (4, 2, 0) 0 0 0 0 1;
   (0, 3, 0) 0.0905144 0.144823 0 0 0;
   (1, 3, 0) 0 0.118742 0.099659 0 0;
   (2, 3, 0) 0 0 0.161837 0.0653289 0;
   (3, 3, 0) 0 0 0 0.157892 0.0810418;
   (4, 3, 0) 0 0 0 0 1;
   (0, 4, 0) 0.0104311 0.208622 0 0 0;
   (1, 4, 0) 0 0.102709 0.106445 0 0;
   (2, 4, 0) 0 0 0.120954 0.0999891 0;
   (3, 4, 0) 0 0 0 0.156701 0.071998;
   (4, 4, 0) 0 0 0 0 1;
   (0, 5, 0) 0 1 0 0 0;
   (1, 5, 0) 0 0.0627779 0.14553 0 0;
   (2, 5, 0) 0 0 0.0995974 0.121956 0;
   (3, 5, 0) 0 0 0 0.182197 0.0331266;
   (4, 5, 0) 0 0 0 0 1;
   (0, 6, 0) 0 1 0 0 0;
   (1, 6, 0) 0 0.0394484 0.170122 0 0;
   (2, 6, 0) 0 0 0.100494 0.113377 0;
   (3, 6, 0) 0 0 0 1 0;
   (4, 6, 0) 0 0 0 0 1;
   (0, 7, 0) 0 1 0 0 0;
   (1, 7, 0) 0 0.05922 0.139975 0 0;
   (2, 7, 0) 0 0 0.157702 0.0350449 0;
   (3, 7, 0) 0 0 0 0.053292 0.053292;
   (4, 7, 0) 0 0 0 0 1;
   (0, 0, 1) 0.243781 0.00525389 0 0 0;
   (1, 0, 1) 0 0.206107 0.00304727 0 0;
   (2, 0, 1) 0 0 0.232737 0.00404056 0;
   (3, 0, 1) 0 0 0 0.284273 0.00107071;
   (4, 0, 1) 0 0 0 0 1;
   (0, 1, 1) 0.166158 0.105737 0 0 0;
   (1, 1, 1) 0 0.196555 0.0414145 0 0;
   (2, 1, 1) 0 0 0.218738 0.0238207 0;
   (3, 1, 1) 0 0 0 0.237475 0.0215104;
   (4, 1, 1) 0 0 0 0 1;
   (0, 2, 1) 0.0910516 0.166928 0 0 0;
   (1, 2, 1) 0 0.152814 0.0792368 0 0;
   (2, 2, 1) 0 0 0.173812 0.0653113 0;
   (3, 2, 1) 0 0 0 0.181011 0.0569581;
   (4, 2, 1) 0 0 0 0 1;
   (0, 3, 1) 0.0520054 0.186353 0 0 0;
   (1, 3, 1) 0 0.101322 0.112178 0 0;
   (2, 3, 1) 0 0 0.136788 0.0850671 0;
   (3, 3, 1) 0 0 0 0.16428 0.0649171;
   (4, 3, 1) 0 0 0 0 1;
   (0, 4, 1) 0.0117192 0.228524 0 0 0;
   (1, 4, 1) 0 0.0788818 0.1311 0 0;
   (2, 4, 1) 0 0 0.112604 0.101268 0;
   (3, 4, 1) 0 0 0 0.127601 0.0976943;
   (4, 4, 1) 0 0 0 0 1;
   (0, 5, 1) 0 1 0 0 0;
   (1, 5, 1) 0 0.0584307 0.149448 0 0;
   (2, 5, 1) 0 0 0.0869611 0.130442 0;
   (3, 5, 1) 0 0 0 0.158676 0.0577006;
   (4, 5, 1) 0 0 0 0 1;
   (0, 6, 1) 0 1 0 0 0;
   (1, 6, 1) 0 0.0437466 0.164987 0 0;
   (2, 6, 1) 0 0 0.0690101 0.140144 0;
   (3, 6, 1) 0 0 0 0.17576 0.0234347;
   (4, 6, 1) 0 0 0 0 1;
   (0, 7, 1) 0 1 0 0 0;
   (1, 7, 1) 0 0.0403018 0.171283 0 0;
   (2, 7, 1) 0 0 0.139481 0.07439 0;
   (3, 7, 1) 0 0 0 0.0943634 0.0943634;
   (4, 7, 1) 0 0 0 0 1;
   (0, 0, 2) 0.232619 0.00669405 0 0 0;
   (1, 0, 2) 0 0.224426 0.00114212 0 0;
   (2, 0, 2) 0 0 0.24732 0.00228999 0;
   (3, 0, 2) 0 0 0 0.328091 0.000272727;
   (4, 0, 2) 0 0 0 0 1;
   (0, 1, 2) 0.151278 0.103506 0 0 0;
   (1, 1, 2) 0 0.190552 0.0344683 0 0;
   (2, 1, 2) 0 0 0.214897 0.0187237 0;
   (3, 1, 2) 0 0 0 0.236544 0.0195761;
   (4, 1, 2) 0 0 0 0 1;
   (0, 2, 2) 0.0505684 0.166154 0 0 0;
   (1, 2, 2) 0 0.127394 0.0841909 0 0;
   (2, 2, 2) 0 0 0.143877 0.0776762 0;
   (3, 2, 2) 0 0 0 0.185241 0.0437084;
   (4, 2, 2) 0 0 0 0 1;
   (0, 3, 2) 0.0151132 0.196472 0 0 0;
   (1, 3, 2) 0 0.0702473 0.117768 0 0;
   (2, 3, 2) 0 0 0.128446 0.0811239 0;
   (3, 3, 2) 0 0 0 0.140578 0.0717844;
   (4, 3, 2) 0 0 0 0 1;
   (0, 4, 2) 0 1 0 0 0;
   (1, 4, 2) 0 0.0450081 0.140025 0 0;
   (2, 4, 2) 0 0 0.0700246 0.136085 0;
   (3, 4, 2) 0 0 0 0.0943326 0.103766;
   (4, 4, 2) 0 0 0 0 1;
   (0, 5, 2) 0 1 0 0 0;
   (1, 5, 2) 0 0.0447468 0.139505 0 0;
   (2, 5, 2) 0 0 0.0622604 0.126466 0;
   (3, 5, 2) 0 0 0 0.121407 0.0651452;
   (4, 5, 2) 0 0 0 0 1;
   (0, 6, 2) 0 0.164767 0.00867194 0 0;
   (1, 6, 2) 0 0.0176743 0.144341 0.00589145 0;
   (2, 6, 2) 0 0 0.0337678 0.146327 0;
   (3, 6, 2) 0 0 0 0.123145 0.0369434;
   (4, 6, 2) 0 0 0 0 1;
   (0, 7, 2) 0 0.167502 0.0167502 0 0;
   (1, 7, 2) 0 0.0152642 0.14501 0.00763211 0;
   (2, 7, 2) 0 0 0.0232663 0.139598 0;
   (3, 7, 2) 0 0 0 0.0343192 0.0343192;
   (4, 7, 2) 0 0 0 0 1;
}
probability (lo_1 | lo_0, km_0, temp_0) {
   (0, 0, 0) 1 0 0 0 0 0 0 0;
   (1, 0, 0) 0 1 0 0 0 0 0 0;
   (2, 0, 0) 0 0.0178522 0.238029 0 0 0 0 0;
   (3, 0, 0) 0 0 0 1 0 0 0 0;
   (4, 0, 0) 0 0 0 0.0208622 0.198191 0 0 0;
   (5, 0, 0) 0 0 0 0 0.0193566 0.212923 0 0;
   (6, 0, 0) 0 0 0 0 0 0 1 0;
   (7, 0, 0) 0 0 0 0 0 0 0.0219375 0.197437;
   (0, 1, 0) 1 0 0 0 0 0 0 0;
   (1, 1, 0) 0.00784585 0.217722 0 0 0 0 0 0;
   (2, 1, 0) 0 0.0131598 0.213481 0 0 0 0 0;
   (3, 1, 0) 0 0 0.0275653 0.190836 0 0 0 0;
   (4, 1, 0) 0 0 0 0.0224094 0.186745 0 0 0;
   (5, 1, 0) 0 0 0 0 0.0513636 0.156945 0 0;
   (6, 1, 0) 0 0 0 0 0 0.041914 0.167656 0;
   (7, 1, 0) 0 0 0 0 0 0 0.123824 0.0753709;
   (0, 2, 0) 1 0 0 0 0 0 0 0;
   (1, 2, 0) 0.0201171 0.224945 0 0 0 0 0 0;
   (2, 2, 0) 0 0.0539793 0.174469 0 0 0 0 0;
   (3, 2, 0) 0 0 0.0935391 0.133627 0 0 0 0;
   (4, 2, 0) 0 0 0 0.112891 0.108053 0 0 0;
   (5, 2, 0) 0 0 0 0.0040652 0.130086 0.0874017 0 0;
   (6, 2, 0) 0 0 0 0 0.00257676 0.144299 0.0669958 0;
   (7, 2, 0) 0 0 0 0 0 0 0.175225 0.0175225;
   (0, 3, 0) 1 0 0 0 0 0 0 0;
   (1, 3, 0) 0.0906319 0.170388 0 0 0 0 0 0;
   (2, 3, 0) 0 0.181872 0.0661352 0 0 0 0 0;
   (3, 3, 0) 0 0.0237536 0.185837 0.0293427 0 0 0 0;
   (4, 3, 0) 0 0 0.0762331 0.146114 0.00635277 0 0 0;
   (5, 3, 0) 0 0 0.00828165 0.074535 0.132507 0 0 0;
   (6, 3, 0) 0 0 0 0 0.146241 0.0438721 0 0;
   (7, 3, 0) 0.013323 0.013323 0.013323 0.013323 0.013323 0.013323 0.013323 0.013323;
   (0, 4, 0) 1 0 0 0 0 0 0 0;
   (1, 4, 0) 0.202598 0.0591437 0 0 0 0 0 0;
   (2, 4, 0) 0.013478 0.215648 0.00269559 0 0 0 0 0;
   (3, 4, 0) 0 0.112226 0.084169 0 0 0 0 0;
   (4, 4, 0) 0.0323 0.0323 0.0323 0.0323 0.0323 0 0 0;
   (5, 4, 0) 0.017764 0.017764 0.017764 0.017764 0.017764 0.017764 0 0;
   (6, 4, 0) 0.00782758 0.00782758 0.00782758 0.00782758 0.00782758 0.00782758 0.00782758 0;
   (7, 4, 0) 0 0 0 0 0 0 0 0;
   (0, 0, 1) 1 0 0 0 0 0 0 0;
   (1, 0, 1) 0.00755267 0.264343 0 0 0 0 0 0;
   (2, 0, 1) 0 0.0227629 0.235217 0 0 0 0 0;
   (3, 0, 1) 0 0 0.0216689 0.216689 0 0 0 0;
   (4, 0, 1) 0 0 0 0.00585958 0.234384 0 0 0;
   (5, 0, 1) 0 0 0 0 0.032603 0.203769 0 0;
   (6, 0, 1) 0 0 0 0 0 0.0257587 0.21122 0;
   (7, 0, 1) 0 0 0 0 0 0 0.0949478 0.146738;
   (0, 1, 1) 1 0 0 0 0 0 0 0;
   (1, 1, 1) 0.0095319 0.228437 0 0 0 0 0 0;
   (2, 1, 1) 0 0.0213814 0.21067 0 0 0 0 0;
   (3, 1, 1) 0 0 0.023521 0.189978 0 0 0 0;
   (4, 1, 1) 0 0 0 0.0399964 0.169985 0 0 0;
   (5, 1, 1) 0 0 0 0 0.047194 0.160685 0 0;
   (6, 1, 1) 0 0 0 0 0 0.0524958 0.156238 0;
   (7, 1, 1) 0 0 0 0 0 0 0.137698 0.0738867;
   (0, 2, 1) 1 0 0 0 0 0 0 0;
   (1, 2, 1) 0.0270274 0.215532 0 0 0 0 0 0;
   (2, 2, 1) 0 0.0721584 0.166965 0 0 0 0 0;
   (3, 2, 1) 0 0 0.0993583 0.122496 0 0 0 0;
   (4, 2, 1) 0 0 0 0.110336 0.103535 0 0 0;
   (5, 2, 1) 0 0 0 0.00283569 0.14651 0.0680564 0 0;
   (6, 2, 1) 0 0 0 0 0.0191105 0.142267 0.0477762 0;
   (7, 2, 1) 0 0 0 0 0 0.00929876 0.204573 0;
   (0, 3, 1) 1 0 0 0 0 0 0 0;
   (1, 3, 1) 0.0960799 0.162905 0 0 0 0 0 0;
   (2, 3, 1) 0 0.17908 0.058889 0 0 0 0 0;
   (3, 3, 1) 0 0.0264968 0.186802 0.0158981 0 0 0 0;
   (4, 3, 1) 0 0 0.100685 0.122616 0.00199376 0 0 0;
   (5, 3, 1) 0 0 0.00540943 0.0973697 0.111795 0.00180314 0 0;
   (6, 3, 1) 0 0 0 0.0117173 0.152325 0.0351521 0 0;
   (7, 3, 1) 0.0235908 0.0235908 0.0235908 0.0235908 0.0235908 0.0235908 0.0235908 0.0235908;
   (0, 4, 1) 1 0 0 0 0 0 0 0;
   (1, 4, 1) 0.227456 0.0363681 0 0 0 0 0 0;
   (2, 4, 1) 0.0122896 0.222749 0.0015362 0 0 0 0 0;
   (3, 4, 1) 0 0.177484 0.044371 0 0 0 0 0;
   (4, 4, 1) 0 0.0504519 0.151356 0 0 0 0 0;
   (5, 4, 1) 0.0322299 0.0322299 0.0322299 0.0322299 0.0322299 0.0322299 0 0;
   (6, 4, 1) 0.0256013 0.0256013 0.0256013 0.0256013 0.0256013 0.0256013 0.0256013 0;
   (7, 4, 1) 0.0239315 0.0239315 0.0239315 0.0239315 0.0239315 0.0239315 0.0239315 0.0239315;
   (0, 0, 2) 1 0 0 0 0 0 0 0;
   (1, 0, 2) 0 1 0 0 0 0 0 0;
   (2, 0, 2) 0 0.0144481 0.202274 0 0 0 0 0;
   (3, 0, 2) 0 0 0.0151132 0.196472 0 0 0 0;
   (4, 0, 2) 0 0 0 0.00868399 0.191048 0 0 0;
   (5, 0, 2) 0 0 0 0 0.0449107 0.149702 0 0;
   (6, 0, 2) 0 0 0 0 0 0.0173439 0.156095 0;
   (7, 0, 2) 0 0 0 0 0 0 0.0837507 0.100501;
   (0, 1, 2) 1 0 0 0 0 0 0 0;
   (1, 1, 2) 0.0097552 0.215265 0 0 0 0 0 0;
   (2, 1, 2) 0 0.0299098 0.181675 0 0 0 0 0;
   (3, 1, 2) 0 0 0.0330576 0.154958 0 0 0 0;
   (4, 1, 2) 0 0 0 0.0450081 0.140025 0 0 0;
   (5, 1, 2) 0 0 0 0 0.0684364 0.115815 0 0;
   (6, 1, 2) 0 0 0 0 0 0.0677518 0.100155 0;
   (7, 1, 2) 0 0 0 0 0 0 0.14501 0.0228964;
   (0, 2, 2) 1 0 0 0 0 0 0 0;
   (1, 2, 2) 0.0357451 0.197876 0 0 0 0 0 0;
   (2, 2, 2) 0 0.0688493 0.152704 0 0 0 0 0;
   (3, 2, 2) 0 0 0.113573 0.0959966 0 0 0 0;
   (4, 2, 2) 0 0 0.00264243 0.144013 0.0594548 0 0 0;
   (5, 2, 2) 0 0 0 0.00972818 0.140086 0.0389128 0 0;
   (6, 2, 2) 0 0 0 0 0.0487756 0.108807 0.0225119 0;
   (7, 2, 2) 0 0 0 0 0 0.0232663 0.139598 0;
   (0, 3, 2) 1 0 0 0 0 0 0 0;
   (1, 3, 2) 0.134314 0.121807 0 0 0 0 0 0;
   (2, 3, 2) 0.00312204 0.197729 0.0280982 0 0 0 0 0;
   (3, 3, 2) 0 0.0613158 0.145064 0.00598203 0 0 0 0;
   (4, 3, 2) 0 0.0172943 0.124205 0.0565996 0 0 0 0;
   (5, 3, 2) 0 0.00296114 0.0266503 0.118446 0.0384949 0 0 0;
   (6, 3, 2) 0 0 0 0.0492579 0.11083 0 0 0;
   (7, 3, 2) 0.00857979 0.00857979 0.00857979 0.00857979 0.00857979 0.00857979 0.00857979 0.00857979;
   (0, 4, 2) 1 0 0 0 0 0 0 0;
   (1, 4, 2) 0.221776 0.0169665 0 0 0 0 0 0;
   (2, 4, 2) 0.055397 0.149331 0 0 0 0 0 0;
   (3, 4, 2) 0 1 0 0 0 0 0 0;
   (4, 4, 2) 0 0 1 0 0 0 0 0;
   (5, 4, 2) 0.00582154 0.00582154 0.00582154 0.00582154 0.00582154 0.00582154 0 0;
   (6, 4, 2) 0.00498988 0.00498988 0.00498988 0.00498988 0.00498988 0.00498988 0.00498988 0;
   (7, 4, 2) 0 0 0 0 0 0 0 0;
}
probability (lo_2 | lo_1, km_1, temp_1) {
   (0, 0, 0) 1 0 0 0 0 0 0 0;
   (1, 0, 0) 0 1 0 0 0 0 0 0;
   (2, 0, 0) 0 0.0178522 0.238029 0 0 0 0 0;
   (3, 0, 0) 0 0 0 1 0 0 0 0;
   (4, 0, 0) 0 0 0 0.0208622 0.198191 0 0 0;
   (5, 0, 0) 0 0 0 0 0.0193566 0.212923 0 0;
   (6, 0, 0) 0 0 0 0 0 0 1 0;
   (7, 0, 0) 0 0 0 0 0 0 0.0219375 0.197437;
   (0, 1, 0) 1 0 0 0 0 0 0 0;
   (1, 1, 0) 0.00784585 0.217722 0 0 0 0 0 0;
   (2, 1, 0) 0 0.0131598 0.213481 0 0 0 0 0;
   (3, 1, 0) 0 0 0.0275653 0.190836 0 0 0 0;
   (4, 1, 0) 0 0 0 0.0224094 0.186745 0 0 0;
   (5, 1, 0) 0 0 0 0 0.0513636 0.156945 0 0;
   (6, 1, 0) 0 0 0 0 0 0.041914 0.167656 0;
   (7, 1, 0) 0 0 0 0 0 0 0.123824 0.0753709;
   (0, 2, 0) 1 0 0 0 0 0 0 0;
   (1, 2, 0) 0.0201171 0.224945 0 0 0 0 0 0;
   (2, 2, 0) 0 0.0539793 0.174469 0 0 0 0 0;
   (3, 2, 0) 0 0 0.0935391 0.133627 0 0 0 0;
   (4, 2, 0) 0 0 0 0.112891 0.108053 0 0 0;
   (5, 2, 0) 0 0 0 0.0040652 0.130086 0.0874017 0 0;
   (6, 2, 0) 0 0 0 0 0.00257676 0.144299 0.0669958 0;
   (7, 2, 0) 0 0 0 0 0 0 0.175225 0.0175225;
   (0, 3, 0) 1 0 0 0 0 0 0 0;
   (1, 3, 0) 0.0906319 0.170388 0 0 0 0 0 0;
   (2, 3, 0) 0 0.181872 0.0661352 0 0 0 0 0;
   (3, 3, 0) 0 0.0237536 0.185837 0.0293427 0 0 0 0;
   (4, 3, 0) 0 0 0.0762331 0.146114 0.00635277 0 0 0;
   (5, 3, 0) 0 0 0.00828165 0.074535 0.132507 0 0 0;
   (6, 3, 0) 0 0 0 0 0.146241 0.0438721 0 0;
   (7, 3, 0) 0.013323 0.013323 0.013323 0.013323 0.013323 0.013323 0.013323 0.013323;
   (0, 4, 0) 1 0 0 0 0 0 0 0;
   (1, 4, 0) 0.202598 0.0591437 0 0 0 0 0 0;
   (2, 4, 0) 0.013478 0.215648 0.00269559 0 0 0 0 0;
   (3, 4, 0) 0 0.112226 0.084169 0 0 0 0 0;
   (4, 4, 0) 0.0323 0.0323 0.0323 0.0323 0.0323 0 0 0;
   (5, 4, 0) 0.017764 0.017764 0.017764 0.017764 0.017764 0.017764 0 0;
   (6, 4, 0) 0.00782758 0.00782758 0.00782758 0.00782758 0.00782758 0.00782758 0.00782758 0;
   (7, 4, 0) 0 0 0 0 0 0 0 0;
   (0, 0, 1) 1 0 0 0 0 0 0 0;
   (1, 0, 1) 0.00755267 0.264343 0 0 0 0 0 0;
   (2, 0, 1) 0 0.0227629 0.235217 0 0 0 0 0;
   (3, 0, 1) 0 0 0.0216689 0.216689 0 0 0 0;
   (4, 0, 1) 0 0 0 0.00585958 0.234384 0 0 0;
   (5, 0, 1) 0 0 0 0 0.032603 0.203769 0 0;
   (6, 0, 1) 0 0 0 0 0 0.0257587 0.21122 0;
   (7, 0, 1) 0 0 0 0 0 0 0.0949478 0.146738;
   (0, 1, 1) 1 0 0 0 0 0 0 0;
   (1, 1, 1) 0.0095319 0.228437 0 0 0 0 0 0;
   (2, 1, 1) 0 0.0213814 0.21067 0 0 0 0 0;
   (3, 1, 1) 0 0 0.023521 0.189978 0 0 0 0;
   (4, 1, 1) 0 0 0 0.0399964 0.169985 0 0 0;
   (5, 1, 1) 0 0 0 0 0.047194 0.160685 0 0;
   (6, 1, 1) 0 0 0 0 0 0.0524958 0.156238 0;
   (7, 1, 1) 0 0 0 0 0 0 0.137698 0.0738867;
   (0, 2, 1) 1 0 0 0 0 0 0 0;
   (1, 2, 1) 0.0270274 0.215532 0 0 0 0 0 0;
   (2, 2, 1) 0 0.0721584 0.166965 0 0 0 0 0;
   (3, 2, 1) 0 0 0.0993583 0.122496 0 0 0 0;
   (4, 2, 1) 0 0 0 0.110336 0.103535 0 0 0;
   (5, 2, 1) 0 0 0 0.00283569 0.14651 0.0680564 0 0;
   (6, 2, 1) 0 0 0 0 0.0191105 0.142267 0.0477762 0;
   (7, 2, 1) 0 0 0 0 0 0.00929876 0.204573 0;
   (0, 3, 1) 1 0 0 0 0 0 0 0;
   (1, 3, 1) 0.0960799 0.162905 0 0 0 0 0 0;
   (2, 3, 1) 0 0.17908 0.058889 0 0 0 0 0;
   (3, 3, 1) 0 0.0264968 0.186802 0.0158981 0 0 0 0;
   (4, 3, 1) 0 0 0.100685 0.122616 0.00199376 0 0 0;
   (5, 3, 1) 0 0 0.00540943 0.0973697 0.111795 0.00180314 0 0;
   (6, 3, 1) 0 0 0 0.0117173 0.152325 0.0351521 0 0;
   (7, 3, 1) 0.0235908 0.0235908 0.0235908 0.0235908 0.0235908 0.0235908 0.0235908 0.0235908;
   (0, 4, 1) 1 0 0 0 0 0 0 0;
   (1, 4, 1) 0.227456 0.0363681 0 0 0 0 0 0;
   (2, 4, 1) 0.0122896 0.222749 0.0015362 0 0 0 0 0;
   (3, 4, 1) 0 0.177484 0.044371 0 0 0 0 0;
   (4, 4, 1) 0 0.0504519 0.151356 0 0 0 0 0;
   (5, 4, 1) 0.0322299 0.0322299 0.0322299 0.0322299 0.0322299 0.0322299 0 0;
   (6, 4, 1) 0.0256013 0.0256013 0.0256013 0.0256013 0.0256013 0.0256013 0.0256013 0;
   (7, 4, 1) 0.0239315 0.0239315 0.0239315 0.0239315 0.0239315 0.0239315 0.0239315 0.0239315;
   (0, 0, 2) 1 0 0 0 0 0 0 0;
   (1, 0, 2) 0 1 0 0 0 0 0 0;
   (2, 0, 2) 0 0.0144481 0.202274 0 0 0 0 0;
   (3, 0, 2) 0 0 0.0151132 0.196472 0 0 0 0;
   (4, 0, 2) 0 0 0 0.00868399 0.191048 0 0 0;
   (5, 0, 2) 0 0 0 0 0.0449107 0.149702 0 0;
   (6, 0, 2) 0 0 0 0 0 0.0173439 0.156095 0;
   (7, 0, 2) 0 0 0 0 0 0 0.0837507 0.100501;
   (0, 1, 2) 1 0 0 0 0 0 0 0;
   (1, 1, 2) 0.0097552 0.215265 0 0 0 0 0 0;
   (2, 1, 2) 0 0.0299098 0.181675 0 0 0 0 0;
   (3, 1, 2) 0 0 0.0330576 0.154958 0 0 0 0;
   (4, 1, 2) 0 0 0 0.0450081 0.140025 0 0 0;
   (5, 1, 2) 0 0 0 0 0.0684364 0.115815 0 0;
   (6, 1, 2) 0 0 0 0 0 0.0677518 0.100155 0;
   (7, 1, 2) 0 0 0 0 0 0 0.14501 0.0228964;
   (0, 2, 2) 1 0 0 0 0 0 0 0;
   (1, 2, 2) 0.0357451 0.197876 0 0 0 0 0 0;
   (2, 2, 2) 0 0.0688493 0.152704 0 0 0 0 0;
   (3, 2, 2) 0 0 0.113573 0.0959966 0 0 0 0;
   (4, 2, 2) 0 0 0.00264243 0.144013 0.0594548 0 0 0;
   (5, 2, 2) 0 0 0 0.00972818 0.140086 0.0389128 0 0;
   (6, 2, 2) 0 0 0 0 0.0487756 0.108807 0.0225119 0;
   (7, 2, 2) 0 0 0 0 0 0.0232663 0.139598 0;
   (0, 3, 2) 1 0 0 0 0 0 0 0;
   (1, 3, 2) 0.134314 0.121807 0 0 0 0 0 0;
   (2, 3, 2) 0.00312204 0.197729 0.0280982 0 0 0 0 0;
   (3, 3, 2) 0 0.0613158 0.145064 0.00598203 0 0 0 0;
   (4, 3, 2) 0 0.0172943 0.124205 0.0565996 0 0 0 0;
   (5, 3, 2) 0 0.00296114 0.0266503 0.118446 0.0384949 0 0 0;
   (6, 3, 2) 0 0 0 0.0492579 0.11083 0 0 0;
   (7, 3, 2) 0.00857979 0.00857979 0.00857979 0.00857979 0.00857979 0.00857979 0.00857979 0.00857979;
   (0, 4, 2) 1 0 0 0 0 0 0 0;
   (1, 4, 2) 0.221776 0.0169665 0 0 0 0 0 0;
   (2, 4, 2) 0.055397 0.149331 0 0 0 0 0 0;
   (3, 4, 2) 0 1 0 0 0 0 0 0;
   (4, 4, 2) 0 0 1 0 0 0 0 0;
   (5, 4, 2) 0.00582154 0.00582154 0.00582154 0.00582154 0.00582154 0.00582154 0 0;
   (6, 4, 2) 0.00498988 0.00498988 0.00498988 0.00498988 0.00498988 0.00498988 0.00498988 0;
   (7, 4, 2) 0 0 0 0 0 0 0 0;
}
probability (lo_3 | lo_2, km_2, temp_2) {
   (0, 0, 0) 1 0 0 0 0 0 0 0;
   (1, 0, 0) 0 1 0 0 0 0 0 0;
   (2, 0, 0) 0 0.0178522 0.238029 0 0 0 0 0;
   (3, 0, 0) 0 0 0 1 0 0 0 0;
   (4, 0, 0) 0 0 0 0.0208622 0.198191 0 0 0;
   (5, 0, 0) 0 0 0 0 0.0193566 0.212923 0 0;
   (6, 0, 0) 0 0 0 0 0 0 1 0;
   (7, 0, 0) 0 0 0 0 0 0 0.0219375 0.197437;
   (0, 1, 0) 1 0 0 0 0 0 0 0;
   (1, 1, 0) 0.00784585 0.217722 0 0 0 0 0 0;
   (2, 1, 0) 0 0.0131598 0.213481 0 0 0 0 0;
   (3, 1, 0) 0 0 0.0275653 0.190836 0 0 0 0;
   (4, 1, 0) 0 0 0 0.0224094 0.186745 0 0 0;
   (5, 1, 0) 0 0 0 0 0.0513636 0.156945 0 0;
   (6, 1, 0) 0 0 0 0 0 0.041914 0.167656 0;
   (7, 1, 0) 0 0 0 0 0 0 0.123824 0.0753709;
   (0, 2, 0) 1 0 0 0 0 0 0 0;
   (1, 2, 0) 0.0201171 0.224945 0 0 0 0 0 0;
   (2, 2, 0) 0 0.0539793 0.174469 0 0 0 0 0;
   (3, 2, 0) 0 0 0.0935391 0.133627 0 0 0 0;
   (4, 2, 0) 0 0 0 0.112891 0.108053 0 0 0;
   (5, 2, 0) 0 0 0 0.0040652 0.130086 0.0874017 0 0;
   (6, 2, 0) 0 0 0 0 0.00257676 0.144299 0.0669958 0;
   (7, 2, 0) 0 0 0 0 0 0 0.175225 0.0175225;
   (0, 3, 0) 1 0 0 0 0 0 0 0;
   (1, 3, 0) 0.0906319 0.170388 0 0 0 0 0 0;
   (2, 3, 0) 0 0.181872 0.0661352 0 0 0 0 0;
   (3, 3, 0) 0 0.0237536 0.185837 0.0293427 0 0 0 0;
   (4, 3, 0) 0 0 0.0762331 0.146114 0.00635277 0 0 0;
   (5, 3, 0) 0 0 0.00828165 0.074535 0.132507 0 0 0;
   (6, 3, 0) 0 0 0 0 0.146241 0.0438721 0 0;
   (7, 3, 0) 0.013323 0.013323 0.013323 0.013323 0.013323 0.013323 0.013323 0.013323;
   (0, 4, 0) 1 0 0 0 0 0 0 0;
   (1, 4, 0) 0.202598 0.0591437 0 0 0 0 0 0;
   (2, 4, 0) 0.013478 0.215648 0.00269559 0 0 0 0 0;
   (3, 4, 0) 0 0.112226 0.084169 0 0 0 0 0;
   (4, 4, 0) 0.0323 0.0323 0.0323 0.0323 0.0323 0 0 0;
   (5, 4, 0) 0.017764 0.017764 0.017764 0.017764 0.017764 0.017764 0 0;
   (6, 4, 0) 0.00782758 0.00782758 0.00782758 0.00782758 0.00782758 0.00782758 0.00782758 0;
   (7, 4, 0) 0 0 0 0 0 0 0 0;
   (0, 0, 1) 1 0 0 0 0 0 0 0;
   (1, 0, 1) 0.00755267 0.264343 0 0 0 0 0 0;
   (2, 0, 1) 0 0.0227629 0.235217 0 0 0 0 0;
   (3, 0, 1) 0 0 0.0216689 0.216689 0 0 0 0;
   (4, 0, 1) 0 0 0 0.00585958 0.234384 0 0 0;
   (5, 0, 1) 0 0 0 0 0.032603 0.203769 0 0;
   (6, 0, 1) 0 0 0 0 0 0.0257587 0.21122 0;
   (7, 0, 1) 0 0 0 0 0 0 0.0949478 0.146738;
   (0, 1, 1) 1 0 0 0 0 0 0 0;
   (1, 1, 1) 0.0095319 0.228437 0 0 0 0 0 0;
   (2, 1, 1) 0 0.0213814 0.21067 0 0 0 0 0;
   (3, 1, 1) 0 0 0.023521 0.189978 0 0 0 0;
   (4, 1, 1) 0 0 0 0.0399964 0.169985 0 0 0;
   (5, 1, 1) 0 0 0 0 0.047194 0.160685 0 0;
   (6, 1, 1) 0 0 0 0 0 0.0524958 0.156238 0;
   (7, 1, 1) 0 0 0 0 0 0 0.137698 0.0738867;
   (0, 2, 1) 1 0 0 0 0 0 0 0;
   (1, 2, 1) 0.0270274 0.215532 0 0 0 0 0 0;
   (2, 2, 1) 0 0.0721584 0.166965 0 0 0 0 0;
   (3, 2, 1) 0 0 0.0993583 0.122496 0 0 0 0;
   (4, 2, 1) 0 0 0 0.110336 0.103535 0 0 0;
   (5, 2, 1) 0 0 0 0.00283569 0.14651 0.0680564 0 0;
   (6, 2, 1) 0 0 0 0 0.0191105 0.142267 0.0477762 0;
   (7, 2, 1) 0 0 0 0 0 0.00929876 0.204573 0;
   (0, 3, 1) 1 0 0 0 0 0 0 0;
   (1, 3, 1) 0.0960799 0.162905 0 0 0 0 0 0;
   (2, 3, 1) 0 0.17908 0.058889 0 0 0 0 0;
   (3, 3, 1) 0 0.0264968 0.186802 0.0158981 0 0 0 0;
   (4, 3, 1) 0 0 0.100685 0.122616 0.00199376 0 0 0;
   (5, 3, 1) 0 0 0.00540943 0.0973697 0.111795 0.00180314 0 0;
   (6, 3, 1) 0 0 0 0.0117173 0.152325 0.0351521 0 0;
   (7, 3, 1) 0.0235908 0.0235908 0.0235908 0.0235908 0.0235908 0.0235908 0.0235908 0.0235908;
   (0, 4, 1) 1 0 0 0 0 0 0 0;
   (1, 4, 1) 0.227456 0.0363681 0 0 0 0 0 0;
   (2, 4, 1) 0.0122896 0.222749 0.0015362 0 0 0 0 0;
   (3, 4, 1) 0 0.177484 0.044371 0 0 0 0 0;
   (4, 4, 1) 0 0.0504519 0.151356 0 0 0 0 0;
   (5, 4, 1) 0.0322299 0.0322299 0.0322299 0.0322299 0.0322299 0.0322299 0 0;
   (6, 4, 1) 0.0256013 0.0256013 0.0256013 0.0256013 0.0256013 0.0256013 0.0256013 0;
   (7, 4, 1) 0.0239315 0.0239315 0.0239315 0.0239315 0.0239315 0.0239315 0.0239315 0.0239315;
   (0, 0, 2) 1 0 0 0 0 0 0 0;
   (1, 0, 2) 0 1 0 0 0 0 0 0;
   (2, 0, 2) 0 0.0144481 0.202274 0 0 0 0 0;
   (3, 0, 2) 0 0 0.0151132 0.196472 0 0 0 0;
   (4, 0, 2) 0 0 0 0.00868399 0.191048 0 0 0;
   (5, 0, 2) 0 0 0 0 0.0449107 0.149702 0 0;
   (6, 0, 2) 0 0 0 0 0 0.0173439 0.156095 0;
   (7, 0, 2) 0 0 0 0 0 0 0.0837507 0.100501;
   (0, 1, 2) 1 0 0 0 0 0 0 0;
   (1, 1, 2) 0.0097552 0.215265 0 0 0 0 0 0;
   (2, 1, 2) 0 0.0299098 0.181675 0 0 0 0 0;
   (3, 1, 2) 0 0 0.0330576 0.154958 0 0 0 0;
   (4, 1, 2) 0 0 0 0.0450081 0.140025 0 0 0;
   (5, 1, 2) 0 0 0 0 0.0684364 0.115815 0 0;
   (6, 1, 2) 0 0 0 0 0 0.0677518 0.100155 0;
   (7, 1, 2) 0 0 0 0 0 0 0.14501 0.0228964;
   (0, 2, 2) 1 0 0 0 0 0 0 0;
   (1, 2, 2) 0.0357451 0.197876 0 0 0 0 0 0;
   (2, 2, 2) 0 0.0688493 0.152704 0 0 0 0 0;
   (3, 2, 2) 0 0 0.113573 0.0959966 0 0 0 0;
   (4, 2, 2) 0 0 0.00264243 0.144013 0.0594548 0 0 0;
   (5, 2, 2) 0 0 0 0.00972818 0.140086 0.0389128 0 0;
   (6, 2, 2) 0 0 0 0 0.0487756 0.108807 0.0225119 0;
   (7, 2, 2) 0 0 0 0 0 0.0232663 0.139598 0;
   (0, 3, 2) 1 0 0 0 0 0 0 0;
   (1, 3, 2) 0.134314 0.121807 0 0 0 0 0 0;
   (2, 3, 2) 0.00312204 0.197729 0.0280982 0 0 0 0 0;
   (3, 3, 2) 0 0.0613158 0.145064 0.00598203 0 0 0 0;
   (4, 3, 2) 0 0.0172943 0.124205 0.0565996 0 0 0 0;
   (5, 3, 2) 0 0.00296114 0.0266503 0.118446 0.0384949 0 0 0;
   (6, 3, 2) 0 0 0 0.0492579 0.11083 0 0 0;
   (7, 3, 2) 0.00857979 0.00857979 0.00857979 0.00857979 0.00857979 0.00857979 0.00857979 0.00857979;
   (0, 4, 2) 1 0 0 0 0 0 0 0;
   (1, 4, 2) 0.221776 0.0169665 0 0 0 0 0 0;
   (2, 4, 2) 0.055397 0.149331 0 0 0 0 0 0;
   (3, 4, 2) 0 1 0 0 0 0 0 0;
   (4, 4, 2) 0 0 1 0 0 0 0 0;
   (5, 4, 2) 0.00582154 0.00582154 0.00582154 0.00582154 0.00582154 0.00582154 0 0;
   (6, 4, 2) 0.00498988 0.00498988 0.00498988 0.00498988 0.00498988 0.00498988 0.00498988 0;
   (7, 4, 2) 0 0 0 0 0 0 0 0;
}
probability (lo_4 | lo_3, km_3, temp_3) {
   (0, 0, 0) 1 0 0 0 0 0 0 0;
   (1, 0, 0) 0 1 0 0 0 0 0 0;
   (2, 0, 0) 0 0.0178522 0.238029 0 0 0 0 0;
   (3, 0, 0) 0 0 0 1 0 0 0 0;
   (4, 0, 0) 0 0 0 0.0208622 0.198191 0 0 0;
   (5, 0, 0) 0 0 0 0 0.0193566 0.212923 0 0;
   (6, 0, 0) 0 0 0 0 0 0 1 0;
   (7, 0, 0) 0 0 0 0 0 0 0.0219375 0.197437;
   (0, 1, 0) 1 0 0 0 0 0 0 0;
   (1, 1, 0) 0.00784585 0.217722 0 0 0 0 0 0;
   (2, 1, 0) 0 0.0131598 0.213481 0 0 0 0 0;
   (3, 1, 0) 0 0 0.0275653 0.190836 0 0 0 0;
   (4, 1, 0) 0 0 0 0.0224094 0.186745 0 0 0;
   (5, 1, 0) 0 0 0 0 0.0513636 0.156945 0 0;
   (6, 1, 0) 0 0 0 0 0 0.041914 0.167656 0;
   (7, 1, 0) 0 0 0 0 0 0 0.123824 0.0753709;
   (0, 2, 0) 1 0 0 0 0 0 0 0;
   (1, 2, 0) 0.0201171 0.224945 0 0 0 0 0 0;
   (2, 2, 0) 0 0.0539793 0.174469 0 0 0 0 0;
   (3, 2, 0) 0 0 0.0935391 0.133627 0 0 0 0;
   (4, 2, 0) 0 0 0 0.112891 0.108053 0 0 0;
   (5, 2, 0) 0 0 0 0.0040652 0.130086 0.0874017 0 0;
   (6, 2, 0) 0 0 0 0 0.00257676 0.144299 0.0669958 0;
   (7, 2, 0) 0 0 0 0 0 0 0.175225 0.0175225;
   (0, 3, 0) 1 0 0 0 0 0 0 0;
   (1, 3, 0) 0.0906319 0.170388 0 0 0 0 0 0;
   (2, 3, 0) 0 0.181872 0.0661352 0 0 0 0 0;
   (3, 3, 0) 0 0.0237536 0.185837 0.0293427 0 0 0 0;
   (4, 3, 0) 0 0 0.0762331 0.146114 0.00635277 0 0 0;
   (5, 3, 0) 0 0 0.00828165 0.074535 0.132507 0 0 0;
   (6, 3, 0) 0 0 0 0 0.146241 0.0438721 0 0;
   (7, 3, 0) 0.013323 0.013323 0.013323 0.013323 0.013323 0.013323 0.013323 0.013323;
   (0, 4, 0) 1 0 0 0 0 0 0 0;
   (1, 4, 0) 0.202598 0.0591437 0 0 0 0 0 0;
   (2, 4, 0) 0.013478 0.215648 0.00269559 0 0 0 0 0;
   (3, 4, 0) 0 0.112226 0.084169 0 0 0 0 0;
   (4, 4, 0) 0.0323 0.0323 0.0323 0.0323 0.0323 0 0 0;
   (5, 4, 0) 0.017764 0.017764 0.017764 0.017764 0.017764 0.017764 0 0;
   (6, 4, 0) 0.00782758 0.00782758 0.00782758 0.00782758 0.00782758 0.00782758 0.00782758 0;
   (7, 4, 0) 0 0 0 0 0 0 0 0;
   (0, 0, 1) 1 0 0 0 0 0 0 0;
   (1, 0, 1) 0.00755267 0.264343 0 0 0 0 0 0;
   (2, 0, 1) 0 0.0227629 0.235217 0 0 0 0 0;
   (3, 0, 1) 0 0 0.0216689 0.216689 0 0 0 0;
   (4, 0, 1) 0 0 0 0.00585958 0.234384 0 0 0;
   (5, 0, 1) 0 0 0 0 0.032603 0.203769 0 0;
   (6, 0, 1) 0 0 0 0 0 0.0257587 0.21122 0;
   (7, 0, 1) 0 0 0 0 0 0 0.0949478 0.146738;
   (0, 1, 1) 1 0 0 0 0 0 0 0;
   (1, 1, 1) 0.0095319 0.228437 0 0 0 0 0 0;
   (2, 1, 1) 0 0.0213814 0.21067 0 0 0 0 0;
   (3, 1, 1) 0 0 0.023521 0.189978 0 0 0 0;
   (4, 1, 1) 0 0 0 0.0399964 0.169985 0 0 0;
   (5, 1, 1) 0 0 0 0 0.047194 0.160685 0 0;
   (6, 1, 1) 0 0 0 0 0 0.0524958 0.156238 0;
   (7, 1, 1) 0 0 0 0 0 0 0.137698 0.0738867;
   (0, 2, 1) 1 0 0 0 0 0 0 0;
   (1, 2, 1) 0.0270274 0.215532 0 0 0 0 0 0;
   (2, 2, 1) 0 0.0721584 0.166965 0 0 0 0 0;
   (3, 2, 1) 0 0 0.0993583 0.122496 0 0 0 0;
   (4, 2, 1) 0 0 0 0.110336 0.103535 0 0 0;
   (5, 2, 1) 0 0 0 0.00283569 0.14651 0.0680564 0 0;
   (6, 2, 1) 0 0 0 0 0.0191105 0.142267 0.0477762 0;
   (7, 2, 1) 0 0 0 0 0 0.00929876 0.204573 0;
   (0, 3, 1) 1 0 0 0 0 0 0 0;
   (1, 3, 1) 0.0960799 0.162905 0 0 0 0 0 0;
   (2, 3, 1) 0 0.17908 0.058889 0 0 0 0 0;
   (3, 3, 1) 0 0.0264968 0.186802 0.0158981 0 0 0 0;
   (4, 3, 1) 0 0 0.100685 0.122616 0.00199376 0 0 0;
   (5, 3, 1) 0 0 0.00540943 0.0973697 0.111795 0.00180314 0 0;
   (6, 3, 1) 0 0 0 0.0117173 0.152325 0.0351521 0 0;
   (7, 3, 1) 0.0235908 0.0235908 0.0235908 0.0235908 0.0235908 0.0235908 0.0235908 0.0235908;
   (0, 4, 1) 1 0 0 0 0 0 0 0;
   (1, 4, 1) 0.227456 0.0363681 0 0 0 0 0 0;
   (2, 4, 1) 0.0122896 0.222749 0.0015362 0 0 0 0 0;
   (3, 4, 1) 0 0.177484 0.044371 0 0 0 0 0;
   (4, 4, 1) 0 0.0504519 0.151356 0 0 0 0 0;
   (5, 4, 1) 0.0322299 0.0322299 0.0322299 0.0322299 0.0322299 0.0322299 0 0;
   (6, 4, 1) 0.0256013 0.0256013 0.0256013 0.0256013 0.0256013 0.0256013 0.0256013 0;
   (7, 4, 1) 0.0239315 0.0239315 0.0239315 0.0239315 0.0239315 0.0239315 0.0239315 0.0239315;
   (0, 0, 2) 1 0 0 0 0 0 0 0;
   (1, 0, 2) 0 1 0 0 0 0 0 0;
   (2, 0, 2) 0 0.0144481 0.202274 0 0 0 0 0;
   (3, 0, 2) 0 0 0.0151132 0.196472 0 0 0 0;
   (4, 0, 2) 0 0 0 0.00868399 0.191048 0 0 0;
   (5, 0, 2) 0 0 0 0 0.0449107 0.149702 0 0;
   (6, 0, 2) 0 0 0 0 0 0.0173439 0.156095 0;
   (7, 0, 2) 0 0 0 0 0 0 0.0837507 0.100501;
   (0, 1, 2) 1 0 0 0 0 0 0 0;
   (1, 1, 2) 0.0097552 0.215265 0 0 0 0 0 0;
   (2, 1, 2) 0 0.0299098 0.181675 0 0 0 0 0;
   (3, 1, 2) 0 0 0.0330576 0.154958 0 0 0 0;
   (4, 1, 2) 0 0 0 0.0450081 0.140025 0 0 0;
   (5, 1, 2) 0 0 0 0 0.0684364 0.115815 0 0;
   (6, 1, 2) 0 0 0 0 0 0.0677518 0.100155 0;
   (7, 1, 2) 0 0 0 0 0 0 0.14501 0.0228964;
   (0, 2, 2) 1 0 0 0 0 0 0 0;
   (1, 2, 2) 0.0357451 0.197876 0 0 0 0 0 0;
   (2, 2, 2) 0 0.0688493 0.152704 0 0 0 0 0;
   (3, 2, 2) 0 0 0.113573 0.0959966 0 0 0 0;
   (4, 2, 2) 0 0 0.00264243 0.144013 0.0594548 0 0 0;
   (5, 2, 2) 0 0 0 0.00972818 0.140086 0.0389128 0 0;
   (6, 2, 2) 0 0 0 0 0.0487756 0.108807 0.0225119 0;
   (7, 2, 2) 0 0 0 0 0 0.0232663 0.139598 0;
   (0, 3, 2) 1 0 0 0 0 0 0 0;
   (1, 3, 2) 0.134314 0.121807 0 0 0 0 0 0;
   (2, 3, 2) 0.00312204 0.197729 0.0280982 0 0 0 0 0;
   (3, 3, 2) 0 0.0613158 0.145064 0.00598203 0 0 0 0;
   (4, 3, 2) 0 0.0172943 0.124205 0.0565996 0 0 0 0;
   (5, 3, 2) 0 0.00296114 0.0266503 0.118446 0.0384949 0 0 0;
   (6, 3, 2) 0 0 0 0.0492579 0.11083 0 0 0;
   (7, 3, 2) 0.00857979 0.00857979 0.00857979 0.00857979 0.00857979 0.00857979 0.00857979 0.00857979;
   (0, 4, 2) 1 0 0 0 0 0 0 0;
   (1, 4, 2) 0.221776 0.0169665 0 0 0 0 0 0;
   (2, 4, 2) 0.055397 0.149331 0 0 0 0 0 0;
   (3, 4, 2) 0 1 0 0 0 0 0 0;
   (4, 4, 2) 0 0 1 0 0 0 0 0;
   (5, 4, 2) 0.00582154 0.00582154 0.00582154 0.00582154 0.00582154 0.00582154 0 0;
   (6, 4, 2) 0.00498988 0.00498988 0.00498988 0.00498988 0.00498988 0.00498988 0.00498988 0;
   (7, 4, 2) 0 0 0 0 0 0 0 0;
}
probability (lo_5 | lo_4, km_4, temp_4) {
   (0, 0, 0) 1 0 0 0 0 0 0 0;
   (1, 0, 0) 0 1 0 0 0 0 0 0;
   (2, 0, 0) 0 0.0178522 0.238029 0 0 0 0 0;
   (3, 0, 0) 0 0 0 1 0 0 0 0;
   (4, 0, 0) 0 0 0 0.0208622 0.198191 0 0 0;
   (5, 0, 0) 0 0 0 0 0.0193566 0.212923 0 0;
   (6, 0, 0) 0 0 0 0 0 0 1 0;
   (7, 0, 0) 0 0 0 0 0 0 0.0219375 0.197437;
   (0, 1, 0) 1 0 0 0 0 0 0 0;
   (1, 1, 0) 0.00784585 0.217722 0 0 0 0 0 0;
   (2, 1, 0) 0 0.0131598 0.213481 0 0 0 0 0;
   (3, 1, 0) 0 0 0.0275653 0.190836 0 0 0 0;
   (4, 1, 0) 0 0 0 0.0224094 0.186745 0 0 0;
   (5, 1, 0) 0 0 0 0 0.0513636 0.156945 0 0;
   (6, 1, 0) 0 0 0 0 0 0.041914 0.167656 0;
   (7, 1, 0) 0 0 0 0 0 0 0.123824 0.0753709;
   (0, 2, 0) 1 0 0 0 0 0 0 0;
   (1, 2, 0) 0.0201171 0.224945 0 0 0 0 0 0;
   (2, 2, 0) 0 0.0539793 0.174469 0 0 0 0 0;
   (3, 2, 0) 0 0 0.0935391 0.133627 0 0 0 0;
   (4, 2, 0) 0 0 0 0.112891 0.108053 0 0 0;
   (5, 2, 0) 0 0 0 0.0040652 0.130086 0.0874017 0 0;
   (6, 2, 0) 0 0 0 0 0.00257676 0.144299 0.0669958 0;
   (7, 2, 0) 0 0 0 0 0 0 0.175225 0.0175225;
   (0, 3, 0) 1 0 0 0 0 0 0 0;
   (1, 3, 0) 0.0906319 0.170388 0 0 0 0 0 0;
   (2, 3, 0) 0 0.181872 0.0661352 0 0 0 0 0;
   (3, 3, 0) 0 0.0237536 0.185837 0.0293427 0 0 0 0;
   (4, 3, 0) 0 0 0.0762331 0.146114 0.00635277 0 0 0;
   (5, 3, 0) 0 0 0.00828165 0.074535 0.132507 0 0 0;
   (6, 3, 0) 0 0 0 0 0.146241 0.0438721 0 0;
   (7, 3, 0) 0.013323 0.013323 0.013323 0.013323 0.013323 0.013323 0.013323 0.013323;
   (0, 4, 0) 1 0 0 0 0 0 0 0;
   (1, 4, 0) 0.202598 0.0591437 0 0 0 0 0 0;
   (2, 4, 0) 0.013478 0.215648 0.00269559 0 0 0 0 0;
   (3, 4, 0) 0 0.112226 0.084169 0 0 0 0 0;
   (4, 4, 0) 0.0323 0.0323 0.0323 0.0323 0.0323 0 0 0;
   (5, 4, 0) 0.017764 0.017764 0.017764 0.017764 0.017764 0.017764 0 0;
   (6, 4, 0) 0.00782758 0.00782758 0.00782758 0.00782758 0.00782758 0.00782758 0.00782758 0;
   (7, 4, 0) 0 0 0 0 0 0 0 0;
   (0, 0, 1) 1 0 0 0 0 0 0 0;
   (1, 0, 1) 0.00755267 0.264343 0 0 0 0 0 0;
   (2, 0, 1) 0 0.0227629 0.235217 0 0 0 0 0;
   (3, 0, 1) 0 0 0.0216689 0.216689 0 0 0 0;
   (4, 0, 1) 0 0 0 0.00585958 0.234384 0 0 0;
   (5, 0, 1) 0 0 0 0 0.032603 0.203769 0 0;
   (6, 0, 1) 0 0 0 0 0 0.0257587 0.21122 0;
   (7, 0, 1) 0 0 0 0 0 0 0.0949478 0.146738;
   (0, 1, 1) 1 0 0 0 0 0 0 0;
   (1, 1, 1) 0.0095319 0.228437 0 0 0 0 0 0;
   (2, 1, 1) 0 0.0213814 0.21067 0 0 0 0 0;
   (3, 1, 1) 0 0 0.023521 0.189978 0 0 0 0;
   (4, 1, 1) 0 0 0 0.0399964 0.169985 0 0 0;
   (5, 1, 1) 0 0 0 0 0.047194 0.160685 0 0;
   (6, 1, 1) 0 0 0 0 0 0.0524958 0.156238 0;
   (7, 1, 1) 0 0 0 0 0 0 0.137698 0.0738867;
   (0, 2, 1) 1 0 0 0 0 0 0 0;
   (1, 2, 1) 0.0270274 0.215532 0 0 0 0 0 0;
   (2, 2, 1) 0 0.0721584 0.166965 0 0 0 0 0;
   (3, 2, 1) 0 0 0.0993583 0.122496 0 0 0 0;
   (4, 2, 1) 0 0 0 0.110336 0.103535 0 0 0;
   (5, 2, 1) 0 0 0 0.00283569 0.14651 0.0680564 0 0;
   (6, 2, 1) 0 0 0 0 0.0191105 0.142267 0.0477762 0;
   (7, 2, 1) 0 0 0 0 0 0.00929876 0.204573 0;
   (0, 3, 1) 1 0 0 0 0 0 0 0;
   (1, 3, 1) 0.0960799 0.162905 0 0 0 0 0 0;
   (2, 3, 1) 0 0.17908 0.058889 0 0 0 0 0;
   (3, 3, 1) 0 0.0264968 0.186802 0.0158981 0 0 0 0;
   (4, 3, 1) 0 0 0.100685 0.122616 0.00199376 0 0 0;
   (5, 3, 1) 0 0 0.00540943 0.0973697 0.111795 0.00180314 0 0;
   (6, 3, 1) 0 0 0 0.0117173 0.152325 0.0351521 0 0;
   (7, 3, 1) 0.0235908 0.0235908 0.0235908 0.0235908 0.0235908 0.0235908 0.0235908 0.0235908;
   (0, 4, 1) 1 0 0 0 0 0 0 0;
   (1, 4, 1) 0.227456 0.0363681 0 0 0 0 0 0;
   (2, 4, 1) 0.0122896 0.222749 0.0015362 0 0 0 0 0;
   (3, 4, 1) 0 0.177484 0.044371 0 0 0 0 0;
   (4, 4, 1) 0 0.0504519 0.151356 0 0 0 0 0;
   (5, 4, 1) 0.0322299 0.0322299 0.0322299 0.0322299 0.0322299 0.0322299 0 0;
   (6, 4, 1) 0.0256013 0.0256013 0.0256013 0.0256013 0.0256013 0.0256013 0.0256013 0;
   (7, 4, 1) 0.0239315 0.0239315 0.0239315 0.0239315 0.0239315 0.0239315 0.0239315 0.0239315;
   (0, 0, 2) 1 0 0 0 0 0 0 0;
   (1, 0, 2) 0 1 0 0 0 0 0 0;
   (2, 0, 2) 0 0.0144481 0.202274 0 0 0 0 0;
   (3, 0, 2) 0 0 0.0151132 0.196472 0 0 0 0;
   (4, 0, 2) 0 0 0 0.00868399 0.191048 0 0 0;
   (5, 0, 2) 0 0 0 0 0.0449107 0.149702 0 0;
   (6, 0, 2) 0 0 0 0 0 0.0173439 0.156095 0;
   (7, 0, 2) 0 0 0 0 0 0 0.0837507 0.100501;
   (0, 1, 2) 1 0 0 0 0 0 0 0;
   (1, 1, 2) 0.0097552 0.215265 0 0 0 0 0 0;
   (2, 1, 2) 0 0.0299098 0.181675 0 0 0 0 0;
   (3, 1, 2) 0 0 0.0330576 0.154958 0 0 0 0;
   (4, 1, 2) 0 0 0 0.0450081 0.140025 0 0 0;
   (5, 1, 2) 0 0 0 0 0.0684364 0.115815 0 0;
   (6, 1, 2) 0 0 0 0 0 0.0677518 0.100155 0;
   (7, 1, 2) 0 0 0 0 0 0 0.14501 0.0228964;
   (0, 2, 2) 1 0 0 0 0 0 0 0;
   (1, 2, 2) 0.0357451 0.197876 0 0 0 0 0 0;
   (2, 2, 2) 0 0.0688493 0.152704 0 0 0 0 0;
   (3, 2, 2) 0 0 0.113573 0.0959966 0 0 0 0;
   (4, 2, 2) 0 0 0.00264243 0.144013 0.0594548 0 0 0;
   (5, 2, 2) 0 0 0 0.00972818 0.140086 0.0389128 0 0;
   (6, 2, 2) 0 0 0 0 0.0487756 0.108807 0.0225119 0;
   (7, 2, 2) 0 0 0 0 0 0.0232663 0.139598 0;
   (0, 3, 2) 1 0 0 0 0 0 0 0;
   (1, 3, 2) 0.134314 0.121807 0 0 0 0 0 0;
   (2, 3, 2) 0.00312204 0.197729 0.0280982 0 0 0 0 0;
   (3, 3, 2) 0 0.0613158 0.145064 0.00598203 0 0 0 0;
   (4, 3, 2) 0 0.0172943 0.124205 0.0565996 0 0 0 0;
   (5, 3, 2) 0 0.00296114 0.0266503 0.118446 0.0384949 0 0 0;
   (6, 3, 2) 0 0 0 0.0492579 0.11083 0 0 0;
   (7, 3, 2) 0.00857979 0.00857979 0.00857979 0.00857979 0.00857979 0.00857979 0.00857979 0.00857979;
   (0, 4, 2) 1 0 0 0 0 0 0 0;
   (1, 4, 2) 0.221776 0.0169665 0 0 0 0 0 0;
   (2, 4, 2) 0.055397 0.149331 0 0 0 0 0 0;
   (3, 4, 2) 0 1 0 0 0 0 0 0;
   (4, 4, 2) 0 0 1 0 0 0 0 0;
   (5, 4, 2) 0.00582154 0.00582154 0.00582154 0.00582154 0.00582154 0.00582154 0 0;
   (6, 4, 2) 0.00498988 0.00498988 0.00498988 0.00498988 0.00498988 0.00498988 0.00498988 0;
   (7, 4, 2) 0 0 0 0 0 0 0 0;
}
probability (lo_6 | lo_5, km_5, temp_5) {
   (0, 0, 0) 1 0 0 0 0 0 0 0;
   (1, 0, 0) 0 1 0 0 0 0 0 0;
   (2, 0, 0) 0 0.0178522 0.238029 0 0 0 0 0;
   (3, 0, 0) 0 0 0 1 0 0 0 0;
   (4, 0, 0) 0 0 0 0.0208622 0.198191 0 0 0;
   (5, 0, 0) 0 0 0 0 0.0193566 0.212923 0 0;
   (6, 0, 0) 0 0 0 0 0 0 1 0;
   (7, 0, 0) 0 0 0 0 0 0 0.0219375 0.197437;
   (0, 1, 0) 1 0 0 0 0 0 0 0;
   (1, 1, 0) 0.00784585 0.217722 0 0 0 0 0 0;
   (2, 1, 0) 0 0.0131598 0.213481 0 0 0 0 0;
   (3, 1, 0) 0 0 0.0275653 0.190836 0 0 0 0;
   (4, 1, 0) 0 0 0 0.0224094 0.186745 0 0 0;
   (5, 1, 0) 0 0 0 0 0.0513636 0.156945 0 0;
   (6, 1, 0) 0 0 0 0 0 0.041914 0.167656 0;
   (7, 1, 0) 0 0 0 0 0 0 0.123824 0.0753709;
   (0, 2, 0) 1 0 0 0 0 0 0 0;
   (1, 2, 0) 0.0201171 0.224945 0 0 0 0 0 0;
   (2, 2, 0) 0 0.0539793 0.174469 0 0 0 0 0;
   (3, 2, 0) 0 0 0.0935391 0.133627 0 0 0 0;
   (4, 2, 0) 0 0 0 0.112891 0.108053 0 0 0;
   (5, 2, 0) 0 0 0 0.0040652 0.130086 0.0874017 0 0;
   (6, 2, 0) 0 0 0 0 0.00257676 0.144299 0.0669958 0;
   (7, 2, 0) 0 0 0 0 0 0 0.175225 0.0175225;
   (0, 3, 0) 1 0 0 0 0 0 0 0;
   (1, 3, 0) 0.0906319 0.170388 0 0 0 0 0 0;
   (2, 3, 0) 0 0.181872 0.0661352 0 0 0 0 0;
   (3, 3, 0) 0 0.0237536 0.185837 0.0293427 0 0 0 0;
   (4, 3, 0) 0 0 0.0762331 0.146114 0.00635277 0 0 0;
   (5, 3, 0) 0 0 0.00828165 0.074535 0.132507 0 0 0;
   (6, 3, 0) 0 0 0 0 0.146241 0.0438721 0 0;
   (7, 3, 0) 0.013323 0.013323 0.013323 0.013323 0.013323 0.013323 0.013323 0.013323;
   (0, 4, 0) 1 0 0 0 0 0 0 0;
   (1, 4, 0) 0.202598 0.0591437 0 0 0 0 0 0;
   (2, 4, 0) 0.013478 0.215648 0.00269559 0 0 0 0 0;
   (3, 4, 0) 0 0.112226 0.084169 0 0 0 0 0;
   (4, 4, 0) 0.0323 0.0323 0.0323 0.0323 0.0323 0 0 0;
   (5, 4, 0) 0.017764 0.017764 0.017764 0.017764 0.017764 0.017764 0 0;
   (6, 4, 0) 0.00782758 0.00782758 0.00782758 0.00782758 0.00782758 0.00782758 0.00782758 0;
   (7, 4, 0) 0 0 0 0 0 0 0 0;
   (0, 0, 1) 1 0 0 0 0 0 0 0;
   (1, 0, 1) 0.00755267 0.264343 0 0 0 0 0 0;
   (2, 0, 1) 0 0.0227629 0.235217 0 0 0 0 0;
   (3, 0, 1) 0 0 0.0216689 0.216689 0 0 0 0;
   (4, 0, 1) 0 0 0 0.00585958 0.234384 0 0 0;
   (5, 0, 1) 0 0 0 0 0.032603 0.203769 0 0;
   (6, 0, 1) 0 0 0 0 0 0.0257587 0.21122 0;
   (7, 0, 1) 0 0 0 0 0 0 0.0949478 0.146738;
   (0, 1, 1) 1 0 0 0 0 0 0 0;
   (1, 1, 1) 0.0095319 0.228437 0 0 0 0 0 0;
   (2, 1, 1) 0 0.0213814 0.21067 0 0 0 0 0;
   (3, 1, 1) 0 0 0.023521 0.189978 0 0 0 0;
   (4, 1, 1) 0 0 0 0.0399964 0.169985 0 0 0;
   (5, 1, 1) 0 0 0 0 0.047194 0.160685 0 0;
   (6, 1, 1) 0 0 0 0 0 0.0524958 0.156238 0;
   (7, 1, 1) 0 0 0 0 0 0 0.137698 0.0738867;
   (0, 2, 1) 1 0 0 0 0 0 0 0;
   (1, 2, 1) 0.0270274 0.215532 0 0 0 0 0 0;
   (2, 2, 1) 0 0.0721584 0.166965 0 0 0 0 0;
   (3, 2, 1) 0 0 0.0993583 0.122496 0 0 0 0;
   (4, 2, 1) 0 0 0 0.110336 0.103535 0 0 0;
   (5, 2, 1) 0 0 0 0.00283569 0.14651 0.0680564 0 0;
   (6, 2, 1) 0 0 0 0 0.0191105 0.142267 0.0477762 0;
   (7, 2, 1) 0 0 0 0 0 0.00929876 0.204573 0;
   (0, 3, 1) 1 0 0 0 0 0 0 0;
   (1, 3, 1) 0.0960799 0.162905 0 0 0 0 0 0;
   (2, 3, 1) 0 0.17908 0.058889 0 0 0 0 0;
   (3, 3, 1) 0 0.0264968 0.186802 0.0158981 0 0 0 0;
   (4, 3, 1) 0 0 0.100685 0.122616 0.00199376 0 0 0;
   (5, 3, 1) 0 0 0.00540943 0.0973697 0.111795 0.00180314 0 0;
   (6, 3, 1) 0 0 0 0.0117173 0.152325 0.0351521 0 0;
   (7, 3, 1) 0.0235908 0.0235908 0.0235908 0.0235908 0.0235908 0.0235908 0.0235908 0.0235908;
   (0, 4, 1) 1 0 0 0 0 0 0 0;
   (1, 4, 1) 0.227456 0.0363681 0 0 0 0 0 0;
   (2, 4, 1) 0.0122896 0.222749 0.0015362 0 0 0 0 0;
   (3, 4, 1) 0 0.177484 0.044371 0 0 0 0 0;
   (4, 4, 1) 0 0.0504519 0.151356 0 0 0 0 0;
   (5, 4, 1) 0.0322299 0.0322299 0.0322299 0.0322299 0.0322299 0.0322299 0 0;
   (6, 4, 1) 0.0256013 0.0256013 0.0256013 0.0256013 0.0256013 0.0256013 0.0256013 0;
   (7, 4, 1) 0.0239315 0.0239315 0.0239315 0.0239315 0.0239315 0.0239315 0.0239315 0.0239315;
   (0, 0, 2) 1 0 0 0 0 0 0 0;
   (1, 0, 2) 0 1 0 0 0 0 0 0;
   (2, 0, 2) 0 0.0144481 0.202274 0 0 0 0 0;
   (3, 0, 2) 0 0 0.0151132 0.196472 0 0 0 0;
   (4, 0, 2) 0 0 0 0.00868399 0.191048 0 0 0;
   (5, 0, 2) 0 0 0 0 0.0449107 0.149702 0 0;
   (6, 0, 2) 0 0 0 0 0 0.0173439 0.156095 0;
   (7, 0, 2) 0 0 0 0 0 0 0.0837507 0.100501;
   (0, 1, 2) 1 0 0 0 0 0 0 0;
   (1, 1, 2) 0.0097552 0.215265 0 0 0 0 0 0;
   (2, 1, 2) 0 0.0299098 0.181675 0 0 0 0 0;
   (3, 1, 2) 0 0 0.0330576 0.154958 0 0 0 0;
   (4, 1, 2) 0 0 0 0.0450081 0.140025 0 0 0;
   (5, 1, 2) 0 0 0 0 0.0684364 0.115815 0 0;
   (6, 1, 2) 0 0 0 0 0 0.0677518 0.100155 0;
   (7, 1, 2) 0 0 0 0 0 0 0.14501 0.0228964;
   (0, 2, 2) 1 0 0 0 0 0 0 0;
   (1, 2, 2) 0.0357451 0.197876 0 0 0 0 0 0;
   (2, 2, 2) 0 0.0688493 0.152704 0 0 0 0 0;
   (3, 2, 2) 0 0 0.113573 0.0959966 0 0 0 0;
   (4, 2, 2) 0 0 0.00264243 0.144013 0.0594548 0 0 0;
   (5, 2, 2) 0 0 0 0.00972818 0.140086 0.0389128 0 0;
   (6, 2, 2) 0 0 0 0 0.0487756 0.108807 0.0225119 0;
   (7, 2, 2) 0 0 0 0 0 0.0232663 0.139598 0;
   (0, 3, 2) 1 0 0 0 0 0 0 0;
   (1, 3, 2) 0.134314 0.121807 0 0 0 0 0 0;
   (2, 3, 2) 0.00312204 0.197729 0.0280982 0 0 0 0 0;
   (3, 3, 2) 0 0.0613158 0.145064 0.00598203 0 0 0 0;
   (4, 3, 2) 0 0.0172943 0.124205 0.0565996 0 0 0 0;
   (5, 3, 2) 0 0.00296114 0.0266503 0.118446 0.0384949 0 0 0;
   (6, 3, 2) 0 0 0 0.0492579 0.11083 0 0 0;
   (7, 3, 2) 0.00857979 0.00857979 0.00857979 0.00857979 0.00857979 0.00857979 0.00857979 0.00857979;
   (0, 4, 2) 1 0 0 0 0 0 0 0;
   (1, 4, 2) 0.221776 0.0169665 0 0 0 0 0 0;
   (2, 4, 2) 0.055397 0.149331 0 0 0 0 0 0;
   (3, 4, 2) 0 1 0 0 0 0 0 0;
   (4, 4, 2) 0 0 1 0 0 0 0 0;
   (5, 4, 2) 0.00582154 0.00582154 0.00582154 0.00582154 0.00582154 0.00582154 0 0;
   (6, 4, 2) 0.00498988 0.00498988 0.00498988 0.00498988 0.00498988 0.00498988 0.00498988 0;
   (7, 4, 2) 0 0 0 0 0 0 0 0;
}
probability (lo_7 | lo_6, km_6, temp_6) {
   (0, 0, 0) 1 0 0 0 0 0 0 0;
   (1, 0, 0) 0 1 0 0 0 0 0 0;
   (2, 0, 0) 0 0.0178522 0.238029 0 0 0 0 0;
   (3, 0, 0) 0 0 0 1 0 0 0 0;
   (4, 0, 0) 0 0 0 0.0208622 0.198191 0 0 0;
   (5, 0, 0) 0 0 0 0 0.0193566 0.212923 0 0;
   (6, 0, 0) 0 0 0 0 0 0 1 0;
   (7, 0, 0) 0 0 0 0 0 0 0.0219375 0.197437;
   (0, 1, 0) 1 0 0 0 0 0 0 0;
   (1, 1, 0) 0.00784585 0.217722 0 0 0 0 0 0;
   (2, 1, 0) 0 0.0131598 0.213481 0 0 0 0 0;
   (3, 1, 0) 0 0 0.0275653 0.190836 0 0 0 0;
   (4, 1, 0) 0 0 0 0.0224094 0.186745 0 0 0;
   (5, 1, 0) 0 0 0 0 0.0513636 0.156945 0 0;
   (6, 1, 0) 0 0 0 0 0 0.041914 0.167656 0;
   (7, 1, 0) 0 0 0 0 0 0 0.123824 0.0753709;
   (0, 2, 0) 1 0 0 0 0 0 0 0;
   (1, 2, 0) 0.0201171 0.224945 0 0 0 0 0 0;
   (2, 2, 0) 0 0.0539793 0.174469 0 0 0 0 0;
   (3, 2, 0) 0 0 0.0935391 0.133627 0 0 0 0;
   (4, 2, 0) 0 0 0 0.112891 0.108053 0 0 0;
   (5, 2, 0) 0 0 0 0.0040652 0.130086 0.0874017 0 0;
   (6, 2, 0) 0 0 0 0 0.00257676 0.144299 0.0669958 0;
   (7, 2, 0) 0 0 0 0 0 0 0.175225 0.0175225;
   (0, 3, 0) 1 0 0 0 0 0 0 0;
   (1, 3, 0) 0.0906319 0.170388 0 0 0 0 0 0;
   (2, 3, 0) 0 0.181872 0.0661352 0 0 0 0 0;
   (3, 3, 0) 0 0.0237536 0.185837 0.0293427 0 0 0 0;
   (4, 3, 0) 0 0 0.0762331 0.146114 0.00635277 0 0 0;
   (5, 3, 0) 0 0 0.00828165 0.074535 0.132507 0 0 0;
   (6, 3, 0) 0 0 0 0 0.146241 0.0438721 0 0;
   (7, 3, 0) 0.013323 0.013323 0.013323 0.013323 0.013323 0.013323 0.013323 0.013323;
   (0, 4, 0) 1 0 0 0 0 0 0 0;
   (1, 4, 0) 0.202598 0.0591437 0 0 0 0 0 0;
   (2, 4, 0) 0.013478 0.215648 0.00269559 0 0 0 0 0;
   (3, 4, 0) 0 0.112226 0.084169 0 0 0 0 0;
   (4, 4, 0) 0.0323 0.0323 0.0323 0.0323 0.0323 0 0 0;
   (5, 4, 0) 0.017764 0.017764 0.017764 0.017764 0.017764 0.017764 0 0;
   (6, 4, 0) 0.00782758 0.00782758 0.00782758 0.00782758 0.00782758 0.00782758 0.00782758 0;
   (7, 4, 0) 0 0 0 0 0 0 0 0;
   (0, 0, 1) 1 0 0 0 0 0 0 0;
   (1, 0, 1) 0.00755267 0.264343 0 0 0 0 0 0;
   (2, 0, 1) 0 0.0227629 0.235217 0 0 0 0 0;
   (3, 0, 1) 0 0 0.0216689 0.216689 0 0 0 0;
   (4, 0, 1) 0 0 0 0.00585958 0.234384 0 0 0;
   (5, 0, 1) 0 0 0 0 0.032603 0.203769 0 0;
   (6, 0, 1) 0 0 0 0 0 0.0257587 0.21122 0;
   (7, 0, 1) 0 0 0 0 0 0 0.0949478 0.146738;
   (0, 1, 1) 1 0 0 0 0 0 0 0;
   (1, 1, 1) 0.0095319 0.228437 0 0 0 0 0 0;
   (2, 1, 1) 0 0.0213814 0.21067 0 0 0 0 0;
   (3, 1, 1) 0 0 0.023521 0.189978 0 0 0 0;
   (4, 1, 1) 0 0 0 0.0399964 0.169985 0 0 0;
   (5, 1, 1) 0 0 0 0 0.047194 0.160685 0 0;
   (6, 1, 1) 0 0 0 0 0 0.0524958 0.156238 0;
   (7, 1, 1) 0 0 0 0 0 0 0.137698 0.0738867;
   (0, 2, 1) 1 0 0 0 0 0 0 0;
   (1, 2, 1) 0.0270274 0.215532 0 0 0 0 0 0;
   (2, 2, 1) 0 0.0721584 0.166965 0 0 0 0 0;
   (3, 2, 1) 0 0 0.0993583 0.122496 0 0 0 0;
   (4, 2, 1) 0 0 0 0.110336 0.103535 0 0 0;
   (5, 2, 1) 0 0 0 0.00283569 0.14651 0.0680564 0 0;
   (6, 2, 1) 0 0 0 0 0.0191105 0.142267 0.0477762 0;
   (7, 2, 1) 0 0 0 0 0 0.00929876 0.204573 0;
   (0, 3, 1) 1 0 0 0 0 0 0 0;
   (1, 3, 1) 0.0960799 0.162905 0 0 0 0 0 0;
   (2, 3, 1) 0 0.17908 0.058889 0 0 0 0 0;
   (3, 3, 1) 0 0.0264968 0.186802 0.0158981 0 0 0 0;
   (4, 3, 1) 0 0 0.100685 0.122616 0.00199376 0 0 0;
   (5, 3, 1) 0 0 0.00540943 0.0973697 0.111795 0.00180314 0 0;
   (6, 3, 1) 0 0 0 0.0117173 0.152325 0.0351521 0 0;
   (7, 3, 1) 0.0235908 0.0235908 0.0235908 0.0235908 0.0235908 0.0235908 0.0235908 0.0235908;
   (0, 4, 1) 1 0 0 0 0 0 0 0;
   (1, 4, 1) 0.227456 0.0363681 0 0 0 0 0 0;
   (2, 4, 1) 0.0122896 0.222749 0.0015362 0 0 0 0 0;
   (3, 4, 1) 0 0.177484 0.044371 0 0 0 0 0;
   (4, 4, 1) 0 0.0504519 0.151356 0 0 0 0 0;
   (5, 4, 1) 0.0322299 0.0322299 0.0322299 0.0322299 0.0322299 0.0322299 0 0;
   (6, 4, 1) 0.0256013 0.0256013 0.0256013 0.0256013 0.0256013 0.0256013 0.0256013 0;
   (7, 4, 1) 0.0239315 0.0239315 0.0239315 0.0239315 0.0239315 0.0239315 0.0239315 0.0239315;
   (0, 0, 2) 1 0 0 0 0 0 0 0;
   (1, 0, 2) 0 1 0 0 0 0 0 0;
   (2, 0, 2) 0 0.0144481 0.202274 0 0 0 0 0;
   (3, 0, 2) 0 0 0.0151132 0.196472 0 0 0 0;
   (4, 0, 2) 0 0 0 0.00868399 0.191048 0 0 0;
   (5, 0, 2) 0 0 0 0 0.0449107 0.149702 0 0;
   (6, 0, 2) 0 0 0 0 0 0.0173439 0.156095 0;
   (7, 0, 2) 0 0 0 0 0 0 0.0837507 0.100501;
   (0, 1, 2) 1 0 0 0 0 0 0 0;
   (1, 1, 2) 0.0097552 0.215265 0 0 0 0 0 0;
   (2, 1, 2) 0 0.0299098 0.181675 0 0 0 0 0;
   (3, 1, 2) 0 0 0.0330576 0.154958 0 0 0 0;
   (4, 1, 2) 0 0 0 0.0450081 0.140025 0 0 0;
   (5, 1, 2) 0 0 0 0 0.0684364 0.115815 0 0;
   (6, 1, 2) 0 0 0 0 0 0.0677518 0.100155 0;
   (7, 1, 2) 0 0 0 0 0 0 0.14501 0.0228964;
   (0, 2, 2) 1 0 0 0 0 0 0 0;
   (1, 2, 2) 0.0357451 0.197876 0 0 0 0 0 0;
   (2, 2, 2) 0 0.0688493 0.152704 0 0 0 0 0;
   (3, 2, 2) 0 0 0.113573 0.0959966 0 0 0 0;
   (4, 2, 2) 0 0 0.00264243 0.144013 0.0594548 0 0 0;
   (5, 2, 2) 0 0 0 0.00972818 0.140086 0.0389128 0 0;
   (6, 2, 2) 0 0 0 0 0.0487756 0.108807 0.0225119 0;
   (7, 2, 2) 0 0 0 0 0 0.0232663 0.139598 0;
   (0, 3, 2) 1 0 0 0 0 0 0 0;
   (1, 3, 2) 0.134314 0.121807 0 0 0 0 0 0;
   (2, 3, 2) 0.00312204 0.197729 0.0280982 0 0 0 0 0;
   (3, 3, 2) 0 0.0613158 0.145064 0.00598203 0 0 0 0;
   (4, 3, 2) 0 0.0172943 0.124205 0.0565996 0 0 0 0;
   (5, 3, 2) 0 0.00296114 0.0266503 0.118446 0.0384949 0 0 0;
   (6, 3, 2) 0 0 0 0.0492579 0.11083 0 0 0;
   (7, 3, 2) 0.00857979 0.00857979 0.00857979 0.00857979 0.00857979 0.00857979 0.00857979 0.00857979;
   (0, 4, 2) 1 0 0 0 0 0 0 0;
   (1, 4, 2) 0.221776 0.0169665 0 0 0 0 0 0;
   (2, 4, 2) 0.055397 0.149331 0 0 0 0 0 0;
   (3, 4, 2) 0 1 0 0 0 0 0 0;
   (4, 4, 2) 0 0 1 0 0 0 0 0;
   (5, 4, 2) 0.00582154 0.00582154 0.00582154 0.00582154 0.00582154 0.00582154 0 0;
   (6, 4, 2) 0.00498988 0.00498988 0.00498988 0.00498988 0.00498988 0.00498988 0.00498988 0;
   (7, 4, 2) 0 0 0 0 0 0 0 0;
}
probability (lo_8 | lo_7, km_7, temp_7) {
   (0, 0, 0) 1 0 0 0 0 0 0 0;
   (1, 0, 0) 0 1 0 0 0 0 0 0;
   (2, 0, 0) 0 0.0178522 0.238029 0 0 0 0 0;
   (3, 0, 0) 0 0 0 1 0 0 0 0;
   (4, 0, 0) 0 0 0 0.0208622 0.198191 0 0 0;
   (5, 0, 0) 0 0 0 0 0.0193566 0.212923 0 0;
   (6, 0, 0) 0 0 0 0 0 0 1 0;
   (7, 0, 0) 0 0 0 0 0 0 0.0219375 0.197437;
   (0, 1, 0) 1 0 0 0 0 0 0 0;
   (1, 1, 0) 0.00784585 0.217722 0 0 0 0 0 0;
   (2, 1, 0) 0 0.0131598 0.213481 0 0 0 0 0;
   (3, 1, 0) 0 0 0.0275653 0.190836 0 0 0 0;
   (4, 1, 0) 0 0 0 0.0224094 0.186745 0 0 0;
   (5, 1, 0) 0 0 0 0 0.0513636 0.156945 0 0;
   (6, 1, 0) 0 0 0 0 0 0.041914 0.167656 0;
   (7, 1, 0) 0 0 0 0 0 0 0.123824 0.0753709;
   (0, 2, 0) 1 0 0 0 0 0 0 0;
   (1, 2, 0) 0.0201171 0.224945 0 0 0 0 0 0;
   (2, 2, 0) 0 0.0539793 0.174469 0 0 0 0 0;
   (3, 2, 0) 0 0 0.0935391 0.133627 0 0 0 0;
   (4, 2, 0) 0 0 0 0.112891 0.108053 0 0 0;
   (5, 2, 0) 0 0 0 0.0040652 0.130086 0.0874017 0 0;
   (6, 2, 0) 0 0 0 0 0.00257676 0.144299 0.0669958 0;
   (7, 2, 0) 0 0 0 0 0 0 0.175225 0.0175225;
   (0, 3, 0) 1 0 0 0 0 0 0 0;
   (1, 3, 0) 0.0906319 0.170388 0 0 0 0 0 0;
   (2, 3, 0) 0 0.181872 0.0661352 0 0 0 0 0;
   (3, 3, 0) 0 0.0237536 0.185837 0.0293427 0 0 0 0;
   (4, 3, 0) 0 0 0.0762331 0.146114 0.00635277 0 0 0;
   (5, 3, 0) 0 0 0.00828165 0.074535 0.132507 0 0 0;
