
network aGrUM_BN {
   property version 1.0;
   property author aGrUM;
}

variable a {
   type discrete[2] {0, 1};
}

variable b {
   type discrete[2] {0, 1};
}

variable c {
   type discrete[2] {0, 1};
}

variable d {
   type discrete[4] {0, 1, 2, 3};
}

variable e {
   type discrete[3] {0, 1, 2};
}

variable f {
   type discrete[2] {0, 1};
}

variable j {
   type discrete[2] {0, 1};
}

variable k {
   type discrete[3] {0, 1, 2};
}

variable l {
   type discrete[2] {0, 1};
}

variable m {
   type discrete[2] {0, 1};
}

probability (a | f, e, k) {
   (0, 0, 0) 0.678549 0.321451;
   (1, 0, 0) 0.476965 0.523035;
   (0, 1, 0) 0.978013 0.0219869;
   (1, 1, 0) 0.644607 0.355393;
   (0, 2, 0) 0.754196 0.245804;
   (1, 2, 0) 0.511658 0.488342;
   (0, 0, 1) 0.517907 0.482093;
   (1, 0, 1) 0.484967 0.515033;
   (0, 1, 1) 0.500663 0.499337;
   (1, 1, 1) 0.165643 0.834357;
   (0, 2, 1) 0.496896 0.503104;
   (1, 2, 1) 0.804923 0.195077;
   (0, 0, 2) 0.166928 0.833072;
   (1, 0, 2) 0.64188 0.35812;
   (0, 1, 2) 0.321379 0.678621;
   (1, 1, 2) 0.425128 0.574872;
   (0, 2, 2) 0.674338 0.325662;
   (1, 2, 2) 0.470002 0.529998;
}
probability (b | e) {
   (0) 0.678549 0.321451;
   (1) 0.476965 0.523035;
   (2) 0.978013 0.0219869;
}
probability (c) {
   default 0.678549 0.321451;
}
probability (d) {
   default 0.208463 0.0987561 0.330432 0.362349;
}
probability (e | c) {
   (0) 0.326924 0.154875 0.518202;
   (1) 0.491271 0.497544 0.0111854;
}
probability (f | d, c, j) {
   (0, 0, 0) 0.678549 0.321451;
   (1, 0, 0) 0.476965 0.523035;
   (2, 0, 0) 0.978013 0.0219869;
   (3, 0, 0) 0.644607 0.355393;
   (0, 1, 0) 0.754196 0.245804;
   (1, 1, 0) 0.511658 0.488342;
   (2, 1, 0) 0.517907 0.482093;
   (3, 1, 0) 0.484967 0.515033;
   (0, 0, 1) 0.500663 0.499337;
   (1, 0, 1) 0.165643 0.834357;
   (2, 0, 1) 0.496896 0.503104;
   (3, 0, 1) 0.804923 0.195077;
   (0, 1, 1) 0.166928 0.833072;
   (1, 1, 1) 0.64188 0.35812;
   (2, 1, 1) 0.321379 0.678621;
   (3, 1, 1) 0.425128 0.574872;
}
probability (j) {
   default 0.678549 0.321451;
}
probability (k | j) {
   (0) 0.326924 0.154875 0.518202;
   (1) 0.491271 0.497544 0.0111854;
}
probability (l | k) {
   (0) 0.678549 0.321451;
   (1) 0.476965 0.523035;
   (2) 0.978013 0.0219869;
}
probability (m | l, b) {
   (0, 0) 0.678549 0.321451;
   (1, 0) 0.476965 0.523035;
   (0, 1) 0.978013 0.0219869;
   (1, 1) 0.644607 0.355393;
}

